{"learner":{"attributes":{"best_iteration":"99","best_ntree_limit":"100","scikit_learn":"{\"n_estimators\": 100, \"objective\": \"reg:squarederror\", \"max_depth\": null, \"learning_rate\": 0.1, \"verbosity\": null, \"booster\": null, \"tree_method\": null, \"gamma\": null, \"min_child_weight\": null, \"max_delta_step\": null, \"subsample\": null, \"colsample_bytree\": null, \"colsample_bylevel\": null, \"colsample_bynode\": null, \"reg_alpha\": null, \"reg_lambda\": null, \"scale_pos_weight\": null, \"base_score\": null, \"missing\": NaN, \"num_parallel_tree\": null, \"random_state\": null, \"n_jobs\": null, \"monotone_constraints\": null, \"interaction_constraints\": null, \"importance_type\": null, \"gpu_id\": null, \"validate_parameters\": null, \"predictor\": null, \"enable_categorical\": false, \"_estimator_type\": \"regressor\"}"},"feature_names":["Price","Rank"],"feature_types":["float","int"],"gradient_booster":{"model":{"gbtree_model_param":{"num_trees":"100","size_leaf_vector":"0"},"tree_info":[0,0,0,0,0,0,0,0,0,0,0,0,0,0,0,0,0,0,0,0,0,0,0,0,0,0,0,0,0,0,0,0,0,0,0,0,0,0,0,0,0,0,0,0,0,0,0,0,0,0,0,0,0,0,0,0,0,0,0,0,0,0,0,0,0,0,0,0,0,0,0,0,0,0,0,0,0,0,0,0,0,0,0,0,0,0,0,0,0,0,0,0,0,0,0,0,0,0,0,0],"trees":[{"base_weights":[2.4716894E1,7.321154E1,1.8090206E1,9.845E1,5.4058823E1,3.291111E1,1.3523334E1,3.728846E1,2.5575E1,1.6934425E1,1.1061111E1,7.25E0,2.6157894E1,1.2294118E1,9.2125E0],"categories":[],"categories_nodes":[],"categories_segments":[],"categories_sizes":[],"default_left":[true,true,true,false,false,true,true,false,true,false,true,false,false,false,false],"id":0,"left_children":[1,3,5,-1,-1,7,9,-1,11,-1,13,-1,-1,-1,-1],"loss_changes":[6.905319E4,7.245922E3,1.2685859E4,0E0,0E0,4.9142188E2,1.0725156E3,0E0,2.3986328E1,0E0,9.1881836E1,0E0,0E0,0E0,0E0],"parents":[2147483647,0,0,1,1,2,2,5,5,6,6,8,8,10,10],"right_children":[2,4,6,-1,-1,8,10,-1,12,-1,14,-1,-1,-1,-1],"split_conditions":[8.4E1,3.5E1,2.835E2,9.845E0,5.4058824E0,1.805E2,4.835E2,3.728846E0,1.855E2,1.6934426E0,6.28E2,7.25E-1,2.6157894E0,1.2294118E0,9.2125E-1],"split_indices":[1,1,1,0,0,1,1,0,1,0,1,0,0,0,0],"split_type":[0,0,0,0,0,0,0,0,0,0,0,0,0,0,0],"sum_hessian":[2.18E2,2.5E1,1.93E2,9E0,1.6E1,4.4E1,1.49E2,2.5E1,1.9E1,6E1,8.9E1,1E0,1.8E1,5E1,3.9E1],"tree_param":{"num_deleted":"0","num_feature":"2","num_nodes":"15","size_leaf_vector":"0"}},{"base_weights":[2.2364677E1,6.647696E1,1.6337442E1,9.191556E1,5.006449E1,3.041231E1,1.2366972E1,3.3703033E1,2.3590479E1,1.6432652E1,1.0465534E1,6.8875E0,2.4203947E1,1.1577072E1,8.314281E0],"categories":[],"categories_nodes":[],"categories_segments":[],"categories_sizes":[],"default_left":[true,true,true,false,false,true,true,false,true,false,true,false,false,false,false],"id":1,"left_children":[1,3,5,-1,-1,7,9,-1,11,-1,13,-1,-1,-1,-1],"loss_changes":[5.7140586E4,6.253547E3,1.0465355E4,0E0,0E0,1.4777344E2,1.0108125E3,0E0,7.489258E0,0E0,1.5960352E2,0E0,0E0,0E0,0E0],"parents":[2147483647,0,0,1,1,2,2,5,5,6,6,8,8,10,10],"right_children":[2,4,6,-1,-1,8,10,-1,12,-1,14,-1,-1,-1,-1],"split_conditions":[8.4E1,3.05E1,2.655E2,9.191556E0,5.006449E0,1.805E2,4.365E2,3.3703034E0,1.855E2,1.6432651E0,6.28E2,6.8874997E-1,2.4203947E0,1.1577072E0,8.314282E-1],"split_indices":[1,1,1,0,0,1,1,0,1,0,1,0,0,0,0],"split_type":[0,0,0,0,0,0,0,0,0,0,0,0,0,0,0],"sum_hessian":[2.18E2,2.5E1,1.93E2,8E0,1.7E1,4.1E1,1.52E2,2.5E1,1.6E1,4.6E1,1.06E2,1E0,1.5E1,6.7E1,3.9E1],"tree_param":{"num_deleted":"0","num_feature":"2","num_nodes":"15","size_leaf_vector":"0"}},{"base_weights":[2.0239214E1,6.037534E1,1.475582E1,7.854428E1,4.181516E1,2.6484947E1,1.0825522E1,3.0462355E1,2.0837227E1,1.2928868E1,8.454968E0,1.5504019E1,1.1592622E1,9.107972E0,6.949348E0],"categories":[],"categories_nodes":[],"categories_segments":[],"categories_sizes":[],"default_left":[true,true,true,false,false,true,true,false,false,true,true,false,false,false,false],"id":2,"left_children":[1,3,5,-1,-1,7,9,-1,-1,11,13,-1,-1,-1,-1],"loss_changes":[4.730711E4,5.4833438E3,8.656488E3,0E0,0E0,4.4348828E2,6.236426E2,0E0,0E0,8.178613E1,7.4936523E0,0E0,0E0,0E0,0E0],"parents":[2147483647,0,0,1,1,2,2,5,5,6,6,9,9,10,10],"right_children":[2,4,6,-1,-1,8,10,-1,-1,12,14,-1,-1,-1,-1],"split_conditions":[8.4E1,4.05E1,2.975E2,7.8544283E0,4.181516E0,1.805E2,5.325E2,3.0462356E0,2.0837228E0,3.79E2,6.75E2,1.5504019E0,1.1592622E0,9.1079724E-1,6.949348E-1],"split_indices":[1,1,1,0,0,1,1,0,0,1,1,0,0,0,0],"split_type":[0,0,0,0,0,0,0,0,0,0,0,0,0,0,0],"sum_hessian":[2.18E2,2.5E1,1.93E2,1.1E1,1.4E1,4.7E1,1.46E2,2.5E1,2.2E1,7.5E1,7.1E1,2.2E1,5.3E1,4.6E1,2.5E1],"tree_param":{"num_deleted":"0","num_feature":"2","num_nodes":"15","size_leaf_vector":"0"}},{"base_weights":[1.8313381E1,6.0619095E1,1.3991242E1,7.903289E1,4.4624523E1,2.6614044E1,1.0154855E1,2.9419767E1,2.0097233E1,1.4377792E1,8.756506E0,9.984183E0,7.146405E0],"categories":[],"categories_nodes":[],"categories_segments":[],"categories_sizes":[],"default_left":[true,true,true,false,false,true,true,false,false,false,true,false,false],"id":3,"left_children":[1,3,5,-1,-1,7,9,-1,-1,-1,11,-1,-1],"loss_changes":[3.9196266E4,2.3636094E3,9.414934E3,0E0,0E0,2.4982422E2,7.8939844E2,0E0,0E0,0E0,1.6387402E2,0E0,0E0],"parents":[2147483647,0,0,1,1,2,2,5,5,6,6,10,10],"right_children":[2,4,6,-1,-1,8,10,-1,-1,-1,12,-1,-1],"split_conditions":[6.65E1,2.55E1,2.575E2,7.9032893E0,4.4624524E0,1.7E2,3.955E2,2.9419768E0,2.0097234E0,1.4377793E0,5.8E2,9.9841833E-1,7.1464056E-1],"split_indices":[1,1,1,0,0,1,1,0,0,0,1,0,0],"split_type":[0,0,0,0,0,0,0,0,0,0,0,0,0],"sum_hessian":[2.18E2,1.9E1,1.99E2,7E0,1.2E1,4.5E1,1.54E2,2.9E1,1.6E1,3.6E1,1.18E2,6.4E1,5.4E1],"tree_param":{"num_deleted":"0","num_feature":"2","num_nodes":"13","size_leaf_vector":"0"}},{"base_weights":[1.6575506E1,5.0693214E1,1.2116437E1,7.211751E1,3.835502E1,2.1313604E1,8.622967E0,2.5338194E1,1.7109179E1,1.0266115E1,6.8600554E0,7.181184E0,4.850228E0],"categories":[],"categories_nodes":[],"categories_segments":[],"categories_sizes":[],"default_left":[true,true,true,false,false,true,true,false,false,false,true,false,false],"id":4,"left_children":[1,3,5,-1,-1,7,9,-1,-1,-1,11,-1,-1],"loss_changes":[3.270295E4,3.8423594E3,6.0815703E3,0E0,0E0,4.6330273E2,3.4380566E2,0E0,0E0,0E0,1.1639404E1,0E0,0E0],"parents":[2147483647,0,0,1,1,2,2,5,5,6,6,10,10],"right_children":[2,4,6,-1,-1,8,10,-1,-1,-1,12,-1,-1],"split_conditions":[8.15E1,2.55E1,3.135E2,7.211751E0,3.835502E0,1.7E2,5.325E2,2.5338194E0,1.7109178E0,1.0266116E0,7.23E2,7.1811837E-1,4.8502278E-1],"split_indices":[1,1,1,0,0,1,1,0,0,0,1,0,0],"split_type":[0,0,0,0,0,0,0,0,0,0,0,0,0],"sum_hessian":[2.18E2,2.4E1,1.94E2,7E0,1.7E1,5.2E1,1.42E2,2.4E1,2.8E1,7.1E1,7.1E1,5.9E1,1.2E1],"tree_param":{"num_deleted":"0","num_feature":"2","num_nodes":"13","size_leaf_vector":"0"}},{"base_weights":[1.4997963E1,5.2488045E1,1.1583015E1,7.074498E1,4.0024227E1,2.21172E1,8.246086E0,2.4359467E1,1.6595453E1,1.2187444E1,7.202661E0,8.195102E0,5.7905536E0],"categories":[],"categories_nodes":[],"categories_segments":[],"categories_sizes":[],"default_left":[true,true,true,false,false,true,true,false,false,false,true,false,false],"id":5,"left_children":[1,3,5,-1,-1,7,9,-1,-1,-1,11,-1,-1],"loss_changes":[2.7429875E4,1.2644062E3,6.918287E3,0E0,0E0,1.9004297E2,5.496572E2,0E0,0E0,0E0,1.2772461E2,0E0,0E0],"parents":[2147483647,0,0,1,1,2,2,5,5,6,6,10,10],"right_children":[2,4,6,-1,-1,8,10,-1,-1,-1,12,-1,-1],"split_conditions":[5.8E1,1.75E1,2.575E2,7.074498E0,4.002423E0,1.7E2,3.79E2,2.4359467E0,1.6595453E0,1.2187444E0,5.8E2,8.1951016E-1,5.7905537E-1],"split_indices":[1,1,1,0,0,1,1,0,0,0,1,0,0],"split_type":[0,0,0,0,0,0,0,0,0,0,0,0,0],"sum_hessian":[2.18E2,1.7E1,2.01E2,5E0,1.2E1,4.7E1,1.54E2,3.1E1,1.6E1,3E1,1.24E2,7E1,5.4E1],"tree_param":{"num_deleted":"0","num_feature":"2","num_nodes":"13","size_leaf_vector":"0"}},{"base_weights":[1.3579398E1,5.143773E1,1.0743035E1,6.753558E1,3.9444366E1,2.0575998E1,7.438364E0,2.2680168E1,1.5033528E1,1.0637006E1,6.381321E0,7.0627475E0,4.8589354E0],"categories":[],"categories_nodes":[],"categories_segments":[],"categories_sizes":[],"default_left":[true,true,true,false,false,true,true,false,false,false,true,false,false],"id":6,"left_children":[1,3,5,-1,-1,7,9,-1,-1,-1,11,-1,-1],"loss_changes":[2.2963613E4,2.3211328E2,6.5083633E3,0E0,0E0,2.538164E2,4.561914E2,0E0,0E0,0E0,8.9132324E1,0E0,0E0],"parents":[2147483647,0,0,1,1,2,2,5,5,6,6,10,10],"right_children":[2,4,6,-1,-1,8,10,-1,-1,-1,12,-1,-1],"split_conditions":[4.9E1,1.35E1,2.575E2,6.7535586E0,3.9444368E0,1.7E2,3.955E2,2.2680168E0,1.5033529E0,1.0637006E0,6.28E2,7.0627475E-1,4.8589355E-1],"split_indices":[1,1,1,0,0,1,1,0,0,0,1,0,0],"split_type":[0,0,0,0,0,0,0,0,0,0,0,0,0],"sum_hessian":[2.18E2,1.4E1,2.04E2,4E0,1E1,5E1,1.54E2,3.4E1,1.6E1,3.6E1,1.18E2,7.9E1,3.9E1],"tree_param":{"num_deleted":"0","num_feature":"2","num_nodes":"13","size_leaf_vector":"0"}},{"base_weights":[1.229783E1,4.2046455E1,9.261477E0,5.968979E1,3.2186024E1,1.7660606E1,6.709081E0,1.9362387E1,1.36186075E1,1.038489E1,5.9223113E0,6.739908E0,4.684863E0,4.9584694E0,3.4194841E0],"categories":[],"categories_nodes":[],"categories_segments":[],"categories_sizes":[],"default_left":[true,true,true,false,false,true,true,false,false,false,true,false,true,false,false],"id":7,"left_children":[1,3,5,-1,-1,7,9,-1,-1,-1,11,-1,13,-1,-1],"loss_changes":[1.9392262E4,1.5582422E3,4.1690938E3,0E0,0E0,5.2726562E1,3.8675977E2,0E0,0E0,0E0,9.9950195E1,0E0,2.0864258E0,0E0,0E0],"parents":[2147483647,0,0,1,1,2,2,5,5,6,6,10,10,12,12],"right_children":[2,4,6,-1,-1,8,10,-1,-1,-1,12,-1,14,-1,-1],"split_conditions":[6.65E1,1.75E1,2.575E2,5.968979E0,3.2186024E0,1.7E2,3.665E2,1.9362386E0,1.3618608E0,1.038489E0,5.8E2,6.7399085E-1,7.23E2,4.9584696E-1,3.4194842E-1],"split_indices":[1,1,1,0,0,1,1,0,0,0,1,0,1,0,0],"split_type":[0,0,0,0,0,0,0,0,0,0,0,0,0,0,0],"sum_hessian":[2.18E2,1.9E1,1.99E2,5E0,1.4E1,4.5E1,1.54E2,2.9E1,1.6E1,2.5E1,1.29E2,7.5E1,5.4E1,4.2E1,1.2E1],"tree_param":{"num_deleted":"0","num_feature":"2","num_nodes":"15","size_leaf_vector":"0"}},{"base_weights":[1.11367035E1,4.3086338E1,8.7446E0,6.102271E1,3.3517017E1,1.6748549E1,6.0546265E0,1.9205202E1,1.342542E1,7.8564677E0,4.768921E0,9.386342E0,6.6029625E0,5.1528664E0,3.5813358E0],"categories":[],"categories_nodes":[],"categories_segments":[],"categories_sizes":[],"default_left":[true,true,true,false,false,true,true,false,false,true,true,false,false,false,false],"id":8,"left_children":[1,3,5,-1,-1,7,9,-1,-1,11,13,-1,-1,-1,-1],"loss_changes":[1.6360703E4,5.292832E2,4.312328E3,0E0,0E0,1.5851562E2,3.2161182E2,0E0,0E0,5.883789E1,2.3950928E1,0E0,0E0,0E0,0E0],"parents":[2147483647,0,0,1,1,2,2,5,5,6,6,9,9,10,10],"right_children":[2,4,6,-1,-1,8,10,-1,-1,12,14,-1,-1,-1,-1],"split_conditions":[4.9E1,1E1,2.575E2,6.102271E0,3.3517017E0,1.41E2,4.755E2,1.9205202E0,1.342542E0,3.665E2,6.75E2,9.386342E-1,6.6029626E-1,5.152866E-1,3.5813358E-1],"split_indices":[1,1,1,0,0,1,1,0,0,1,1,0,0,0,0],"split_type":[0,0,0,0,0,0,0,0,0,0,0,0,0,0,0],"sum_hessian":[2.18E2,1.4E1,2.04E2,3E0,1.1E1,5E1,1.54E2,2.6E1,2.4E1,6.2E1,9.2E1,2.5E1,3.7E1,6.7E1,2.5E1],"tree_param":{"num_deleted":"0","num_feature":"2","num_nodes":"15","size_leaf_vector":"0"}},{"base_weights":[1.0092391E1,3.9407967E1,7.8981175E0,5.6446007E1,3.0444624E1,1.5992656E1,5.714294E0,1.9247978E1,1.3940416E1,8.968125E0,4.819336E0,5.495682E0,3.7971249E0,4.018362E0,2.7732544E0],"categories":[],"categories_nodes":[],"categories_segments":[],"categories_sizes":[],"default_left":[true,true,true,false,false,true,true,false,false,false,true,false,true,false,false],"id":9,"left_children":[1,3,5,-1,-1,7,9,-1,-1,-1,11,-1,13,-1,-1],"loss_changes":[1.3776232E4,5.722871E2,3.5324072E3,0E0,0E0,1.8945312E1,4.3144238E2,0E0,0E0,0E0,6.901001E1,0E0,1.3145752E0,0E0,0E0],"parents":[2147483647,0,0,1,1,2,2,5,5,6,6,10,10,12,12],"right_children":[2,4,6,-1,-1,8,10,-1,-1,-1,12,-1,14,-1,-1],"split_conditions":[4.9E1,1E1,2.15E2,5.644601E0,3.0444624E0,9.1E1,3.665E2,1.9247979E0,1.3940417E0,8.9681256E-1,5.8E2,5.495682E-1,7.23E2,4.0183622E-1,2.7732545E-1],"split_indices":[1,1,1,0,0,1,1,0,0,0,1,0,1,0,0],"split_type":[0,0,0,0,0,0,0,0,0,0,0,0,0,0,0],"sum_hessian":[2.18E2,1.4E1,2.04E2,3E0,1.1E1,4.2E1,1.62E2,1.3E1,2.9E1,3.3E1,1.29E2,7.5E1,5.4E1,4.2E1,1.2E1],"tree_param":{"num_deleted":"0","num_feature":"2","num_nodes":"15","size_leaf_vector":"0"}},{"base_weights":[9.147688E0,3.711786E1,7.2023964E0,5.2212555E1,2.8254528E1,1.3854691E1,4.924192E0,1.7699726E1,1.1972316E1,6.3622136E0,3.8149297E0,9.318903E0,1.3297632E1,7.62149E0,5.4084725E0,4.1189857E0,2.9080617E0,9.938794E0,1.0271072E-2],"categories":[],"categories_nodes":[],"categories_segments":[],"categories_sizes":[],"default_left":[true,true,true,false,false,true,true,false,true,true,true,true,false,false,false,false,false,false,false],"id":10,"left_children":[1,3,5,-1,-1,7,9,-1,11,13,15,17,-1,-1,-1,-1,-1,-1,-1],"loss_changes":[1.1648484E4,3.978086E2,3.0537656E3,0E0,0E0,1.6445898E2,2.2297583E2,0E0,9.711914E0,3.8046875E1,1.2838257E1,9.222327E1,0E0,0E0,0E0,0E0,0E0,0E0,0E0],"parents":[2147483647,0,0,1,1,2,2,5,5,6,6,8,8,9,9,10,10,11,11],"right_children":[2,4,6,-1,-1,8,10,-1,12,14,16,18,-1,-1,-1,-1,-1,-1,-1],"split_conditions":[4.55E1,1E1,2.575E2,5.221256E0,2.8254528E0,9.1E1,4.835E2,1.7699727E0,5.55365E2,3.665E2,6.75E2,5.30365E2,1.3297633E0,7.6214904E-1,5.4084724E-1,4.1189858E-1,2.9080617E-1,9.9387944E-1,1.0271072E-3],"split_indices":[1,1,1,0,0,1,1,0,0,1,1,0,0,0,0,0,0,0,0],"split_type":[0,0,0,0,0,0,0,0,0,0,0,0,0,0,0,0,0,0,0],"sum_hessian":[2.18E2,1.3E1,2.05E2,3E0,1E1,5.1E1,1.54E2,1.4E1,3.7E1,6.5E1,8.9E1,1.5E1,2.2E1,2.5E1,4E1,6.4E1,2.5E1,1.4E1,1E0],"tree_param":{"num_deleted":"0","num_feature":"2","num_nodes":"19","size_leaf_vector":"0"}},{"base_weights":[8.297518E0,3.398084E1,6.5117702E0,4.8296616E1,2.5685932E1,1.3286955E1,4.6429367E0,1.604775E1,1.1463657E1,7.263916E0,3.9217346E0,4.672044E0,3.2524295E0,3.4156702E0,2.2488248E0],"categories":[],"categories_nodes":[],"categories_segments":[],"categories_sizes":[],"default_left":[true,true,true,false,false,true,true,false,false,false,true,false,true,false,false],"id":11,"left_children":[1,3,5,-1,-1,7,9,-1,-1,-1,11,-1,13,-1,-1],"loss_changes":[9.822924E3,4.219297E2,2.5466182E3,0E0,0E0,3.7519043E1,2.796245E2,0E0,0E0,0E0,5.0088623E1,0E0,4.114441E0,0E0,0E0],"parents":[2147483647,0,0,1,1,2,2,5,5,6,6,10,10,12,12],"right_children":[2,4,6,-1,-1,8,10,-1,-1,-1,12,-1,14,-1,-1],"split_conditions":[4.55E1,1E1,2.15E2,4.829662E0,2.5685933E0,9.1E1,3.665E2,1.6047751E0,1.1463658E0,7.263916E-1,5.325E2,4.672044E-1,7.23E2,3.41567E-1,2.2488248E-1],"split_indices":[1,1,1,0,0,1,1,0,0,0,1,0,1,0,0],"split_type":[0,0,0,0,0,0,0,0,0,0,0,0,0,0,0],"sum_hessian":[2.18E2,1.3E1,2.05E2,3E0,1E1,4.3E1,1.62E2,1.4E1,2.9E1,3.3E1,1.29E2,5.8E1,7.1E1,5.9E1,1.2E1],"tree_param":{"num_deleted":"0","num_feature":"2","num_nodes":"15","size_leaf_vector":"0"}},{"base_weights":[7.522147E0,3.11112E1,5.882492E0,4.826611E1,2.4229874E1,1.2020785E1,4.1894407E0,8.031429E0,1.281715E1,6.5588894E0,3.5375125E0,4.212758E0,2.9350538E0,3.194115E0,2.353865E0,2.3962324E0,6.4733887E-1],"categories":[],"categories_nodes":[],"categories_segments":[],"categories_sizes":[],"default_left":[true,true,true,false,false,true,true,false,false,false,true,false,true,false,true,false,false],"id":12,"left_children":[1,3,5,-1,-1,7,9,-1,-1,-1,11,-1,13,-1,15,-1,-1],"loss_changes":[8.28745E3,4.8319727E2,2.0904834E3,0E0,0E0,3.6847168E1,2.285857E2,0E0,0E0,0E0,4.0520264E1,0E0,3.3220215E0,0E0,3.2865906E-1,0E0,0E0],"parents":[2147483647,0,0,1,1,2,2,5,5,6,6,10,10,12,12,14,14],"right_children":[2,4,6,-1,-1,8,10,-1,-1,-1,12,-1,14,-1,16,-1,-1],"split_conditions":[4.55E1,7E0,2.15E2,4.826611E0,2.4229875E0,5.13E2,3.665E2,8.0314296E-1,1.281715E0,6.55889E-1,5.325E2,4.2127582E-1,6.75E2,3.194115E-1,7.725E2,2.3962323E-1,6.4733885E-2],"split_indices":[1,1,1,0,0,0,1,0,0,0,1,0,1,0,1,0,0],"split_type":[0,0,0,0,0,0,0,0,0,0,0,0,0,0,0,0,0],"sum_hessian":[2.18E2,1.3E1,2.05E2,2E0,1.1E1,4.3E1,1.62E2,9E0,3.4E1,3.3E1,1.29E2,5.8E1,7.1E1,4.6E1,2.5E1,2.4E1,1E0],"tree_param":{"num_deleted":"0","num_feature":"2","num_nodes":"17","size_leaf_vector":"0"}},{"base_weights":[6.820322E0,2.7016136E1,5.2029037E0,4.5048367E1,2.1222363E1,9.582498E0,3.4395068E0,1.1160271E1,7.053426E0,4.400824E0,2.7817745E0,7.272071E0,1.1898987E1,1.3073931E0,7.238369E0,3.0767531E0,2.2303293E0,5.5579796E0,9.421464E0,-7.351494E-2,2.3002517E0,-1.2042828E0,6.0890827E0,2.3326852E0,6.149719E-1],"categories":[],"categories_nodes":[],"categories_segments":[],"categories_sizes":[],"default_left":[true,true,true,false,false,true,true,true,true,false,true,false,false,false,true,false,true,true,false,false,true,false,false,false,false],"id":13,"left_children":[1,3,5,-1,-1,7,9,11,13,-1,15,-1,-1,-1,17,-1,19,21,-1,-1,23,-1,-1,-1,-1],"loss_changes":[7.013092E3,7.155615E2,1.5425249E3,0E0,0E0,1.5271973E2,8.070447E1,1.1126953E1,1.7103882E1,0E0,7.777649E0,0E0,0E0,0E0,3.567859E1,0E0,5.807251E0,6.4796295E1,0E0,0E0,4.2388916E-1,0E0,0E0,0E0,0E0],"parents":[2147483647,0,0,1,1,2,2,5,5,6,6,7,7,8,8,10,10,14,14,16,16,17,17,20,20],"right_children":[2,4,6,-1,-1,8,10,12,14,-1,16,-1,-1,-1,18,-1,20,22,-1,-1,24,-1,-1,-1,-1],"split_conditions":[5.25E1,7E0,2.975E2,4.5048366E0,2.1222363E0,1.7E2,4.835E2,5.13E2,1.76E2,4.400824E-1,6.39E2,7.272071E-1,1.1898987E0,1.3073932E-1,5.81345E2,3.0767533E-1,2.18825E2,1.855E2,9.421464E-1,-7.351494E-3,7.725E2,-1.2042828E-1,6.089083E-1,2.3326853E-1,6.149719E-2],"split_indices":[1,1,1,0,0,1,1,0,1,0,1,0,0,0,0,0,0,1,0,0,1,0,0,0,0],"split_type":[0,0,0,0,0,0,0,0,0,0,0,0,0,0,0,0,0,0,0,0,0,0,0,0,0],"sum_hessian":[2.18E2,1.5E1,2.03E2,2E0,1.3E1,5.7E1,1.46E2,3.3E1,2.4E1,5.7E1,8.9E1,7E0,2.6E1,1E0,2.3E1,5.5E1,3.4E1,1.5E1,8E0,1E0,3.3E1,1E0,1.4E1,3.2E1,1E0],"tree_param":{"num_deleted":"0","num_feature":"2","num_nodes":"25","size_leaf_vector":"0"}},{"base_weights":[6.1891603E0,2.7060703E1,4.848488E0,4.204514E1,2.0513973E1,9.95436E0,3.409146E0,1.230559E1,8.368559E0,5.214486E0,2.8186069E0,6.2334833E0,9.276577E0,3.128565E0,2.0817313E0,7.0081763E0,-1.1440687E0,3.5113068E0,2.7970502E0,8.0187225E-1,2.1279905E0,1.2726474E0,-6.9839E-2,2.1539242E0,5.842233E-1],"categories":[],"categories_nodes":[],"categories_segments":[],"categories_sizes":[],"default_left":[true,true,true,false,false,true,true,false,true,false,true,true,false,true,true,false,false,false,false,true,true,false,false,false,false],"id":14,"left_children":[1,3,5,-1,-1,7,9,-1,11,-1,13,15,-1,17,19,-1,-1,-1,-1,21,23,-1,-1,-1,-1],"loss_changes":[5.996833E3,4.127744E2,1.4873271E3,0E0,0E0,6.480615E1,1.5908044E2,0E0,3.3520508E-1,0E0,2.2037231E1,7.66019E1,0E0,1.0908203E0,6.6181946E-1,0E0,0E0,0E0,0E0,1.3200204E0,2.6298523E-1,0E0,0E0,0E0,0E0],"parents":[2147483647,0,0,1,1,2,2,5,5,6,6,8,8,10,10,11,11,13,13,14,14,19,19,20,20],"right_children":[2,4,6,-1,-1,8,10,-1,12,-1,14,16,-1,18,20,-1,-1,-1,-1,22,24,-1,-1,-1,-1],"split_conditions":[4.3E1,7E0,2.15E2,4.204514E0,2.0513973E0,9.1E1,3.79E2,1.230559E0,5.55365E2,5.214486E-1,6.28E2,5.30365E2,9.276577E-1,4.835E2,2.18825E2,7.0081764E-1,-1.14406876E-1,3.511307E-1,2.7970502E-1,1.68575E2,7.725E2,1.2726474E-1,-6.9839E-3,2.1539243E-1,5.8422327E-2],"split_indices":[1,1,1,0,0,1,1,0,0,0,1,0,0,1,0,0,0,0,0,0,1,0,0,0,0],"split_type":[0,0,0,0,0,0,0,0,0,0,0,0,0,0,0,0,0,0,0,0,0,0,0,0,0],"sum_hessian":[2.18E2,1.2E1,2.06E2,2E0,1E1,4.4E1,1.62E2,1.5E1,2.9E1,3.8E1,1.24E2,1.1E1,1.8E1,8.5E1,3.9E1,1E1,1E0,3.5E1,5E1,2E0,3.7E1,1E0,1E0,3.6E1,1E0],"tree_param":{"num_deleted":"0","num_feature":"2","num_nodes":"25","size_leaf_vector":"0"}},{"base_weights":[5.618404E0,2.4835855E1,4.384369E0,3.924213E1,1.8649065E1,9.019916E0,3.0777187E0,1.1151939E1,7.582172E0,4.8703885E0,2.5851917E0,2.9549603E0,2.0272353E0,2.156223E0,1.4446424E0],"categories":[],"categories_nodes":[],"categories_segments":[],"categories_sizes":[],"default_left":[true,true,true,false,false,true,true,false,false,false,true,false,true,false,false],"id":15,"left_children":[1,3,5,-1,-1,7,9,-1,-1,-1,11,-1,13,-1,-1],"loss_changes":[5.084697E3,4.268423E2,1.2260459E3,0E0,0E0,5.3382812E1,1.31328E2,0E0,0E0,0E0,2.0830505E1,0E0,1.0181427E0,0E0,0E0],"parents":[2147483647,0,0,1,1,2,2,5,5,6,6,10,10,12,12],"right_children":[2,4,6,-1,-1,8,10,-1,-1,-1,12,-1,14,-1,-1],"split_conditions":[4.3E1,7E0,2.15E2,3.9242132E0,1.8649065E0,9.1E1,3.665E2,1.115194E0,7.582172E-1,4.8703885E-1,5.8E2,2.9549605E-1,7.23E2,2.156223E-1,1.4446424E-1],"split_indices":[1,1,1,0,0,1,1,0,0,0,1,0,1,0,0],"split_type":[0,0,0,0,0,0,0,0,0,0,0,0,0,0,0],"sum_hessian":[2.18E2,1.2E1,2.06E2,2E0,1E1,4.4E1,1.62E2,1.5E1,2.9E1,3.3E1,1.29E2,7.5E1,5.4E1,4.2E1,1.2E1],"tree_param":{"num_deleted":"0","num_feature":"2","num_nodes":"15","size_leaf_vector":"0"}},{"base_weights":[5.09677E0,2.4514505E1,4.0503974E0,4.1719494E1,1.8622057E1,8.380619E0,2.7769568E0,1.0688116E1,6.9649754E0,4.7049217E0,2.393594E0,4.9639707E0,7.7767415E0,3.0091283E0,2.0318744E0,5.681782E0,-1.4659739E0,2.8406231E0,4.646E0,2.1985898E0,1.5369369E0],"categories":[],"categories_nodes":[],"categories_segments":[],"categories_sizes":[],"default_left":[true,true,true,false,false,true,true,false,true,false,true,true,false,true,true,false,false,false,false,false,false],"id":16,"left_children":[1,3,5,-1,-1,7,9,-1,11,-1,13,15,-1,17,19,-1,-1,-1,-1,-1,-1],"loss_changes":[4.3503887E3,3.3827148E2,1.1292119E3,0E0,0E0,7.90874E1,1.09213135E2,0E0,1.337561E1,0E0,2.4611633E1,6.371515E1,0E0,3.177185E-1,4.047119E0,0E0,0E0,0E0,0E0,0E0,0E0],"parents":[2147483647,0,0,1,1,2,2,5,5,6,6,8,8,10,10,11,11,13,13,14,14],"right_children":[2,4,6,-1,-1,8,10,-1,12,-1,14,16,-1,18,20,-1,-1,-1,-1,-1,-1],"split_conditions":[3.8E1,4E0,2.15E2,4.1719494E0,1.8622057E0,8.4E1,3.31E2,1.0688117E0,5.54805E2,4.7049218E-1,4.835E2,5.30365E2,7.7767414E-1,4.7853E2,6.75E2,5.681782E-1,-1.4659739E-1,2.8406233E-1,4.646E-1,2.1985899E-1,1.5369369E-1],"split_indices":[1,1,1,0,0,1,1,0,0,0,1,0,0,0,1,0,0,0,0,0,0],"split_type":[0,0,0,0,0,0,0,0,0,0,0,0,0,0,0,0,0,0,0,0,0],"sum_hessian":[2.18E2,1E1,2.08E2,1E0,9E0,4.6E1,1.62E2,1.5E1,3.1E1,2.5E1,1.37E2,1.1E1,2E1,4.8E1,8.9E1,1E1,1E0,4.6E1,2E0,6.4E1,2.5E1],"tree_param":{"num_deleted":"0","num_feature":"2","num_nodes":"21","size_leaf_vector":"0"}},{"base_weights":[4.632275E0,2.2611614E1,3.66383E0,3.963352E1,1.6946072E1,7.5908127E0,2.5090322E0,9.490259E0,6.1981173E0,3.7377634E0,2.0233018E0,4.5027056E0,6.942687E0,4.424883E0,3.0110724E0,2.2290876E0,1.4657274E0,5.165256E0,-1.3926754E0,-2.8408766E-1,1.5255481E0,1.5471748E0,4.0593338E-1],"categories":[],"categories_nodes":[],"categories_segments":[],"categories_sizes":[],"default_left":[true,true,true,false,false,true,true,false,true,true,true,true,false,false,false,false,true,false,false,false,true,false,false],"id":17,"left_children":[1,3,5,-1,-1,7,9,-1,11,13,15,17,-1,-1,-1,-1,19,-1,-1,-1,21,-1,-1],"loss_changes":[3.7303833E3,3.8918945E2,9.2874243E2,0E0,0E0,6.551001E1,8.972107E1,0E0,6.609619E0,9.145874E0,1.0386932E1,5.406537E1,0E0,0E0,0E0,0E0,4.097023E0,0E0,0E0,0E0,1.9521332E-1,0E0,0E0],"parents":[2147483647,0,0,1,1,2,2,5,5,6,6,8,8,9,9,10,10,11,11,16,16,20,20],"right_children":[2,4,6,-1,-1,8,10,-1,12,14,16,18,-1,-1,-1,-1,20,-1,-1,-1,22,-1,-1],"split_conditions":[3.8E1,4E0,2.15E2,3.963352E0,1.6946071E0,9.1E1,3.955E2,9.490259E-1,5.55365E2,3.135E2,6.39E2,5.30365E2,6.942687E-1,4.4248828E-1,3.0110726E-1,2.2290877E-1,2.18825E2,5.165256E-1,-1.3926755E-1,-2.8408766E-2,7.725E2,1.5471749E-1,4.0593337E-2],"split_indices":[1,1,1,0,0,1,1,0,0,1,1,0,0,0,0,0,0,0,0,0,1,0,0],"split_type":[0,0,0,0,0,0,0,0,0,0,0,0,0,0,0,0,0,0,0,0,0,0,0],"sum_hessian":[2.18E2,1E1,2.08E2,1E0,9E0,4.6E1,1.62E2,1.7E1,2.9E1,4.4E1,1.18E2,1.1E1,1.8E1,2E1,2.4E1,8.4E1,3.4E1,1E1,1E0,1E0,3.3E1,3.2E1,1E0],"tree_param":{"num_deleted":"0","num_feature":"2","num_nodes":"23","size_leaf_vector":"0"}},{"base_weights":[4.209285E0,2.086481E1,3.312538E0,3.7651844E1,1.5420922E1,2.2626653E0,6.8831053E0,4.0107565E0,1.886127E0,8.796393E0,5.7113643E0,2.222521E0,1.5562415E0,2.708023E0,5.9286747E0,1.643157E0,1.0353826E0,4.4927254E0,-1.3230419E0,7.4306273E-1,1.6774942E0],"categories":[],"categories_nodes":[],"categories_segments":[],"categories_sizes":[],"default_left":[true,true,true,false,false,true,true,false,true,false,true,false,true,true,false,true,false,false,false,false,false],"id":18,"left_children":[1,3,5,-1,-1,7,9,-1,11,-1,13,-1,15,17,-1,19,-1,-1,-1,-1,-1],"loss_changes":[3.2018223E3,4.2462793E2,7.678916E2,0E0,0E0,9.972565E1,5.5128906E1,0E0,1.1633362E1,0E0,4.830078E0,0E0,1.558197E0,3.472107E1,0E0,6.079254E-1,0E0,0E0,0E0,0E0,0E0],"parents":[2147483647,0,0,1,1,2,2,5,5,6,6,8,8,10,10,12,12,13,13,15,15],"right_children":[2,4,6,-1,-1,8,10,-1,12,-1,14,-1,16,18,-1,20,-1,-1,-1,-1,-1],"split_conditions":[3.8E1,4E0,5.09E2,3.7651844E0,1.5420922E0,3.31E2,8.4E1,4.0107566E-1,5.325E2,8.796393E-1,5.47395E2,2.2225212E-1,7.23E2,5.30365E2,5.928675E-1,2.19325E2,1.0353827E-1,4.4927254E-1,-1.3230419E-1,7.430627E-2,1.6774942E-1],"split_indices":[1,1,0,0,0,1,1,0,1,0,0,0,1,0,0,0,0,0,0,0,0],"split_type":[0,0,0,0,0,0,0,0,0,0,0,0,0,0,0,0,0,0,0,0,0],"sum_hessian":[2.18E2,1E1,2.08E2,1E0,9E0,1.62E2,4.6E1,2.7E1,1.35E2,1.5E1,3.1E1,6.4E1,7.1E1,3E0,2.8E1,5.9E1,1.2E1,2E0,1E0,3E0,5.6E1],"tree_param":{"num_deleted":"0","num_feature":"2","num_nodes":"21","size_leaf_vector":"0"}},{"base_weights":[3.8251858E0,2.1052185E1,3.072256E0,3.5769253E1,1.4741396E1,6.4588656E0,2.0353472E0,8.533634E0,5.292537E0,2.8814244E0,1.5656114E0,3.7526362E0,5.865854E0,3.5758247E0,2.4094288E0,1.726337E0,1.1856519E0,4.3223104E0,-1.2568893E0,2.447617E0,5.1732635E-1,-3.070364E-1,1.238585E0,5.4393835E0,2.9069278E0,1.2558835E0,3.338678E-1],"categories":[],"categories_nodes":[],"categories_segments":[],"categories_sizes":[],"default_left":[true,true,true,false,false,true,true,false,true,true,true,true,false,false,true,false,true,true,false,false,false,false,true,false,false,false,false],"id":19,"left_children":[1,3,5,-1,-1,7,9,-1,11,13,15,17,-1,-1,19,-1,21,23,-1,-1,-1,-1,25,-1,-1,-1,-1],"loss_changes":[2.7759104E3,3.085984E2,7.278026E2,0E0,0E0,7.340881E1,6.0270325E1,0E0,8.004517E0,1.0066315E1,4.4875793E0,3.9678238E1,0E0,0E0,1.4072418E0,0E0,3.145729E0,1.5800476E0,0E0,0E0,0E0,0E0,1.1280823E-1,0E0,0E0,0E0,0E0],"parents":[2147483647,0,0,1,1,2,2,5,5,6,6,8,8,9,9,10,10,11,11,14,14,16,16,17,17,22,22],"right_children":[2,4,6,-1,-1,8,10,-1,12,14,16,18,-1,-1,20,-1,22,24,-1,-1,-1,-1,26,-1,-1,-1,-1],"split_conditions":[3.05E1,4E0,2.15E2,3.5769253E0,1.4741396E0,7.9E1,4.365E2,8.5336345E-1,5.54805E2,3.135E2,6.39E2,5.30365E2,5.865854E-1,3.5758248E-1,6.9320996E2,1.726337E-1,2.18825E2,1.355E2,-1.2568894E-1,2.447617E-1,5.1732637E-2,-3.070364E-2,7.725E2,5.4393834E-1,2.9069278E-1,1.2558834E-1,3.3386778E-2],"split_indices":[1,1,1,0,0,1,1,0,0,1,1,0,0,0,0,0,0,1,0,0,0,0,1,0,0,0,0],"split_type":[0,0,0,0,0,0,0,0,0,0,0,0,0,0,0,0,0,0,0,0,0,0,0,0,0,0,0],"sum_hessian":[2.18E2,8E0,2.1E2,1E0,7E0,4.8E1,1.62E2,1.5E1,3.3E1,5.6E1,1.06E2,1.1E1,2.2E1,2E1,3.6E1,7.2E1,3.4E1,1E1,1E0,3.5E1,1E0,1E0,3.3E1,4E0,6E0,3.2E1,1E0],"tree_param":{"num_deleted":"0","num_feature":"2","num_nodes":"27","size_leaf_vector":"0"}},{"base_weights":[3.4799044E0,1.95082E1,2.7797406E0,3.398079E1,1.3451527E1,5.856834E0,1.8376712E0,7.952665E0,4.879099E0,2.604757E0,1.4118621E0,3.4364517E0,5.3764052E0,3.2352705E0,2.1764994E0,1.5560677E0,1.0707515E0,3.9659555E0,-1.1940451E0,6.9129896E0,4.3947897E0,2.2096543E0,4.9145985E-1,-2.9168463E-1,1.1194022E0,5.0042334E0,2.6577632E0,1.1085072E0,4.522894E0,1.2389554E0,8.309737E-1],"categories":[],"categories_nodes":[],"categories_segments":[],"categories_sizes":[],"default_left":[true,true,true,false,false,true,true,false,true,true,true,true,true,false,true,false,true,true,false,false,true,false,false,false,true,false,false,false,false,false,false],"id":20,"left_children":[1,3,5,-1,-1,7,9,-1,11,13,15,17,19,-1,21,-1,23,25,-1,-1,27,-1,-1,-1,29,-1,-1,-1,-1,-1,-1],"loss_changes":[2.4034849E3,3.3180835E2,6.0089124E2,0E0,0E0,6.160742E1,4.9563538E1,0E0,7.3519287E0,8.349701E0,3.597168E0,3.415793E1,7.3272705E0,0E0,9.8114014E-1,0E0,2.6464272E0,1.6408691E0,0E0,0E0,2.5641174E0,0E0,0E0,0E0,1.4286423E-1,0E0,0E0,0E0,0E0,0E0,0E0],"parents":[2147483647,0,0,1,1,2,2,5,5,6,6,8,8,9,9,10,10,11,11,12,12,14,14,16,16,17,17,20,20,24,24],"right_children":[2,4,6,-1,-1,8,10,-1,12,14,16,18,20,-1,22,-1,24,26,-1,-1,28,-1,-1,-1,30,-1,-1,-1,-1,-1,-1],"split_conditions":[3.05E1,4E0,2.15E2,3.398079E0,1.3451527E0,7.35E1,4.365E2,7.952665E-1,5.54805E2,3.135E2,6.39E2,5.30365E2,5.8626E2,3.2352707E-1,6.9320996E2,1.5560678E-1,2.18825E2,1.355E2,-1.1940451E-1,6.9129896E-1,5.8785E2,2.2096543E-1,4.9145985E-2,-2.9168462E-2,7.23E2,5.004234E-1,2.6577634E-1,1.10850714E-1,4.522894E-1,1.2389554E-1,8.309737E-2],"split_indices":[1,1,1,0,0,1,1,0,0,1,1,0,0,0,0,0,0,1,0,0,0,0,0,0,1,0,0,0,0,0,0],"split_type":[0,0,0,0,0,0,0,0,0,0,0,0,0,0,0,0,0,0,0,0,0,0,0,0,0,0,0,0,0,0,0],"sum_hessian":[2.18E2,8E0,2.1E2,1E0,7E0,4.8E1,1.62E2,1.3E1,3.5E1,5.6E1,1.06E2,1.1E1,2.4E1,2E1,3.6E1,7.2E1,3.4E1,1E1,1E0,7E0,1.7E1,3.5E1,1E0,1E0,3.3E1,4E0,6E0,1E0,1.6E1,2.1E1,1.2E1],"tree_param":{"num_deleted":"0","num_feature":"2","num_nodes":"31","size_leaf_vector":"0"}},{"base_weights":[3.1701183E0,2.02322E1,2.5945094E0,3.228175E1,1.2843651E1,5.5317082E0,1.6595913E0,7.748544E0,4.483485E0,2.4870489E0,1.3327411E0,3.358877E0,4.8889422E0,2.92715E0,2.0178816E0,1.6071334E0,1.1313027E0,3.8278406E0,-1.1343431E0,6.3081026E0,3.986596E0,2.063053E0,4.6688652E-1,1.1941385E0,7.5426835E-1,4.820734E0,2.4299545E0,3.1535697E0,5.5217505E0,5.381801E-1,1.2192209E0],"categories":[],"categories_nodes":[],"categories_segments":[],"categories_sizes":[],"default_left":[true,true,true,false,false,true,true,false,true,true,true,true,true,false,true,false,true,true,false,false,true,false,false,true,false,false,false,false,false,false,false],"id":21,"left_children":[1,3,5,-1,-1,7,9,-1,11,13,15,17,19,-1,21,-1,23,25,-1,-1,27,-1,-1,29,-1,-1,-1,-1,-1,-1,-1],"loss_changes":[2.0983254E3,2.0858545E2,5.757261E2,0E0,0E0,8.377014E1,4.076953E1,0E0,4.4995117E-1,3.3849792E0,4.7593536E0,3.1735123E1,6.866455E0,0E0,7.8829956E-1,0E0,8.0506897E-1,4.9412537E0,0E0,0E0,5.6056213E0,0E0,0E0,3.3102417E-1,0E0,0E0,0E0,0E0,0E0,0E0,0E0],"parents":[2147483647,0,0,1,1,2,2,5,5,6,6,8,8,9,9,10,10,11,11,12,12,14,14,16,16,17,17,20,20,23,23],"right_children":[2,4,6,-1,-1,8,10,-1,12,14,16,18,20,-1,22,-1,24,26,-1,-1,28,-1,-1,30,-1,-1,-1,-1,-1,-1,-1],"split_conditions":[2.15E1,4E0,2.15E2,3.228175E0,1.284365E0,7.05E1,3.955E2,7.748544E-1,5.54805E2,3.135E2,5.325E2,5.30365E2,5.8626E2,2.92715E-1,6.9320996E2,1.6071334E-1,7.23E2,1.355E2,-1.13434315E-1,6.3081026E-1,1.76E2,2.063053E-1,4.6688654E-2,2.19325E2,7.542684E-2,4.820734E-1,2.4299546E-1,3.1535697E-1,5.5217505E-1,5.3818014E-2,1.2192209E-1],"split_indices":[1,1,1,0,0,1,1,0,0,1,1,0,0,0,0,0,1,1,0,0,1,0,0,0,0,0,0,0,0,0,0],"split_type":[0,0,0,0,0,0,0,0,0,0,0,0,0,0,0,0,0,0,0,0,0,0,0,0,0,0,0,0,0,0,0],"sum_hessian":[2.18E2,6E0,2.12E2,1E0,5E0,5E1,1.62E2,1.4E1,3.6E1,4.4E1,1.18E2,1.2E1,2.4E1,2E1,2.4E1,4.7E1,7.1E1,1.1E1,1E0,7E0,1.7E1,2.3E1,1E0,5.9E1,1.2E1,5E0,6E0,1.3E1,4E0,3E0,5.6E1],"tree_param":{"num_deleted":"0","num_feature":"2","num_nodes":"31","size_leaf_vector":"0"}},{"base_weights":[2.891257E0,1.8853632E1,2.353098E0,3.0667664E1,1.1773349E1,1.4962454E0,5.045527E0,2.7259643E0,1.2320662E0,7.025347E0,4.106531E0,1.4952683E0,1.0565534E0,4.3339148E0,2.2093985E0,1.1501912E0,7.998293E-1,-1.3104353E0,3.1754525E0,1.6336441E-1,1.1641482E0,4.2375884E0,1.0548325E0],"categories":[],"categories_nodes":[],"categories_segments":[],"categories_sizes":[],"default_left":[true,true,true,false,false,true,true,false,true,false,true,false,true,false,true,true,false,false,true,false,false,false,false],"id":22,"left_children":[1,3,5,-1,-1,7,9,-1,11,-1,13,-1,15,-1,17,19,-1,-1,21,-1,-1,-1,-1],"loss_changes":[1.8369105E3,2.2446582E2,4.8384473E2,0E0,0E0,4.9594604E1,6.59613E1,0E0,4.7027435E0,0E0,6.385559E0,0E0,1.1233673E0,0E0,2.4563322E1,6.362076E-1,0E0,0E0,6.7919884E0,0E0,0E0,0E0,0E0],"parents":[2147483647,0,0,1,1,2,2,5,5,6,6,8,8,10,10,12,12,14,14,15,15,18,18],"right_children":[2,4,6,-1,-1,8,10,-1,12,-1,14,-1,16,-1,18,20,-1,-1,22,-1,-1,-1,-1],"split_conditions":[2.15E1,4E0,5.09E2,3.0667665E0,1.1773349E0,3.31E2,7.05E1,2.7259645E-1,4.995E2,7.0253474E-1,7.9303503E2,1.4952683E-1,6.75E2,4.3339148E-1,7.9781E2,5.02E2,7.998293E-2,-1.3104354E-1,2.405E2,1.6336441E-2,1.1641482E-1,4.2375883E-1,1.0548325E-1],"split_indices":[1,1,0,0,0,1,1,0,1,0,0,0,1,0,0,1,0,0,1,0,0,0,0],"split_type":[0,0,0,0,0,0,0,0,0,0,0,0,0,0,0,0,0,0,0,0,0,0,0],"sum_hessian":[2.18E2,6E0,2.12E2,1E0,5E0,1.62E2,5E1,2.7E1,1.35E2,1.4E1,3.6E1,5.1E1,8.4E1,3.1E1,5E0,5.9E1,2.5E1,1E0,4E0,1E0,5.8E1,2E0,2E0],"tree_param":{"num_deleted":"0","num_feature":"2","num_nodes":"23","size_leaf_vector":"0"}},{"base_weights":[2.6314147E0,1.7574566E1,2.1279712E0,2.9134281E1,1.0792233E1,4.8594775E0,1.4286568E0,6.576344E0,3.982744E0,1.2548604E0,3.2880263E0,4.5260296E0,2.8823466E0,1.739038E0,1.0009333E0,-1.2449131E0,3.7324765E0,2.82226E0,5.2847066E0,6.787071E-1,3.0094242E0,1.8222626E0,-1.294322E0,1.077814E0,7.229228E-1,3.3248265E0,8.763733E-1,2.2586105E0,1.4538138E0,6.8813527E-1,1.1053764E0,7.36006E-1,1.979208E-1],"categories":[],"categories_nodes":[],"categories_segments":[],"categories_sizes":[],"default_left":[true,true,true,false,false,true,true,false,true,true,true,true,true,true,true,false,false,true,false,false,false,true,false,true,true,false,false,false,false,false,false,false,false],"id":23,"left_children":[1,3,5,-1,-1,7,9,-1,11,13,15,17,19,21,23,-1,-1,25,-1,-1,-1,27,-1,29,31,-1,-1,-1,-1,-1,-1,-1,-1],"loss_changes":[1.610146E3,2.3438892E2,3.999262E2,0E0,0E0,3.8533203E1,5.1132935E1,0E0,5.4871826E0,1.7684784E1,3.285193E1,9.644775E0,1.5979233E0,1.5738464E1,1.4864273E0,0E0,0E0,4.9097137E0,0E0,0E0,0E0,5.076538E0,0E0,1.0932922E-1,3.291607E-2,0E0,0E0,0E0,0E0,0E0,0E0,0E0,0E0],"parents":[2147483647,0,0,1,1,2,2,5,5,6,6,8,8,9,9,10,10,11,11,12,12,13,13,14,14,17,17,21,21,23,23,24,24],"right_children":[2,4,6,-1,-1,8,10,-1,12,14,16,18,20,22,24,-1,-1,26,-1,-1,-1,28,-1,30,32,-1,-1,-1,-1,-1,-1,-1,-1],"split_conditions":[2.15E1,4E0,1.7E2,2.913428E0,1.0792234E0,6.2E1,5.47395E2,6.5763444E-1,5.8626E2,4.365E2,1.76E2,5.13E2,5.8785E2,4.76865E2,6.75E2,-1.2449131E-1,3.7324765E-1,1.48E2,5.284707E-1,6.7870714E-2,3.0094242E-1,3.31E2,-1.294322E-1,2.18825E2,7.725E2,3.3248267E-1,8.763733E-2,2.2586106E-1,1.4538138E-1,6.8813525E-2,1.1053764E-1,7.3600605E-2,1.979208E-2],"split_indices":[1,1,1,0,0,1,0,0,0,1,1,0,0,0,1,0,0,1,0,0,0,1,0,0,1,0,0,0,0,0,0,0,0],"split_type":[0,0,0,0,0,0,0,0,0,0,0,0,0,0,0,0,0,0,0,0,0,0,0,0,0,0,0,0,0,0,0,0,0],"sum_hessian":[2.18E2,6E0,2.12E2,1E0,5E0,4.2E1,1.7E2,1.2E1,3E1,1.57E2,1.3E1,1.8E1,1.2E1,5.2E1,1.05E2,1E0,1.2E1,7E0,1.1E1,1E0,1.1E1,5.1E1,1E0,8E1,2.5E1,5E0,2E0,2.1E1,3E1,7E0,7.3E1,2.4E1,1E0],"tree_param":{"num_deleted":"0","num_feature":"2","num_nodes":"33","size_leaf_vector":"0"}},{"base_weights":[2.3990085E0,2.1078377E1,2.041988E0,2.7677567E1,9.652791E0,4.7920823E0,1.2902551E0,7.411115E0,3.8587086E0,1.1326312E0,2.9769921E0,1.5696968E0,9.0341306E-1,-1.1826677E0,3.3879404E0,1.6471758E0,-1.2296057E0,9.7224694E-1,6.5422237E-1,4.438552E0,2.4278295E0,2.0430162E0,1.3131222E0,6.279236E-1,9.9633265E-1,6.653493E-1,1.8802476E-1,7.9307365E-1,3.1130283E0],"categories":[],"categories_nodes":[],"categories_segments":[],"categories_sizes":[],"default_left":[true,true,true,false,false,true,true,false,false,true,true,true,true,false,true,true,false,true,true,false,true,false,false,false,false,false,false,false,false],"id":24,"left_children":[1,3,5,-1,-1,7,9,-1,-1,11,13,15,17,-1,19,21,-1,23,25,-1,27,-1,-1,-1,-1,-1,-1,-1,-1],"loss_changes":[1.417452E3,3.4432617E1,4.4036157E2,0E0,0E0,8.385132E1,4.209195E1,0E0,0E0,1.4410889E1,2.7938477E1,1.3520401E1,1.1821289E0,0E0,2.3370972E0,4.193329E0,0E0,4.612732E-2,9.768486E-3,0E0,7.6123314E0,0E0,0E0,0E0,0E0,0E0,0E0,0E0,0E0],"parents":[2147483647,0,0,1,1,2,2,5,5,6,6,9,9,10,10,11,11,12,12,14,14,15,15,17,17,18,18,20,20],"right_children":[2,4,6,-1,-1,8,10,-1,-1,12,14,16,18,-1,20,22,-1,24,26,-1,28,-1,-1,-1,-1,-1,-1,-1,-1],"split_conditions":[1E1,6.1605E2,1.7E2,2.7677567E0,9.652791E-1,4.55E1,5.47395E2,7.411115E-1,3.8587087E-1,4.365E2,1.76E2,4.76865E2,6.75E2,-1.18266776E-1,2.235E2,3.31E2,-1.2296057E-1,2.18825E2,7.725E2,4.438552E-1,2.53E2,2.0430163E-1,1.3131222E-1,6.279236E-2,9.963327E-2,6.653493E-2,1.8802477E-2,7.930737E-2,3.1130284E-1],"split_indices":[1,0,1,0,0,1,0,0,0,1,1,0,1,0,1,1,0,0,1,0,1,0,0,0,0,0,0,0,0],"split_type":[0,0,0,0,0,0,0,0,0,0,0,0,0,0,0,0,0,0,0,0,0,0,0,0,0,0,0,0,0],"sum_hessian":[2.18E2,3E0,2.15E2,1E0,2E0,4.5E1,1.7E2,1E1,3.5E1,1.57E2,1.3E1,5.2E1,1.05E2,1E0,1.2E1,5.1E1,1E0,8E1,2.5E1,4E0,8E0,2.1E1,3E1,7E0,7.3E1,2.4E1,1E0,3E0,5E0],"tree_param":{"num_deleted":"0","num_feature":"2","num_nodes":"29","size_leaf_vector":"0"}},{"base_weights":[2.1866722E0,1.9903797E1,1.8484538E0,2.6293686E1,9.009273E0,4.337373E0,1.1681104E0,6.271874E0,3.2950325E0,1.022282E0,2.7304502E0,3.7989612E0,2.2662935E0,1.4167395E0,8.154091E-1,-1.1235342E0,3.113336E0,2.2549114E0,4.456918E0,1.1626427E0,2.6276224E0,1.4889123E0,-1.1681252E0,8.931711E-1,6.3214433E-1,3.477342E0,1.4249878E0,2.726199E0,5.6069946E-1,1.8480008E0,1.186046E0,-4.2802E-1,6.7591447E-1,1.7756152E0,3.9529939E0,4.852581E-2,1.8676332E0],"categories":[],"categories_nodes":[],"categories_segments":[],"categories_sizes":[],"default_left":[true,true,true,false,false,true,true,false,true,true,true,true,true,true,true,false,true,true,false,false,false,true,false,false,true,true,true,false,false,false,false,false,false,false,false,false,false],"id":25,"left_children":[1,3,5,-1,-1,7,9,-1,11,13,15,17,19,21,23,-1,25,27,-1,-1,-1,29,-1,-1,31,33,35,-1,-1,-1,-1,-1,-1,-1,-1,-1,-1],"loss_changes":[1.2755131E3,4.1572266E1,3.606905E2,0E0,0E0,7.2088806E1,3.6168198E1,0E0,7.979553E0,1.1737991E1,2.4156853E1,1.0268402E1,2.1291656E0,1.1626762E1,9.459915E-1,0E0,3.0342255E0,4.859108E0,0E0,0E0,0E0,3.4634933E0,0E0,0E0,1.9134293E0,1.0753021E0,2.346509E0,0E0,0E0,0E0,0E0,0E0,0E0,0E0,0E0,0E0,0E0],"parents":[2147483647,0,0,1,1,2,2,5,5,6,6,8,8,9,9,10,10,11,11,12,12,13,13,14,14,16,16,17,17,21,21,24,24,25,25,26,26],"right_children":[2,4,6,-1,-1,8,10,-1,12,14,16,18,20,22,24,-1,26,28,-1,-1,-1,30,-1,-1,32,34,36,-1,-1,-1,-1,-1,-1,-1,-1,-1,-1],"split_conditions":[1E1,6.1605E2,1.7E2,2.6293685E0,9.0092725E-1,5.8E1,5.47395E2,6.2718743E-1,5.8626E2,4.365E2,1.76E2,5.13E2,5.93675E2,4.76865E2,6.39E2,-1.1235342E-1,8.04675E2,1.48E2,4.456918E-1,1.16264276E-1,2.6276225E-1,3.31E2,-1.1681252E-1,8.9317106E-2,2.18825E2,5.81345E2,8.1145E2,2.726199E-1,5.6069948E-2,1.8480007E-1,1.186046E-1,-4.2802002E-2,6.759145E-2,1.7756152E-1,3.952994E-1,4.8525813E-3,1.8676333E-1],"split_indices":[1,0,1,0,0,1,0,0,0,1,1,0,0,0,1,0,0,1,0,0,0,1,0,0,0,0,0,0,0,0,0,0,0,0,0,0,0],"split_type":[0,0,0,0,0,0,0,0,0,0,0,0,0,0,0,0,0,0,0,0,0,0,0,0,0,0,0,0,0,0,0,0,0,0,0,0,0],"sum_hessian":[2.18E2,3E0,2.15E2,1E0,2E0,4.5E1,1.7E2,1.4E1,3.1E1,1.57E2,1.3E1,1.9E1,1.2E1,5.2E1,1.05E2,1E0,1.2E1,7E0,1.2E1,4E0,8E0,5.1E1,1E0,7.1E1,3.4E1,9E0,3E0,5E0,2E0,2.1E1,3E1,1E0,3.3E1,3E0,6E0,1E0,2E0],"tree_param":{"num_deleted":"0","num_feature":"2","num_nodes":"37","size_leaf_vector":"0"}},{"base_weights":[1.9966063E0,1.8795994E1,1.676263E0,2.4979004E1,8.408656E0,3.942344E0,1.0568713E0,6.1672053E0,3.1530154E0,9.2195696E-1,2.5039854E0,2.070506E0,3.342914E0,1.2785865E0,7.3494446E-1,-1.0673571E0,2.8608084E0,2.4990146E0,5.233205E-1,4.247885E0,2.5538826E0,1.3458562E0,-1.1097193E0,7.925897E-1,5.270903E-1,3.8089356E0,2.0162034E0,1.4249039E-1,6.424904E-1,1.8162346E0,3.4535816E0,1.6359901E0,1.0387417E0,5.1134217E-1,8.122842E-1,5.365877E-1,1.448276E-1,4.9155283E-1,2.6966033E0],"categories":[],"categories_nodes":[],"categories_segments":[],"categories_sizes":[],"default_left":[true,true,true,false,false,true,true,false,true,true,true,true,true,true,true,false,true,false,true,false,true,true,false,true,true,false,true,false,false,false,false,false,false,false,false,false,false,false,false],"id":26,"left_children":[1,3,5,-1,-1,7,9,-1,11,13,15,17,19,21,23,-1,25,-1,27,-1,29,31,-1,33,35,-1,37,-1,-1,-1,-1,-1,-1,-1,-1,-1,-1,-1,-1],"loss_changes":[1.1470573E3,4.6860107E1,2.9900922E2,0E0,0E0,6.1337463E1,3.1076859E1,0E0,4.7888184E-1,9.597977E0,2.0894226E1,3.9960747E0,9.858887E0,1.0008537E1,8.5230637E-1,0E0,2.730713E0,0E0,4.460174E-2,0E0,5.6733856E0,2.9340515E0,0E0,3.330612E-2,1.668024E-2,0E0,8.010826E0,0E0,0E0,0E0,0E0,0E0,0E0,0E0,0E0,0E0,0E0,0E0,0E0],"parents":[2147483647,0,0,1,1,2,2,5,5,6,6,8,8,9,9,10,10,11,11,12,12,13,13,14,14,16,16,18,18,20,20,21,21,23,23,24,24,26,26],"right_children":[2,4,6,-1,-1,8,10,-1,12,14,16,18,20,22,24,-1,26,-1,28,-1,30,32,-1,34,36,-1,38,-1,-1,-1,-1,-1,-1,-1,-1,-1,-1,-1,-1],"split_conditions":[1E1,6.1605E2,1.7E2,2.4979005E0,8.408656E-1,4.55E1,5.47395E2,6.1672056E-1,5.13E2,4.365E2,1.76E2,1.48E2,5.8416003E2,4.76865E2,6.75E2,-1.0673571E-1,2.235E2,2.4990146E-1,4.4076E2,4.2478853E-1,5.97E2,3.475E2,-1.1097193E-1,2.18825E2,7.725E2,3.8089356E-1,2.53E2,1.4249039E-2,6.424904E-2,1.8162346E-1,3.4535816E-1,1.6359901E-1,1.0387417E-1,5.1134218E-2,8.122842E-2,5.3658772E-2,1.4482761E-2,4.9155284E-2,2.6966032E-1],"split_indices":[1,0,1,0,0,1,0,0,0,1,1,1,0,0,1,0,1,0,0,0,0,1,0,0,1,0,1,0,0,0,0,0,0,0,0,0,0,0,0],"split_type":[0,0,0,0,0,0,0,0,0,0,0,0,0,0,0,0,0,0,0,0,0,0,0,0,0,0,0,0,0,0,0,0,0,0,0,0,0,0,0],"sum_hessian":[2.18E2,3E0,2.15E2,1E0,2E0,4.5E1,1.7E2,1E1,3.5E1,1.57E2,1.3E1,7E0,2.8E1,5.2E1,1.05E2,1E0,1.2E1,5E0,2E0,1.1E1,1.7E1,5.1E1,1E0,8E1,2.5E1,4E0,8E0,1E0,1E0,1.1E1,6E0,2.4E1,2.7E1,7E0,7.3E1,2.4E1,1E0,3E0,5E0],"tree_param":{"num_deleted":"0","num_feature":"2","num_nodes":"39","size_leaf_vector":"0"}},{"base_weights":[1.8251905E0,1.7751087E1,1.5218165E0,2.3730057E1,7.8480783E0,3.5893452E0,9.5673966E-1,5.7576637E0,2.906304E0,8.320209E-1,2.2959416E0,1.9045062E0,3.0765731E0,1.1536807E0,6.6334176E-1,-1.0139894E0,2.628551E0,2.6493034E0,9.2776716E-1,3.8584948E0,2.420803E0,1.2164142E0,-1.0542336E0,6.95421E-1,3.803582E-1,2.9769807E0,1.1003389E0,1.3536644E-1,1.0920258E0,1.6497453E0,3.2747893E0,1.5154389E0,9.649641E-1,7.578706E-1,6.037279E-1,1.4953251E0,3.3983579E0,-8.873081E-2,1.5262724E0],"categories":[],"categories_nodes":[],"categories_segments":[],"categories_sizes":[],"default_left":[true,true,true,false,false,true,true,false,true,true,true,true,true,true,true,false,true,false,true,false,true,true,false,true,false,true,true,false,false,false,false,false,false,false,false,false,false,false,false],"id":27,"left_children":[1,3,5,-1,-1,7,9,-1,11,13,15,17,19,21,23,-1,25,-1,27,-1,29,31,-1,33,-1,35,37,-1,-1,-1,-1,-1,-1,-1,-1,-1,-1,-1,-1],"loss_changes":[1.0310852E3,5.060376E1,2.4892148E2,0E0,0E0,5.1394897E1,2.6650757E1,0E0,4.519348E-1,7.807373E0,1.8078117E1,3.361843E0,6.042145E0,8.623436E0,6.977463E-1,0E0,3.6464767E0,0E0,5.0296974E-1,0E0,7.1084137E0,2.447525E0,0E0,8.0718994E-2,0E0,1.161705E0,2.1612859E0,0E0,0E0,0E0,0E0,0E0,0E0,0E0,0E0,0E0,0E0,0E0,0E0],"parents":[2147483647,0,0,1,1,2,2,5,5,6,6,8,8,9,9,10,10,11,11,12,12,13,13,14,14,16,16,18,18,20,20,21,21,23,23,25,25,26,26],"right_children":[2,4,6,-1,-1,8,10,-1,12,14,16,18,20,22,24,-1,26,-1,28,-1,30,32,-1,34,-1,36,38,-1,-1,-1,-1,-1,-1,-1,-1,-1,-1,-1,-1],"split_conditions":[1E1,6.1605E2,1.7E2,2.3730056E0,7.8480786E-1,4.3E1,5.47395E2,5.757664E-1,5.13E2,4.365E2,1.76E2,1.355E2,5.8416003E2,4.76865E2,7.23E2,-1.01398945E-1,8.04675E2,2.6493034E-1,4.3876E2,3.8584948E-1,5.97E2,3.31E2,-1.0542335E-1,5.8E2,3.803582E-2,5.81345E2,8.1145E2,1.3536644E-2,1.0920258E-1,1.6497454E-1,3.2747895E-1,1.515439E-1,9.649641E-2,7.578706E-2,6.037279E-2,1.4953251E-1,3.398358E-1,-8.873082E-3,1.5262724E-1],"split_indices":[1,0,1,0,0,1,0,0,0,1,1,1,0,0,1,0,0,0,0,0,0,1,0,1,0,0,0,0,0,0,0,0,0,0,0,0,0,0,0],"split_type":[0,0,0,0,0,0,0,0,0,0,0,0,0,0,0,0,0,0,0,0,0,0,0,0,0,0,0,0,0,0,0,0,0,0,0,0,0,0,0],"sum_hessian":[2.18E2,3E0,2.15E2,1E0,2E0,4.5E1,1.7E2,9E0,3.6E1,1.57E2,1.3E1,7E0,2.9E1,5.2E1,1.05E2,1E0,1.2E1,3E0,4E0,1.1E1,1.8E1,5.1E1,1E0,9.3E1,1.2E1,9E0,3E0,1E0,3E0,1.1E1,7E0,2.1E1,3E1,5.1E1,4.2E1,3E0,6E0,1E0,2E0],"tree_param":{"num_deleted":"0","num_feature":"2","num_nodes":"39","size_leaf_vector":"0"}},{"base_weights":[1.6693751E0,1.6765434E1,1.3820899E0,2.2543556E1,7.324875E0,3.0862525E0,8.090416E-1,5.239473E0,2.5391755E0,1.0878901E0,5.707768E-1,1.9336247E0,2.7774968E0,9.9190414E-1,1.670911E0,6.010472E-1,3.4524855E-1,2.1960692E0,-1.0015221E0,3.8591907E0,2.3462737E0,1.2914689E0,8.127702E-1,2.4738455E-1,2.3414433E0,2.6697826E-1,6.2027144E-1,2.8813586E0,1.2362714E0,1.498519E0,2.9483337E0,1.395752E-1,8.766003E-1,-3.6440468E-1,1.0413761E0,3.3347306E0,2.3657925E-1,5.053228E-1,-4.623723E-1],"categories":[],"categories_nodes":[],"categories_segments":[],"categories_sizes":[],"default_left":[true,true,true,false,false,true,true,false,true,true,true,true,true,true,true,true,false,true,false,false,true,false,true,true,true,true,false,false,false,false,false,false,false,false,false,false,false,false,false],"id":28,"left_children":[1,3,5,-1,-1,7,9,-1,11,13,15,17,19,21,23,25,-1,27,-1,-1,29,-1,31,33,35,37,-1,-1,-1,-1,-1,-1,-1,-1,-1,-1,-1,-1,-1],"loss_changes":[9.2660425E2,5.3066162E1,2.0844162E2,0E0,0E0,5.0306824E1,1.0208748E1,0E0,1.1235657E0,2.4837875E0,4.0690422E-1,1.45244255E1,4.9388275E0,2.492035E0,8.011448E0,3.3533287E-1,0E0,6.303955E0,0E0,0E0,7.8314514E0,0E0,1.7683334E0,2.3225043E0,1.1755478E1,1.2766677E0,0E0,0E0,0E0,0E0,0E0,0E0,0E0,0E0,0E0,0E0,0E0,0E0,0E0],"parents":[2147483647,0,0,1,1,2,2,5,5,6,6,8,8,9,9,10,10,11,11,12,12,13,13,14,14,15,15,17,17,20,20,22,22,23,23,24,24,25,25],"right_children":[2,4,6,-1,-1,8,10,-1,12,14,16,18,20,22,24,26,-1,28,-1,-1,30,-1,32,34,36,38,-1,-1,-1,-1,-1,-1,-1,-1,-1,-1,-1,-1,-1],"split_conditions":[1E1,6.1605E2,2.15E2,2.2543557E0,7.324875E-1,4.3E1,4.835E2,5.239473E-1,5.54805E2,4.7853E2,7.23E2,5.4258496E2,5.8416003E2,3.475E2,2.53E2,2.19325E2,3.4524854E-2,1.26E2,-1.0015221E-1,3.8591906E-1,5.97E2,1.2914689E-1,3.645E2,7.481E2,6.9620996E2,1.7195E2,6.2027145E-2,2.8813586E-1,1.2362714E-1,1.498519E-1,2.948334E-1,1.395752E-2,8.766004E-2,-3.644047E-2,1.04137614E-1,3.3347306E-1,2.3657925E-2,5.053228E-2,-4.623723E-2],"split_indices":[1,0,1,0,0,1,1,0,0,0,1,0,0,1,1,0,0,1,0,0,0,0,1,0,0,0,0,0,0,0,0,0,0,0,0,0,0,0,0],"split_type":[0,0,0,0,0,0,0,0,0,0,0,0,0,0,0,0,0,0,0,0,0,0,0,0,0,0,0,0,0,0,0,0,0,0,0,0,0,0,0],"sum_hessian":[2.18E2,3E0,2.15E2,1E0,2E0,5.3E1,1.62E2,9E0,4.4E1,7.3E1,8.9E1,1.5E1,2.9E1,6.5E1,8E0,7.7E1,1.2E1,1.4E1,1E0,6E0,2.3E1,2.2E1,4.3E1,3E0,5E0,5E0,7.2E1,7E0,7E0,1.1E1,1.2E1,4E0,3.9E1,2E0,1E0,3E0,2E0,4E0,1E0],"tree_param":{"num_deleted":"0","num_feature":"2","num_nodes":"39","size_leaf_vector":"0"}},{"base_weights":[1.5271382E0,1.5835602E1,1.2550967E0,2.1416382E1,6.836548E0,2.9796145E0,7.838515E-1,4.9171176E0,2.4423213E0,6.780455E-1,1.9219586E0,1.6132131E0,2.5775003E0,9.455251E-1,5.3790903E-1,-1.1107073E0,2.2406795E0,2.275631E0,7.6063615E-1,3.1506224E0,2.0497062E0,1.0003023E0,-9.514456E-1,5.8121246E-1,3.823133E-1,2.5366013E0,9.407053E-1,6.6783905E-2,9.174032E-1,1.2433791E0,2.8074718E0,1.2480083E0,7.922433E-1,3.646654E-1,5.9676874E-1,3.895014E-1,1.0130572E-1,1.2255492E0,2.9234023E0,-9.6123695E-2,1.3183562E0],"categories":[],"categories_nodes":[],"categories_segments":[],"categories_sizes":[],"default_left":[true,true,true,false,false,true,true,false,true,true,true,true,true,true,true,false,true,false,true,false,true,true,false,true,true,true,true,false,false,false,false,false,false,false,false,false,false,false,false,false,false],"id":29,"left_children":[1,3,5,-1,-1,7,9,-1,11,13,15,17,19,21,23,-1,25,-1,27,-1,29,31,-1,33,35,37,39,-1,-1,-1,-1,-1,-1,-1,-1,-1,-1,-1,-1,-1,-1],"loss_changes":[8.3258185E2,5.447284E1,1.732013E2,0E0,0E0,3.5877167E1,1.9288399E1,0E0,1.0090637E-1,5.4138184E0,1.6020775E1,2.7871723E0,2.9193726E0,6.4590034E0,4.920044E-1,0E0,2.6147842E0,0E0,4.825983E-1,0E0,8.118378E0,1.6912231E0,0E0,5.524063E-2,1.3058901E-2,1.4883881E0,1.6929626E0,0E0,0E0,0E0,0E0,0E0,0E0,0E0,0E0,0E0,0E0,0E0,0E0,0E0,0E0],"parents":[2147483647,0,0,1,1,2,2,5,5,6,6,8,8,9,9,10,10,11,11,12,12,13,13,14,14,16,16,18,18,20,20,21,21,23,23,24,24,25,25,26,26],"right_children":[2,4,6,-1,-1,8,10,-1,12,14,16,18,20,22,24,-1,26,-1,28,-1,30,32,-1,34,36,38,40,-1,-1,-1,-1,-1,-1,-1,-1,-1,-1,-1,-1,-1,-1],"split_conditions":[1E1,6.1605E2,1.7E2,2.1416383E0,6.836548E-1,4.05E1,5.47395E2,4.9171177E-1,5.13E2,4.365E2,1.76E2,1.355E2,5.8466504E2,4.76865E2,6.75E2,-1.1107073E-1,8.04675E2,2.275631E-1,4.3876E2,3.1506225E-1,5.97E2,3.31E2,-9.514456E-2,2.18825E2,7.725E2,5.81345E2,8.1145E2,6.678391E-3,9.1740325E-2,1.2433791E-1,2.8074718E-1,1.2480082E-1,7.922433E-2,3.646654E-2,5.9676874E-2,3.895014E-2,1.0130572E-2,1.2255492E-1,2.9234025E-1,-9.612369E-3,1.3183562E-1],"split_indices":[1,0,1,0,0,1,0,0,0,1,1,1,0,0,1,0,0,0,0,0,0,1,0,0,1,0,0,0,0,0,0,0,0,0,0,0,0,0,0,0,0],"split_type":[0,0,0,0,0,0,0,0,0,0,0,0,0,0,0,0,0,0,0,0,0,0,0,0,0,0,0,0,0,0,0,0,0,0,0,0,0,0,0,0,0],"sum_hessian":[2.18E2,3E0,2.15E2,1E0,2E0,4.5E1,1.7E2,8E0,3.7E1,1.57E2,1.3E1,7E0,3E1,5.2E1,1.05E2,1E0,1.2E1,3E0,4E0,1.2E1,1.8E1,5.1E1,1E0,8E1,2.5E1,9E0,3E0,1E0,3E0,1E1,8E0,2.1E1,3E1,7E0,7.3E1,2.4E1,1E0,3E0,6E0,1E0,2E0],"tree_param":{"num_deleted":"0","num_feature":"2","num_nodes":"41","size_leaf_vector":"0"}},{"base_weights":[1.3974531E0,1.4958366E1,1.1398554E0,2.0345566E1,6.380778E0,2.5636551E0,6.611741E-1,4.6324797E0,2.1569688E0,8.9305156E-1,4.63173E-1,1.5913408E0,2.3723776E0,8.1050783E-1,1.3991443E0,4.878233E-1,2.7964246E-1,1.8179467E0,-9.0387344E-1,3.25835E0,2.0426013E0,1.0545068E0,6.6454226E-1,6.276178E-2,2.0568752E0,2.1060736E-1,5.039257E-1,2.3754349E0,1.033215E0,1.2312851E0,2.5554807E0,6.5029904E-2,7.228678E-1,-4.7840944E-1,8.4313774E-1,2.9502635E0,1.800658E-1,4.357237E-1,-4.574871E-1],"categories":[],"categories_nodes":[],"categories_segments":[],"categories_sizes":[],"default_left":[true,true,true,false,false,true,true,false,true,true,true,true,true,true,true,true,false,true,false,false,true,false,true,true,true,true,false,false,false,false,false,false,false,false,false,false,false,false,false],"id":30,"left_children":[1,3,5,-1,-1,7,9,-1,11,13,15,17,19,21,23,25,-1,27,-1,-1,29,-1,31,33,35,37,-1,-1,-1,-1,-1,-1,-1,-1,-1,-1,-1,-1,-1],"loss_changes":[7.4797363E2,5.5016174E1,1.4551895E2,0E0,0E0,3.5441437E1,7.070015E0,0E0,1.9512787E0,1.9573174E0,2.7075195E-1,1.0690075E1,2.6940155E0,1.6498528E0,7.7817287E0,2.4204826E-1,0E0,4.1078453E0,0E0,0E0,7.6722717E0,0E0,1.4915333E0,2.0926332E0,9.529076E0,1.1017318E0,0E0,0E0,0E0,0E0,0E0,0E0,0E0,0E0,0E0,0E0,0E0,0E0,0E0],"parents":[2147483647,0,0,1,1,2,2,5,5,6,6,8,8,9,9,10,10,11,11,12,12,13,13,14,14,15,15,17,17,20,20,22,22,23,23,24,24,25,25],"right_children":[2,4,6,-1,-1,8,10,-1,12,14,16,18,20,22,24,26,-1,28,-1,-1,30,-1,32,34,36,38,-1,-1,-1,-1,-1,-1,-1,-1,-1,-1,-1,-1,-1],"split_conditions":[1E1,6.1605E2,2.15E2,2.0345566E0,6.380778E-1,3.8E1,4.835E2,4.6324798E-1,5.54805E2,4.7853E2,7.23E2,5.4258496E2,5.8416003E2,3.475E2,2.53E2,2.19325E2,2.7964247E-2,1.26E2,-9.0387344E-2,3.25835E-1,5.97E2,1.0545068E-1,3.645E2,7.481E2,6.9620996E2,1.7195E2,5.0392568E-2,2.375435E-1,1.0332151E-1,1.2312851E-1,2.555481E-1,6.5029906E-3,7.228678E-2,-4.7840945E-2,8.431377E-2,2.9502636E-1,1.800658E-2,4.357237E-2,-4.574871E-2],"split_indices":[1,0,1,0,0,1,1,0,0,0,1,0,0,1,1,0,0,1,0,0,0,0,1,0,0,0,0,0,0,0,0,0,0,0,0,0,0,0,0],"split_type":[0,0,0,0,0,0,0,0,0,0,0,0,0,0,0,0,0,0,0,0,0,0,0,0,0,0,0,0,0,0,0,0,0,0,0,0,0,0,0],"sum_hessian":[2.18E2,3E0,2.15E2,1E0,2E0,5.3E1,1.62E2,7E0,4.6E1,7.3E1,8.9E1,1.5E1,3.1E1,6.5E1,8E0,7.7E1,1.2E1,1.4E1,1E0,6E0,2.5E1,2.2E1,4.3E1,3E0,5E0,5E0,7.2E1,7E0,7E0,1.1E1,1.4E1,4E0,3.9E1,2E0,1E0,3E0,2E0,4E0,1E0],"tree_param":{"num_deleted":"0","num_feature":"2","num_nodes":"39","size_leaf_vector":"0"}},{"base_weights":[1.2791727E0,1.4130688E1,1.0352596E0,1.9328285E1,5.9553933E0,2.3335533E0,5.987987E-1,4.2271366E0,1.9615912E0,8.10959E-1,4.1770244E-1,1.4478611E0,2.1571565E0,7.322484E-1,1.2980633E0,4.552104E-1,3.0786708E-1,1.6588758E0,-8.586798E-1,2.9790616E0,1.8529068E0,9.5364004E-1,5.9987897E-1,6.5603256E-2,1.9033594E0,1.8918388E-1,4.742262E-1,3.1360108E-1,8.225846E-2,2.167583E0,9.428091E-1,1.1184187E0,2.31697E0,1.0014596E0,4.761324E-1,5.9828185E-2,6.5238833E-1,-4.4651604E-1,8.0098057E-1,2.7289934E0,1.6806094E-1,4.0086573E-1,-4.3461275E-1],"categories":[],"categories_nodes":[],"categories_segments":[],"categories_sizes":[],"default_left":[true,true,true,false,false,true,true,false,true,true,true,true,true,true,true,true,true,true,false,false,true,true,true,true,true,true,false,false,false,false,false,false,false,false,false,false,false,false,false,false,false,false,false],"id":31,"left_children":[1,3,5,-1,-1,7,9,-1,11,13,15,17,19,21,23,25,27,29,-1,-1,31,33,35,37,39,41,-1,-1,-1,-1,-1,-1,-1,-1,-1,-1,-1,-1,-1,-1,-1,-1,-1],"loss_changes":[6.718601E2,5.4860046E1,1.2100003E2,0E0,0E0,2.9742523E1,5.923954E0,0E0,1.5987244E0,1.8866768E0,2.3062897E-1,9.211868E0,2.4821472E0,1.3620911E0,6.589163E0,2.3910046E-1,7.838249E-3,3.4204063E0,0E0,0E0,6.270729E0,4.8358917E-2,1.2087088E0,1.8640543E0,8.1376915E0,9.664999E-1,0E0,0E0,0E0,0E0,0E0,0E0,0E0,0E0,0E0,0E0,0E0,0E0,0E0,0E0,0E0,0E0,0E0],"parents":[2147483647,0,0,1,1,2,2,5,5,6,6,8,8,9,9,10,10,11,11,12,12,13,13,14,14,15,15,16,16,17,17,20,20,21,21,22,22,23,23,24,24,25,25],"right_children":[2,4,6,-1,-1,8,10,-1,12,14,16,18,20,22,24,26,28,30,-1,-1,32,34,36,38,40,42,-1,-1,-1,-1,-1,-1,-1,-1,-1,-1,-1,-1,-1,-1,-1,-1,-1],"split_conditions":[1E1,6.1605E2,2.15E2,1.9328285E0,5.9553933E-1,3.8E1,4.835E2,4.2271367E-1,5.54805E2,4.7853E2,6.75E2,5.4258496E2,5.8416003E2,3.475E2,2.53E2,2.19325E2,7.725E2,1.26E2,-8.586798E-2,2.9790616E-1,5.97E2,3.57E2,3.645E2,7.481E2,6.9620996E2,1.7195E2,4.742262E-2,3.136011E-2,8.225846E-3,2.167583E-1,9.428091E-2,1.1184187E-1,2.3169701E-1,1.0014596E-1,4.761324E-2,5.9828185E-3,6.523883E-2,-4.4651605E-2,8.0098055E-2,2.7289936E-1,1.6806094E-2,4.0086575E-2,-4.3461274E-2],"split_indices":[1,0,1,0,0,1,1,0,0,0,1,0,0,1,1,0,1,1,0,0,0,0,1,0,0,0,0,0,0,0,0,0,0,0,0,0,0,0,0,0,0,0,0],"split_type":[0,0,0,0,0,0,0,0,0,0,0,0,0,0,0,0,0,0,0,0,0,0,0,0,0,0,0,0,0,0,0,0,0,0,0,0,0,0,0,0,0,0,0],"sum_hessian":[2.18E2,3E0,2.15E2,1E0,2E0,5.3E1,1.62E2,7E0,4.6E1,7.3E1,8.9E1,1.5E1,3.1E1,6.5E1,8E0,6.4E1,2.5E1,1.4E1,1E0,6E0,2.5E1,2.2E1,4.3E1,3E0,5E0,5E0,5.9E1,2.4E1,1E0,7E0,7E0,1.1E1,1.4E1,1.9E1,3E0,4E0,3.9E1,2E0,1E0,3E0,2E0,4E0,1E0],"tree_param":{"num_deleted":"0","num_feature":"2","num_nodes":"43","size_leaf_vector":"0"}},{"base_weights":[1.1715543E0,1.3349709E1,9.4060916E-1,1.836187E1,5.558365E0,2.2567759E0,5.8105195E-1,3.8572617E0,1.870605E0,4.9940643E-1,1.4609765E0,7.0590395E-1,3.9144626E-1,-1.2987947E0,1.7731738E0,7.5085384E-1,-8.1574535E-1,4.3965513E-1,3.1352347E-1,2.4423592E0,1.2043849E0,9.376949E-1,5.8258057E-1,-4.7331173E-2,3.3183396E-1,6.790447E-2,1.7613077E0],"categories":[],"categories_nodes":[],"categories_segments":[],"categories_sizes":[],"default_left":[true,true,true,false,false,true,true,false,false,true,true,true,true,false,true,true,false,false,true,false,true,false,false,false,false,false,false],"id":32,"left_children":[1,3,5,-1,-1,7,9,-1,-1,11,13,15,17,-1,19,21,-1,-1,23,-1,25,-1,-1,-1,-1,-1,-1],"loss_changes":[6.0337775E2,5.414392E1,1.0090793E2,0E0,0E0,2.1215393E1,1.1555351E1,0E0,0E0,3.2460518E0,1.4365295E1,4.2375984E0,2.60355E-1,0E0,2.006588E0,1.0886154E0,0E0,0E0,3.0643225E-1,0E0,5.576787E0,0E0,0E0,0E0,0E0,0E0,0E0],"parents":[2147483647,0,0,1,1,2,2,5,5,6,6,9,9,10,10,11,11,12,12,14,14,15,15,18,18,20,20],"right_children":[2,4,6,-1,-1,8,10,-1,-1,12,14,16,18,-1,20,22,-1,-1,24,-1,26,-1,-1,-1,-1,-1,-1],"split_conditions":[1E1,6.1605E2,1.7E2,1.836187E0,5.558365E-1,3.8E1,5.47395E2,3.8572618E-1,1.870605E-1,4.365E2,1.76E2,4.76865E2,6.175E2,-1.2987947E-1,2.235E2,3.09E2,-8.157454E-2,4.3965515E-2,2.18825E2,2.4423592E-1,2.53E2,9.376949E-2,5.8258057E-2,-4.7331173E-3,3.3183396E-2,6.7904475E-3,1.7613077E-1],"split_indices":[1,0,1,0,0,1,0,0,0,1,1,0,1,0,1,0,0,0,0,0,1,0,0,0,0,0,0],"split_type":[0,0,0,0,0,0,0,0,0,0,0,0,0,0,0,0,0,0,0,0,0,0,0,0,0,0,0],"sum_hessian":[2.18E2,3E0,2.15E2,1E0,2E0,4.5E1,1.7E2,7E0,3.8E1,1.57E2,1.3E1,5.2E1,1.05E2,1E0,1.2E1,5.1E1,1E0,6.2E1,4.3E1,4E0,8E0,2.2E1,2.9E1,2E0,4.1E1,3E0,5E0],"tree_param":{"num_deleted":"0","num_feature":"2","num_nodes":"27","size_leaf_vector":"0"}},{"base_weights":[1.0699466E0,1.2612743E1,8.512378E-1,1.7443779E1,5.187805E0,1.925446E0,4.9014276E-1,3.0739162E0,1.4863234E0,7.126682E-1,3.670204E-1,3.8370616E0,2.2236066E0,1.684626E0,1.1393464E0,9.532023E-1,5.955524E-1,3.5298502E-1,9.273844E-1,2.1124403E0,8.744419E-1,6.6238445E-1,2.2469704E0,3.5736132E-1,1.3345549E0,6.202806E-1,-1.9678879E-1,3.8274452E-1,2.4669646E-1,3.982873E-1,1.8527069E0,9.03161E-1,-1.2338552E0,8.353569E-1,-3.294735E-1,2.6301918E0,8.9835167E-1,5.7326907E-1,1.2268658E0,2.4140227E-1,3.9285251E-1,2.5164002E-1,6.1553717E-2],"categories":[],"categories_nodes":[],"categories_segments":[],"categories_sizes":[],"default_left":[true,true,true,false,false,true,true,true,true,true,true,false,false,true,true,true,true,true,false,false,true,true,false,true,true,true,false,true,true,false,false,false,false,false,false,false,false,false,false,false,false,false,false],"id":33,"left_children":[1,3,5,-1,-1,7,9,11,13,15,17,-1,-1,19,21,23,25,27,-1,-1,29,31,-1,33,35,37,-1,39,41,-1,-1,-1,-1,-1,-1,-1,-1,-1,-1,-1,-1,-1,-1],"loss_changes":[5.421319E2,5.2985657E1,8.284076E1,0E0,0E0,2.2664413E1,4.2042885E0,5.5262756E-1,9.0169525E-1,1.0380287E0,5.141926E-1,0E0,0E0,6.47139E0,8.020941E0,3.3859148E0,9.253855E-1,2.408657E-1,0E0,0E0,3.9201436E0,7.50635E0,0E0,2.90166E0,3.2887726E0,4.3733597E-1,0E0,2.0888329E-2,8.307576E-3,0E0,0E0,0E0,0E0,0E0,0E0,0E0,0E0,0E0,0E0,0E0,0E0,0E0,0E0],"parents":[2147483647,0,0,1,1,2,2,5,5,6,6,7,7,8,8,9,9,10,10,13,13,14,14,15,15,16,16,17,17,20,20,21,21,23,23,24,24,25,25,27,27,28,28],"right_children":[2,4,6,-1,-1,8,10,12,14,16,18,-1,-1,20,22,24,26,28,-1,-1,30,32,-1,34,36,38,-1,40,42,-1,-1,-1,-1,-1,-1,-1,-1,-1,-1,-1,-1,-1,-1],"split_conditions":[1E1,6.1605E2,2.15E2,1.744378E0,5.187805E-1,5.5E1,4.365E2,3.05E1,5.8626E2,2.975E2,4.7853E2,3.8370618E-1,2.2236066E-1,1.41E2,1.76E2,2.53E2,6.9320996E2,6.75E2,9.273844E-2,2.1124403E-1,5.55365E2,7.85335E2,2.2469704E-1,2.37E2,2.575E2,4.9196E2,-1.967888E-2,2.18825E2,7.725E2,3.982873E-2,1.852707E-1,9.03161E-2,-1.23385526E-1,8.353569E-2,-3.294735E-2,2.6301917E-1,8.983517E-2,5.732691E-2,1.2268658E-1,2.4140228E-2,3.9285254E-2,2.5164003E-2,6.1553717E-3],"split_indices":[1,0,1,0,0,1,1,1,0,1,0,0,0,1,1,1,0,1,0,0,0,0,0,1,1,0,0,0,1,0,0,0,0,0,0,0,0,0,0,0,0,0,0],"split_type":[0,0,0,0,0,0,0,0,0,0,0,0,0,0,0,0,0,0,0,0,0,0,0,0,0,0,0,0,0,0,0,0,0,0,0,0,0,0,0,0,0,0,0],"sum_hessian":[2.18E2,3E0,2.15E2,1E0,2E0,5.3E1,1.62E2,1.3E1,4E1,5.6E1,1.06E2,5E0,8E0,2.3E1,1.7E1,1.6E1,4E1,1.05E2,1E0,1.4E1,9E0,1.3E1,4E0,7E0,9E0,3.9E1,1E0,8E1,2.5E1,7E0,2E0,1.2E1,1E0,4E0,3E0,1E0,8E0,3.8E1,1E0,7E0,7.3E1,2.4E1,1E0],"tree_param":{"num_deleted":"0","num_feature":"2","num_nodes":"43","size_leaf_vector":"0"}},{"base_weights":[9.823512E-1,1.6571587E1,8.348245E-1,3.3664541E0,6.3117474E-1,4.871535E0,2.2394598E0,1.2361534E0,3.9229748E-1,9.675872E-1,1.4301901E0,4.9435332E-1,2.7912328E-1,1.0659461E0,-7.948723E-1,2.1716154E0,9.737202E-1,5.0593E-1,-1.8694973E-1,2.9719055E-1,1.7426476E-1,1.6294031E0,7.7259856E-1,1.2421181E0,2.525311E0,4.669946E-1,1.4844189E0,4.637216E-1,1.3643583E0,1.06898785E-1,3.053305E-1],"categories":[],"categories_nodes":[],"categories_segments":[],"categories_sizes":[],"default_left":[true,false,true,true,true,false,false,true,true,true,true,true,true,true,false,true,true,true,false,true,false,false,false,false,false,false,false,false,false,false,false],"id":34,"left_children":[1,-1,3,5,7,-1,-1,9,11,13,15,17,19,21,-1,23,25,27,-1,29,-1,-1,-1,-1,-1,-1,-1,-1,-1,-1,-1],"loss_changes":[4.898281E2,0E0,1.10268524E2,1.6229874E1,2.8851738E1,0E0,0E0,1.5865402E0,1.5598774E0,5.5278378E0,8.377045E0,6.940155E-1,8.461475E-2,3.0386314E0,0E0,4.7961807E-1,4.741251E0,2.0847836E0,0E0,6.0298443E-2,0E0,0E0,0E0,0E0,0E0,0E0,0E0,0E0,0E0,0E0,0E0],"parents":[2147483647,0,0,2,2,3,3,4,4,7,7,8,8,9,9,10,10,11,11,12,12,13,13,15,15,16,16,17,17,19,19],"right_children":[2,-1,4,6,8,-1,-1,10,12,14,16,18,20,22,-1,24,26,28,-1,30,-1,-1,-1,-1,-1,-1,-1,-1,-1,-1,-1],"split_conditions":[4E0,1.6571587E0,5.5E1,2.15E1,2.975E2,4.871535E-1,2.2394598E-1,5.54805E2,5.325E2,5.4258496E2,5.8626E2,6.9320996E2,7.23E2,1.26E2,-7.948723E-2,8.5E1,1.545E2,4.7853E2,-1.8694973E-2,2.19325E2,1.7426476E-2,1.6294031E-1,7.725986E-2,1.2421181E-1,2.525311E-1,4.669946E-2,1.484419E-1,4.637216E-2,1.3643584E-1,1.0689879E-2,3.053305E-2],"split_indices":[1,0,1,1,1,0,0,0,1,0,0,0,1,1,0,1,1,0,0,0,0,0,0,0,0,0,0,0,0,0,0],"split_type":[0,0,0,0,0,0,0,0,0,0,0,0,0,0,0,0,0,0,0,0,0,0,0,0,0,0,0,0,0,0,0],"sum_hessian":[2.18E2,1E0,2.17E2,1.5E1,2.02E2,5E0,1E1,5.6E1,1.46E2,2.6E1,3E1,7.5E1,7.1E1,2.5E1,1E0,1E1,2E1,7.4E1,1E0,5.9E1,1.2E1,7E0,1.8E1,4E0,6E0,1.1E1,9E0,7.2E1,2E0,3E0,5.6E1],"tree_param":{"num_deleted":"0","num_feature":"2","num_nodes":"31","size_leaf_vector":"0"}},{"base_weights":[8.992926E-1,1.5743004E1,7.5898653E-1,3.074253E0,5.727636E-1,4.4655747E0,2.0358727E0,1.1700873E0,3.6991215E-1,8.851763E-1,1.3400192E0,4.982316E-1,2.7455264E-1,9.992446E-1,-7.5512886E-1,1.9887029E0,9.1624224E-1,5.156196E-1,-2.7196884E-2,2.9042837E-1,1.5817878E-1,1.4868298E0,6.492499E-1,1.2349182E0,2.4110372E0,4.241867E-1,1.4705116E0,4.6913683E-1,1.2734007E0,-1.7760181E-1,1.3680649E-1,1.0837857E-1,3.014129E-1],"categories":[],"categories_nodes":[],"categories_segments":[],"categories_sizes":[],"default_left":[true,false,true,true,true,false,false,true,true,true,true,true,true,true,false,true,true,true,true,true,false,false,false,false,false,false,false,false,false,false,false,false,false],"id":35,"left_children":[1,-1,3,5,7,-1,-1,9,11,13,15,17,19,21,-1,23,25,27,29,31,-1,-1,-1,-1,-1,-1,-1,-1,-1,-1,-1,-1,-1],"loss_changes":[4.4415427E2,0E0,9.223112E1,1.40242E1,2.4164268E1,0E0,0E0,1.2830353E0,1.7353916E0,4.8709087E0,6.424782E0,5.987339E-1,1.2033701E-1,2.6183739E0,0E0,5.2440643E-1,4.8308544E0,1.5864716E0,9.829783E-2,1.2331247E-1,0E0,0E0,0E0,0E0,0E0,0E0,0E0,0E0,0E0,0E0,0E0,0E0,0E0],"parents":[2147483647,0,0,2,2,3,3,4,4,7,7,8,8,9,9,10,10,11,11,12,12,13,13,15,15,16,16,17,17,18,18,19,19],"right_children":[2,-1,4,6,8,-1,-1,10,12,14,16,18,20,22,-1,24,26,28,30,32,-1,-1,-1,-1,-1,-1,-1,-1,-1,-1,-1,-1,-1],"split_conditions":[4E0,1.5743004E0,5.5E1,2.15E1,2.655E2,4.465575E-1,2.0358728E-1,5.54805E2,4.835E2,5.4258496E2,5.8626E2,6.9320996E2,7.23E2,1.26E2,-7.5512886E-2,5.81345E2,1.545E2,4.7853E2,8.1145E2,2.19325E2,1.5817879E-2,1.4868298E-1,6.492499E-2,1.2349182E-1,2.4110372E-1,4.241867E-2,1.4705116E-1,4.6913683E-2,1.2734006E-1,-1.7760182E-2,1.3680649E-2,1.0837857E-2,3.0141292E-2],"split_indices":[1,0,1,1,1,0,0,0,1,0,0,0,1,1,0,0,1,0,0,0,0,0,0,0,0,0,0,0,0,0,0,0,0],"split_type":[0,0,0,0,0,0,0,0,0,0,0,0,0,0,0,0,0,0,0,0,0,0,0,0,0,0,0,0,0,0,0,0,0],"sum_hessian":[2.18E2,1E0,2.17E2,1.5E1,2.02E2,5E0,1E1,5E1,1.52E2,2.1E1,2.9E1,6.3E1,8.9E1,2E1,1E0,1E1,1.9E1,6.1E1,2E0,7.7E1,1.2E1,7E0,1.3E1,5E0,5E0,1.1E1,8E0,5.9E1,2E0,1E0,1E0,5E0,7.2E1],"tree_param":{"num_deleted":"0","num_feature":"2","num_nodes":"33","size_leaf_vector":"0"}},{"base_weights":[8.2371765E-1,1.4955856E1,6.9028646E-1,3.76326E0,5.705041E-1,1.2560474E0,3.6092055E-1,9.098325E-1,1.3963385E0,5.307852E-1,2.670588E-1,1.0563686E0,-7.173729E-1,1.1004418E0,1.8880917E0,1.3598108E-1,5.8333814E-1,2.5544375E-1,7.4912643E-1,1.3946923E0,5.437083E-1,1.3673114E0,-1.3375092E-1,2.4828966E0,6.777466E-1,6.241196E-1,-5.081873E-1,2.2518644E0,5.033302E-1,2.772926E-1,1.7755142E-1],"categories":[],"categories_nodes":[],"categories_segments":[],"categories_sizes":[],"default_left":[true,false,true,false,true,true,true,true,true,true,true,true,false,true,true,true,true,true,false,false,false,false,false,false,false,false,false,false,false,false,false],"id":36,"left_children":[1,-1,3,-1,5,7,9,11,13,15,17,19,-1,21,23,25,27,29,-1,-1,-1,-1,-1,-1,-1,-1,-1,-1,-1,-1,-1],"loss_changes":[4.026374E2,0E0,7.8096214E1,0E0,2.9862854E1,1.1095352E0,2.4570866E0,4.811364E0,2.7240295E0,1.1033211E0,4.077587E-1,2.016817E0,0E0,7.758354E0,6.2363396E0,2.8327167E0,5.541338E0,1.3116312E-1,0E0,0E0,0E0,0E0,0E0,0E0,0E0,0E0,0E0,0E0,0E0,0E0,0E0],"parents":[2147483647,0,0,2,2,4,4,5,5,6,6,7,7,8,8,9,9,10,10,11,11,13,13,14,14,15,15,16,16,17,17],"right_children":[2,-1,4,-1,6,8,10,12,14,16,18,20,-1,22,24,26,28,30,-1,-1,-1,-1,-1,-1,-1,-1,-1,-1,-1,-1,-1],"split_conditions":[4E0,1.4955857E0,3.05E1,3.76326E-1,2.15E2,5.54805E2,4.365E2,5.45365E2,1.38E2,2.53E2,4.7853E2,1.26E2,-7.173729E-2,1.16E2,7.7775E2,2.37E2,2.575E2,6.75E2,7.4912645E-2,1.3946924E-1,5.437083E-2,1.3673113E-1,-1.3375091E-2,2.4828966E-1,6.777466E-2,6.241196E-2,-5.081873E-2,2.2518645E-1,5.033302E-2,2.7729262E-2,1.7755141E-2],"split_indices":[1,0,1,0,1,0,1,0,1,1,0,1,0,1,0,1,1,1,0,0,0,0,0,0,0,0,0,0,0,0,0],"split_type":[0,0,0,0,0,0,0,0,0,0,0,0,0,0,0,0,0,0,0,0,0,0,0,0,0,0,0,0,0,0,0],"sum_hessian":[2.18E2,1E0,2.17E2,7E0,2.1E2,4.8E1,1.62E2,1.6E1,3.2E1,5.6E1,1.06E2,1.5E1,1E0,2.2E1,1E1,7E0,4.9E1,1.05E2,1E0,8E0,7E0,1.8E1,4E0,6E0,4E0,4E0,3E0,1E0,4.8E1,8E1,2.5E1],"tree_param":{"num_deleted":"0","num_feature":"2","num_nodes":"31","size_leaf_vector":"0"}},{"base_weights":[7.543181E-1,1.4208061E1,6.274291E-1,2.5742805E0,4.7089192E-1,3.7798386E0,1.6826779E0,9.368801E-1,2.8699926E-1,7.353833E-1,1.0821555E0,3.641142E-1,2.0161407E-1,8.1609064E-1,-6.8150425E-1,1.7942475E0,7.564604E-1,3.3726275E-1,7.6312447E-1,3.9141813E-1,1.9059941E-1,1.2346978E0,5.968829E-1,1.012137E0,2.5188513E0,4.2214856E-1,1.148851E0,4.6762022E-1,3.0659255E-1,1.1467584E0,-1.9388866E-1,-4.4721413E-1,2.0632444E-1],"categories":[],"categories_nodes":[],"categories_segments":[],"categories_sizes":[],"default_left":[true,false,true,true,true,false,false,true,true,true,true,true,true,true,false,true,true,true,true,false,true,false,false,false,false,false,false,false,false,false,false,false,false],"id":37,"left_children":[1,-1,3,5,7,-1,-1,9,11,13,15,17,19,21,-1,23,25,27,29,-1,31,-1,-1,-1,-1,-1,-1,-1,-1,-1,-1,-1,-1],"loss_changes":[3.649474E2,0E0,6.522431E1,1.0837807E1,1.7126556E1,0E0,0E0,8.7273407E-1,8.945074E-1,3.6437073E0,5.83239E0,5.5689144E-1,7.59213E-2,1.64884E0,0E0,2.5510578E0,2.5321722E0,1.4849186E-1,1.6909142E0,0E0,7.943461E-1,0E0,0E0,0E0,0E0,0E0,0E0,0E0,0E0,0E0,0E0,0E0,0E0],"parents":[2147483647,0,0,2,2,3,3,4,4,7,7,8,8,9,9,10,10,11,11,12,12,13,13,15,15,16,16,17,17,18,18,20,20],"right_children":[2,-1,4,6,8,-1,-1,10,12,14,16,18,20,22,-1,24,26,28,30,-1,32,-1,-1,-1,-1,-1,-1,-1,-1,-1,-1,-1,-1],"split_conditions":[4E0,1.4208062E0,5.5E1,2.15E1,2.975E2,3.7798387E-1,1.6826779E-1,5.54805E2,5.325E2,5.4258496E2,5.8416003E2,4.7853E2,1.6953E2,1.26E2,-6.815042E-2,5.81345E2,1.545E2,3.475E2,6.9320996E2,3.9141815E-2,2.18825E2,1.23469785E-1,5.968829E-2,1.0121371E-1,2.5188515E-1,4.2214856E-2,1.1488511E-1,4.6762023E-2,3.0659257E-2,1.1467584E-1,-1.9388868E-2,-4.4721413E-2,2.0632444E-2],"split_indices":[1,0,1,1,1,0,0,0,1,0,0,0,0,1,0,0,1,1,0,0,0,0,0,0,0,0,0,0,0,0,0,0,0],"split_type":[0,0,0,0,0,0,0,0,0,0,0,0,0,0,0,0,0,0,0,0,0,0,0,0,0,0,0,0,0,0,0,0,0],"sum_hessian":[2.18E2,1E0,2.17E2,1.5E1,2.02E2,5E0,1E1,5.6E1,1.46E2,2.6E1,3E1,7.5E1,7.1E1,2.5E1,1E0,8E0,2.2E1,7.2E1,3E0,2E0,6.9E1,7E0,1.8E1,5E0,3E0,1.3E1,9E0,1.1E1,6.1E1,2E0,1E0,1E0,6.8E1],"tree_param":{"num_deleted":"0","num_feature":"2","num_nodes":"33","size_leaf_vector":"0"}},{"base_weights":[6.915805E-1,1.3497658E1,5.709211E-1,3.1556673E0,4.7021547E-1,1.0458448E0,2.9428878E-1,7.447239E-1,1.1692754E0,4.3376482E-1,2.1723808E-1,8.7219787E-1,-6.4742947E-1,9.027721E-1,1.6202118E0,5.2614927E-2,4.860735E-1,2.0694162E-1,6.5433216E-1,1.5462089E0,5.977177E-1,1.1340984E0,-1.568222E-1,2.1663191E0,5.3161925E-1,5.153996E-1,-5.390196E-1,2.0133286E0,4.138167E-1,2.2566888E-1,1.4063968E-1],"categories":[],"categories_nodes":[],"categories_segments":[],"categories_sizes":[],"default_left":[true,false,true,false,true,true,true,true,true,true,true,true,false,true,true,true,true,true,false,false,false,false,false,false,false,false,false,false,false,false,false],"id":38,"left_children":[1,-1,3,-1,5,7,9,11,13,15,17,19,-1,21,23,25,27,29,-1,-1,-1,-1,-1,-1,-1,-1,-1,-1,-1,-1,-1],"loss_changes":[3.3068677E2,0E0,5.526123E1,0E0,2.105989E1,9.504204E-1,1.657486E0,3.581563E0,2.503128E0,1.1108589E0,3.46148E-1,2.0358458E0,0E0,5.8154297E0,5.3877125E0,2.4682055E0,4.68458E0,9.987736E-2,0E0,0E0,0E0,0E0,0E0,0E0,0E0,0E0,0E0,0E0,0E0,0E0,0E0],"parents":[2147483647,0,0,2,2,4,4,5,5,6,6,7,7,8,8,9,9,10,10,11,11,13,13,14,14,15,15,16,16,17,17],"right_children":[2,-1,4,-1,6,8,10,12,14,16,18,20,-1,22,24,26,28,30,-1,-1,-1,-1,-1,-1,-1,-1,-1,-1,-1,-1,-1],"split_conditions":[4E0,1.3497658E0,3.05E1,3.1556675E-1,2.15E2,5.54805E2,4.365E2,5.45365E2,1.38E2,2.53E2,4.7853E2,3.7739E2,-6.4742945E-2,1.16E2,7.7775E2,2.37E2,2.575E2,6.75E2,6.543322E-2,1.5462089E-1,5.9771772E-2,1.1340984E-1,-1.568222E-2,2.1663192E-1,5.3161927E-2,5.1539958E-2,-5.390196E-2,2.0133285E-1,4.138167E-2,2.2566888E-2,1.4063968E-2],"split_indices":[1,0,1,0,1,0,1,0,1,1,0,0,0,1,0,1,1,1,0,0,0,0,0,0,0,0,0,0,0,0,0],"split_type":[0,0,0,0,0,0,0,0,0,0,0,0,0,0,0,0,0,0,0,0,0,0,0,0,0,0,0,0,0,0,0],"sum_hessian":[2.18E2,1E0,2.17E2,7E0,2.1E2,4.8E1,1.62E2,1.6E1,3.2E1,5.6E1,1.06E2,1.5E1,1E0,2.2E1,1E1,7E0,4.9E1,1.05E2,1E0,3E0,1.2E1,1.8E1,4E0,6E0,4E0,4E0,3E0,1E0,4.8E1,8E1,2.5E1],"tree_param":{"num_deleted":"0","num_feature":"2","num_nodes":"31","size_leaf_vector":"0"}},{"base_weights":[6.339516E-1,1.2822777E1,5.1921946E-1,2.159581E0,3.873722E-1,3.2018802E0,1.3947285E0,7.781837E-1,2.3319782E-1,8.913292E-1,5.977043E-1,2.1934544E-1,6.7358446E-1,7.8861904E-1,2.0890274E0,-1.4378185E0,7.424269E-1,2.72545E-1,1.623605E-1,1.0347029E0,-2.0488548E-1,1.0917178E0,1.9247787E-1,3.4535742E-1,1.3658363E0,3.9308512E-1,2.4717222E-1,3.5027918E-1,1.5198742E-1],"categories":[],"categories_nodes":[],"categories_segments":[],"categories_sizes":[],"default_left":[true,false,true,true,true,false,false,true,true,true,true,true,true,true,false,false,true,true,true,false,false,false,false,false,false,false,false,false,false],"id":39,"left_children":[1,-1,3,5,7,-1,-1,9,11,13,15,17,19,21,-1,-1,23,25,27,-1,-1,-1,-1,-1,-1,-1,-1,-1,-1],"loss_changes":[2.9960266E2,0E0,4.631187E1,8.289528E0,1.20499115E1,0E0,0E0,6.3121414E-1,7.4901295E-1,2.412075E0,8.432127E0,3.9229584E-1,1.4809227E0,5.5719376E0,0E0,0E0,5.469182E0,1.2610674E-1,8.7111354E-2,0E0,0E0,0E0,0E0,0E0,0E0,0E0,0E0,0E0,0E0],"parents":[2147483647,0,0,2,2,3,3,4,4,7,7,8,8,9,9,10,10,11,11,12,12,13,13,16,16,17,17,18,18],"right_children":[2,-1,4,6,8,-1,-1,10,12,14,16,18,20,22,-1,-1,24,26,28,-1,-1,-1,-1,-1,-1,-1,-1,-1,-1],"split_conditions":[4E0,1.2822777E0,5.5E1,2.15E1,2.975E2,3.2018802E-1,1.3947286E-1,1.7E2,4.7853E2,7.6445E2,1.76E2,5.325E2,6.9320996E2,5.8626E2,2.0890275E-1,-1.4378186E-1,5.81345E2,3.41E2,1.6953E2,1.0347029E-1,-2.0488549E-2,1.09171785E-1,1.9247787E-2,3.4535743E-2,1.3658363E-1,3.9308514E-2,2.4717223E-2,3.5027917E-2,1.5198742E-2],"split_indices":[1,0,1,1,1,0,0,1,0,0,1,1,0,0,0,0,0,1,0,0,0,0,0,0,0,0,0,0,0],"split_type":[0,0,0,0,0,0,0,0,0,0,0,0,0,0,0,0,0,0,0,0,0,0,0,0,0,0,0,0,0],"sum_hessian":[2.18E2,1E0,2.17E2,1.5E1,2.02E2,5E0,1E1,5.6E1,1.46E2,3.2E1,2.4E1,1.43E2,3E0,3.1E1,1E0,1E0,2.3E1,7.2E1,7.1E1,2E0,1E0,2E1,1.1E1,1.5E1,8E0,1E1,6.2E1,2E0,6.9E1],"tree_param":{"num_deleted":"0","num_feature":"2","num_nodes":"29","size_leaf_vector":"0"}},{"base_weights":[5.8107597E-1,1.2181641E1,4.7198325E-1,2.644559E0,3.8737383E-1,1.5695465E0,3.3271847E0,8.6556834E-1,2.412456E-1,5.87692E-1,9.824874E-1,3.5725537E-1,1.7719138E-1,1.3670225E0,3.2304817E-1,7.4219245E-1,1.3956051E0,-8.673191E-3,4.0865883E-1,1.6811053E-1,5.698805E-1,6.459473E-1,-3.8735962E-1,8.507534E-1,-8.2307434E-1,1.88174E0,4.3589514E-1,4.2612877E-1,-5.5000734E-1,1.8443708E0,3.4171838E-1,3.140028E-1,1.593108E-1],"categories":[],"categories_nodes":[],"categories_segments":[],"categories_sizes":[],"default_left":[true,false,true,true,true,false,false,true,true,true,true,true,true,false,true,true,true,true,true,true,false,false,false,false,false,false,false,false,false,false,false,false,false],"id":40,"left_children":[1,-1,3,5,7,-1,-1,9,11,13,15,17,19,-1,21,23,25,27,29,31,-1,-1,-1,-1,-1,-1,-1,-1,-1,-1,-1,-1,-1],"loss_changes":[2.71403E2,0E0,3.904841E1,6.4847946E-1,1.4535381E1,0E0,0E0,1.0145645E0,1.1479359E0,3.0645509E0,2.2401047E0,1.0757136E0,2.8575373E-1,0E0,3.4616742E0,4.608551E0,4.3117943E0,2.1173592E0,4.175106E0,8.606005E-2,0E0,0E0,0E0,0E0,0E0,0E0,0E0,0E0,0E0,0E0,0E0,0E0,0E0],"parents":[2147483647,0,0,2,2,3,3,4,4,7,7,8,8,9,9,10,10,11,11,12,12,14,14,15,15,16,16,17,17,18,18,19,19],"right_children":[2,-1,4,6,8,-1,-1,10,12,14,16,18,20,-1,22,24,26,28,30,32,-1,-1,-1,-1,-1,-1,-1,-1,-1,-1,-1,-1,-1],"split_conditions":[4E0,1.2181641E0,3.05E1,5.85E2,2.15E2,1.5695465E-1,3.3271846E-1,5.54805E2,4.365E2,3.7739E2,1.38E2,2.53E2,4.7853E2,1.3670225E-1,1.48E2,7.025E2,7.7775E2,2.37E2,2.575E2,1.69765E2,5.698805E-2,6.459473E-2,-3.8735963E-2,8.507534E-2,-8.2307436E-2,1.88174E-1,4.3589514E-2,4.2612877E-2,-5.5000734E-2,1.8443708E-1,3.417184E-2,3.1400282E-2,1.5931081E-2],"split_indices":[1,0,1,0,1,0,0,0,1,0,1,1,0,0,1,0,0,1,1,0,0,0,0,0,0,0,0,0,0,0,0,0,0],"split_type":[0,0,0,0,0,0,0,0,0,0,0,0,0,0,0,0,0,0,0,0,0,0,0,0,0,0,0,0,0,0,0,0,0],"sum_hessian":[2.18E2,1E0,2.17E2,7E0,2.1E2,4E0,3E0,4.8E1,1.62E2,1.6E1,3.2E1,5.6E1,1.06E2,3E0,1.3E1,2.2E1,1E1,7E0,4.9E1,1.05E2,1E0,9E0,4E0,2.1E1,1E0,6E0,4E0,4E0,3E0,1E0,4.8E1,4E0,1.01E2],"tree_param":{"num_deleted":"0","num_feature":"2","num_nodes":"33","size_leaf_vector":"0"}},{"base_weights":[5.339978E-1,1.1572556E1,4.3027708E-1,1.7440586E0,3.1048432E-1,3.0776463E0,1.2721647E0,6.275739E-1,1.8973325E-1,7.1754867E-1,4.4773138E-1,1.771405E-1,5.9563875E-1,5.178854E-1,1.5962738E0,-3.653612E-1,6.0354465E-1,2.2053549E-1,1.3068253E-1,9.353364E-1,-2.1172714E-1,5.873119E-1,-7.477417E-1,3.9782333E-1,2.6621163E0,-4.9247614E-1,7.991791E-3,7.139354E-1,-1.8638737E-1,1.785016E-2,2.28967E-1,3.059937E-1,1.2130229E-1],"categories":[],"categories_nodes":[],"categories_segments":[],"categories_sizes":[],"default_left":[true,false,true,true,true,false,false,true,true,true,true,true,true,true,true,true,true,true,true,false,false,false,false,false,false,false,false,false,false,false,false,false,false],"id":41,"left_children":[1,-1,3,5,7,-1,-1,9,11,13,15,17,19,21,23,25,27,29,31,-1,-1,-1,-1,-1,-1,-1,-1,-1,-1,-1,-1,-1,-1],"loss_changes":[2.4575961E2,0E0,3.3767666E1,7.412346E0,7.5769978E0,0E0,0E0,5.687027E-1,6.4587355E-1,5.3140335E0,2.8810148E0,2.6149035E-1,1.2950774E0,3.0752E0,6.6051054E0,1.937707E-1,1.7026887E0,1.2066579E-1,8.128333E-2,0E0,0E0,0E0,0E0,0E0,0E0,0E0,0E0,0E0,0E0,0E0,0E0,0E0,0E0],"parents":[2147483647,0,0,2,2,3,3,4,4,7,7,8,8,9,9,10,10,11,11,12,12,13,13,14,14,15,15,16,16,17,17,18,18],"right_children":[2,-1,4,6,8,-1,-1,10,12,14,16,18,20,22,24,26,28,30,32,-1,-1,-1,-1,-1,-1,-1,-1,-1,-1,-1,-1,-1,-1],"split_conditions":[4E0,1.1572555E0,6.2E1,1.35E1,2.975E2,3.0776462E-1,1.2721647E-1,5.8626E2,4.7853E2,5.81345E2,5.9181995E2,5.325E2,6.9320996E2,5.7692004E2,1.11E2,5.8969995E2,2.41E2,1.7117E2,1.6953E2,9.353364E-2,-2.1172715E-2,5.8731195E-2,-7.477417E-2,3.9782334E-2,2.6621163E-1,-4.9247615E-2,7.991791E-4,7.139354E-2,-1.8638737E-2,1.785016E-3,2.28967E-2,3.059937E-2,1.213023E-2],"split_indices":[1,0,1,1,1,0,0,0,0,0,0,1,0,0,1,0,1,0,0,0,0,0,0,0,0,0,0,0,0,0,0,0,0],"split_type":[0,0,0,0,0,0,0,0,0,0,0,0,0,0,0,0,0,0,0,0,0,0,0,0,0,0,0,0,0,0,0,0,0],"sum_hessian":[2.18E2,1E0,2.17E2,1.7E1,2E2,3E0,1.4E1,5.4E1,1.46E2,3.4E1,2E1,1.43E2,3E0,2.9E1,5E0,3E0,1.7E1,7.2E1,7.1E1,2E0,1E0,2.8E1,1E0,3E0,2E0,2E0,1E0,1.5E1,2E0,3E0,6.9E1,2E0,6.9E1],"tree_param":{"num_deleted":"0","num_feature":"2","num_nodes":"33","size_leaf_vector":"0"}},{"base_weights":[4.8985055E-1,1.0993927E1,3.9123583E-1,2.2622929E0,3.184411E-1,1.3422089E0,2.8468246E0,6.6911685E-1,1.8113185E-1,8.41052E-1,5.179572E-1,2.3417301E-1,1.18208155E-1,7.278147E-1,1.4665998E0,2.4744335E-1,8.0682003E-1,2.4629067E-1,-1.6702206E-1,2.85594E-1,1.0934579E-1,9.627602E-1,4.9122784E-1,3.4011853E-1,-7.103548E-1,2.4846413E0,3.8965687E-1,2.1902966E-1,8.729801E-1,-2.011404E-1,-4.93927E-2,-4.5776653E-1,1.2419911E-1],"categories":[],"categories_nodes":[],"categories_segments":[],"categories_sizes":[],"default_left":[true,false,true,true,true,false,false,true,true,true,true,true,true,true,false,true,true,true,true,false,true,false,false,false,false,false,false,false,false,false,false,false,false],"id":42,"left_children":[1,-1,3,5,7,-1,-1,9,11,13,15,17,19,21,-1,23,25,27,29,-1,31,-1,-1,-1,-1,-1,-1,-1,-1,-1,-1,-1,-1],"loss_changes":[2.225513E2,0E0,2.8971874E1,4.8151016E-1,1.0038668E1,0E0,0E0,1.0977592E0,4.829631E-1,7.7430725E-1,2.4571657E0,4.3978262E-1,7.557881E-2,8.611069E-1,0E0,1.9281228E0,1.0230645E1,1.1755266E0,2.105087E-3,0E0,6.464991E-1,0E0,0E0,0E0,0E0,0E0,0E0,0E0,0E0,0E0,0E0,0E0,0E0],"parents":[2147483647,0,0,2,2,3,3,4,4,7,7,8,8,9,9,10,10,11,11,12,12,13,13,15,15,16,16,17,17,18,18,20,20],"right_children":[2,-1,4,6,8,-1,-1,10,12,14,16,18,20,22,-1,24,26,28,30,-1,32,-1,-1,-1,-1,-1,-1,-1,-1,-1,-1,-1,-1],"split_conditions":[4E0,1.0993928E0,3.05E1,5.85E2,2.655E2,1.3422088E-1,2.8468248E-1,1.16E2,5.325E2,1.11E2,5.81345E2,6.9320996E2,1.6953E2,6.2E1,1.4665999E-1,5.7692004E2,5.85755E2,4.7853E2,8.1145E2,2.85594E-2,2.18825E2,9.627602E-2,4.9122784E-2,3.4011852E-2,-7.103548E-2,2.4846414E-1,3.8965687E-2,2.1902967E-2,8.729801E-2,-2.011404E-2,-4.93927E-3,-4.5776654E-2,1.2419911E-2],"split_indices":[1,0,1,0,1,0,0,1,1,1,0,0,0,1,0,0,0,0,0,0,0,0,0,0,0,0,0,0,0,0,0,0,0],"split_type":[0,0,0,0,0,0,0,0,0,0,0,0,0,0,0,0,0,0,0,0,0,0,0,0,0,0,0,0,0,0,0,0,0],"sum_hessian":[2.18E2,1E0,2.17E2,7E0,2.1E2,4E0,3E0,5.8E1,1.52E2,2.5E1,3.3E1,8.1E1,7.1E1,2.3E1,2E0,1.8E1,1.5E1,7.9E1,2E0,2E0,6.9E1,1E1,1.3E1,1.7E1,1E0,2E0,1.3E1,7.7E1,2E0,1E0,1E0,1E0,6.8E1],"tree_param":{"num_deleted":"0","num_feature":"2","num_nodes":"33","size_leaf_vector":"0"}},{"base_weights":[4.5063782E-1,1.0444229E1,3.5688636E-1,2.0884247E0,2.895442E-1,1.2348297E0,2.6333122E0,5.913793E-1,1.5411001E-1,7.6818055E-1,4.6167397E-1,1.4299995E-1,5.155449E-1,6.610923E-1,1.3688265E0,-8.283506E-2,5.6020015E-1,2.7961525E-1,1.2959857E-1,8.1478184E-1,-1.9108295E-1,8.752372E-1,4.4561467E-1,1.8239276E-1,-8.37101E-1,2.6464948E-1,1.0172704E0,-2.9290313E-1,1.4496997E-1],"categories":[],"categories_nodes":[],"categories_segments":[],"categories_sizes":[],"default_left":[true,false,true,true,true,false,false,true,true,true,true,true,true,true,false,true,true,false,true,false,false,false,false,false,false,false,false,false,false],"id":43,"left_children":[1,-1,3,5,7,-1,-1,9,11,13,15,17,19,21,-1,23,25,-1,27,-1,-1,-1,-1,-1,-1,-1,-1,-1,-1],"loss_changes":[2.0145673E2,0E0,2.481531E1,4.692154E-1,8.5342865E0,0E0,0E0,1.1359348E0,5.165651E-1,7.674551E-1,2.19234E0,2.2740245E-1,1.0014875E0,7.174244E-1,0E0,1.5530473E0,4.3237534E0,0E0,9.062228E-1,0E0,0E0,0E0,0E0,0E0,0E0,0E0,0E0,0E0,0E0],"parents":[2147483647,0,0,2,2,3,3,4,4,7,7,8,8,9,9,10,10,11,11,12,12,13,13,15,15,16,16,18,18],"right_children":[2,-1,4,6,8,-1,-1,10,12,14,16,18,20,22,-1,24,26,-1,28,-1,-1,-1,-1,-1,-1,-1,-1,-1,-1],"split_conditions":[4E0,1.044423E0,3.05E1,5.85E2,2.975E2,1.23482965E-1,2.6333123E-1,1.16E2,4.7853E2,1.11E2,1.38E2,3.475E2,6.9320996E2,6.2E1,1.3688265E-1,6.75E2,5.81345E2,2.7961526E-2,3.645E2,8.1478186E-2,-1.9108295E-2,8.752372E-2,4.4561468E-2,1.8239276E-2,-8.37101E-2,2.6464948E-2,1.01727046E-1,-2.9290313E-2,1.4496997E-2],"split_indices":[1,0,1,0,1,0,0,1,0,1,1,1,0,1,0,0,0,0,1,0,0,0,0,0,0,0,0,0,0],"split_type":[0,0,0,0,0,0,0,0,0,0,0,0,0,0,0,0,0,0,0,0,0,0,0,0,0,0,0,0,0],"sum_hessian":[2.18E2,1E0,2.17E2,7E0,2.1E2,4E0,3E0,6.4E1,1.46E2,2.5E1,3.9E1,1.43E2,3E0,2.3E1,2E0,6E0,3.3E1,1.1E1,1.32E2,2E0,1E0,1E1,1.3E1,5E0,1E0,2.1E1,1.2E1,4E0,1.28E2],"tree_param":{"num_deleted":"0","num_feature":"2","num_nodes":"29","size_leaf_vector":"0"}},{"base_weights":[4.139689E-1,9.92202E0,3.2484013E-1,1.9279356E0,2.6251975E-1,1.1360443E0,2.4358158E0,5.974891E-1,1.6021287E-1,1.1213799E0,5.389445E-1,2.446531E-1,1.1373339E-1,1.45595E-1,6.894884E-1,-9.5807076E-2,2.9423368E-1,1.07066125E-1,4.102316E-1,3.8754794E-1,-5.561743E-1,4.7494143E-1,1.0754058E0,2.7809754E-1,-5.3923607E-1,1.4439507E0,2.4130167E-1,2.4414578E-1,9.929687E-2],"categories":[],"categories_nodes":[],"categories_segments":[],"categories_sizes":[],"default_left":[true,false,true,true,true,false,false,true,true,false,true,true,true,true,true,true,true,true,false,false,false,false,false,false,false,false,false,false,false],"id":44,"left_children":[1,-1,3,5,7,-1,-1,9,11,-1,13,15,17,19,21,23,25,27,-1,-1,-1,-1,-1,-1,-1,-1,-1,-1,-1],"loss_changes":[1.8236647E2,0E0,2.1273287E1,4.502926E-1,7.135173E0,0E0,0E0,8.985176E-1,6.11907E-1,0E0,2.6235666E0,9.9036145E-1,1.6759896E-1,2.5926762E0,2.2215595E0,1.4763614E0,2.6944132E0,8.864796E-2,0E0,0E0,0E0,0E0,0E0,0E0,0E0,0E0,0E0,0E0,0E0],"parents":[2147483647,0,0,2,2,3,3,4,4,7,7,8,8,10,10,11,11,12,12,13,13,14,14,15,15,16,16,17,17],"right_children":[2,-1,4,6,8,-1,-1,10,12,-1,14,16,18,20,22,24,26,28,-1,-1,-1,-1,-1,-1,-1,-1,-1,-1,-1],"split_conditions":[4E0,9.92202E-1,3.05E1,5.85E2,2.15E2,1.1360443E-1,2.4358158E-1,3.7739E2,4.365E2,1.1213799E-1,5.54805E2,2.53E2,4.7853E2,1.555E2,1.38E2,2.37E2,2.575E2,1.69765E2,4.102316E-2,3.8754795E-2,-5.561743E-2,4.7494143E-2,1.07540585E-1,2.7809754E-2,-5.3923607E-2,1.4439507E-1,2.4130167E-2,2.4414578E-2,9.929687E-3],"split_indices":[1,0,1,0,1,0,0,0,1,0,0,1,0,1,1,1,1,0,0,0,0,0,0,0,0,0,0,0,0],"split_type":[0,0,0,0,0,0,0,0,0,0,0,0,0,0,0,0,0,0,0,0,0,0,0,0,0,0,0,0,0],"sum_hessian":[2.18E2,1E0,2.17E2,7E0,2.1E2,4E0,3E0,4.8E1,1.62E2,3E0,4.5E1,5.6E1,1.06E2,1.3E1,3.2E1,7E0,4.9E1,1.05E2,1E0,1E1,3E0,2.2E1,1E1,4E0,3E0,1E0,4.8E1,4E0,1.01E2],"tree_param":{"num_deleted":"0","num_feature":"2","num_nodes":"29","size_leaf_vector":"0"}},{"base_weights":[3.808713E-1,9.425919E0,2.9614207E-1,1.5532893E0,2.2823457E-1,2.1193206E0,9.270826E-1,4.6960092E-1,1.2488119E-1,5.0040925E-1,1.8304061E-2,1.1478116E-1,4.5726204E-1,4.4834328E-1,1.0912142E0,-1.547535E0,7.9664755E-1,2.3820323E-1,1.0379292E-1,7.387454E-1,-1.9359398E-1,4.8697898E-1,-8.189926E-1,1.7306747E0,3.0116907E-1,1.1354307E0,-1.0985088E-1,-2.1362178E-1,1.177518E-1],"categories":[],"categories_nodes":[],"categories_segments":[],"categories_sizes":[],"default_left":[true,false,true,true,true,false,false,true,true,true,true,true,true,true,true,false,true,false,true,false,false,false,false,false,false,false,false,false,false],"id":45,"left_children":[1,-1,3,5,7,-1,-1,9,11,13,15,17,19,21,23,-1,25,-1,27,-1,-1,-1,-1,-1,-1,-1,-1,-1,-1],"loss_changes":[1.6504573E2,0E0,1.8256084E1,1.9341946E0,5.13013E0,0E0,0E0,8.5287E-1,4.4100237E-1,1.2948895E0,7.3266425E0,1.7056763E-1,8.7583715E-1,3.091875E0,1.4995852E0,0E0,1.3531535E0,0E0,6.1887515E-1,0E0,0E0,0E0,0E0,0E0,0E0,0E0,0E0,0E0,0E0],"parents":[2147483647,0,0,2,2,3,3,4,4,7,7,8,8,9,9,10,10,11,11,12,12,13,13,14,14,16,16,18,18],"right_children":[2,-1,4,6,8,-1,-1,10,12,14,16,18,20,22,24,-1,26,-1,28,-1,-1,-1,-1,-1,-1,-1,-1,-1,-1],"split_conditions":[4E0,9.4259185E-1,4.05E1,1.75E1,2.975E2,2.1193206E-1,9.270826E-2,7.9303503E2,4.7853E2,7.6445E2,7.9781E2,3.41E2,6.9320996E2,7.3157E2,7.7775E2,-1.5475349E-1,2.405E2,2.3820324E-2,3.645E2,7.387454E-2,-1.9359399E-2,4.86979E-2,-8.189926E-2,1.7306748E-1,3.0116906E-2,1.1354307E-1,-1.0985089E-2,-2.1362178E-2,1.177518E-2],"split_indices":[1,0,1,1,1,0,0,0,0,0,0,1,0,0,0,0,1,0,1,0,0,0,0,0,0,0,0,0,0],"split_type":[0,0,0,0,0,0,0,0,0,0,0,0,0,0,0,0,0,0,0,0,0,0,0,0,0,0,0,0,0],"sum_hessian":[2.18E2,1E0,2.17E2,1E1,2.07E2,4E0,6E0,6.1E1,1.46E2,5.7E1,4E0,1.43E2,3E0,5.4E1,3E0,1E0,3E0,1E1,1.33E2,2E0,1E0,5.3E1,1E0,1E0,2E0,2E0,1E0,5E0,1.28E2],"tree_param":{"num_deleted":"0","num_feature":"2","num_nodes":"29","size_leaf_vector":"0"}},{"base_weights":[3.4933102E-1,8.95462E0,2.6878098E-1,1.6390619E0,2.1555336E-1,9.471542E-1,2.094181E0,1.3848783E-1,5.317156E-1,6.2178165E-1,1.1095328E-1,1.0134671E0,3.4361938E-1,3.9419556E-1,8.077154E-1,1.1989869E-1,-6.691017E-1,1.3770294E-1,1.192781E0,6.916168E-1,1.449722E-1,1.9431114E-1,9.4741315E-1,2.3664132E-1,9.266427E-2,3.2667923E-1,-1.2012482E-1,6.186883E-1,2.134737E0,-1.8577784E-1,4.6254298E-1],"categories":[],"categories_nodes":[],"categories_segments":[],"categories_sizes":[],"default_left":[true,false,true,true,true,false,false,true,true,true,true,true,true,false,true,true,false,true,true,false,true,false,false,false,false,false,false,false,false,false,false],"id":46,"left_children":[1,-1,3,5,7,-1,-1,9,11,13,15,17,19,-1,21,23,-1,25,27,-1,29,-1,-1,-1,-1,-1,-1,-1,-1,-1,-1],"loss_changes":[1.4939444E2,0E0,1.5546916E1,5.356922E-1,5.067423E0,0E0,0E0,2.2065566E0,3.3669949E0,6.244564E-2,1.2176242E0,1.5631542E0,2.0427241E0,0E0,1.5867186E-1,4.9313736E-1,0E0,1.8541229E-1,3.546194E0,0E0,2.2916977E0,0E0,0E0,0E0,0E0,0E0,0E0,0E0,0E0,0E0,0E0],"parents":[2147483647,0,0,2,2,3,3,4,4,7,7,8,8,9,9,10,10,11,11,12,12,14,14,15,15,17,17,18,18,20,20],"right_children":[2,-1,4,6,8,-1,-1,10,12,14,16,18,20,-1,22,24,-1,26,28,-1,30,-1,-1,-1,-1,-1,-1,-1,-1,-1,-1],"split_conditions":[4E0,8.9546204E-1,3.05E1,5.85E2,5.47395E2,9.4715424E-2,2.094181E-1,1.26E2,5.8416003E2,9.1E1,5.28365E2,8.25E1,8.4E1,3.9419558E-2,3.2113E2,3.475E2,-6.691017E-2,5.7919E2,5.81345E2,6.9161676E-2,1.545E2,1.9431114E-2,9.4741315E-2,2.3664132E-2,9.266428E-3,3.2667924E-2,-1.2012482E-2,6.1868828E-2,2.134737E-1,-1.8577784E-2,4.62543E-2],"split_indices":[1,0,1,0,0,0,0,1,0,1,0,1,1,0,0,1,0,0,0,0,1,0,0,0,0,0,0,0,0,0,0],"split_type":[0,0,0,0,0,0,0,0,0,0,0,0,0,0,0,0,0,0,0,0,0,0,0,0,0,0,0,0,0,0,0],"sum_hessian":[2.18E2,1E0,2.17E2,7E0,2.1E2,4E0,3E0,1.7E2,4E1,8E0,1.62E2,1E1,3E1,5E0,3E0,1.61E2,1E0,2E0,8E0,1E1,2E1,1E0,2E0,2.9E1,1.32E2,1E0,1E0,6E0,2E0,1E1,1E1],"tree_param":{"num_deleted":"0","num_feature":"2","num_nodes":"31","size_leaf_vector":"0"}},{"base_weights":[3.2221517E-1,8.506889E0,2.4564837E-1,1.5131702E0,1.9642647E-1,8.713791E-1,1.9371166E0,4.9283442E-1,1.24209195E-1,4.241046E-1,1.6210136E0,-1.4932861E0,1.4250791E-1,4.744024E-1,-7.6875496E-1,1.0791948E-1,6.851309E-1,5.813246E-1,-1.2586594E-2,1.1754887E-1,-7.1639156E-1,9.400456E-1,-2.2301865E-1],"categories":[],"categories_nodes":[],"categories_segments":[],"categories_sizes":[],"default_left":[true,false,true,true,true,false,false,true,true,true,false,false,true,true,false,true,true,false,false,false,false,false,false],"id":47,"left_children":[1,-1,3,5,7,-1,-1,9,11,13,-1,-1,15,17,-1,19,21,-1,-1,-1,-1,-1,-1],"loss_changes":[1.3515198E2,0E0,1.3303761E1,4.8871613E-1,4.4554033E0,0E0,0E0,2.491643E0,5.2740774E0,2.764629E0,0E0,0E0,3.1167026E0,2.038044E0,0E0,1.3621666E0,2.5246544E0,0E0,0E0,0E0,0E0,0E0,0E0],"parents":[2147483647,0,0,2,2,3,3,4,4,7,7,8,8,9,9,12,12,13,13,15,15,16,16],"right_children":[2,-1,4,6,8,-1,-1,10,12,14,-1,-1,16,18,-1,20,22,-1,-1,-1,-1,-1,-1],"split_conditions":[4E0,8.5068893E-1,3.05E1,5.85E2,1.7E2,8.713791E-2,1.9371167E-1,7.6445E2,1.76E2,7.025E2,1.6210137E-1,-1.4932862E-1,5.81345E2,1.41E2,-7.68755E-2,5.78345E2,2.62E2,5.813246E-2,-1.2586594E-3,1.1754887E-2,-7.163916E-2,9.4004564E-2,-2.2301866E-2],"split_indices":[1,0,1,0,1,0,0,0,1,0,0,0,0,1,0,0,1,0,0,0,0,0,0],"split_type":[0,0,0,0,0,0,0,0,0,0,0,0,0,0,0,0,0,0,0,0,0,0,0],"sum_hessian":[2.18E2,1E0,2.17E2,7E0,2.1E2,4E0,3E0,4E1,1.7E2,3.9E1,1E0,1E0,1.69E2,3.8E1,1E0,1.6E2,9E0,3.1E1,7E0,1.59E2,1E0,7E0,2E0],"tree_param":{"num_deleted":"0","num_feature":"2","num_nodes":"23","size_leaf_vector":"0"}},{"base_weights":[2.951814E-1,8.081543E0,2.2239283E-1,1.2175709E0,1.6869402E-1,1.7918339E0,7.7824306E-1,1.0872E-1,4.2579377E-1,5.172758E-1,8.8001184E-2,9.1394824E-1,2.2594918E-1,1.3921611E-1,6.2009305E-1,9.6464455E-2,-6.415243E-1,9.206263E-2,1.0863603E0,3.029155E-1,-3.3081913E-1,-7.3646545E-2,2.824707E-1,1.5552902E-1,6.819E-1,2.0735216E-1,7.275098E-2,2.812786E-1,-1.4318466E-1,5.64588E-1,1.9417089E0,1.2866548E-1,8.623047E-1],"categories":[],"categories_nodes":[],"categories_segments":[],"categories_sizes":[],"default_left":[true,false,true,true,true,false,false,true,true,true,true,true,true,true,true,true,false,true,true,true,false,false,false,false,false,false,false,false,false,false,false,false,false],"id":48,"left_children":[1,-1,3,5,7,-1,-1,9,11,13,15,17,19,21,23,25,-1,27,29,31,-1,-1,-1,-1,-1,-1,-1,-1,-1,-1,-1,-1,-1],"loss_changes":[1.2232273E2,0E0,1.1444495E1,1.3807049E0,3.160924E0,0E0,0E0,1.3934937E0,3.5981407E0,2.2464156E-1,1.0682741E0,1.4587193E0,1.34293E0,1.1228365E-1,6.6224575E-2,4.108994E-1,0E0,1.7381243E-1,2.9204102E0,2.4233644E0,0E0,0E0,0E0,0E0,0E0,0E0,0E0,0E0,0E0,0E0,0E0,0E0,0E0],"parents":[2147483647,0,0,2,2,3,3,4,4,7,7,8,8,9,9,10,10,11,11,12,12,13,13,14,14,15,15,17,17,18,18,19,19],"right_children":[2,-1,4,6,8,-1,-1,10,12,14,16,18,20,22,24,26,-1,28,30,32,-1,-1,-1,-1,-1,-1,-1,-1,-1,-1,-1,-1,-1],"split_conditions":[4E0,8.081543E-1,4.05E1,1.35E1,5.47395E2,1.791834E-1,7.782431E-2,1.26E2,5.8416003E2,6.65E1,5.28365E2,8.25E1,2.41E2,5.2722E2,3.2113E2,3.35E2,-6.4152434E-2,5.7919E2,5.81345E2,1.76E2,-3.3081915E-2,-7.3646544E-3,2.8247071E-2,1.5552903E-2,6.819E-2,2.0735217E-2,7.275098E-3,2.8127862E-2,-1.4318466E-2,5.64588E-2,1.9417089E-1,1.2866548E-2,8.623047E-2],"split_indices":[1,0,1,1,0,0,0,1,0,1,0,1,1,0,0,1,0,0,0,1,0,0,0,0,0,0,0,0,0,0,0,0,0],"split_type":[0,0,0,0,0,0,0,0,0,0,0,0,0,0,0,0,0,0,0,0,0,0,0,0,0,0,0,0,0,0,0,0,0],"sum_hessian":[2.18E2,1E0,2.17E2,1E1,2.07E2,3E0,7E0,1.69E2,3.8E1,7E0,1.62E2,1E1,2.8E1,2E0,5E0,1.61E2,1E0,2E0,8E0,2.5E1,3E0,1E0,1E0,1E0,4E0,2.7E1,1.34E2,1E0,1E0,6E0,2E0,2E1,5E0],"tree_param":{"num_deleted":"0","num_feature":"2","num_nodes":"33","size_leaf_vector":"0"}},{"base_weights":[2.723488E-1,7.6774673E0,2.0316261E-1,9.625282E-1,1.4231034E-1,1.8085531E0,7.124852E-1,3.632082E-1,9.884869E-2,2.7871287E-1,1.5335293E0,-1.4250555E0,1.16195515E-1,5.0680363E-1,-1.4367199E-1,8.721391E-2,5.7117975E-1,2.0960712E-1,8.1275904E-1,1.1395645E-1,-9.545428E-1,9.661902E-2,-7.0880127E-1,7.837608E-1,-1.8609619E-1],"categories":[],"categories_nodes":[],"categories_segments":[],"categories_sizes":[],"default_left":[true,false,true,true,true,false,false,true,true,true,false,false,true,true,true,true,true,false,false,false,false,false,false,false,false],"id":49,"left_children":[1,-1,3,5,7,-1,-1,9,11,13,-1,-1,15,17,19,21,23,-1,-1,-1,-1,-1,-1,-1,-1],"loss_changes":[1.106409E2,0E0,9.936612E0,2.0961142E0,1.9130158E0,0E0,0E0,2.8358455E0,4.685952E0,3.15576E0,0E0,0E0,2.1918344E0,1.7391458E0,2.6156168E0,1.2738271E0,1.7556798E0,0E0,0E0,0E0,0E0,0E0,0E0,0E0,0E0],"parents":[2147483647,0,0,2,2,3,3,4,4,7,7,8,8,9,9,12,12,13,13,14,14,15,15,16,16],"right_children":[2,-1,4,6,8,-1,-1,10,12,14,-1,-1,16,18,20,22,24,-1,-1,-1,-1,-1,-1,-1,-1],"split_conditions":[4E0,7.6774675E-1,5.5E1,1E1,1.7E2,1.8085532E-1,7.1248524E-2,7.6445E2,1.76E2,5.8626E2,1.5335293E-1,-1.4250556E-1,5.81345E2,5.2722E2,1.34E2,5.78345E2,2.62E2,2.0960713E-2,8.12759E-2,1.1395645E-2,-9.545428E-2,9.661902E-3,-7.088013E-2,7.837608E-2,-1.8609619E-2],"split_indices":[1,0,1,1,1,0,0,0,1,0,0,0,0,0,1,0,1,0,0,0,0,0,0,0,0],"split_type":[0,0,0,0,0,0,0,0,0,0,0,0,0,0,0,0,0,0,0,0,0,0,0,0,0],"sum_hessian":[2.18E2,1E0,2.17E2,1.5E1,2.02E2,2E0,1.3E1,3.2E1,1.7E2,3.1E1,1E0,1E0,1.69E2,2E1,1.1E1,1.6E2,9E0,1.1E1,9E0,9E0,2E0,1.59E2,1E0,7E0,2E0],"tree_param":{"num_deleted":"0","num_feature":"2","num_nodes":"25","size_leaf_vector":"0"}},{"base_weights":[2.4989654E-1,7.2935944E0,1.8412915E-1,1.3701591E0,1.4985539E-1,3.918686E-1,8.812193E-2,3.318249E-1,1.456852E0,-1.3538027E0,1.0456738E-1,3.735291E-1,-6.89024E-1,7.811227E-2,5.20038E-1,4.6371314E-1,-5.6444168E-2,8.701748E-2,-6.733608E-1,7.151811E-1,-1.7368953E-1],"categories":[],"categories_nodes":[],"categories_segments":[],"categories_sizes":[],"default_left":[true,false,true,false,true,true,true,true,false,false,true,true,false,true,true,false,false,false,false,false,false],"id":50,"left_children":[1,-1,3,-1,5,7,9,11,-1,-1,13,15,-1,17,19,-1,-1,-1,-1,-1,-1],"loss_changes":[1.0010784E2,0E0,8.656307E0,0E0,3.1477547E0,2.2662392E0,4.1965046E0,2.045466E0,0E0,0E0,1.8279037E0,1.6160192E0,0E0,1.1360106E0,1.4779809E0,0E0,0E0,0E0,0E0,0E0,0E0],"parents":[2147483647,0,0,2,2,4,4,5,5,6,6,7,7,10,10,11,11,13,13,14,14],"right_children":[2,-1,4,-1,6,8,10,12,-1,-1,14,16,-1,18,20,-1,-1,-1,-1,-1,-1],"split_conditions":[4E0,7.2935945E-1,2.15E1,1.3701592E-1,1.7E2,7.6445E2,1.76E2,7.025E2,1.456852E-1,-1.3538027E-1,5.81345E2,1.41E2,-6.8902396E-2,5.78345E2,2.62E2,4.6371315E-2,-5.644417E-3,8.701748E-3,-6.733608E-2,7.1518116E-2,-1.7368954E-2],"split_indices":[1,0,1,0,1,0,1,0,0,0,0,1,0,0,1,0,0,0,0,0,0],"split_type":[0,0,0,0,0,0,0,0,0,0,0,0,0,0,0,0,0,0,0,0,0],"sum_hessian":[2.18E2,1E0,2.17E2,5E0,2.12E2,4.2E1,1.7E2,4.1E1,1E0,1E0,1.69E2,4E1,1E0,1.6E2,9E0,3.3E1,7E0,1.59E2,1E0,7E0,2E0],"tree_param":{"num_deleted":"0","num_feature":"2","num_nodes":"21","size_leaf_vector":"0"}},{"base_weights":[2.287612E-1,6.928917E0,1.6624252E-1,1.255979E0,1.3476524E-1,6.864891E-1,1.596639E0,3.5541463E-1,7.84922E-2,2.9797164E-1,1.3840103E0,-1.2861128E0,9.408466E-2,3.3716965E-1,-6.5457344E-1,6.9937274E-2,4.7344914E-1,4.1870555E-1,-5.1504135E-2,7.8370534E-2,-6.396923E-1,6.526029E-1,-1.6211064E-1],"categories":[],"categories_nodes":[],"categories_segments":[],"categories_sizes":[],"default_left":[true,false,true,true,true,false,false,true,true,true,false,false,true,true,false,true,true,false,false,false,false,false,false],"id":51,"left_children":[1,-1,3,5,7,-1,-1,9,11,13,-1,-1,15,17,-1,19,21,-1,-1,-1,-1,-1,-1],"loss_changes":[9.0583916E1,0E0,7.3085604E0,6.793976E-2,2.616841E0,0E0,0E0,2.128286E0,3.7594638E0,1.788893E0,0E0,0E0,1.5242007E0,1.3208909E0,0E0,1.0136362E0,1.2444232E0,0E0,0E0,0E0,0E0,0E0,0E0],"parents":[2147483647,0,0,2,2,3,3,4,4,7,7,8,8,9,9,12,12,13,13,15,15,16,16],"right_children":[2,-1,4,6,8,-1,-1,10,12,14,-1,-1,16,18,-1,20,22,-1,-1,-1,-1,-1,-1],"split_conditions":[4E0,6.928917E-1,2.15E1,6.2605E2,1.7E2,6.864891E-2,1.596639E-1,7.6445E2,1.76E2,7.025E2,1.3840103E-1,-1.2861128E-1,5.81345E2,1.41E2,-6.5457344E-2,5.78345E2,2.62E2,4.1870557E-2,-5.1504136E-3,7.837053E-3,-6.396923E-2,6.526029E-2,-1.6211065E-2],"split_indices":[1,0,1,0,1,0,0,0,1,0,0,0,0,1,0,0,1,0,0,0,0,0,0],"split_type":[0,0,0,0,0,0,0,0,0,0,0,0,0,0,0,0,0,0,0,0,0,0,0],"sum_hessian":[2.18E2,1E0,2.17E2,5E0,2.12E2,3E0,2E0,4.2E1,1.7E2,4.1E1,1E0,1E0,1.69E2,4E1,1E0,1.6E2,9E0,3.3E1,7E0,1.59E2,1E0,7E0,2E0],"tree_param":{"num_deleted":"0","num_feature":"2","num_nodes":"23","size_leaf_vector":"0"}},{"base_weights":[2.0997252E-1,6.5824738E0,1.5054603E-1,1.1684341E0,1.2116633E-1,6.3500214E-1,1.4901987E0,3.2242373E-1,6.984918E-2,2.6749048E-1,1.3148098E0,-1.2218075E0,8.463427E-2,3.0434856E-1,-6.2184525E-1,6.259466E-2,4.3100852E-1,3.780669E-1,-4.6998024E-2,-6.2254906E-1,7.076774E-2,5.954995E-1,-1.513036E-1],"categories":[],"categories_nodes":[],"categories_segments":[],"categories_sizes":[],"default_left":[true,false,true,true,true,false,false,true,true,true,false,false,true,true,false,true,true,false,false,false,false,false,false],"id":52,"left_children":[1,-1,3,5,7,-1,-1,9,11,13,-1,-1,15,17,-1,19,21,-1,-1,-1,-1,-1,-1],"loss_changes":[8.194332E1,0E0,6.377767E0,8.355808E-2,2.1773338E0,0E0,0E0,1.992445E0,3.3690367E0,1.565984E0,0E0,0E0,1.2707933E0,1.0796969E0,0E0,9.456136E-1,1.0479523E0,0E0,0E0,0E0,0E0,0E0,0E0],"parents":[2147483647,0,0,2,2,3,3,4,4,7,7,8,8,9,9,12,12,13,13,15,15,16,16],"right_children":[2,-1,4,6,8,-1,-1,10,12,14,-1,-1,16,18,-1,20,22,-1,-1,-1,-1,-1,-1],"split_conditions":[4E0,6.582474E-1,2.15E1,6.2605E2,1.7E2,6.350022E-2,1.4901988E-1,7.6445E2,1.76E2,7.025E2,1.3148098E-1,-1.2218075E-1,5.81345E2,1.41E2,-6.2184524E-2,1.855E2,2.62E2,3.780669E-2,-4.6998025E-3,-6.2254906E-2,7.076774E-3,5.9549954E-2,-1.5130361E-2],"split_indices":[1,0,1,0,1,0,0,0,1,0,0,0,0,1,0,1,1,0,0,0,0,0,0],"split_type":[0,0,0,0,0,0,0,0,0,0,0,0,0,0,0,0,0,0,0,0,0,0,0],"sum_hessian":[2.18E2,1E0,2.17E2,5E0,2.12E2,3E0,2E0,4.2E1,1.7E2,4.1E1,1E0,1E0,1.69E2,4E1,1E0,1.6E2,9E0,3.3E1,7E0,1E0,1.59E2,7E0,2E0],"tree_param":{"num_deleted":"0","num_feature":"2","num_nodes":"23","size_leaf_vector":"0"}},{"base_weights":[1.9281182E-1,6.2533493E0,1.3632609E-1,9.572363E-1,1.0455544E-1,5.808881E-1,1.3908539E0,6.1993107E-2,2.7952138E-1,6.931567E-2,-5.914211E-1,7.4595606E-1,1.0499548E-1,2.054519E-1,3.249922E-2,-5.075709E-2,9.286431E-1,-2.8201786E-1,2.0915939E-1,3.2185832E-1,2.1025721E-2,-2.0198795E-1,4.49714E-2,1.6355133E-1,-2.3968697E-1,4.8614773E-1,1.6515846E0,1.4919789E-1,-4.843437E-1,3.1601316E-1,-2.814583E-1],"categories":[],"categories_nodes":[],"categories_segments":[],"categories_sizes":[],"default_left":[true,false,true,true,true,false,false,true,true,true,false,true,true,true,true,true,true,true,true,false,false,false,false,false,false,false,false,false,false,false,false],"id":53,"left_children":[1,-1,3,5,7,-1,-1,9,11,13,-1,15,17,19,21,23,25,27,29,-1,-1,-1,-1,-1,-1,-1,-1,-1,-1,-1,-1],"loss_changes":[7.4118614E1,0E0,5.5855412E0,4.9759912E-1,1.5539801E0,0E0,0E0,8.5917264E-1,3.25928E0,8.45372E-1,0E0,1.6481767E0,1.3086841E0,7.6609457E-1,4.0390006E-1,1.6066891E-1,2.0761695E0,6.8298584E-1,1.3995531E0,0E0,0E0,0E0,0E0,0E0,0E0,0E0,0E0,0E0,0E0,0E0,0E0],"parents":[2147483647,0,0,2,2,3,3,4,4,7,7,8,8,9,9,11,11,12,12,13,13,14,14,15,15,16,16,17,17,18,18],"right_children":[2,-1,4,6,8,-1,-1,10,12,14,-1,16,18,20,22,24,26,28,30,-1,-1,-1,-1,-1,-1,-1,-1,-1,-1,-1,-1],"split_conditions":[4E0,6.253349E-1,3.05E1,6.2605E2,5.47395E2,5.808881E-2,1.390854E-1,5.45365E2,5.8416003E2,3.35E2,-5.9142113E-2,8.25E1,5.93675E2,3.7739E2,3.645E2,5.7919E2,5.81345E2,5.8626E2,2.235E2,3.2185834E-2,2.1025722E-3,-2.0198796E-2,4.49714E-3,1.6355133E-2,-2.3968697E-2,4.8614774E-2,1.6515847E-1,1.49197895E-2,-4.8434373E-2,3.1601317E-2,-2.814583E-2],"split_indices":[1,0,1,0,0,0,0,0,0,1,0,1,0,0,1,0,0,0,1,0,0,0,0,0,0,0,0,0,0,0,0],"split_type":[0,0,0,0,0,0,0,0,0,0,0,0,0,0,0,0,0,0,0,0,0,0,0,0,0,0,0,0,0,0,0],"sum_hessian":[2.18E2,1E0,2.17E2,7E0,2.1E2,5E0,2E0,1.7E2,4E1,1.69E2,1E0,1E1,3E1,3.5E1,1.34E2,2E0,8E0,6E0,2.4E1,2.1E1,1.4E1,6E0,1.28E2,1E0,1E0,6E0,2E0,2E0,4E0,2E1,4E0],"tree_param":{"num_deleted":"0","num_feature":"2","num_nodes":"31","size_leaf_vector":"0"}},{"base_weights":[1.7790514E-1,5.9406815E0,1.2421955E-1,1.0116056E0,9.863957E-2,5.438099E-1,1.2981313E0,2.7355877E-1,5.4077197E-2,2.2134499E-1,1.2332687E0,-1.1765175E0,6.823668E-2,2.5633165E-1,-6.0655403E-1,4.1709375E-1,5.069623E-2,2.1655588E-1,9.2368126E-1,1.2705803E-2,6.571854E-1,-2.7769923E-1,6.721205E-2],"categories":[],"categories_nodes":[],"categories_segments":[],"categories_sizes":[],"default_left":[true,false,true,true,true,false,false,true,true,true,false,false,true,true,false,true,true,false,false,false,false,false,false],"id":54,"left_children":[1,-1,3,5,7,-1,-1,9,11,13,-1,-1,15,17,-1,19,21,-1,-1,-1,-1,-1,-1],"loss_changes":[6.701583E1,0E0,4.8486667E0,9.827614E-2,1.6455021E0,0E0,0E0,1.8817558E0,3.0598857E0,1.3720267E0,0E0,0E0,1.0191035E0,8.8828945E-1,0E0,7.68371E-1,9.02731E-1,0E0,0E0,0E0,0E0,0E0,0E0],"parents":[2147483647,0,0,2,2,3,3,4,4,7,7,8,8,9,9,12,12,13,13,15,15,16,16],"right_children":[2,-1,4,6,8,-1,-1,10,12,14,-1,-1,16,18,-1,20,22,-1,-1,-1,-1,-1,-1],"split_conditions":[4E0,5.9406817E-1,2.15E1,6.2605E2,1.7E2,5.438099E-2,1.2981313E-1,7.6445E2,1.76E2,7.025E2,1.23326875E-1,-1.1765175E-1,2.15E2,1.645E2,-6.0655404E-2,6.26935E2,2.53E2,2.1655587E-2,9.2368126E-2,1.2705803E-3,6.571854E-2,-2.7769923E-2,6.7212055E-3],"split_indices":[1,0,1,0,1,0,0,0,1,0,0,0,1,1,0,0,1,0,0,0,0,0,0],"split_type":[0,0,0,0,0,0,0,0,0,0,0,0,0,0,0,0,0,0,0,0,0,0,0],"sum_hessian":[2.18E2,1E0,2.17E2,5E0,2.12E2,3E0,2E0,4.2E1,1.7E2,4.1E1,1E0,1E0,1.69E2,4E1,1E0,7E0,1.62E2,3.9E1,1E0,3E0,4E0,7E0,1.55E2],"tree_param":{"num_deleted":"0","num_feature":"2","num_nodes":"23","size_leaf_vector":"0"}},{"base_weights":[1.6414745E-1,5.6436462E0,1.1312386E-1,6.6859376E-1,7.752078E-2,1.2115885E0,4.5972303E-1,4.7234014E-2,2.1458106E-1,5.4170128E-2,-5.6248474E-1,6.725531E-1,2.005238E-2,1.7135893E-1,2.1161437E-2,-6.26564E-2,8.4289485E-1,-2.7716556E-1,1.1817015E-1,2.733594E-1,-1.5738895E-2,-3.1016082E-1,3.3839345E-2,1.4454651E-1,-2.3853111E-1,4.2714173E-1,1.5320206E0,1.24814354E-1,-4.6292037E-1,2.0816135E-1,-3.1633282E-1],"categories":[],"categories_nodes":[],"categories_segments":[],"categories_sizes":[],"default_left":[true,false,true,true,true,false,false,true,true,true,false,true,true,true,true,true,true,true,true,false,false,false,false,false,false,false,false,false,false,false,false],"id":55,"left_children":[1,-1,3,5,7,-1,-1,9,11,13,-1,15,17,19,21,23,25,27,29,-1,-1,-1,-1,-1,-1,-1,-1,-1,-1,-1,-1],"loss_changes":[6.0590412E1,0E0,4.259433E0,9.174094E-1,8.449937E-1,0E0,0E0,7.4941343E-1,3.2827957E0,6.5010786E-1,0E0,1.4304185E0,8.201364E-1,7.1041274E-1,5.691585E-1,1.4380409E-1,1.9241657E0,5.8046705E-1,8.8697875E-1,0E0,0E0,0E0,0E0,0E0,0E0,0E0,0E0,0E0,0E0,0E0,0E0],"parents":[2147483647,0,0,2,2,3,3,4,4,7,7,8,8,9,9,11,11,12,12,13,13,14,14,15,15,16,16,17,17,18,18],"right_children":[2,-1,4,6,8,-1,-1,10,12,14,-1,16,18,20,22,24,26,28,30,-1,-1,-1,-1,-1,-1,-1,-1,-1,-1,-1,-1],"split_conditions":[4E0,5.643646E-1,4.55E1,1E1,5.47395E2,1.2115885E-1,4.5972303E-2,5.4258496E2,5.8416003E2,3.475E2,-5.6248475E-2,8.25E1,5.93675E2,3.7739E2,3.645E2,5.7919E2,5.81345E2,5.8626E2,2.41E2,2.733594E-2,-1.5738895E-3,