{"learner":{"attributes":{"best_iteration":"99","best_ntree_limit":"100","scikit_learn":"{\"n_estimators\": 100, \"objective\": \"reg:squarederror\", \"max_depth\": null, \"learning_rate\": 0.1, \"verbosity\": null, \"booster\": null, \"tree_method\": null, \"gamma\": null, \"min_child_weight\": null, \"max_delta_step\": null, \"subsample\": null, \"colsample_bytree\": null, \"colsample_bylevel\": null, \"colsample_bynode\": null, \"reg_alpha\": null, \"reg_lambda\": null, \"scale_pos_weight\": null, \"base_score\": null, \"missing\": NaN, \"num_parallel_tree\": null, \"random_state\": null, \"n_jobs\": null, \"monotone_constraints\": null, \"interaction_constraints\": null, \"importance_type\": null, \"gpu_id\": null, \"validate_parameters\": null, \"predictor\": null, \"enable_categorical\": false, \"_estimator_type\": \"regressor\"}"},"feature_names":["Price","Rank"],"feature_types":["int","int"],"gradient_booster":{"model":{"gbtree_model_param":{"num_trees":"100","size_leaf_vector":"0"},"tree_info":[0,0,0,0,0,0,0,0,0,0,0,0,0,0,0,0,0,0,0,0,0,0,0,0,0,0,0,0,0,0,0,0,0,0,0,0,0,0,0,0,0,0,0,0,0,0,0,0,0,0,0,0,0,0,0,0,0,0,0,0,0,0,0,0,0,0,0,0,0,0,0,0,0,0,0,0,0,0,0,0,0,0,0,0,0,0,0,0,0,0,0,0,0,0,0,0,0,0,0,0],"trees":[{"base_weights":[2.074495E1,3.4197918E1,1.6331125E1,3.7390625E1,2.617647E1,1.9712328E1,1.3E1,1.38125E1,1.05625E1],"categories":[],"categories_nodes":[],"categories_segments":[],"categories_sizes":[],"default_left":[true,true,true,false,false,false,true,false,false],"id":0,"left_children":[1,3,5,-1,-1,-1,7,-1,-1],"loss_changes":[1.1198555E4,2.5053516E2,1.4444844E3,0E0,0E0,0E0,1.05625E1,0E0,0E0],"parents":[2147483647,0,0,1,1,2,2,6,6],"right_children":[2,4,6,-1,-1,-1,8,-1,-1],"split_conditions":[1.53E2,7.9E1,3.66E2,3.7390625E0,2.617647E0,1.9712328E0,5.915E2,1.38125E0,1.05625E0],"split_indices":[1,1,1,0,0,0,1,0,0],"split_type":[0,0,0,0,0,0,0,0,0],"sum_hessian":[1.97E2,4.7E1,1.5E2,3.1E1,1.6E1,7.2E1,7.8E1,5.5E1,2.3E1],"tree_param":{"num_deleted":"0","num_feature":"2","num_nodes":"9","size_leaf_vector":"0"}},{"base_weights":[1.8724825E1,3.144577E1,1.4886076E1,1.8264938E1,1.1928354E1,1.2917643E1,9.97803E0],"categories":[],"categories_nodes":[],"categories_segments":[],"categories_sizes":[],"default_left":[true,false,true,false,true,false,false],"id":1,"left_children":[1,-1,3,-1,5,-1,-1],"loss_changes":[9.200734E3,0E0,1.3211641E3,0E0,3.511035E1,0E0,0E0],"parents":[2147483647,0,0,2,2,4,4],"right_children":[2,-1,4,-1,6,-1,-1],"split_conditions":[1.43E2,3.144577E0,3.33E2,1.8264939E0,5.255E2,1.2917643E0,9.9780303E-1],"split_indices":[1,0,1,0,1,0,0],"split_type":[0,0,0,0,0,0,0],"sum_hessian":[1.97E2,4.4E1,1.53E2,6.9E1,8.4E1,5.2E1,3.2E1],"tree_param":{"num_deleted":"0","num_feature":"2","num_nodes":"7","size_leaf_vector":"0"}},{"base_weights":[1.6889013E1,2.9325233E1,1.3654183E1,1.7063097E1,1.0986137E1,1.1889655E1,9.010464E0],"categories":[],"categories_nodes":[],"categories_segments":[],"categories_sizes":[],"default_left":[true,false,true,false,true,false,false],"id":2,"left_children":[1,-1,3,-1,5,-1,-1],"loss_changes":[7.5649414E3,0E0,1.2586699E3,0E0,5.709375E1,0E0,0E0],"parents":[2147483647,0,0,2,2,4,4],"right_children":[2,-1,4,-1,6,-1,-1],"split_conditions":[1.24E2,2.9325235E0,3.035E2,1.7063097E0,5.255E2,1.1889656E0,9.010464E-1],"split_indices":[1,0,1,0,1,0,0],"split_type":[0,0,0,0,0,0,0],"sum_hessian":[1.97E2,3.9E1,1.58E2,6.7E1,9.1E1,5.9E1,3.2E1],"tree_param":{"num_deleted":"0","num_feature":"2","num_nodes":"7","size_leaf_vector":"0"}},{"base_weights":[1.5234096E1,2.4996778E1,1.1855785E1,2.8048876E1,1.9016188E1,1.4290864E1,9.517225E0,1.0113001E1,7.73053E0],"categories":[],"categories_nodes":[],"categories_segments":[],"categories_sizes":[],"default_left":[true,true,true,false,false,false,true,false,false],"id":3,"left_children":[1,3,5,-1,-1,-1,7,-1,-1],"loss_changes":[6.233957E3,3.7928516E2,7.124824E2,0E0,0E0,0E0,5.9140625E0,0E0,0E0],"parents":[2147483647,0,0,1,1,2,2,6,6],"right_children":[2,4,6,-1,-1,-1,8,-1,-1],"split_conditions":[1.64E2,7.35E1,3.66E2,2.8048875E0,1.9016188E0,1.4290864E0,5.915E2,1.0113001E0,7.73053E-1],"split_indices":[1,1,1,0,0,0,1,0,0],"split_type":[0,0,0,0,0,0,0,0,0],"sum_hessian":[1.97E2,4.9E1,1.48E2,3E1,1.9E1,7E1,7.8E1,5.5E1,2.3E1],"tree_param":{"num_deleted":"0","num_feature":"2","num_nodes":"9","size_leaf_vector":"0"}},{"base_weights":[1.3750686E1,2.2144981E1,1.0529702E1,2.5482983E1,1.7253578E1,1.24208975E1,8.325979E0,1.3627706E1,1.0780541E1],"categories":[],"categories_nodes":[],"categories_segments":[],"categories_sizes":[],"default_left":[true,true,true,false,false,true,false,false,false],"id":4,"left_children":[1,3,5,-1,-1,7,-1,-1,-1],"loss_changes":[5.1203203E3,4.4201172E2,5.0089648E2,0E0,0E0,3.5351562E0,0E0,0E0,0E0],"parents":[2147483647,0,0,1,1,2,2,5,5],"right_children":[2,4,6,-1,-1,8,-1,-1,-1],"split_conditions":[1.775E2,6.9E1,3.945E2,2.5482984E0,1.7253579E0,2.72E2,8.325979E-1,1.3627706E0,1.0780542E0],"split_indices":[1,1,1,0,0,1,0,0,0],"split_type":[0,0,0,0,0,0,0,0,0],"sum_hessian":[1.97E2,5.3E1,1.44E2,2.9E1,2.4E1,7.5E1,6.9E1,3.9E1,3.6E1],"tree_param":{"num_deleted":"0","num_feature":"2","num_nodes":"9","size_leaf_vector":"0"}},{"base_weights":[1.24137335E1,2.1996552E1,1.0074846E1,1.3153767E1,8.353202E0,9.382047E0,6.914554E0],"categories":[],"categories_nodes":[],"categories_segments":[],"categories_sizes":[],"default_left":[true,false,true,false,true,false,false],"id":5,"left_children":[1,-1,3,-1,5,-1,-1],"loss_changes":[4.2161855E3,0E0,7.435547E2,0E0,9.202295E1,0E0,0E0],"parents":[2147483647,0,0,2,2,4,4],"right_children":[2,-1,4,-1,6,-1,-1],"split_conditions":[1.115E2,2.1996553E0,2.72E2,1.3153766E0,4.615E2,9.382047E-1,6.914554E-1],"split_indices":[1,0,1,0,1,0,0],"split_type":[0,0,0,0,0,0,0],"sum_hessian":[1.97E2,3.7E1,1.6E2,5.5E1,1.05E2,5.8E1,4.7E1],"tree_param":{"num_deleted":"0","num_feature":"2","num_nodes":"7","size_leaf_vector":"0"}},{"base_weights":[1.1198343E1,1.8112713E1,8.546107E0,2.1162031E1,1.4279614E1,1.0091516E1,6.7461486E0,7.0255027E0,4.810478E0],"categories":[],"categories_nodes":[],"categories_segments":[],"categories_sizes":[],"default_left":[true,true,true,false,false,false,true,false,false],"id":6,"left_children":[1,3,5,-1,-1,-1,7,-1,-1],"loss_changes":[3.4762383E3,3.2898438E2,3.3526367E2,0E0,0E0,0E0,4.055664E0,0E0,0E0],"parents":[2147483647,0,0,1,1,2,2,6,6],"right_children":[2,4,6,-1,-1,-1,8,-1,-1],"split_conditions":[1.775E2,6.35E1,3.945E2,2.116203E0,1.4279615E0,1.0091516E0,6.54E2,7.025503E-1,4.8104784E-1],"split_indices":[1,1,1,0,0,0,1,0,0],"split_type":[0,0,0,0,0,0,0,0,0],"sum_hessian":[1.97E2,5.3E1,1.44E2,2.7E1,2.6E1,7.5E1,6.9E1,5.8E1,1.1E1],"tree_param":{"num_deleted":"0","num_feature":"2","num_nodes":"9","size_leaf_vector":"0"}},{"base_weights":[1.0107484E1,1.8121998E1,8.214616E0,1.07826605E1,6.7561903E0,7.582022E0,5.6003513E0],"categories":[],"categories_nodes":[],"categories_segments":[],"categories_sizes":[],"default_left":[true,false,true,false,true,false,false],"id":7,"left_children":[1,-1,3,-1,5,-1,-1],"loss_changes":[2.854879E3,0E0,5.338887E2,0E0,5.871826E1,0E0,0E0],"parents":[2147483647,0,0,2,2,4,4],"right_children":[2,-1,4,-1,6,-1,-1],"split_conditions":[1.03E2,1.8121998E0,2.72E2,1.078266E0,4.615E2,7.5820225E-1,5.6003517E-1],"split_indices":[1,0,1,0,1,0,0],"split_type":[0,0,0,0,0,0,0],"sum_hessian":[1.97E2,3.6E1,1.61E2,5.6E1,1.05E2,5.8E1,4.7E1],"tree_param":{"num_deleted":"0","num_feature":"2","num_nodes":"7","size_leaf_vector":"0"}},{"base_weights":[9.117991E0,1.4478963E1,6.7935963E0,1.9073027E1,1.2325984E1,8.30919E0,5.7151628E0,6.124073E0,4.42068E0],"categories":[],"categories_nodes":[],"categories_segments":[],"categories_sizes":[],"default_left":[true,true,true,false,false,false,true,false,false],"id":8,"left_children":[1,3,5,-1,-1,-1,7,-1,-1],"loss_changes":[2.368916E3,3.484707E2,1.8133691E2,0E0,0E0,0E0,1.792041E1,0E0,0E0],"parents":[2147483647,0,0,1,1,2,2,6,6],"right_children":[2,4,6,-1,-1,-1,8,-1,-1],"split_conditions":[1.9E2,5.25E1,3.33E2,1.9073027E0,1.2325984E0,8.3091897E-1,5.915E2,6.124073E-1,4.42068E-1],"split_indices":[1,1,1,0,0,0,1,0,0],"split_type":[0,0,0,0,0,0,0,0,0],"sum_hessian":[1.97E2,5.8E1,1.39E2,1.6E1,4.2E1,5.5E1,8.4E1,6.1E1,2.3E1],"tree_param":{"num_deleted":"0","num_feature":"2","num_nodes":"9","size_leaf_vector":"0"}},{"base_weights":[8.231572E0,1.5116977E1,6.711933E0,1.8354013E1,1.2868584E1,9.0592165E0,5.57237E0,6.2431507E0,4.5339556E0],"categories":[],"categories_nodes":[],"categories_segments":[],"categories_sizes":[],"default_left":[true,true,true,false,false,false,true,false,false],"id":9,"left_children":[1,3,5,-1,-1,-1,7,-1,-1],"loss_changes":[1.9702744E3,1.8544434E1,3.8819873E2,0E0,0E0,0E0,5.040381E1,0E0,0E0],"parents":[2147483647,0,0,1,1,2,2,6,6],"right_children":[2,4,6,-1,-1,-1,8,-1,-1],"split_conditions":[9.5E1,4.8E1,2.425E2,1.8354014E0,1.2868584E0,9.0592164E-1,4.615E2,6.243151E-1,4.5339558E-1],"split_indices":[1,1,1,0,0,0,1,0,0],"split_type":[0,0,0,0,0,0,0,0,0],"sum_hessian":[1.97E2,3.4E1,1.63E2,1.1E1,2.3E1,5.1E1,1.12E2,6.5E1,4.7E1],"tree_param":{"num_deleted":"0","num_feature":"2","num_nodes":"9","size_leaf_vector":"0"}},{"base_weights":[7.434202E0,1.2432079E1,5.707168E0,1.6291115E1,1.0635901E1,7.165436E0,4.725791E0,5.167778E0,3.7789724E0],"categories":[],"categories_nodes":[],"categories_segments":[],"categories_sizes":[],"default_left":[true,true,true,false,false,false,true,false,false],"id":10,"left_children":[1,3,5,-1,-1,-1,7,-1,-1],"loss_changes":[1.6380859E3,1.7330469E2,1.7937305E2,0E0,0E0,0E0,1.8971436E1,0E0,0E0],"parents":[2147483647,0,0,1,1,2,2,6,6],"right_children":[2,4,6,-1,-1,-1,8,-1,-1],"split_conditions":[1.64E2,5E1,3.035E2,1.6291115E0,1.0635902E0,7.165436E-1,5.255E2,5.167778E-1,3.7789723E-1],"split_indices":[1,1,1,0,0,0,1,0,0],"split_type":[0,0,0,0,0,0,0,0,0],"sum_hessian":[1.97E2,4.9E1,1.48E2,1.3E1,3.6E1,5.7E1,9.1E1,5.9E1,3.2E1],"tree_param":{"num_deleted":"0","num_feature":"2","num_nodes":"9","size_leaf_vector":"0"}},{"base_weights":[6.7125187E0,1.2451233E1,5.446863E0,1.5391613E1,1.0659417E1,7.3678427E0,4.51467E0,5.055785E0,3.6765811E0],"categories":[],"categories_nodes":[],"categories_segments":[],"categories_sizes":[],"default_left":[true,true,true,false,false,false,true,false,false],"id":11,"left_children":[1,3,5,-1,-1,-1,7,-1,-1],"loss_changes":[1.3702998E3,2.0335938E1,2.6041553E2,0E0,0E0,0E0,3.2657715E1,0E0,0E0],"parents":[2147483647,0,0,1,1,2,2,6,6],"right_children":[2,4,6,-1,-1,-1,8,-1,-1],"split_conditions":[9.5E1,4.55E1,2.425E2,1.5391613E0,1.0659417E0,7.367843E-1,4.615E2,5.055785E-1,3.676581E-1],"split_indices":[1,1,1,0,0,0,1,0,0],"split_type":[0,0,0,0,0,0,0,0,0],"sum_hessian":[1.97E2,3.4E1,1.63E2,1E1,2.4E1,5.1E1,1.12E2,6.5E1,4.7E1],"tree_param":{"num_deleted":"0","num_feature":"2","num_nodes":"9","size_leaf_vector":"0"}},{"base_weights":[6.0625553E0,1.1374397E1,4.9312515E0,1.3992375E1,9.700557E0,6.6724772E0,4.070931E0,4.434159E0,3.0560102E0],"categories":[],"categories_nodes":[],"categories_segments":[],"categories_sizes":[],"default_left":[true,true,true,false,false,false,true,false,false],"id":12,"left_children":[1,3,5,-1,-1,-1,7,-1,-1],"loss_changes":[1.1337534E3,1.3256348E1,2.2000879E2,0E0,0E0,0E0,2.8106323E1,0E0,0E0],"parents":[2147483647,0,0,1,1,2,2,6,6],"right_children":[2,4,6,-1,-1,-1,8,-1,-1],"split_conditions":[8.75E1,4.55E1,2.425E2,1.3992375E0,9.700557E-1,6.672477E-1,5.255E2,4.4341588E-1,3.0560103E-1],"split_indices":[1,1,1,0,0,0,1,0,0],"split_type":[0,0,0,0,0,0,0,0,0],"sum_hessian":[1.97E2,3.3E1,1.64E2,1E1,2.3E1,5.2E1,1.12E2,8E1,3.2E1],"tree_param":{"num_deleted":"0","num_feature":"2","num_nodes":"9","size_leaf_vector":"0"}},{"base_weights":[5.475419E0,8.862458E0,4.0089135E0,1.1244912E1,7.1419473E0,4.749911E0,3.2000606E0,3.3753092E0,2.0717509E0],"categories":[],"categories_nodes":[],"categories_segments":[],"categories_sizes":[],"default_left":[true,true,true,false,false,false,true,false,false],"id":13,"left_children":[1,3,5,-1,-1,-1,7,-1,-1],"loss_changes":[9.479595E2,1.6153223E2,6.870996E1,0E0,0E0,0E0,6.848572E0,0E0,0E0],"parents":[2147483647,0,0,1,1,2,2,6,6],"right_children":[2,4,6,-1,-1,-1,8,-1,-1],"split_conditions":[1.9E2,5.85E1,3.945E2,1.1244912E0,7.141947E-1,4.7499108E-1,6.54E2,3.3753094E-1,2.0717509E-1],"split_indices":[1,1,1,0,0,0,1,0,0],"split_type":[0,0,0,0,0,0,0,0,0],"sum_hessian":[1.97E2,5.8E1,1.39E2,2.2E1,3.6E1,7E1,6.9E1,5.8E1,1.1E1],"tree_param":{"num_deleted":"0","num_feature":"2","num_nodes":"9","size_leaf_vector":"0"}},{"base_weights":[4.942313E0,9.27254E0,3.9880435E0,1.1698077E1,7.8344026E0,5.7629495E0,3.4255674E0,3.8338947E0,2.6736555E0,2.8581996E0,1.8818401E0],"categories":[],"categories_nodes":[],"categories_segments":[],"categories_sizes":[],"default_left":[true,true,true,false,false,false,true,false,true,false,false],"id":14,"left_children":[1,3,5,-1,-1,-1,7,-1,9,-1,-1],"loss_changes":[7.8119727E2,3.044165E1,1.4398682E2,0E0,0E0,0E0,2.87417E1,0E0,1.6353455E0,0E0,0E0],"parents":[2147483647,0,0,1,1,2,2,6,6,8,8],"right_children":[2,4,6,-1,-1,-1,8,-1,10,-1,-1],"split_conditions":[9.5E1,4.55E1,2.085E2,1.1698078E0,7.834403E-1,5.7629496E-1,4.615E2,3.8338947E-1,6.54E2,2.8581998E-1,1.8818401E-1],"split_indices":[1,1,1,0,0,0,1,0,1,0,0],"split_type":[0,0,0,0,0,0,0,0,0,0,0],"sum_hessian":[1.97E2,3.4E1,1.63E2,1E1,2.4E1,3.7E1,1.26E2,7.9E1,4.7E1,3.6E1,1.1E1],"tree_param":{"num_deleted":"0","num_feature":"2","num_nodes":"11","size_leaf_vector":"0"}},{"base_weights":[4.4651875E0,7.4415708E0,3.325947E0,1.0195599E1,6.3196692E0,4.126575E0,2.7122502E0,2.8382325E0,1.7093383E0],"categories":[],"categories_nodes":[],"categories_segments":[],"categories_sizes":[],"default_left":[true,true,true,false,false,false,true,false,false],"id":15,"left_children":[1,3,5,-1,-1,-1,7,-1,-1],"loss_changes":[6.466316E2,1.02413574E2,6.005237E1,0E0,0E0,0E0,5.8881836E0,0E0,0E0],"parents":[2147483647,0,0,1,1,2,2,6,6],"right_children":[2,4,6,-1,-1,-1,8,-1,-1],"split_conditions":[1.775E2,5E1,3.33E2,1.0195599E0,6.3196695E-1,4.126575E-1,6.54E2,2.8382325E-1,1.7093383E-1],"split_indices":[1,1,1,0,0,0,1,0,0],"split_type":[0,0,0,0,0,0,0,0,0],"sum_hessian":[1.97E2,5.3E1,1.44E2,1.3E1,4E1,6E1,8.4E1,7.3E1,1.1E1],"tree_param":{"num_deleted":"0","num_feature":"2","num_nodes":"9","size_leaf_vector":"0"}},{"base_weights":[4.0313907E0,7.7123537E0,3.2484565E0,9.70774E0,6.476454E0,4.432955E0,2.664148E0,2.9044385E0,1.9936129E0],"categories":[],"categories_nodes":[],"categories_segments":[],"categories_sizes":[],"default_left":[true,true,true,false,false,false,true,false,false],"id":16,"left_children":[1,3,5,-1,-1,-1,7,-1,-1],"loss_changes":[5.4557324E2,2.0975586E1,1.0238843E2,0E0,0E0,0E0,1.2416626E1,0E0,0E0],"parents":[2147483647,0,0,1,1,2,2,6,6],"right_children":[2,4,6,-1,-1,-1,8,-1,-1],"split_conditions":[8.75E1,4.55E1,2.425E2,9.70774E-1,6.476454E-1,4.4329548E-1,5.255E2,2.9044387E-1,1.993613E-1],"split_indices":[1,1,1,0,0,0,1,0,0],"split_type":[0,0,0,0,0,0,0,0,0],"sum_hessian":[1.97E2,3.3E1,1.64E2,1E1,2.3E1,5.2E1,1.12E2,8E1,3.2E1],"tree_param":{"num_deleted":"0","num_feature":"2","num_nodes":"9","size_leaf_vector":"0"}},{"base_weights":[3.6411383E0,6.9887185E0,2.9292665E0,8.825217E0,5.855793E0,4.27388E0,2.4932885E0,2.9441583E0,2.0840921E0,2.1940277E0,1.3699017E0],"categories":[],"categories_nodes":[],"categories_segments":[],"categories_sizes":[],"default_left":[true,true,true,false,false,false,true,false,true,false,false],"id":17,"left_children":[1,3,5,-1,-1,-1,7,-1,9,-1,-1],"loss_changes":[4.5137183E2,1.9062256E1,8.607068E1,0E0,0E0,0E0,1.729486E1,0E0,2.490448E0,0E0,0E0],"parents":[2147483647,0,0,1,1,2,2,6,6,8,8],"right_children":[2,4,6,-1,-1,-1,8,-1,10,-1,-1],"split_conditions":[8.75E1,4.55E1,2.085E2,8.8252175E-1,5.8557934E-1,4.27388E-1,3.945E2,2.9441583E-1,6.54E2,2.1940278E-1,1.3699017E-1],"split_indices":[1,1,1,0,0,0,1,0,1,0,0],"split_type":[0,0,0,0,0,0,0,0,0,0,0],"sum_hessian":[1.97E2,3.3E1,1.64E2,1E1,2.3E1,3.8E1,1.26E2,5.7E1,6.9E1,5.8E1,1.1E1],"tree_param":{"num_deleted":"0","num_feature":"2","num_nodes":"11","size_leaf_vector":"0"}},{"base_weights":[3.2898848E0,6.333026E0,2.6428745E0,8.509563E0,5.4535694E0,3.8574514E0,2.2490842E0,2.6548185E0,1.8807746E0,1.978344E0,1.244327E0],"categories":[],"categories_nodes":[],"categories_segments":[],"categories_sizes":[],"default_left":[true,true,true,false,false,false,true,false,true,false,false],"id":18,"left_children":[1,3,5,-1,-1,-1,7,-1,9,-1,-1],"loss_changes":[3.7311328E2,1.8674438E1,7.024194E1,0E0,0E0,0E0,1.39852295E1,0E0,1.8851471E0,0E0,0E0],"parents":[2147483647,0,0,1,1,2,2,6,6,8,8],"right_children":[2,4,6,-1,-1,-1,8,-1,10,-1,-1],"split_conditions":[8.75E1,4.2E1,2.085E2,8.509564E-1,5.453569E-1,3.8574514E-1,3.945E2,2.6548186E-1,6.54E2,1.978344E-1,1.244327E-1],"split_indices":[1,1,1,0,0,0,1,0,1,0,0],"split_type":[0,0,0,0,0,0,0,0,0,0,0],"sum_hessian":[1.97E2,3.3E1,1.64E2,7E0,2.6E1,3.8E1,1.26E2,5.7E1,6.9E1,5.8E1,1.1E1],"tree_param":{"num_deleted":"0","num_feature":"2","num_nodes":"11","size_leaf_vector":"0"}},{"base_weights":[2.9728649E0,5.740792E0,2.384487E0,7.2290087E0,4.7147307E0,3.0628014E0,1.8129679E0,3.4815962E0,2.524029E0,1.9572763E0,1.322541E0],"categories":[],"categories_nodes":[],"categories_segments":[],"categories_sizes":[],"default_left":[true,true,true,false,false,true,true,false,false,false,false],"id":19,"left_children":[1,3,5,-1,-1,7,9,-1,-1,-1,-1],"loss_changes":[3.0877124E2,1.7835205E1,5.841272E1,0E0,0E0,7.909363E0,3.9225159E0,0E0,0E0,0E0,0E0],"parents":[2147483647,0,0,1,1,2,2,5,5,6,6],"right_children":[2,4,6,-1,-1,8,10,-1,-1,-1,-1],"split_conditions":[8.75E1,4.8E1,3.035E2,7.2290087E-1,4.7147307E-1,2.085E2,5.915E2,3.4815964E-1,2.524029E-1,1.9572763E-1,1.3225411E-1],"split_indices":[1,1,1,0,0,1,1,0,0,0,0],"split_type":[0,0,0,0,0,0,0,0,0,0,0],"sum_hessian":[1.97E2,3.3E1,1.64E2,1.1E1,2.2E1,7.3E1,9.1E1,3.8E1,3.5E1,6.8E1,2.3E1],"tree_param":{"num_deleted":"0","num_feature":"2","num_nodes":"11","size_leaf_vector":"0"}},{"base_weights":[2.6863003E0,4.6585507E0,2.0064425E0,6.146142E0,3.7777386E0,2.5606585E0,1.6352365E0,1.7643856E0,1.1957979E0],"categories":[],"categories_nodes":[],"categories_segments":[],"categories_sizes":[],"default_left":[true,true,true,false,false,false,true,false,false],"id":20,"left_children":[1,3,5,-1,-1,-1,7,-1,-1],"loss_changes":[2.561411E2,4.229602E1,2.6466248E1,0E0,0E0,0E0,3.1114502E0,0E0,0E0],"parents":[2147483647,0,0,1,1,2,2,6,6],"right_children":[2,4,6,-1,-1,-1,8,-1,-1],"split_conditions":[1.64E2,5.25E1,3.035E2,6.146142E-1,3.7777385E-1,2.5606585E-1,5.915E2,1.7643856E-1,1.1957979E-1],"split_indices":[1,1,1,0,0,0,1,0,0],"split_type":[0,0,0,0,0,0,0,0,0],"sum_hessian":[1.97E2,4.9E1,1.48E2,1.6E1,3.3E1,5.7E1,9.1E1,6.8E1,2.3E1],"tree_param":{"num_deleted":"0","num_feature":"2","num_nodes":"9","size_leaf_vector":"0"}},{"base_weights":[2.425471E0,4.910161E0,1.9700501E0,6.5946536E0,4.110765E0,2.8878186E0,1.6437974E0,1.9459131E0,1.3699901E0,1.4424797E0,8.994169E-1],"categories":[],"categories_nodes":[],"categories_segments":[],"categories_sizes":[],"default_left":[true,true,true,false,false,false,true,false,true,false,false],"id":21,"left_children":[1,3,5,-1,-1,-1,7,-1,9,-1,-1],"loss_changes":[2.1437952E2,1.3288208E1,4.5855774E1,0E0,0E0,0E0,7.839752E0,0E0,1.0904236E0,0E0,0E0],"parents":[2147483647,0,0,1,1,2,2,6,6,8,8],"right_children":[2,4,6,-1,-1,-1,8,-1,10,-1,-1],"split_conditions":[6.9E1,4.2E1,2.085E2,6.594654E-1,4.1107652E-1,2.8878185E-1,3.945E2,1.9459131E-1,6.54E2,1.4424798E-1,8.9941695E-2],"split_indices":[1,1,1,0,0,0,1,0,1,0,0],"split_type":[0,0,0,0,0,0,0,0,0,0,0],"sum_hessian":[1.97E2,2.9E1,1.68E2,7E0,2.2E1,4.2E1,1.26E2,5.7E1,6.9E1,5.8E1,1.1E1],"tree_param":{"num_deleted":"0","num_feature":"2","num_nodes":"11","size_leaf_vector":"0"}},{"base_weights":[2.1919549E0,4.551369E0,1.7927995E0,6.1805267E0,3.8261206E0,2.6278646E0,1.4827937E0,1.6746945E0,1.1320674E0,1.2036648E0,8.169701E-1],"categories":[],"categories_nodes":[],"categories_segments":[],"categories_sizes":[],"default_left":[true,true,true,false,false,false,true,false,true,false,false],"id":22,"left_children":[1,3,5,-1,-1,-1,7,-1,9,-1,-1],"loss_changes":[1.783114E2,9.435791E0,4.0371033E1,0E0,0E0,0E0,6.651825E0,0E0,9.952927E-2,0E0,0E0],"parents":[2147483647,0,0,1,1,2,2,6,6,8,8],"right_children":[2,4,6,-1,-1,-1,8,-1,10,-1,-1],"split_conditions":[6.35E1,4.05E1,2.085E2,6.1805266E-1,3.8261208E-1,2.6278648E-1,4.615E2,1.6746946E-1,6.54E2,1.2036648E-1,8.169701E-2],"split_indices":[1,1,1,0,0,0,1,0,1,0,0],"split_type":[0,0,0,0,0,0,0,0,0,0,0],"sum_hessian":[1.97E2,2.7E1,1.7E2,6E0,2.1E1,4.4E1,1.26E2,7.9E1,4.7E1,3.6E1,1.1E1],"tree_param":{"num_deleted":"0","num_feature":"2","num_nodes":"11","size_leaf_vector":"0"}},{"base_weights":[1.9810071E0,4.131972E0,1.6172175E0,5.650767E0,3.4609017E0,2.3709176E0,1.3374244E0,1.5900949E0,1.1089628E0,1.207276E0,8.7022597E-1],"categories":[],"categories_nodes":[],"categories_segments":[],"categories_sizes":[],"default_left":[true,true,true,false,false,false,true,false,true,false,false],"id":23,"left_children":[1,3,5,-1,-1,-1,7,-1,9,-1,-1],"loss_changes":[1.4825244E2,8.981323E0,3.2889587E1,0E0,0E0,0E0,5.5677643E0,0E0,5.923691E-1,0E0,0E0],"parents":[2147483647,0,0,1,1,2,2,6,6,8,8],"right_children":[2,4,6,-1,-1,-1,8,-1,10,-1,-1],"split_conditions":[6.35E1,4.05E1,2.085E2,5.650767E-1,3.4609017E-1,2.3709176E-1,3.945E2,1.590095E-1,5.915E2,1.207276E-1,8.7022595E-2],"split_indices":[1,1,1,0,0,0,1,0,1,0,0],"split_type":[0,0,0,0,0,0,0,0,0,0,0],"sum_hessian":[1.97E2,2.7E1,1.7E2,6E0,2.1E1,4.4E1,1.26E2,5.7E1,6.9E1,4.6E1,2.3E1],"tree_param":{"num_deleted":"0","num_feature":"2","num_nodes":"11","size_leaf_vector":"0"}},{"base_weights":[1.7905582E0,3.5117855E0,1.4123051E0,5.0391874E0,2.949964E0,1.8248613E0,1.0695996E0,2.1834147E0,1.6046838E0,1.1524532E0,7.868291E-1],"categories":[],"categories_nodes":[],"categories_segments":[],"categories_sizes":[],"default_left":[true,true,true,false,false,true,true,false,false,false,false],"id":24,"left_children":[1,3,5,-1,-1,7,9,-1,-1,-1,-1],"loss_changes":[1.2395007E2,1.5169037E1,2.1235321E1,0E0,0E0,2.2593231E0,1.248642E0,0E0,0E0,0E0,0E0],"parents":[2147483647,0,0,1,1,2,2,5,5,6,6],"right_children":[2,4,6,-1,-1,8,10,-1,-1,-1,-1],"split_conditions":[9.5E1,4.2E1,3.035E2,5.0391877E-1,2.949964E-1,1.9E2,5.915E2,2.1834147E-1,1.6046838E-1,1.1524532E-1,7.8682914E-2],"split_indices":[1,1,1,0,0,1,1,0,0,0,0],"split_type":[0,0,0,0,0,0,0,0,0,0,0],"sum_hessian":[1.97E2,3.4E1,1.63E2,7E0,2.7E1,7.2E1,9.1E1,2.4E1,4.8E1,6.8E1,2.3E1],"tree_param":{"num_deleted":"0","num_feature":"2","num_nodes":"11","size_leaf_vector":"0"}},{"base_weights":[1.6184297E0,3.6370783E0,1.3454334E0,4.734487E0,2.9712582E0,1.9764943E0,1.0863903E0,1.2932781E0,8.9944905E-1,9.471055E-1,5.901839E-1],"categories":[],"categories_nodes":[],"categories_segments":[],"categories_sizes":[],"default_left":[true,true,true,false,false,false,true,false,true,false,false],"id":25,"left_children":[1,3,5,-1,-1,-1,7,-1,9,-1,-1],"loss_changes":[1.0422113E2,2.7381897E0,2.662384E1,0E0,0E0,0E0,3.7485962E0,0E0,4.7273254E-1,0E0,0E0],"parents":[2147483647,0,0,1,1,2,2,6,6,8,8],"right_children":[2,4,6,-1,-1,-1,8,-1,10,-1,-1],"split_conditions":[5.85E1,4.05E1,2.085E2,4.7344872E-1,2.9712582E-1,1.9764943E-1,3.945E2,1.2932782E-1,6.54E2,9.471055E-2,5.9018392E-2],"split_indices":[1,1,1,0,0,0,1,0,1,0,0],"split_type":[0,0,0,0,0,0,0,0,0,0,0],"sum_hessian":[1.97E2,2.2E1,1.75E2,6E0,1.6E1,4.9E1,1.26E2,5.7E1,6.9E1,5.8E1,1.1E1],"tree_param":{"num_deleted":"0","num_feature":"2","num_nodes":"11","size_leaf_vector":"0"}},{"base_weights":[1.4629064E0,3.3068728E0,1.2136215E0,4.3286734E0,2.6916096E0,1.6881957E0,9.3409604E-1,1.8918138E0,1.3588364E0,1.060285E0,7.41126E-1,7.875957E-1,5.3608394E-1],"categories":[],"categories_nodes":[],"categories_segments":[],"categories_sizes":[],"default_left":[true,true,true,false,false,true,true,false,false,false,true,false,false],"id":26,"left_children":[1,3,5,-1,-1,7,9,-1,-1,-1,11,-1,-1],"loss_changes":[8.700195E1,2.8084717E0,2.1770447E1,0E0,0E0,1.721405E0,1.9658203E0,0E0,0E0,0E0,3.5137177E-2,0E0,0E0],"parents":[2147483647,0,0,1,1,2,2,5,5,6,6,10,10],"right_children":[2,4,6,-1,-1,8,10,-1,-1,-1,12,-1,-1],"split_conditions":[5.85E1,4.05E1,2.425E2,4.3286735E-1,2.6916096E-1,1.9E2,4.615E2,1.8918137E-1,1.3588364E-1,1.060285E-1,6.54E2,7.875957E-2,5.3608395E-2],"split_indices":[1,1,1,0,0,1,1,0,0,0,1,0,0],"split_type":[0,0,0,0,0,0,0,0,0,0,0,0,0],"sum_hessian":[1.97E2,2.2E1,1.75E2,6E0,1.6E1,6.3E1,1.12E2,3.6E1,2.7E1,6.5E1,4.7E1,3.6E1,1.1E1],"tree_param":{"num_deleted":"0","num_feature":"2","num_nodes":"13","size_leaf_vector":"0"}},{"base_weights":[1.3230071E0,2.8277438E0,1.0688806E0,3.9576428E0,2.3396966E0,1.4837724E0,8.4279656E-1,1.661375E0,1.2278061E0,9.5586336E-1,6.6977143E-1,7.1096516E-1,4.8694333E-1],"categories":[],"categories_nodes":[],"categories_segments":[],"categories_sizes":[],"default_left":[true,true,true,false,false,true,true,false,false,false,true,false,false],"id":27,"left_children":[1,3,5,-1,-1,7,9,-1,-1,-1,11,-1,-1],"loss_changes":[7.2691376E1,6.1807404E0,1.4789352E1,0E0,0E0,6.423187E-1,1.5704575E0,0E0,0E0,0E0,1.5304565E-2,0E0,0E0],"parents":[2147483647,0,0,1,1,2,2,5,5,6,6,10,10],"right_children":[2,4,6,-1,-1,8,10,-1,-1,-1,12,-1,-1],"split_conditions":[6.35E1,4.05E1,2.425E2,3.957643E-1,2.3396967E-1,1.9E2,4.615E2,1.661375E-1,1.2278061E-1,9.558634E-2,6.54E2,7.109652E-2,4.8694335E-2],"split_indices":[1,1,1,0,0,1,1,0,0,0,1,0,0],"split_type":[0,0,0,0,0,0,0,0,0,0,0,0,0],"sum_hessian":[1.97E2,2.7E1,1.7E2,6E0,2.1E1,5.8E1,1.12E2,3.1E1,2.7E1,6.5E1,4.7E1,3.6E1,1.1E1],"tree_param":{"num_deleted":"0","num_feature":"2","num_nodes":"13","size_leaf_vector":"0"}},{"base_weights":[1.1964337E0,2.740703E0,9.8782784E-1,3.7401276E0,2.2553003E0,1.452932E0,7.9693776E-1,1.0061555E0,6.8172246E-1,7.351861E-1,5.1520306E-1],"categories":[],"categories_nodes":[],"categories_segments":[],"categories_sizes":[],"default_left":[true,true,true,false,false,false,true,false,true,false,false],"id":28,"left_children":[1,3,5,-1,-1,-1,7,-1,9,-1,-1],"loss_changes":[6.1077087E1,2.7227325E0,1.4468048E1,0E0,0E0,0E0,2.3754272E0,0E0,3.779602E-1,0E0,0E0],"parents":[2147483647,0,0,1,1,2,2,6,6,8,8],"right_children":[2,4,6,-1,-1,-1,8,-1,10,-1,-1],"split_conditions":[5.85E1,3.95E1,2.085E2,3.7401277E-1,2.2553003E-1,1.452932E-1,3.33E2,1.0061555E-1,5.915E2,7.351861E-2,5.1520307E-2],"split_indices":[1,1,1,0,0,0,1,0,1,0,0],"split_type":[0,0,0,0,0,0,0,0,0,0,0],"sum_hessian":[1.97E2,2.2E1,1.75E2,5E0,1.7E1,4.9E1,1.26E2,4.2E1,8.4E1,6.1E1,2.3E1],"tree_param":{"num_deleted":"0","num_feature":"2","num_nodes":"11","size_leaf_vector":"0"}},{"base_weights":[1.0816919E0,2.492701E0,8.911526E-1,3.4284508E0,2.042301E0,1.2406558E0,6.853176E-1,1.3955646E0,9.916459E-1,7.7782404E-1,5.4384375E-1,5.773931E-1,3.950796E-1],"categories":[],"categories_nodes":[],"categories_segments":[],"categories_sizes":[],"default_left":[true,true,true,false,false,true,true,false,false,false,true,false,false],"id":29,"left_children":[1,3,5,-1,-1,7,9,-1,-1,-1,11,-1,-1],"loss_changes":[5.1011414E1,2.6916962E0,1.1811203E1,0E0,0E0,1.084816E0,1.0558434E0,0E0,0E0,0E0,1.144886E-2,0E0,0E0],"parents":[2147483647,0,0,1,1,2,2,5,5,6,6,10,10],"right_children":[2,4,6,-1,-1,8,10,-1,-1,-1,12,-1,-1],"split_conditions":[5.85E1,3.95E1,2.425E2,3.4284508E-1,2.042301E-1,1.9E2,4.615E2,1.3955645E-1,9.916459E-2,7.778241E-2,6.54E2,5.7739314E-2,3.9507963E-2],"split_indices":[1,1,1,0,0,1,1,0,0,0,1,0,0],"split_type":[0,0,0,0,0,0,0,0,0,0,0,0,0],"sum_hessian":[1.97E2,2.2E1,1.75E2,5E0,1.7E1,6.3E1,1.12E2,3.6E1,2.7E1,6.5E1,4.7E1,3.6E1,1.1E1],"tree_param":{"num_deleted":"0","num_feature":"2","num_nodes":"13","size_leaf_vector":"0"}},{"base_weights":[9.7837514E-1,1.9536655E0,7.495843E-1,2.9661894E0,1.6185368E0,9.7696066E-1,5.659614E-1,1.1509644E0,8.7534755E-1,6.0892755E-1,4.1885197E-1],"categories":[],"categories_nodes":[],"categories_segments":[],"categories_sizes":[],"default_left":[true,true,true,false,false,true,true,false,false,false,false],"id":30,"left_children":[1,3,5,-1,-1,7,9,-1,-1,-1,-1],"loss_changes":[4.2716797E1,7.7541656E0,6.210823E0,0E0,0E0,2.4786377E-1,3.2645798E-1,0E0,0E0,0E0,0E0],"parents":[2147483647,0,0,1,1,2,2,5,5,6,6],"right_children":[2,4,6,-1,-1,8,10,-1,-1,-1,-1],"split_conditions":[1.03E2,4.2E1,3.035E2,2.9661894E-1,1.6185369E-1,1.9E2,5.915E2,1.1509644E-1,8.7534755E-2,6.0892757E-2,4.1885197E-2],"split_indices":[1,1,1,0,0,1,1,0,0,0,0],"split_type":[0,0,0,0,0,0,0,0,0,0,0],"sum_hessian":[1.97E2,3.6E1,1.61E2,7E0,2.9E1,7E1,9.1E1,2.2E1,4.8E1,6.8E1,2.3E1],"tree_param":{"num_deleted":"0","num_feature":"2","num_nodes":"11","size_leaf_vector":"0"}},{"base_weights":[8.8439566E-1,2.0713835E0,7.2425294E-1,2.8955631E0,1.6815801E0,9.471077E-1,5.104823E-1,1.1301014E0,7.8959996E-1,5.6049055E-1,4.0408906E-1],"categories":[],"categories_nodes":[],"categories_segments":[],"categories_sizes":[],"default_left":[true,true,true,false,false,true,true,false,false,false,false],"id":31,"left_children":[1,3,5,-1,-1,7,9,-1,-1,-1,-1],"loss_changes":[3.61371E1,2.5200424E0,7.901123E0,0E0,0E0,1.5576172E0,2.630005E-1,0E0,0E0,0E0,0E0],"parents":[2147483647,0,0,1,1,2,2,5,5,6,6],"right_children":[2,4,6,-1,-1,8,10,-1,-1,-1,-1],"split_conditions":[5.85E1,3.95E1,3.035E2,2.8955632E-1,1.6815801E-1,1.9E2,5.255E2,1.13010146E-1,7.8959994E-2,5.6049056E-2,4.0408906E-2],"split_indices":[1,1,1,0,0,1,1,0,0,0,0],"split_type":[0,0,0,0,0,0,0,0,0,0,0],"sum_hessian":[1.97E2,2.2E1,1.75E2,5E0,1.7E1,8.4E1,9.1E1,3.6E1,4.8E1,5.9E1,3.2E1],"tree_param":{"num_deleted":"0","num_feature":"2","num_nodes":"11","size_leaf_vector":"0"}},{"base_weights":[7.9972416E-1,1.884145E0,6.5346617E-1,2.6542675E0,1.5227628E0,9.115416E-1,5.015167E-1,1.0201453E0,7.354744E-1,6.075143E-1,4.2772508E-1,4.4982415E-1,2.8342748E-1],"categories":[],"categories_nodes":[],"categories_segments":[],"categories_sizes":[],"default_left":[true,true,true,false,false,true,true,false,false,false,true,false,false],"id":32,"left_children":[1,3,5,-1,-1,7,9,-1,-1,-1,11,-1,-1],"loss_changes":[3.0172615E1,2.3592834E0,6.44458E0,0E0,0E0,4.7348785E-1,6.240082E-1,0E0,0E0,0E0,9.572697E-2,0E0,0E0],"parents":[2147483647,0,0,1,1,2,2,5,5,6,6,10,10],"right_children":[2,4,6,-1,-1,8,10,-1,-1,-1,12,-1,-1],"split_conditions":[5.85E1,3.95E1,2.425E2,2.6542675E-1,1.5227628E-1,1.9E2,3.945E2,1.02014534E-1,7.3547445E-2,6.0751434E-2,6.54E2,4.4982415E-2,2.8342748E-2],"split_indices":[1,1,1,0,0,1,1,0,0,0,1,0,0],"split_type":[0,0,0,0,0,0,0,0,0,0,0,0,0],"sum_hessian":[1.97E2,2.2E1,1.75E2,5E0,1.7E1,6.3E1,1.12E2,3.6E1,2.7E1,4.3E1,6.9E1,5.8E1,1.1E1],"tree_param":{"num_deleted":"0","num_feature":"2","num_nodes":"13","size_leaf_vector":"0"}},{"base_weights":[7.2342557E-1,1.7138923E0,5.898792E-1,2.4330788E0,1.3789474E0,7.730779E-1,4.1420782E-1,9.2088836E-1,6.456888E-1,4.4636235E-1,3.0450484E-1],"categories":[],"categories_nodes":[],"categories_segments":[],"categories_sizes":[],"default_left":[true,true,true,false,false,true,true,false,false,false,false],"id":33,"left_children":[1,3,5,-1,-1,7,9,-1,-1,-1,-1],"loss_changes":[2.5179108E1,2.1853333E0,5.343952E0,0E0,0E0,1.0058937E0,1.8860531E-1,0E0,0E0,0E0,0E0],"parents":[2147483647,0,0,1,1,2,2,5,5,6,6],"right_children":[2,4,6,-1,-1,8,10,-1,-1,-1,-1],"split_conditions":[5.85E1,3.95E1,3.035E2,2.4330787E-1,1.3789473E-1,1.9E2,5.915E2,9.208884E-2,6.456888E-2,4.4636235E-2,3.0450484E-2],"split_indices":[1,1,1,0,0,1,1,0,0,0,0],"split_type":[0,0,0,0,0,0,0,0,0,0,0],"sum_hessian":[1.97E2,2.2E1,1.75E2,5E0,1.7E1,8.4E1,9.1E1,3.6E1,4.8E1,6.8E1,2.3E1],"tree_param":{"num_deleted":"0","num_feature":"2","num_nodes":"11","size_leaf_vector":"0"}},{"base_weights":[6.541787E-1,1.4315207E0,5.123181E-1,2.093134E0,1.1391543E0,6.569029E-1,3.6170602E-1,7.890275E-1,5.743914E-1,3.7825158E-1,2.2953296E-1],"categories":[],"categories_nodes":[],"categories_segments":[],"categories_sizes":[],"default_left":[true,true,true,false,false,true,true,false,false,false,false],"id":34,"left_children":[1,3,5,-1,-1,7,9,-1,-1,-1,-1],"loss_changes":[2.1100891E1,3.418602E0,3.4425735E0,0E0,0E0,4.7344208E-1,9.906292E-2,0E0,0E0,0E0,0E0],"parents":[2147483647,0,0,1,1,2,2,5,5,6,6],"right_children":[2,4,6,-1,-1,8,10,-1,-1,-1,-1],"split_conditions":[6.9E1,4.2E1,3.33E2,2.093134E-1,1.13915436E-1,1.9E2,6.54E2,7.890275E-2,5.7439145E-2,3.782516E-2,2.2953296E-2],"split_indices":[1,1,1,0,0,1,1,0,0,0,0],"split_type":[0,0,0,0,0,0,0,0,0,0,0],"sum_hessian":[1.97E2,2.9E1,1.68E2,7E0,2.2E1,8.4E1,8.4E1,2.9E1,5.5E1,7.3E1,1.1E1],"tree_param":{"num_deleted":"0","num_feature":"2","num_nodes":"11","size_leaf_vector":"0"}},{"base_weights":[5.9138864E-1,1.4210819E0,4.7960263E-1,2.0558941E0,1.1305288E0,7.1135265E-1,3.8458607E-1,4.909573E-1,3.262502E-1,3.6027786E-1,2.6171336E-1],"categories":[],"categories_nodes":[],"categories_segments":[],"categories_sizes":[],"default_left":[true,true,true,false,false,false,true,false,true,false,false],"id":35,"left_children":[1,3,5,-1,-1,-1,7,-1,9,-1,-1],"loss_changes":[1.7682564E1,1.918026E0,3.601963E0,0E0,0E0,0E0,6.2789345E-1,0E0,9.237385E-2,0E0,0E0],"parents":[2147483647,0,0,1,1,2,2,6,6,8,8],"right_children":[2,4,6,-1,-1,-1,8,-1,10,-1,-1],"split_conditions":[5.85E1,3.95E1,2.085E2,2.0558941E-1,1.1305288E-1,7.113527E-2,3.33E2,4.909573E-2,5.255E2,3.6027785E-2,2.6171336E-2],"split_indices":[1,1,1,0,0,0,1,0,1,0,0],"split_type":[0,0,0,0,0,0,0,0,0,0,0],"sum_hessian":[1.97E2,2.2E1,1.75E2,5E0,1.7E1,4.9E1,1.26E2,4.2E1,8.4E1,5.2E1,3.2E1],"tree_param":{"num_deleted":"0","num_feature":"2","num_nodes":"11","size_leaf_vector":"0"}},{"base_weights":[5.347806E-1,1.2928281E0,4.3267903E-1,1.8845698E0,1.0237571E0,6.416404E-1,3.4700385E-1,7.239696E-1,5.303525E-1,4.430039E-1,2.9435673E-1,3.1807926E-1,2.2080867E-1],"categories":[],"categories_nodes":[],"categories_segments":[],"categories_sizes":[],"default_left":[true,true,true,false,false,true,true,false,false,false,true,false,false],"id":36,"left_children":[1,3,5,-1,-1,7,9,-1,-1,-1,11,-1,-1],"loss_changes":[1.47653885E1,1.7327309E0,2.9282455E0,0E0,0E0,7.415199E-2,5.1147175E-1,0E0,0E0,0E0,7.806873E-2,0E0,0E0],"parents":[2147483647,0,0,1,1,2,2,5,5,6,6,10,10],"right_children":[2,4,6,-1,-1,8,10,-1,-1,-1,12,-1,-1],"split_conditions":[5.85E1,3.95E1,2.085E2,1.8845698E-1,1.0237571E-1,1.53E2,3.33E2,7.239696E-2,5.3035248E-2,4.430039E-2,5.915E2,3.1807926E-2,2.2080867E-2],"split_indices":[1,1,1,0,0,1,1,0,0,0,1,0,0],"split_type":[0,0,0,0,0,0,0,0,0,0,0,0,0],"sum_hessian":[1.97E2,2.2E1,1.75E2,5E0,1.7E1,4.9E1,1.26E2,2.5E1,2.4E1,4.2E1,8.4E1,6.1E1,2.3E1],"tree_param":{"num_deleted":"0","num_feature":"2","num_nodes":"13","size_leaf_vector":"0"}},{"base_weights":[4.8390093E-1,1.3084322E0,4.0422547E-1,1.7275219E0,9.898513E-1,6.037194E-1,3.1307676E-1,6.819479E-1,4.794382E-1,3.8072833E-1,2.5255007E-1,2.6622653E-1,1.6426158E-1],"categories":[],"categories_nodes":[],"categories_segments":[],"categories_sizes":[],"default_left":[true,true,true,false,false,true,true,false,false,false,true,false,false],"id":37,"left_children":[1,3,5,-1,-1,7,9,-1,-1,-1,11,-1,-1],"loss_changes":[1.2478687E1,5.597477E-1,3.120409E0,0E0,0E0,2.1749878E-1,4.2387676E-1,0E0,0E0,0E0,4.0792465E-2,0E0,0E0],"parents":[2147483647,0,0,1,1,2,2,5,5,6,6,10,10],"right_children":[2,4,6,-1,-1,8,10,-1,-1,-1,12,-1,-1],"split_conditions":[5.25E1,3.95E1,2.085E2,1.7275219E-1,9.898513E-2,1.53E2,3.945E2,6.819479E-2,4.794382E-2,3.8072836E-2,6.54E2,2.6622653E-2,1.642616E-2],"split_indices":[1,1,1,0,0,1,1,0,0,0,1,0,0],"split_type":[0,0,0,0,0,0,0,0,0,0,0,0,0],"sum_hessian":[1.97E2,1.6E1,1.81E2,5E0,1.1E1,5.5E1,1.26E2,3.1E1,2.4E1,5.7E1,6.9E1,5.8E1,1.1E1],"tree_param":{"num_deleted":"0","num_feature":"2","num_nodes":"13","size_leaf_vector":"0"}},{"base_weights":[4.3787962E-1,1.3535086E0,3.7678108E-1,6.0279506E-1,2.9659927E-1,6.8110526E-1,4.8806208E-1,3.7942156E-1,2.3854457E-1,2.4496412E-1,5.1227856E-1,2.643609E-1,1.8985336E-1],"categories":[],"categories_nodes":[],"categories_segments":[],"categories_sizes":[],"default_left":[true,false,true,true,true,false,true,false,true,false,false,false,false],"id":38,"left_children":[1,-1,3,5,7,-1,9,-1,11,-1,-1,-1,-1],"loss_changes":[1.0566856E1,0E0,3.210064E0,9.8846436E-2,5.8264256E-1,0E0,9.9105835E-3,0E0,5.665779E-2,0E0,0E0,0E0,0E0],"parents":[2147483647,0,0,2,2,3,3,4,4,6,6,8,8],"right_children":[2,-1,4,6,8,-1,10,-1,12,-1,-1,-1,-1],"split_conditions":[4.8E1,1.3535087E-1,1.9E2,1.03E2,3.33E2,6.8110526E-2,1.24E2,3.7942156E-2,5.255E2,2.4496412E-2,5.1227856E-2,2.643609E-2,1.8985337E-2],"split_indices":[1,0,1,1,1,0,1,0,1,0,0,0,0],"split_type":[0,0,0,0,0,0,0,0,0,0,0,0,0],"sum_hessian":[1.97E2,1.1E1,1.86E2,4.7E1,1.39E2,2.5E1,2.2E1,5.5E1,8.4E1,3E0,1.9E1,5.2E1,3.2E1],"tree_param":{"num_deleted":"0","num_feature":"2","num_nodes":"13","size_leaf_vector":"0"}},{"base_weights":[3.959225E-1,1.163769E0,3.356751E-1,1.7766165E0,9.135764E-1,5.052525E-1,2.5425193E-1,5.723239E-1,3.9114234E-1,3.254864E-1,2.1522447E-1,2.258442E-1,1.3180073E-1],"categories":[],"categories_nodes":[],"categories_segments":[],"categories_sizes":[],"default_left":[true,true,true,false,false,true,true,false,false,false,true,false,false],"id":39,"left_children":[1,3,5,-1,-1,7,9,-1,-1,-1,11,-1,-1],"loss_changes":[8.768986E0,5.235443E-1,2.42593E0,0E0,0E0,2.2769737E-1,2.8302002E-1,0E0,0E0,0E0,4.5538425E-2,0E0,0E0],"parents":[2147483647,0,0,1,1,2,2,5,5,6,6,10,10],"right_children":[2,4,6,-1,-1,8,10,-1,-1,-1,12,-1,-1],"split_conditions":[5E1,3.75E1,2.085E2,1.7766164E-1,9.135764E-2,1.53E2,3.33E2,5.723239E-2,3.9114233E-2,3.254864E-2,6.54E2,2.2584422E-2,1.3180072E-2],"split_indices":[1,1,1,0,0,1,1,0,0,0,1,0,0],"split_type":[0,0,0,0,0,0,0,0,0,0,0,0,0],"sum_hessian":[1.97E2,1.3E1,1.84E2,2E0,1.1E1,5.8E1,1.26E2,3.4E1,2.4E1,4.2E1,8.4E1,7.3E1,1.1E1],"tree_param":{"num_deleted":"0","num_feature":"2","num_nodes":"13","size_leaf_vector":"0"}},{"base_weights":[3.5852075E-1,1.1313095E0,3.070128E-1,1.6581751E0,8.6011887E-1,5.2046925E-1,2.4908115E-1,3.1711727E-1,1.9412315E-1,2.1626587E-1,1.5267806E-1],"categories":[],"categories_nodes":[],"categories_segments":[],"categories_sizes":[],"default_left":[true,true,true,false,false,false,true,false,true,false,false],"id":40,"left_children":[1,3,5,-1,-1,-1,7,-1,9,-1,-1],"loss_changes":[7.5340176E0,2.8834438E-1,2.1827812E0,0E0,0E0,0E0,4.9557114E-1,0E0,4.498601E-2,0E0,0E0],"parents":[2147483647,0,0,1,1,2,2,6,6,8,8],"right_children":[2,4,6,-1,-1,-1,8,-1,10,-1,-1],"split_conditions":[4.8E1,3.75E1,1.64E2,1.6581751E-1,8.601189E-2,5.2046925E-2,3.33E2,3.1711727E-2,5.255E2,2.1626588E-2,1.5267806E-2],"split_indices":[1,1,1,0,0,0,1,0,1,0,0],"split_type":[0,0,0,0,0,0,0,0,0,0,0],"sum_hessian":[1.97E2,1.1E1,1.86E2,2E0,9E0,3.8E1,1.48E2,6.4E1,8.4E1,5.2E1,3.2E1],"tree_param":{"num_deleted":"0","num_feature":"2","num_nodes":"11","size_leaf_vector":"0"}},{"base_weights":[3.245499E-1,1.0391655E0,2.7695668E-1,1.5476303E0,7.827095E-1,4.1978025E-1,2.0617561E-1,5.079118E-1,3.4446913E-1,2.3789853E-1,1.4900877E-1,1.4463234E-1,3.582533E-1,2.696735E-1,2.0719191E-1,1.5901975E-1,1.0572418E-1],"categories":[],"categories_nodes":[],"categories_segments":[],"categories_sizes":[],"default_left":[true,true,true,false,false,true,true,false,true,true,true,false,false,false,false,false,false],"id":41,"left_children":[1,3,5,-1,-1,7,9,-1,11,13,15,-1,-1,-1,-1,-1,-1],"loss_changes":[6.44635E0,3.534422E-1,1.8038731E0,0E0,0E0,2.2991467E-1,1.9486523E-1,0E0,4.734993E-2,2.2182465E-2,3.987193E-3,0E0,0E0,0E0,0E0,0E0,0E0],"parents":[2147483647,0,0,1,1,2,2,5,5,6,6,8,8,9,9,10,10],"right_children":[2,4,6,-1,-1,8,10,-1,12,14,16,-1,-1,-1,-1,-1,-1],"split_conditions":[4.8E1,3.75E1,2.085E2,1.5476303E-1,7.827095E-2,1.03E2,4.615E2,5.079118E-2,1.24E2,3.035E2,6.54E2,1.4463234E-2,3.582533E-2,2.696735E-2,2.0719191E-2,1.5901975E-2,1.0572418E-2],"split_indices":[1,1,1,0,0,1,1,0,1,1,1,0,0,0,0,0,0],"split_type":[0,0,0,0,0,0,0,0,0,0,0,0,0,0,0,0,0],"sum_hessian":[1.97E2,1.1E1,1.86E2,2E0,9E0,6E1,1.26E2,2.5E1,3.5E1,7.9E1,4.7E1,3E0,3.2E1,3.5E1,4.4E1,3.6E1,1.1E1],"tree_param":{"num_deleted":"0","num_feature":"2","num_nodes":"17","size_leaf_vector":"0"}},{"base_weights":[2.9415664E-1,9.546693E-1,2.5019777E-1,1.4444555E0,7.1226656E-1,4.2689827E-1,2.0226814E-1,4.5493793E-1,3.0008945E-1,2.6314324E-1,1.6169178E-1,1.7960091E-1,1.2423001E-1],"categories":[],"categories_nodes":[],"categories_segments":[],"categories_sizes":[],"default_left":[true,true,true,false,false,true,true,false,false,false,true,false,false],"id":42,"left_children":[1,3,5,-1,-1,7,9,-1,-1,-1,11,-1,-1],"loss_changes":[5.510153E0,3.9586926E-1,1.4973907E0,0E0,0E0,2.149582E-3,3.2549524E-1,0E0,0E0,0E0,3.9411545E-2,0E0,0E0],"parents":[2147483647,0,0,1,1,2,2,5,5,6,6,10,10],"right_children":[2,4,6,-1,-1,8,10,-1,-1,-1,12,-1,-1],"split_conditions":[4.8E1,3.75E1,1.64E2,1.4444555E-1,7.122666E-2,5.715E4,3.035E2,4.5493793E-2,3.0008946E-2,2.6314324E-2,5.255E2,1.7960092E-2,1.2423001E-2],"split_indices":[1,1,1,0,0,0,1,0,0,0,1,0,0],"split_type":[0,0,0,0,0,0,0,0,0,0,0,0,0],"sum_hessian":[1.97E2,1.1E1,1.86E2,2E0,9E0,3.8E1,1.48E2,2.9E1,9E0,5.7E1,9.1E1,5.9E1,3.2E1],"tree_param":{"num_deleted":"0","num_feature":"2","num_nodes":"13","size_leaf_vector":"0"}},{"base_weights":[2.6649797E-1,7.728296E-1,2.1773899E-1,1.3481573E0,6.062421E-1,3.1095707E-1,1.5806639E-1,3.700875E-1,2.5446653E-1,1.8279946E-1,1.20765366E-1,1.2921602E-1,8.464543E-2],"categories":[],"categories_nodes":[],"categories_segments":[],"categories_sizes":[],"default_left":[true,true,true,false,false,true,true,false,false,false,true,false,false],"id":43,"left_children":[1,3,5,-1,-1,7,9,-1,-1,-1,11,-1,-1],"loss_changes":[4.7199926E0,8.1201077E-1,9.632349E-1,0E0,0E0,1.3964748E-1,8.21743E-2,0E0,0E0,0E0,3.7138462E-3,0E0,0E0],"parents":[2147483647,0,0,1,1,2,2,5,5,6,6,10,10],"right_children":[2,4,6,-1,-1,8,10,-1,-1,-1,12,-1,-1],"split_conditions":[5.25E1,3.75E1,2.425E2,1.3481574E-1,6.0624212E-2,1.53E2,4.615E2,3.700875E-2,2.5446653E-2,1.8279945E-2,6.54E2,1.29216015E-2,8.464543E-3],"split_indices":[1,1,1,0,0,1,1,0,0,0,1,0,0],"split_type":[0,0,0,0,0,0,0,0,0,0,0,0,0],"sum_hessian":[1.97E2,1.6E1,1.81E2,2E0,1.4E1,6.9E1,1.12E2,3.1E1,3.8E1,6.5E1,4.7E1,3.6E1,1.1E1],"tree_param":{"num_deleted":"0","num_feature":"2","num_nodes":"13","size_leaf_vector":"0"}},{"base_weights":[2.4135117E-1,8.092372E-1,2.0361863E-1,1.2582804E0,5.9360045E-1,3.10124E-1,1.5085922E-1,3.8172612E-1,2.5674048E-1,1.8451315E-1,1.2081939E-1,1.2770721E-1,7.688602E-2],"categories":[],"categories_nodes":[],"categories_segments":[],"categories_sizes":[],"default_left":[true,true,true,false,false,true,true,false,false,false,true,false,false],"id":44,"left_children":[1,3,5,-1,-1,7,9,-1,-1,-1,11,-1,-1],"loss_changes":[4.077924E0,4.150467E-1,1.0039973E0,0E0,0E0,1.3516045E-1,1.0609913E-1,0E0,0E0,0E0,1.1363387E-2,0E0,0E0],"parents":[2147483647,0,0,1,1,2,2,5,5,6,6,10,10],"right_children":[2,4,6,-1,-1,8,10,-1,-1,-1,12,-1,-1],"split_conditions":[4.8E1,3.75E1,2.085E2,1.2582804E-1,5.9360046E-2,9.5E1,3.945E2,3.8172614E-2,2.5674049E-2,1.8451316E-2,6.54E2,1.2770722E-2,7.688602E-3],"split_indices":[1,1,1,0,0,1,1,0,0,0,1,0,0],"split_type":[0,0,0,0,0,0,0,0,0,0,0,0,0],"sum_hessian":[1.97E2,1.1E1,1.86E2,2E0,9E0,6E1,1.26E2,2.3E1,3.7E1,5.7E1,6.9E1,5.8E1,1.1E1],"tree_param":{"num_deleted":"0","num_feature":"2","num_nodes":"13","size_leaf_vector":"0"}},{"base_weights":[2.1866998E-1,7.6993215E-1,1.8525214E-1,1.1743952E0,5.495631E-1,3.1877294E-1,1.4816433E-1,3.4186056E-1,2.1532401E-1,1.9399711E-1,1.17659256E-1,1.2776646E-1,8.369859E-2],"categories":[],"categories_nodes":[],"categories_segments":[],"categories_sizes":[],"default_left":[true,true,true,false,false,true,true,false,false,false,true,false,false],"id":45,"left_children":[1,3,5,-1,-1,7,9,-1,-1,-1,11,-1,-1],"loss_changes":[3.504922E0,3.350382E-1,8.8374376E-1,0E0,0E0,2.1924973E-2,1.8549633E-1,0E0,0E0,0E0,2.0884871E-2,0E0,0E0],"parents":[2147483647,0,0,1,1,2,2,5,5,6,6,10,10],"right_children":[2,4,6,-1,-1,8,10,-1,-1,-1,12,-1,-1],"split_conditions":[4.55E1,3.75E1,1.64E2,1.1743952E-1,5.4956313E-2,5.715E4,3.035E2,3.4186058E-2,2.1532401E-2,1.9399712E-2,5.915E2,1.2776646E-2,8.369859E-3],"split_indices":[1,1,1,0,0,0,1,0,0,0,1,0,0],"split_type":[0,0,0,0,0,0,0,0,0,0,0,0,0],"sum_hessian":[1.97E2,1E1,1.87E2,2E0,8E0,3.9E1,1.48E2,3E1,9E0,5.7E1,9.1E1,6.8E1,2.3E1],"tree_param":{"num_deleted":"0","num_feature":"2","num_nodes":"13","size_leaf_vector":"0"}},{"base_weights":[1.9815993E-1,7.086126E-1,1.6723898E-1,1.0961024E0,5.007146E-1,2.8828818E-1,1.3362014E-1,3.1065145E-1,2.0108934E-1,1.7493196E-1,1.0612335E-1,1.2830734E-1,3.1909364E-1,1.23740874E-1,8.7396026E-2,9.321661E-2,6.2166214E-2],"categories":[],"categories_nodes":[],"categories_segments":[],"categories_sizes":[],"default_left":[true,true,true,false,false,true,true,true,false,false,true,false,false,false,true,false,false],"id":46,"left_children":[1,3,5,-1,-1,7,9,11,-1,-1,13,-1,-1,-1,15,-1,-1],"loss_changes":[3.006662E0,3.3730745E-1,7.2655106E-1,0E0,0E0,1.5533447E-2,1.5069127E-1,5.2394867E-3,0E0,0E0,1.9538999E-2,0E0,0E0,0E0,1.2539923E-3,0E0,0E0],"parents":[2147483647,0,0,1,1,2,2,5,5,6,6,7,7,10,10,14,14],"right_children":[2,4,6,-1,-1,8,10,12,-1,-1,14,-1,-1,-1,16,-1,-1],"split_conditions":[4.55E1,3.75E1,1.64E2,1.0961024E-1,5.007146E-2,4.9621E4,3.035E2,3.1035E4,2.0108934E-2,1.7493196E-2,4.615E2,1.2830734E-2,3.1909365E-2,1.2374087E-2,6.54E2,9.321662E-3,6.2166215E-3],"split_indices":[1,1,1,0,0,0,1,0,0,0,1,0,0,0,1,0,0],"split_type":[0,0,0,0,0,0,0,0,0,0,0,0,0,0,0,0,0],"sum_hessian":[1.97E2,1E1,1.87E2,2E0,8E0,3.9E1,1.48E2,2.9E1,1E1,5.7E1,9.1E1,2E0,2.7E1,4.4E1,4.7E1,3.6E1,1.1E1],"tree_param":{"num_deleted":"0","num_feature":"2","num_nodes":"17","size_leaf_vector":"0"}},{"base_weights":[1.7970744E-1,6.5226746E-1,1.5110175E-1,1.023028E0,4.5620644E-1,2.476294E-1,1.1623778E-1,2.9949418E-1,2.0479856E-1,1.489847E-1,9.3295835E-2,1.040927E-1,7.312827E-2],"categories":[],"categories_nodes":[],"categories_segments":[],"categories_sizes":[],"default_left":[true,true,true,false,false,true,true,false,false,false,true,false,false],"id":47,"left_children":[1,3,5,-1,-1,7,9,-1,-1,-1,11,-1,-1],"loss_changes":[2.5779862E0,3.328967E-1,6.038995E-1,0E0,0E0,4.7513247E-2,9.127915E-2,0E0,0E0,0E0,1.0896325E-2,0E0,0E0],"parents":[2147483647,0,0,1,1,2,2,5,5,6,6,10,10],"right_children":[2,4,6,-1,-1,8,10,-1,-1,-1,12,-1,-1],"split_conditions":[4.55E1,3.75E1,1.9E2,1.02302805E-1,4.5620646E-2,6.9E1,3.33E2,2.9949417E-2,2.0479856E-2,1.4898471E-2,5.255E2,1.040927E-2,7.312827E-3],"split_indices":[1,1,1,0,0,1,1,0,0,0,1,0,0],"split_type":[0,0,0,0,0,0,0,0,0,0,0,0,0],"sum_hessian":[1.97E2,1E1,1.87E2,2E0,8E0,4.8E1,1.39E2,1.9E1,2.9E1,5.5E1,8.4E1,5.2E1,3.2E1],"tree_param":{"num_deleted":"0","num_feature":"2","num_nodes":"13","size_leaf_vector":"0"}},{"base_weights":[1.6290341E-1,6.0048884E-1,1.3643351E-1,9.5482635E-1,4.1565534E-1,2.1079598E-1,9.905628E-2,2.61211E-1,1.7208095E-1,1.14740476E-1,7.085228E-2,1.0345135E-1,1.898125E-1,1.3665017E-1,1.0462601E-1,7.577682E-2,4.9763918E-2,1.3344891E-1,4.6763994E-2,3.0536804E-1,1.5910889E-1,1.7675877E-2,8.155823E-2,8.155823E-2,3.4093094E-1],"categories":[],"categories_nodes":[],"categories_segments":[],"categories_sizes":[],"default_left":[true,true,true,false,false,true,true,false,true,true,true,true,true,false,false,false,false,false,true,true,false,false,false,false,false],"id":48,"left_children":[1,3,5,-1,-1,7,9,-1,11,13,15,17,19,-1,-1,-1,-1,-1,21,23,-1,-1,-1,-1,-1],"loss_changes":[2.2114768E0,3.2354903E-1,5.0165796E-1,0E0,0E0,7.6063395E-2,4.804969E-2,0E0,2.6606202E-2,3.4313202E-3,1.2138635E-3,1.0764219E-2,5.430448E-2,0E0,0E0,0E0,0E0,0E0,3.6188802E-3,1.1990905E-2,0E0,0E0,0E0,0E0,0E0],"parents":[2147483647,0,0,1,1,2,2,5,5,6,6,8,8,9,9,10,10,11,11,12,12,18,18,19,19],"right_children":[2,4,6,-1,-1,8,10,-1,12,14,16,18,20,-1,-1,-1,-1,-1,22,24,-1,-1,-1,-1,-1],"split_conditions":[4.55E1,3.75E1,2.085E2,9.548264E-2,4.1565534E-2,9.5E1,4.615E2,2.61211E-2,1.34E2,2.72E2,6.54E2,5.715E4,1.53E2,1.3665018E-2,1.0462601E-2,7.5776824E-3,4.976392E-3,1.3344891E-2,1.265E2,1.43E2,1.591089E-2,1.7675877E-3,8.155823E-3,8.155823E-3,3.4093093E-2],"split_indices":[1,1,1,0,0,1,1,0,1,1,1,0,1,0,0,0,0,0,1,1,0,0,0,0,0],"split_type":[0,0,0,0,0,0,0,0,0,0,0,0,0,0,0,0,0,0,0,0,0,0,0,0,0],"sum_hessian":[1.97E2,1E1,1.87E2,2E0,8E0,6.1E1,1.26E2,2.4E1,3.7E1,7.9E1,4.7E1,9E0,2.8E1,2.1E1,5.8E1,3.6E1,1.1E1,5E0,4E0,4E0,2.4E1,3E0,1E0,1E0,3E0],"tree_param":{"num_deleted":"0","num_feature":"2","num_nodes":"25","size_leaf_vector":"0"}},{"base_weights":[1.4803398E-1,7.0851773E-1,1.298426E-1,2.3213455E-1,9.807762E-2,2.9140112E-1,1.8574408E-1,1.287259E-1,7.768981E-2,1.5644613E-1,2.6709557E-1,9.0535484E-2,6.4028464E-2,1.9162458E-1,8.043247E-2,3.1536055E-1,1.137104E-1,6.8403736E-2,4.5202333E-2,1.6349792E-2,1.0974884E-1],"categories":[],"categories_nodes":[],"categories_segments":[],"categories_sizes":[],"default_left":[true,false,true,true,true,false,true,false,true,true,true,false,true,false,true,false,false,false,false,false,false],"id":49,"left_children":[1,-1,3,5,7,-1,9,-1,11,13,15,-1,17,-1,19,-1,-1,-1,-1,-1,-1],"loss_changes":[1.9268069E0,0E0,6.0434794E-1,6.9597244E-2,8.310211E-2,0E0,2.4950027E-2,0E0,1.0348141E-2,4.6090126E-2,8.559018E-3,0E0,8.6173415E-4,0E0,1.5113678E-2,0E0,0E0,0E0,0E0,0E0,0E0],"parents":[2147483647,0,0,2,2,3,3,4,4,6,6,8,8,9,9,10,10,12,12,14,14],"right_children":[2,-1,4,6,8,-1,10,-1,12,14,16,-1,18,-1,20,-1,-1,-1,-1,-1,-1],"split_conditions":[3.95E1,7.085177E-2,1.64E2,5.85E1,3.035E2,2.9140113E-2,1.43E2,1.2872591E-2,4.615E2,1.03E2,1.53E2,9.053549E-3,6.54E2,1.916246E-2,1.24E2,3.1536054E-2,1.1371041E-2,6.840374E-3,4.5202333E-3,1.6349793E-3,1.0974884E-2],"split_indices":[1,0,1,1,1,0,1,0,1,1,1,0,1,0,1,0,0,0,0,0,0],"split_type":[0,0,0,0,0,0,0,0,0,0,0,0,0,0,0,0,0,0,0,0,0],"sum_hessian":[1.97E2,5E0,1.92E2,4.4E1,1.48E2,1.7E1,2.7E1,5.7E1,9.1E1,2.2E1,5E0,4.4E1,4.7E1,1.4E1,8E0,3E0,2E0,3.6E1,1.1E1,3E0,5E0],"tree_param":{"num_deleted":"0","num_feature":"2","num_nodes":"21","size_leaf_vector":"0"}},{"base_weights":[1.3428082E-1,6.104322E-1,1.1622175E-1,8.439382E-1,3.482422E-1,2.0747952E-1,8.849314E-2,2.5727418E-1,1.6983707E-1,1.2319439E-1,7.3254004E-2,1.421833E-1,2.4753697E-1,8.453471E-2,5.7862002E-2,1.7374013E-1,7.3790446E-2,2.9170847E-1,1.06129326E-1,6.1747912E-2,4.105862E-2,1.5123844E-2,1.006031E-1],"categories":[],"categories_nodes":[],"categories_segments":[],"categories_sizes":[],"default_left":[true,true,true,false,false,true,true,false,true,false,true,true,true,false,true,false,true,false,false,false,false,false,false],"id":50,"left_children":[1,3,5,-1,-1,7,9,-1,11,-1,13,15,17,-1,19,-1,21,-1,-1,-1,-1,-1,-1],"loss_changes":[1.6316268E0,1.3466549E-1,4.6748614E-1,0E0,0E0,3.8778663E-2,6.976926E-2,0E0,2.496779E-2,0E0,1.3513684E-2,3.6819637E-2,6.5183043E-3,0E0,5.989373E-4,0E0,1.2635563E-2,0E0,0E0,0E0,0E0,0E0,0E0],"parents":[2147483647,0,0,1,1,2,2,5,5,6,6,8,8,10,10,11,11,12,12,14,14,16,16],"right_children":[2,4,6,-1,-1,8,10,-1,12,-1,14,16,18,-1,20,-1,22,-1,-1,-1,-1,-1,-1],"split_conditions":[4.05E1,3.75E1,1.64E2,8.439382E-2,3.482422E-2,5.85E1,2.72E2,2.572742E-2,1.43E2,1.2319439E-2,4.615E2,1.03E2,1.53E2,8.453472E-3,6.54E2,1.7374014E-2,1.24E2,2.9170847E-2,1.0612933E-2,6.174791E-3,4.1058618E-3,1.5123844E-3,1.006031E-2],"split_indices":[1,1,1,0,0,1,1,0,1,0,1,1,1,0,1,0,1,0,0,0,0,0,0],"split_type":[0,0,0,0,0,0,0,0,0,0,0,0,0,0,0,0,0,0,0,0,0,0,0],"sum_hessian":[1.97E2,6E0,1.91E2,2E0,4E0,4.3E1,1.48E2,1.6E1,2.7E1,4.3E1,1.05E2,2.2E1,5E0,5.8E1,4.7E1,1.4E1,8E0,3E0,2E0,3.6E1,1.1E1,3E0,5E0],"tree_param":{"num_deleted":"0","num_feature":"2","num_nodes":"23","size_leaf_vector":"0"}},{"base_weights":[1.220889E-1,6.039327E-1,1.0647672E-1,3.1514168E-1,7.876765E-1,1.9226731E-1,7.98522E-2,2.3907703E-1,1.5530865E-1,1.1115482E-1,6.6105336E-2,1.2922429E-1,2.2941399E-1,7.622462E-2,5.2289862E-2,1.5752551E-1,6.769732E-2,2.6983023E-1,9.905434E-2,5.5739764E-2,3.729518E-2,1.3989449E-2,9.221967E-2],"categories":[],"categories_nodes":[],"categories_segments":[],"categories_sizes":[],"default_left":[true,true,true,false,false,true,true,false,true,false,true,true,true,false,true,false,true,false,false,false,false,false,false],"id":51,"left_children":[1,3,5,-1,-1,7,9,-1,11,-1,13,15,17,-1,19,-1,21,-1,-1,-1,-1,-1,-1],"loss_changes":[1.4251766E0,7.0151806E-2,4.254849E-1,0E0,0E0,4.0720344E-2,5.6768656E-2,0E0,2.4477959E-2,0E0,1.0833293E-2,2.9385567E-2,4.8840046E-3,0E0,4.042238E-4,0E0,1.0563288E-2,0E0,0E0,0E0,0E0,0E0,0E0],"parents":[2147483647,0,0,1,1,2,2,5,5,6,6,8,8,10,10,11,11,12,12,14,14,16,16],"right_children":[2,4,6,-1,-1,8,10,-1,12,-1,14,16,18,-1,20,-1,22,-1,-1,-1,-1,-1,-1],"split_conditions":[3.95E1,4.4372E4,1.64E2,3.1514168E-2,7.876765E-2,5.85E1,2.72E2,2.3907704E-2,1.43E2,1.1115482E-2,4.615E2,1.03E2,1.53E2,7.6224618E-3,6.54E2,1.5752552E-2,1.24E2,2.6983023E-2,9.905434E-3,5.5739763E-3,3.7295183E-3,1.3989449E-3,9.221967E-3],"split_indices":[1,0,1,0,0,1,1,0,1,0,1,1,1,0,1,0,1,0,0,0,0,0,0],"split_type":[0,0,0,0,0,0,0,0,0,0,0,0,0,0,0,0,0,0,0,0,0,0,0],"sum_hessian":[1.97E2,5E0,1.92E2,3E0,2E0,4.4E1,1.48E2,1.7E1,2.7E1,4.3E1,1.05E2,2.2E1,5E0,5.8E1,4.7E1,1.4E1,8E0,3E0,2E0,3.6E1,1.1E1,3E0,5E0],"tree_param":{"num_deleted":"0","num_feature":"2","num_nodes":"23","size_leaf_vector":"0"}},{"base_weights":[1.1101894E-1,5.619208E-1,9.642604E-2,2.9150677E-1,7.351659E-1,1.7497842E-1,7.205501E-2,2.3299281E-1,1.4935634E-1,9.278365E-2,5.5355992E-2,1.3111693E-1,2.1262074E-1,1.0316328E-1,7.6341234E-2,6.035634E-2,4.0131927E-2,1.5444855E-1,6.2107936E-2,2.4959278E-1,9.2451096E-2,1.2940884E-2,8.4534645E-2],"categories":[],"categories_nodes":[],"categories_segments":[],"categories_sizes":[],"default_left":[true,true,true,false,false,true,true,false,true,true,true,true,true,false,false,false,false,false,true,false,false,false,false],"id":52,"left_children":[1,3,5,-1,-1,7,9,-1,11,13,15,17,19,-1,-1,-1,-1,-1,21,-1,-1,-1,-1],"loss_changes":[1.2486496E0,6.678164E-2,3.568716E-1,0E0,0E0,3.209138E-2,4.6439886E-2,0E0,1.1354566E-2,3.2176971E-3,4.0484667E-3,3.7100136E-2,3.5823882E-3,0E0,0E0,0E0,0E0,0E0,8.829948E-3,0E0,0E0,0E0,0E0],"parents":[2147483647,0,0,1,1,2,2,5,5,6,6,8,8,9,9,10,10,11,11,12,12,18,18],"right_children":[2,4,6,-1,-1,8,10,-1,12,14,16,18,20,-1,-1,-1,-1,-1,22,-1,-1,-1,-1],"split_conditions":[3.95E1,4.4372E4,1.64E2,2.9150678E-2,7.351659E-2,5.25E1,3.33E2,2.3299282E-2,1.43E2,2.425E2,5.915E2,1.03E2,1.53E2,1.0316328E-2,7.6341233E-3,6.0356343E-3,4.013193E-3,1.5444855E-2,1.24E2,2.495928E-2,9.24511E-3,1.2940884E-3,8.453465E-3],"split_indices":[1,0,1,0,0,1,1,0,1,1,1,1,1,0,0,0,0,0,1,0,0,0,0],"split_type":[0,0,0,0,0,0,0,0,0,0,0,0,0,0,0,0,0,0,0,0,0,0,0],"sum_hessian":[1.97E2,5E0,1.92E2,3E0,2E0,4.4E1,1.48E2,1.1E1,3.3E1,6.4E1,8.4E1,2.8E1,5E0,3.6E1,2.8E1,6.1E1,2.3E1,2E1,8E0,3E0,2E0,3E0,5E0],"tree_param":{"num_deleted":"0","num_feature":"2","num_nodes":"23","size_leaf_vector":"0"}},{"base_weights":[1.0099452E-1,5.2283925E-1,8.735689E-2,2.6964283E-1,6.8615466E-1,1.5931773E-1,6.503746E-2,2.1163432E-1,1.3616724E-1,9.063599E-2,5.379809E-2,1.1887346E-1,1.9705932E-1,6.222956E-2,4.2313617E-2,1.3973835E-1,5.6980558E-2,2.3087311E-1,8.628782E-2,4.509954E-2,3.019754E-2,1.1970997E-2,7.749017E-2],"categories":[],"categories_nodes":[],"categories_segments":[],"categories_sizes":[],"default_left":[true,true,true,false,false,true,true,false,true,false,true,true,true,false,true,false,true,false,false,false,false,false,false],"id":53,"left_children":[1,3,5,-1,-1,7,9,-1,11,-1,13,15,17,-1,19,-1,21,-1,-1,-1,-1,-1,-1],"loss_changes":[1.0934131E0,6.3088655E-2,2.996205E-1,0E0,0E0,2.5684237E-2,3.7993014E-2,0E0,1.2378752E-2,0E0,7.6309443E-3,2.9487908E-2,2.552092E-3,0E0,2.5831908E-4,0E0,7.380523E-3,0E0,0E0,0E0,0E0,0E0,0E0],"parents":[2147483647,0,0,1,1,2,2,5,5,6,6,8,8,10,10,11,11,12,12,14,14,16,16],"right_children":[2,4,6,-1,-1,8,10,-1,12,-1,14,16,18,-1,20,-1,22,-1,-1,-1,-1,-1,-1],"split_conditions":[3.95E1,4.4372E4,1.64E2,2.6964283E-2,6.861547E-2,5.25E1,2.72E2,2.1163432E-2,1.43E2,9.0636E-3,4.615E2,1.03E2,1.53E2,6.222956E-3,6.54E2,1.3973835E-2,1.24E2,2.3087312E-2,8.628782E-3,4.5099542E-3,3.019754E-3,1.1970997E-3,7.7490173E-3],"split_indices":[1,0,1,0,0,1,1,0,1,0,1,1,1,0,1,0,1,0,0,0,0,0,0],"split_type":[0,0,0,0,0,0,0,0,0,0,0,0,0,0,0,0,0,0,0,0,0,0,0],"sum_hessian":[1.97E2,5E0,1.92E2,3E0,2E0,4.4E1,1.48E2,1.1E1,3.3E1,4.3E1,1.05E2,2.8E1,5E0,5.8E1,4.7E1,2E1,8E0,3E0,2E0,3.6E1,1.1E1,3E0,5E0],"tree_param":{"num_deleted":"0","num_feature":"2","num_nodes":"23","size_leaf_vector":"0"}},{"base_weights":[9.187579E-2,4.8648453E-1,7.913212E-2,7.3030853E-1,2.91658E-1,1.4507048E-1,5.8686763E-2,1.7951965E-1,1.1774349E-1,7.5774826E-2,4.4928987E-2,9.569475E-2,1.8263976E-1,8.430651E-2,6.2276643E-2,4.8958547E-2,3.2647252E-2,1.13900304E-1,4.7321796E-2,2.135582E-1,8.0535255E-2,-1.5872955E-2,7.1032204E-2],"categories":[],"categories_nodes":[],"categories_segments":[],"categories_sizes":[],"default_left":[true,true,true,false,false,true,true,false,true,true,true,true,true,false,false,false,false,false,true,false,false,false,false],"id":54,"left_children":[1,3,5,-1,-1,7,9,-1,11,13,15,17,19,-1,-1,-1,-1,-1,21,-1,-1,-1,-1],"loss_changes":[9.571986E-1,7.2019815E-2,2.5167608E-1,0E0,0E0,2.1225393E-2,3.1624496E-2,0E0,2.2587001E-2,2.235204E-3,2.6082844E-3,1.4865115E-2,1.7425269E-3,0E0,0E0,0E0,0E0,0E0,1.311448E-2,0E0,0E0,0E0,0E0],"parents":[2147483647,0,0,1,1,2,2,5,5,6,6,8,8,9,9,10,10,11,11,12,12,18,18],"right_children":[2,4,6,-1,-1,8,10,-1,12,14,16,18,20,-1,-1,-1,-1,-1,22,-1,-1,-1,-1],"split_conditions":[3.95E1,3.6E1,1.64E2,7.303085E-2,2.9165803E-2,5.85E1,3.33E2,1.7951965E-2,1.43E2,2.425E2,5.915E2,1.115E2,1.53E2,8.430651E-3,6.227664E-3,4.8958547E-3,3.2647252E-3,1.139003E-2,1.24E2,2.135582E-2,8.053525E-3,-1.5872956E-3,7.1032206E-3],"split_indices":[1,1,1,0,0,1,1,0,1,1,1,1,1,0,0,0,0,0,1,0,0,0,0],"split_type":[0,0,0,0,0,0,0,0,0,0,0,0,0,0,0,0,0,0,0,0,0,0,0],"sum_hessian":[1.97E2,5E0,1.92E2,1E0,4E0,4.4E1,1.48E2,1.7E1,2.7E1,6.4E1,8.4E1,2.2E1,5E0,3.6E1,2.8E1,6.1E1,2.3E1,1.5E1,7E0,3E0,2E0,2E0,5E0],"tree_param":{"num_deleted":"0","num_feature":"2","num_nodes":"23","size_leaf_vector":"0"}},{"base_weights":[8.364409E-2,4.548677E-1,7.167007E-2,6.9379234E-1,2.683243E-1,1.3199137E-1,5.2971225E-2,1.7577808E-1,1.1265513E-1,6.568267E-2,3.7687123E-2,9.705557E-2,1.6927719E-1,7.610388E-2,5.5426598E-2,3.9743215E-2,2.4437428E-2,1.12199E-1,4.327917E-2,1.9754076E-1,7.51667E-2,-1.4815013E-2,6.511307E-2],"categories":[],"categories_nodes":[],"categories_segments":[],"categories_sizes":[],"default_left":[true,true,true,false,false,true,true,false,true,true,true,true,true,false,false,false,false,false,true,false,false,false,false],"id":55,"left_children":[1,3,5,-1,-1,7,9,-1,11,13,15,17,19,-1,-1,-1,-1,-1,21,-1,-1,-1,-1],"loss_changes":[8.4751725E-1,8.125758E-2,2.107004E-1,0E0,0E0,1.8297851E-2,2.6472807E-2,0E0,1.3602227E-2,4.332274E-3,9.357482E-4,1.8760532E-2,1.1109114E-3,0E0,0E0,0E0,0E0,0E0,1.1112031E-2,0E0,0E0,0E0,0E0],"parents":[2147483647,0,0,1,1,2,2,5,5,6,6,8,8,9,9,10,10,11,11,12,12,18,18],"right_children":[2,4,6,-1,-1,8,10,-1,12,14,16,18,20,-1,-1,-1,-1,-1,22,-1,-1,-1,-1],"split_conditions":[3.95E1,3.6E1,1.64E2,6.937923E-2,2.683243E-2,5.25E1,3.945E2,1.7577808E-2,1.43E2,2.425E2,6.54E2,1.115E2,1.53E2,7.610388E-3,5.5426597E-3,3.9743218E-3,2.4437427E-3,1.12199E-2,1.24E2,1.9754076E-2,7.5166705E-3,-1.4815013E-3,6.511307E-3],"split_indices":[1,1,1,0,0,1,1,0,1,1,1,1,1,0,0,0,0,0,1,0,0,0,0],"split_type":[0,0,0,0,0,0,0,0,0,0,0,0,0,0,0,0,0,0,0,0,0,0,0],"sum_hessian":[1.97E2,5E0,1.92E2,1E0,4E0,4.4E1,1.48E2,1.1E1,3.3E1,7.9E1,6.9E1,2.8E1,5E0,3.6E1,4.3E1,5.8E1,1.1E1,2.1E1,7E0,3E0,2E0,2E0,5E0],"tree_param":{"num_deleted":"0","num_feature":"2","num_nodes":"23","size_leaf_vector":"0"}},{"base_weights":[7.617321E-2,5.742747E-1,6.816057E-2,1.2992573E-1,4.7805615E-2,2.0322838E-1,1.0779875E-1,5.9278797E-2,3.4010466E-2,9.596426E-2,1.5689437E-1,6.869924E-2,5.0009813E-2,3.5836607E-2,2.2197723E-2,1.1064793E-1,4.288207E-2,1.8272495E-1,7.0155464E-2,6.95467E-3,5.968666E-2],"categories":[],"categories_nodes":[],"categories_segments":[],"categories_sizes":[],"default_left":[true,false,true,true,true,false,true,true,true,true,true,false,false,false,false,false,true,false,false,false,false],"id":56,"left_children":[1,-1,3,5,7,-1,9,11,13,15,17,-1,-1,-1,-1,-1,19,-1,-1,-1,-1],"loss_changes":[7.510965E-1,0E0,2.4020535E-1,5.5946648E-2,2.1566749E-2,0E0,7.6036155E-3,3.5497844E-3,7.145405E-4,2.1756202E-2,6.239563E-4,0E0,0E0,0E0,0E0,0E0,5.018607E-3,0E0,0E0,0E0,0E0],"parents":[2147483647,0,0,2,2,3,3,4,4,6,6,7,7,8,8,9,9,10,10,16,16],"right_children":[2,-1,4,6,8,-1,10,12,14,16,18,-1,-1,-1,-1,-1,20,-1,-1,-1,-1],"split_conditions":[3.75E1,5.7427473E-2,1.64E2,4.8E1,3.945E2,2.0322839E-2,1.43E2,2.425E2,6.54E2,1.03E2,1.53E2,6.8699243E-3,5.0009815E-3,3.5836608E-3,2.2197724E-3,1.1064793E-2,1.24E2,1.8272495E-2,7.0155463E-3,6.95467E-4,5.968666E-3],"split_indices":[1,0,1,1,1,0,1,1,1,1,1,0,0,0,0,0,1,0,0,0,0],"split_type":[0,0,0,0,0,0,0,0,0,0,0,0,0,0,0,0,0,0,0,0,0],"sum_hessian":[1.97E2,2E0,1.95E2,4.7E1,1.48E2,9E0,3.8E1,7.9E1,6.9E1,3.3E1,5E0,3.6E1,4.3E1,5.8E1,1.1E1,2.5E1,8E0,3E0,2E0,3E0,5E0],"tree_param":{"num_deleted":"0","num_feature":"2","num_nodes":"21","size_leaf_vector":"0"}},{"base_weights":[6.925469E-2,5.359904E-1,6.1757434E-2,1.1825176E-1,4.314344E-2,1.7732398E-1,9.589721E-2,5.3499103E-2,3.069206E-2,8.3614945E-2,1.4541976E-1,6.632722E-2,4.748969E-2,3.3659246E-2,2.3602486E-2,9.561089E-2,3.5675764E-2,1.6902065E-1,6.5478645E-2,-1.4291127E-2,5.471325E-2],"categories":[],"categories_nodes":[],"categories_segments":[],"categories_sizes":[],"default_left":[true,false,true,true,true,false,true,true,true,true,true,false,false,false,false,false,true,false,false,false,false],"id":57,"left_children":[1,-1,3,5,7,-1,9,11,13,15,17,-1,-1,-1,-1,-1,19,-1,-1,-1,-1],"loss_changes":[6.5974736E-1,0E0,2.0100892E-1,4.63807E-2,1.7570406E-2,0E0,1.0345936E-2,3.0173063E-3,6.780848E-4,1.4991432E-2,2.528429E-4,0E0,0E0,0E0,0E0,0E0,8.391866E-3,0E0,0E0,0E0,0E0],"parents":[2147483647,0,0,2,2,3,3,4,4,6,6,7,7,8,8,9,9,10,10,16,16],"right_children":[2,-1,4,6,8,-1,10,12,14,16,18,-1,-1,-1,-1,-1,20,-1,-1,-1,-1],"split_conditions":[3.75E1,5.359904E-2,1.64E2,5E1,3.945E2,1.7732399E-2,1.43E2,2.085E2,5.915E2,1.115E2,1.53E2,6.6327224E-3,4.7489693E-3,3.3659246E-3,2.3602487E-3,9.561089E-3,1.24E2,1.6902065E-2,6.5478645E-3,-1.4291127E-3,5.471325E-3],"split_indices":[1,0,1,1,1,0,1,1,1,1,1,0,0,0,0,0,1,0,0,0,0],"split_type":[0,0,0,0,0,0,0,0,0,0,0,0,0,0,0,0,0,0,0,0,0],"sum_hessian":[1.97E2,2E0,1.95E2,4.7E1,1.48E2,1.1E1,3.6E1,7.9E1,6.9E1,3.1E1,5E0,2.2E1,5.7E1,4.6E1,2.3E1,2.4E1,7E0,3E0,2E0,2E0,5E0],"tree_param":{"num_deleted":"0","num_feature":"2","num_nodes":"21","size_leaf_vector":"0"}},{"base_weights":[6.296326E-2,6.0359E-1,5.7155058E-2,1.3624418E-1,4.4333063E-2,1.846672E-1,1.0177337E-1,7.0175976E-2,3.4827046E-2,5.2125484E-2,7.833744E-2,4.0482283E-2,2.4676085E-2,6.442521E-2,2.5350843E-2,1.4176407E-1,6.251862E-2,4.432492E-2,3.5068713E-2,2.6174726E-2,1.7998934E-2,-1.3338725E-2,4.3494415E-2,4.172325E-2,1.5634346E-1],"categories":[],"categories_nodes":[],"categories_segments":[],"categories_sizes":[],"default_left":[true,false,true,true,true,false,false,true,true,true,true,true,true,false,true,true,false,false,false,false,false,false,false,false,false],"id":58,"left_children":[1,-1,3,5,7,-1,-1,9,11,13,15,17,19,-1,21,23,-1,-1,-1,-1,-1,-1,-1,-1,-1],"loss_changes":[5.872361E-1,0E0,1.9373369E-1,2.6273668E-2,3.956437E-2,0E0,0E0,2.5459528E-3,6.291628E-3,3.9652176E-3,2.023381E-2,1.09776855E-4,9.20333E-6,0E0,5.4939296E-3,7.6951087E-4,0E0,0E0,0E0,0E0,0E0,0E0,0E0,0E0,0E0],"parents":[2147483647,0,0,2,2,3,3,4,4,7,7,8,8,9,9,10,10,11,11,12,12,14,14,15,15],"right_children":[2,-1,4,6,8,-1,-1,10,12,14,16,18,20,-1,22,24,-1,-1,-1,-1,-1,-1,-1,-1,-1],"split_conditions":[3.6E1,6.0359E-2,6.35E1,4.55E1,2.085E2,1.846672E-2,1.0177337E-2,1.34E2,4.615E2,1.115E2,1.53E2,3.33E2,6.54E2,6.442521E-3,1.24E2,1.43E2,6.251862E-3,4.432492E-3,3.5068714E-3,2.6174725E-3,1.7998934E-3,-1.3338726E-3,4.3494417E-3,4.172325E-3,1.5634347E-2],"split_indices":[1,0,1,1,1,0,0,1,1,1,1,1,1,0,1,1,0,0,0,0,0,0,0,0,0],"split_type":[0,0,0,0,0,0,0,0,0,0,0,0,0,0,0,0,0,0,0,0,0,0,0,0,0],"sum_hessian":[1.97E2,1E0,1.96E2,2.6E1,1.7E2,9E0,1.7E1,4.4E1,1.26E2,1.6E1,2.8E1,7.9E1,4.7E1,1E1,6E0,4E0,2.4E1,4.2E1,3.7E1,3.6E1,1.1E1,2E0,4E0,1E0,3E0],"tree_param":{"num_deleted":"0","num_feature":"2","num_nodes":"25","size_leaf_vector":"0"}},{"base_weights":[5.7358038E-2,5.7341003E-1,5.1827773E-2,1.236804E-1,4.0179536E-2,1.6804695E-1,9.216118E-2,6.39473E-2,3.1441517E-2,4.7469083E-2,7.140186E-2,3.6533225E-2,2.2300303E-2,5.8567915E-2,2.3246765E-2,1.3154869E-1,5.651642E-2,4.0753048E-2,3.234552E-2,-1.2449901E-2,4.001541E-2,3.9636612E-2,1.4461756E-1],"categories":[],"categories_nodes":[],"categories_segments":[],"categories_sizes":[],"default_left":[true,false,true,true,true,false,false,true,true,true,true,true,false,false,true,true,false,false,false,false,false,false,false],"id":59,"left_children":[1,-1,3,5,7,-1,-1,9,11,13,15,17,-1,-1,19,21,-1,-1,-1,-1,-1,-1,-1],"loss_changes":[5.353544E-1,0E0,1.5991104E-1,2.2269368E-2,3.3503264E-2,0E0,0E0,2.1383315E-3,5.0964355E-3,3.2087527E-3,1.8529385E-2,9.5531344E-5,0E0,0E0,4.688281E-3,2.7377903E-4,0E0,0E0,0E0,0E0,0E0,0E0,0E0],"parents":[2147483647,0,0,2,2,3,3,4,4,7,7,8,8,9,9,10,10,11,11,14,14,15,15],"right_children":[2,-1,4,6,8,-1,-1,10,12,14,16,18,-1,-1,20,22,-1,-1,-1,-1,-1,-1,-1],"split_conditions":[3.6E1,5.7341006E-2,6.35E1,4.55E1,2.085E2,1.6804695E-2,9.216118E-3,1.34E2,4.615E2,1.115E2,1.53E2,3.035E2,2.2300303E-3,5.8567915E-3,1.24E2,1.43E2,5.651642E-3,4.075305E-3,3.234552E-3,-1.24499E-3,4.001541E-3,3.9636614E-3,1.4461756E-2],"split_indices":[1,0,1,1,1,0,0,1,1,1,1,1,0,0,1,1,0,0,0,0,0,0,0],"split_type":[0,0,0,0,0,0,0,0,0,0,0,0,0,0,0,0,0,0,0,0,0,0,0],"sum_hessian":[1.97E2,1E0,1.96E2,2.6E1,1.7E2,9E0,1.7E1,4.4E1,1.26E2,1.6E1,2.8E1,7.9E1,4.7E1,1E1,6E0,4E0,2.4E1,3.5E1,4.4E1,2E0,4E0,1E0,3E0],"tree_param":{"num_deleted":"0","num_feature":"2","num_nodes":"23","size_leaf_vector":"0"}},{"base_weights":[5.225648E-2,5.4473877E-1,4.6991397E-2,9.257714E-2,3.1684734E-2,1.4968595E-1,7.409575E-2,4.47692E-2,2.5954535E-2,6.456224E-2,1.1576971E-1,3.0263755E-2,2.0117065E-2,7.3994346E-2,3.0140348E-2,3.466797E-2,1.2505646E-1,2.1458214E-2,1.4305432E-2,2.9706955E-3,4.3230057E-2],"categories":[],"categories_nodes":[],"categories_segments":[],"categories_sizes":[],"default_left":[true,false,true,true,true,false,true,false,true,true,true,false,true,false,true,false,false,false,false,false,false],"id":60,"left_children":[1,-1,3,5,7,-1,9,-1,11,13,15,-1,17,-1,19,-1,-1,-1,-1,-1,-1],"loss_changes":[4.8780793E-1,0E0,1.3452655E-1,4.062596E-2,1.0009557E-2,0E0,8.0203265E-3,0E0,2.0576045E-3,8.808598E-3,1.8357486E-4,0E0,6.715581E-5,0E0,3.0723624E-3,0E0,0E0,0E0,0E0,0E0,0E0],"parents":[2147483647,0,0,2,2,3,3,4,4,6,6,8,8,9,9,10,10,12,12,14,14],"right_children":[2,-1,4,6,8,-1,10,-1,12,14,16,-1,18,-1,20,-1,-1,-1,-1,-1,-1],"split_conditions":[3.6E1,5.4473877E-2,1.64E2,4.8E1,2.72E2,1.49685955E-2,1.43E2,4.4769202E-3,4.615E2,1.03E2,3.32085E4,3.0263755E-3,6.54E2,7.3994347E-3,1.24E2,3.4667968E-3,1.2505646E-2,2.1458215E-3,1.4305433E-3,2.9706955E-4,4.3230057E-3],"split_indices":[1,0,1,1,1,0,1,0,1,1,0,0,1,0,1,0,0,0,0,0,0],"split_type":[0,0,0,0,0,0,0,0,0,0,0,0,0,0,0,0,0,0,0,0,0],"sum_hessian":[1.97E2,1E0,1.96E2,4.8E1,1.48E2,1E1,3.8E1,4.3E1,1.05E2,3.3E1,5E0,5.8E1,4.7E1,2.5E1,8E0,1E0,4E0,3.6E1,1.1E1,3E0,5E0],"tree_param":{"num_deleted":"0","num_feature":"2","num_nodes":"21","size_leaf_vector":"0"}},{"base_weights":[4.7578845E-2,5.1750183E-1,4.2566538E-2,8.419574E-2,2.8590715E-2,1.5311323E-1,7.101858E-2,4.0394392E-2,2.342135E-2,6.349142E-2,1.0685412E-1,2.7288599E-2,1.8179914E-2,7.879091E-2,3.7530184E-2,1.24391556E-1,4.7852833E-2,1.937044E-2,1.299413E-2,1.1075338E-3,4.265431E-2],"categories":[],"categories_nodes":[],"categories_segments":[],"categories_sizes":[],"default_left":[true,false,true,true,true,false,true,false,true,true,true,false,true,false,true,false,false,false,false,false,false],"id":61,"left_children":[1,-1,3,5,7,-1,9,-1,11,13,15,-1,17,-1,19,-1,-1,-1,-1,-1,-1],"loss_changes":[4.4434077E-1,0E0,1.1220783E-1,3.3624828E-2,8.145519E-3,0E0,4.8144907E-3,0E0,1.6525127E-3,1.213631E-2,2.5589764E-4,0E0,4.4640154E-5,0E0,2.9389076E-3,0E0,0E0,0E0,0E0,0E0,0E0],"parents":[2147483647,0,0,2,2,3,3,4,4,6,6,8,8,9,9,10,10,12,12,14,14],"right_children":[2,-1,4,6,8,-1,10,-1,12,14,16,-1,18,-1,20,-1,-1,-1,-1,-1,-1],"split_conditions":[3.6E1,5.1750183E-2,1.64E2,4.2E1,2.72E2,1.5311323E-2,1.43E2,4.0394394E-3,4.615E2,6.9E1,1.53E2,2.72886E-3,6.54E2,7.879091E-3,7.9E1,1.2439156E-2,4.7852835E-3,1.9370441E-3,1.299413E-3,1.1075338E-4,4.265431E-3],"split_indices":[1,0,1,1,1,0,1,0,1,1,1,0,1,0,1,0,0,0,0,0,0],"split_type":[0,0,0,0,0,0,0,0,0,0,0,0,0,0,0,0,0,0,0,0,0],"sum_hessian":[1.97E2,1E0,1.96E2,4.8E1,1.48E2,6E0,4.2E1,4.3E1,1.05E2,3.7E1,5E0,5.8E1,4.7E1,2.2E1,1.5E1,3E0,2E0,3.6E1,1.1E1,2E0,1.3E1],"tree_param":{"num_deleted":"0","num_feature":"2","num_nodes":"21","size_leaf_vector":"0"}},{"base_weights":[4.3359183E-2,4.9162674E-1,3.8588148E-2,1.00533746E-1,3.0625695E-2,1.4678828E-1,7.8294866E-2,4.9530067E-2,2.2941882E-2,5.521856E-2,4.0451463E-2,2.8362619E-2,1.8122673E-2,4.1386314E-2,9.903908E-2,1.9956041E-2,1.3777216E-2,4.8713923E-2,2.1557808E-2,1.1506176E-1,4.4662476E-2],"categories":[],"categories_nodes":[],"categories_segments":[],"categories_sizes":[],"default_left":[true,false,true,true,true,false,false,true,true,true,false,false,true,true,true,false,false,false,false,false,false],"id":62,"left_children":[1,-1,3,5,7,-1,-1,9,11,13,-1,-1,15,17,19,-1,-1,-1,-1,-1,-1],"loss_changes":[4.044918E-1,0E0,9.408912E-2,1.11375E-2,2.4429038E-2,0E0,0E0,3.4850836E-4,2.8036982E-3,1.2872949E-2,0E0,0E0,2.8273836E-4,2.2916347E-3,8.8609755E-5,0E0,0E0,0E0,0E0,0E0,0E0],"parents":[2147483647,0,0,2,2,3,3,4,4,7,7,8,8,9,9,12,12,13,13,14,14],"right_children":[2,-1,4,6,8,-1,-1,10,12,14,-1,-1,16,18,20,-1,-1,-1,-1,-1,-1],"split_conditions":[3.6E1,4.9162675E-2,5.85E1,4.05E1,2.085E2,1.4678828E-2,7.829486E-3,1.64E2,3.945E2,1.43E2,4.0451465E-3,2.8362619E-3,5.915E2,1.115E2,1.53E2,1.9956043E-3,1.3777217E-3,4.871392E-3,2.1557808E-3,1.1506177E-2,4.4662477E-3],"split_indices":[1,0,1,1,1,0,0,1,1,1,0,0,1,1,1,0,0,0,0,0,0],"split_type":[0,0,0,0,0,0,0,0,0,0,0,0,0,0,0,0,0,0,0,0,0],"sum_hessian":[1.97E2,1E0,1.96E2,2.1E1,1.75E2,5E0,1.6E1,4.9E1,1.26E2,2.7E1,2.2E1,5.7E1,6.9E1,2.2E1,5E0,4.6E1,2.3E1,1.5E1,7E0,3E0,2E0],"tree_param":{"num_deleted":"0","num_feature":"2","num_nodes":"21","size_leaf_vector":"0"}},{"base_weights":[3.955315E-2,4.6704483E-1,3.5012357E-2,6.9951236E-2,2.3287408E-2,1.1463096E-1,5.5555638E-2,3.3070043E-2,1.9007E-2,4.7526192E-2,9.1796555E-2,2.129092E-2,1.3309508E-2,5.597393E-2,2.4774205E-2,2.350454E-2,1.8575266E-2,1.1141141E-2,3.4278233E-2],"categories":[],"categories_nodes":[],"categories_segments":[],"categories_sizes":[],"default_left":[true,false,true,true,true,false,true,false,true,true,false,true,false,false,true,false,false,false,false],"id":63,"left_children":[1,-1,3,5,7,-1,9,-1,11,13,-1,15,-1,-1,17,-1,-1,-1,-1],"loss_changes":[3.679957E-1,0E0,7.907334E-2,2.514799E-2,5.6106076E-3,0E0,6.9860443E-3,0E0,1.0959655E-3,5.1481873E-3,0E0,8.244067E-6,0E0,0E0,1.0433607E-3,0E0,0E0,0E0,0E0],"parents":[2147483647,0,0,2,2,3,3,4,4,6,6,8,8,9,9,11,11,14,14],"right_children":[2,-1,4,6,8,-1,10,-1,12,14,-1,16,-1,-1,18,-1,-1,-1,-1],"split_conditions":[3.6E1,4.6704482E-2,1.64E2,4.8E1,2.72E2,1.1463096E-2,1.43E2,3.3070042E-3,5.255E2,9.5E1,9.179655E-3,3.945E2,1.3309508E-3,5.597393E-3,1.24E2,2.350454E-3,1.8575266E-3,1.1141141E-3,3.4278233E-3],"split_indices":[1,0,1,1,1,0,1,0,1,1,0,1,0,0,1,0,0,0,0],"split_type":[0,0,0,0,0,0,0,0,0,0,0,0,0,0,0,0,0,0,0],"sum_hessian":[1.97E2,1E0,1.96E2,4.8E1,1.48E2,1E1,3.8E1,4.3E1,1.05E2,3.3E1,5E0,7.3E1,3.2E1,2.3E1,1E1,3.6E1,3.7E1,5E0,5E0],"tree_param":{"num_deleted":"0","num_feature":"2","num_nodes":"19","size_leaf_vector":"0"}},{"base_weights":[3.6033865E-2,4.4369316E-1,3.171228E-2,9.3732834E-2,2.608568E-2,1.2500317E-1,6.815512E-2,4.2581253E-2,1.8606644E-2,4.7527313E-2,3.3418324E-2,2.291913E-2,1.4767633E-2,3.749677E-2,8.085986E-2,1.6285043E-2,1.1180718E-2,4.4229075E-2,1.0981424E-2,9.186516E-2,3.5564423E-2],"categories":[],"categories_nodes":[],"categories_segments":[],"categories_sizes":[],"default_left":[true,false,true,true,true,false,false,true,true,true,false,false,true,true,true,false,false,false,false,false,false],"id":64,"left_children":[1,-1,3,5,7,-1,-1,9,11,13,-1,-1,15,17,19,-1,-1,-1,-1,-1,-1],"loss_changes":[3.3475295E-1,0E0,6.630097E-2,4.277587E-3,2.1661222E-2,0E0,0E0,9.4965845E-4,1.7641075E-3,8.335695E-3,0E0,0E0,1.9891933E-4,4.512567E-3,2.2229552E-4,0E0,0E0,0E0,0E0,0E0,0E0],"parents":[2147483647,0,0,2,2,3,3,4,4,7,7,8,8,9,9,12,12,13,13,14,14],"right_children":[2,-1,4,6,8,-1,-1,10,12,14,-1,-1,16,18,20,-1,-1,-1,-1,-1,-1],"split_conditions":[3.6E1,4.4369318E-2,5.25E1,4.05E1,2.085E2,1.2500318E-2,6.8155117E-3,1.64E2,3.945E2,1.34E2,3.3418324E-3,2.291913E-3,5.915E2,1.115E2,1.53E2,1.6285044E-3,1.1180718E-3,4.4229077E-3,1.0981424E-3,9.1865165E-3,3.5564422E-3],"split_indices":[1,0,1,1,1,0,0,1,1,1,0,0,1,1,1,0,0,0,0,0,0],"split_type":[0,0,0,0,0,0,0,0,0,0,0,0,0,0,0,0,0,0,0,0,0],"sum_hessian":[1.97E2,1E0,1.96E2,1.5E1,1.81E2,5E0,1E1,5.5E1,1.26E2,3.3E1,2.2E1,5.7E1,6.9E1,2.7E1,6E0,4.6E1,2.3E1,2.1E1,6E0,4E0,2E0],"tree_param":{"num_deleted":"0","num_feature":"2","num_nodes":"21","size_leaf_vector":"0"}},{"base_weights":[3.2886535E-2,4.215088E-1,2.8774194E-2,8.5565805E-2,2.3623424E-2,1.1458588E-1,6.1957967E-2,3.8709402E-2,1.678533E-2,4.3312408E-2,3.022194E-2,2.066617E-2,1.3329983E-2,3.4566022E-2,7.836787E-2,1.5180387E-2,1.0795276E-2,4.0008284E-2,1.5279055E-2,9.265709E-2,3.319295E-2],"categories":[],"categories_nodes":[],"categories_segments":[],"categories_sizes":[],"default_left":[true,false,true,true,true,false,false,true,true,true,false,false,true,true,true,false,false,false,false,false,false],"id":65,"left_children":[1,-1,3,5,7,-1,-1,9,11,13,-1,-1,15,17,19,-1,-1,-1,-1,-1,-1],"loss_changes":[3.0430454E-1,0E0,5.5605173E-2,3.8621128E-3,1.8125251E-2,0E0,0E0,8.7881833E-4,1.4275499E-3,7.7158287E-3,0E0,0E0,1.644399E-4,2.432689E-3,7.9752505E-4,0E0,0E0,0E0,0E0,0E0,0E0],"parents":[2147483647,0,0,2,2,3,3,4,4,7,7,8,8,9,9,12,12,13,13,14,14],"right_children":[2,-1,4,6,8,-1,-1,10,12,14,-1,-1,16,18,20,-1,-1,-1,-1,-1,-1],"split_conditions":[3.6E1,4.215088E-2,5.25E1,4.05E1,2.085E2,1.1458588E-2,6.1957967E-3,1.64E2,3.945E2,1.43E2,3.022194E-3,2.0666171E-3,5.255E2,1.115E2,1.53E2,1.5180387E-3,1.0795275E-3,4.0008286E-3,1.5279055E-3,9.265709E-3,3.3192951E-3],"split_indices":[1,0,1,1,1,0,0,1,1,1,0,0,1,1,1,0,0,0,0,0,0],"split_type":[0,0,0,0,0,0,0,0,0,0,0,0,0,0,0,0,0,0,0,0,0],"sum_hessian":[1.97E2,1E0,1.96E2,1.5E1,1.81E2,5E0,1E1,5.5E1,1.26E2,3.3E1,2.2E1,5.7E1,6.9E1,2.8E1,5E0,3.7E1,3.2E1,2.1E1,7E0,3E0,2E0],"tree_param":{"num_deleted":"0","num_feature":"2","num_nodes":"21","size_leaf_vector":"0"}},{"base_weights":[3.002987E-2,4.004326E-1,2.6117E-2,6.9838956E-2,2.0503365E-2,1.05036415E-1,5.330815E-2,3.3708382E-2,1.5143094E-2,2.495699E-2,3.8267072E-2,1.7584419E-2,1.0758738E-2,3.1843543E-2,-2.0713806E-3,6.1962977E-2,2.733098E-2,1.9388776E-2,1.50799E-2,1.1588148E-2,7.304827E-3,1.9631863E-2,3.91602E-2,1.5139262E-2,-1.8591562E-2,2.3822784E-2,6.945692E-2],"categories":[],"categories_nodes":[],"categories_segments":[],"categories_sizes":[],"default_left":[true,false,true,true,true,false,false,true,true,true,true,true,true,true,true,true,false,false,false,false,false,false,false,false,false,false,false],"id":66,"left_children":[1,-1,3,5,7,-1,-1,9,11,13,15,17,19,21,23,25,-1,-1,-1,-1,-1,-1,-1,-1,-1,-1,-1],"loss_changes":[2.7651072E-1,0E0,4.6919584E-2,7.2012395E-3,1.1947259E-2,0E0,0E0,1.0397136E-3,1.170177E-3,3.7886072E-3,6.3398518E-3,6.914325E-5,5.2856747E-5,6.60792E-4,1.7030772E-3,9.17729E-4,0E0,0E0,0E0,0E0,0E0,0E0,0E0,0E0,0E0,0E0,0E0],"parents":[2147483647,0,0,2,2,3,3,4,4,7,7,8,8,9,9,10,10,11,11,12,12,13,13,14,14,15,15],"right_children":[2,-1,4,6,8,-1,-1,10,12,14,16,18,20,22,24,26,-1,-1,-1,-1,-1,-1,-1,-1,-1,-1,-1],"split_conditions":[3.6E1,4.004326E-2,5.85E1,4.05E1,2.085E2,1.0503641E-2,5.3308154E-3,1.29E2,4.615E2,1.115E2,1.64E2,3.33E2,6.54E2,4.1903E4,4.8195E4,1.34E2,2.733098E-3,1.9388776E-3,1.50799E-3,1.1588148E-3,7.3048274E-4,1.9631863E-3,3.91602E-3,1.5139262E-3,-1.8591563E-3,2.3822784E-3,6.945692E-3],"split_indices":[1,0,1,1,1,0,0,1,1,1,1,1,1,0,0,1,0,0,0,0,0,0,0,0,0,0,0],"split_type":[0,0,0,0,0,0,0,0,0,0,0,0,0,0,0,0,0,0,0,0,0,0,0,0,0,0,0],"sum_hessian":[1.97E2,1E0,1.96E2,2.1E1,1.75E2,5E0,1.6E1,4.9E1,1.26E2,1.9E1,3E1,7.9E1,4.7E1,1.5E1,4E0,8E0,2.2E1,4.2E1,3.7E1,3.6E1,1.1E1,7E0,8E0,2E0,2E0,2E0,6E0],"tree_param":{"num_deleted":"0","num_feature":"2","num_nodes":"27","size_leaf_vector":"0"}},{"base_weights":[2.7424831E-2,3.8041115E-1,2.3702001E-2,7.15003E-2,1.9369723E-2,1.0089493E-1,5.329418E-2,3.4531705E-2,1.4574473E-2,2.7718885E-2,4.4295907E-2,1.8041812E-2,1.0849394E-2,3.2685973E-2,8.148193E-3,7.3094174E-2,2.8605303E-2,2.1222591E-2,1.5607639E-2,1.1522632E-2,6.635189E-3,-1.7351786E-2,2.1818543E-2,2.173996E-2,8.049774E-2],"categories":[],"categories_nodes":[],"categories_segments":[],"categories_sizes":[],"default_left":[true,false,true,true,true,false,false,true,true,true,true,true,true,false,true,true,false,false,false,false,false,false,false,false,false],"id":67,"left_children":[1,-1,3,5,7,-1,-1,9,11,13,15,17,19,-1,21,23,-1,-1,-1,-1,-1,-1,-1,-1,-1],"loss_changes":[2.5117686E-1,0E0,3.9408937E-2,3.1854808E-3,1.2729116E-2,0E0,0E0,1.632601E-3,1.6125124E-3,2.4555307E-3,5.138915E-3,2.1848641E-4,1.2214668E-4,0E0,2.818746E-3,1.5100278E-4,0E0,0E0,0E0,0E0,0E0,0E0,0E0,0E0,0E0],"parents":[2147483647,0,0,2,2,3,3,4,4,7,7,8,8,9,9,10,10,11,11,12,12,14,14,15,15],"right_children":[2,-1,4,6,8,-1,-1,10,12,14,16,18,20,-1,22,24,-1,-1,-1,-1,-1,-1,-1,-1,-1],"split_conditions":[3.6E1,3.8041115E-2,5.25E1,3.95E1,1.9E2,1.0089493E-2,5.3294185E-3,1.34E2,3.945E2,1.115E2,1.53E2,2.425E2,6.54E2,3.2685974E-3,1.24E2,1.43E2,2.8605303E-3,2.1222592E-3,1.5607639E-3,1.1522633E-3,6.635189E-4,-1.7351786E-3,2.1818543E-3,2.173996E-3,8.049774E-3],"split_indices":[1,0,1,1,1,0,0,1,1,1,1,1,1,0,1,1,0,0,0,0,0,0,0,0,0],"split_type":[0,0,0,0,0,0,0,0,0,0,0,0,0,0,0,0,0,0,0,0,0,0,0,0,0],"sum_hessian":[1.97E2,1E0,1.96E2,1.5E1,1.81E2,4E0,1.1E1,4.2E1,1.39E2,2.7E1,1.5E1,7E1,6.9E1,2.1E1,6E0,4E0,1.1E1,2.7E1,4.3E1,5.8E1,1.1E1,2E0,4E0,1E0,3E0],"tree_param":{"num_deleted":"0","num_feature":"2","num_nodes":"25","size_leaf_vector":"0"}},{"base_weights":[2.5064945E-2,3.6139107E-1,2.1523234E-2,6.5314054E-2,1.7555231E-2,9.282303E-2,4.8409145E-2,3.1468857E-2,1.3156367E-2,2.507925E-2,4.0683866E-2,1.6289482E-2,9.7905435E-3,2.9565377E-2,7.397243E-3,6.782989E-2,2.5982698E-2,1.917553E-2,1.4082692E-2,1.1250069E-2,7.813194E-3,3.3525195E-2,2.012062E-2,-1.6194662E-2,2.0072937E-2,2.0652771E-2,7.446098E-2],"categories":[],"categories_nodes":[],"categories_segments":[],"categories_sizes":[],"default_left":[true,false,true,true,true,false,false,true,true,true,true,true,true,true,true,true,false,false,false,false,false,false,false,false,false,false,false],"id":68,"left_children":[1,-1,3,5,7,-1,-1,9,11,13,15,17,19,21,23,25,-1,-1,-1,-1,-1,-1,-1,-1,-1,-1,-1],"loss_changes":[2.2807339E-1,0E0,3.3084527E-2,2.9470995E-3,1.0725137E-2,0E0,0E0,1.5115291E-3,1.3168883E-3,2.002364E-3,4.6228524E-3,1.8214993E-4,1.1412054E-4,1.4824048E-4,2.4183807E-3,2.6352704E-5,0E0,0E0,0E0,0E0,0E0,0E0,0E0,0E0,0E0,0E0,0E0],"parents":[2147483647,0,0,2,2,3,3,4,4,7,7,8,8,9,9,10,10,11,11,12,12,13,13,14,14,15,15],"right_children":[2,-1,4,6,8,-1,-1,10,12,14,16,18,20,22,24,26,-1,-1,-1,-1,-1,-1,-1,-1,-1,-1,-1],"split_conditions":[3.6E1,3.613911E-2,5.25E1,3.95E1,1.9E2,9.282303E-3,4.8409146E-3,1.34E2,3.945E2,1.115E2,1.53E2,2.425E2,5.255E2,6.9E1,1.24E2,1.43E2,2.5982698E-3,1.917553E-3,1.4082692E-3,1.1250069E-3,7.813194E-4,3.3525196E-3,2.0120621E-3,-1.6194662E-3,2.0072937E-3,2.0652772E-3,7.4460986E-3],"split_indices":[1,0,1,1,1,0,0,1,1,1,1,1,1,1,1,1,0,0,0,0,0,0,0,0,0,0,0],"split_type":[0,0,0,0,0,0,0,0,0,0,0,0,0,0,0,0,0,0,0,0,0,0,0,0,0,0,0],"sum_hessian":[1.97E2,1E0,1.96E2,1.5E1,1.81E2,4E0,1.1E1,4.2E1,1.39E2,2.7E1,1.5E1,7E1,6.9E1,2.1E1,6E0,4E0,1.1E1,2.7E1,4.3E1,3.7E1,3.2E1,1.3E1,8E0,2E0,4E0,1E0,3E0],"tree_param":{"num_deleted":"0","num_feature":"2","num_nodes":"27","size_leaf_vector":"0"}},{"base_weights":[2.2929134E-2,3.4332085E-1,1.9560035E-2,4.0311698E-2,1.26043875E-2,8.167585E-2,3.3754956E-2,1.8214745E-2,1.0156649E-2,2.9271346E-2,5.7272594E-2,1.1874296E-2,7.833779E-3,3.820211E-2,1.672978E-2,6.887627E-2,2.2710165E-2,8.440327E-3,5.310774E-3,1.487732E-4,2.1456582E-2],"categories":[],"categories_nodes":[],"categories_segments":[],"categories_sizes":[],"default_left":[true,false,true,true,true,false,true,false,true,true,true,false,true,false,true,false,false,false,false,false,false],"id":69,"left_children":[1,-1,3,5,7,-1,9,-1,11,13,15,-1,17,-1,19,-1,-1,-1,-1,-1,-1],"loss_changes":[2.0701206E-1,0E0,2.7927123E-2,1.0532521E-2,1.8611718E-3,0E0,2.9630847E-3,0E0,3.299052E-4,3.7291124E-3,8.421149E-4,0E0,2.8630951E-5,0E0,1.4075609E-3,0E0,0E0,0E0,0E0,0E0,0E0],"parents":[2147483647,0,0,2,2,3,3,4,4,6,6,8,8,9,9,10,10,12,12,14,14],"right_children":[2,-1,4,6,8,-1,10,-1,12,14,16,-1,18,-1,20,-1,-1,-1,-1,-1,-1],"split_conditions":[3.6E1,3.4332085E-2,1.64E2,4.05E1,2.72E2,8.167585E-3,1.43E2,1.8214745E-3,4.615E2,6.35E1,1.53E2,1.1874296E-3,6.54E2,3.8202112E-3,7.9E1,6.887627E-3,2.2710166E-3,8.440327E-4,5.310774E-4,1.487732E-5,2.1456582E-3],"split_indices":[1,0,1,1,1,0,1,0,1,1,1,0,1,0,1,0,0,0,0,0,0],"split_type":[0,0,0,0,0,0,0,0,0,0,0,0,0,0,0,0,0,0,0,0,0],"sum_hessian":[1.97E2,1E0,1.96E2,4.8E1,1.48E2,5E0,4.3E1,4.3E1,1.05E2,3.8E1,5E0,5.8E1,4.7E1,2.1E1,1.7E1,3E0,2E0,3.6E1,1.1E1,4E0,1.3E1],"tree_param":{"num_deleted":"0","num_feature":"2","num_nodes":"21","size_leaf_vector":"0"}},{"base_weights":[2.0949528E-2,3.261547E-1,1.7744655E-2,5.472684E-2,1.43959755E-2,7.886429E-2,4.0108997E-2,2.6143007E-2,1.0685131E-2,2.0354748E-2,3.4638524E-2,1.3883114E-2,8.452516E-3,2.4355195E-2,4.874093E-3,5.8387376E-2,2.1856626E-2,1.5570641E-2,1.1775049E-2,9.607351E-3,6.341645E-3,1.8011412E-2,2.9061578E-2,-1.6545614E-2,1.67511E-2,5.265917E-3,1.0049536E-2],"categories":[],"categories_nodes":[],"categories_segments":[],"categories_sizes":[],"default_left":[true,false,true,true,true,false,false,true,true,true,true,true,true,true,true,false,false,false,false,true,false,false,false,false,false,false,false],"id":70,"left_children":[1,-1,3,5,7,-1,-1,9,11,13,15,17,19,21,23,-1,-1,-1,-1,25,-1,-1,-1,-1,-1,-1,-1],"loss_changes":[1.8788496E-1,0E0,2.3608927E-2,2.4822317E-3,7.6542944E-3,0E0,0E0,1.4094338E-3,8.8223256E-4,1.6153185E-3,3.580736E-3,1.5870668E-5,1.4627865E-4,1.3339799E-4,2.057971E-3,0E0,0E0,0E0,0E0,4.882505E-5,0E0,0E0,0E0,0E0,0E0,0E0,0E0],"parents":[2147483647,0,0,2,2,3,3,4,4,7,7,8,8,9,9,10,10,11,11,12,12,13,13,14,14,19,19],"right_children":[2,-1,4,6,8,-1,-1,10,12,14,16,18,20,22,24,-1,-1,-1,-1,26,-1,-1,-1,-1,-1,-1,-1],"split_conditions":[3.6E1,3.261547E-2,5.25E1,3.95E1,1.9E2,7.886429E-3,4.0109E-3,1.34E2,3.33E2,1.115E2,1.53E2,2.425E2,5.255E2,4.1903E4,1.24E2,5.838738E-3,2.1856627E-3,1.5570641E-3,1.177505E-3,3.66E2,6.341645E-4,1.8011412E-3,2.9061579E-3,-1.6545615E-3,1.67511E-3,5.265917E-4,1.0049536E-3],"split_indices":[1,0,1,1,1,0,0,1,1,1,1,1,1,0,1,0,0,0,0,1,0,0,0,0,0,0,0],"split_type":[0,0,0,0,0,0,0,0,0,0,0,0,0,0,0,0,0,0,0,0,0,0,0,0,0,0,0],"sum_hessian":[1.97E2,1E0,1.96E2,1.5E1,1.81E2,4E0,1.1E1,4.2E1,1.39E2,2.7E1,1.5E1,5.5E1,8.4E1,2.1E1,6E0,4E0,1.1E1,2.7E1,2.8E1,5.2E1,3.2E1,1.1E1,1E1,2E0,4E0,6E0,4.6E1],"tree_param":{"num_deleted":"0","num_feature":"2","num_nodes":"27","size_leaf_vector":"0"}},{"base_weights":[1.9168796E-2,3.0984688E-1,1.6120445E-2,5.403548E-2,1.3369009E-2,7.25563E-2,3.774219E-2,2.439159E-2,9.651811E-3,1.9844977E-2,3.1676173E-2,1.2005363E-2,7.1267537E-3,2.6410421E-2,9.986197E-3,5.371666E-2,1.9852957E-2,1.406983E-2,1.04187615E-2,7.92895E-3,5.258838E-3,-3.7382126E-2,1.6505461E-2,1.5627861E-2,5.9331894E-2],"categories":[],"categories_nodes":[],"categories_segments":[],"categories_sizes":[],"default_left":[true,false,true,true,true,false,false,true,true,true,true,true,true,false,true,true,false,false,false,false,false,false,false,false,false],"id":71,"left_children":[1,-1,3,5,7,-1,-1,9,11,13,15,17,19,-1,21,23,-1,-1,-1,-1,-1,-1,-1,-1,-1],"loss_changes":[1.7045066E-1,0E0,1.9828808E-2,1.1845119E-3,7.3446035E-3,0E0,0E0,8.949153E-4,7.464411E-4,1.7428054E-3,3.1029973E-3,8.5969456E-5,6.319326E-5,0E0,4.9403026E-3,1.4215708E-4,0E0,0E0,0E0,0E0,0E0,0E0,0E0,0E0,0E0],"parents":[2147483647,0,0,2,2,3,3,4,4,7,7,8,8,9,9,10,10,11,11,12,12,14,14,15,15],"right_children":[2,-1,4,6,8,-1,-1,10,12,14,16,18,20,-1,22,24,-1,-1,-1,-1,-1,-1,-1,-1,-1],"split_conditions":[3.6E1,3.0984689E-2,5E1,3.95E1,1.9E2,7.25563E-3,3.774219E-3,1.34E2,3.945E2,7.35E1,1.53E2,2.425E2,5.915E2,2.6410422E-3,7.9E1,1.43E2,1.9852957E-3,1.406983E-3,1.0418762E-3,7.92895E-4,5.258838E-4,-3.7382126E-3,1.6505461E-3,1.5627862E-3,5.9331893E-3],"split_indices":[1,0,1,1,1,0,0,1,1,1,1,1,1,0,1,1,0,0,0,0,0,0,0,0,0],"split_type":[0,0,0,0,0,0,0,0,0,0,0,0,0,0,0,0,0,0,0,0,0,0,0,0,0],"sum_hessian":[1.97E2,1E0,1.96E2,1.2E1,1.84E2,4E0,8E0,4.5E1,1.39E2,3E1,1.5E1,7E1,6.9E1,1.7E1,1.3E1,4E0,1.1E1,2.7E1,4.3E1,4.6E1,2.3E1,1E0,1.2E1,1E0,3E0],"tree_param":{"num_deleted":"0","num_feature":"2","num_nodes":"25","size_leaf_vector":"0"}},{"base_weights":[1.7534174E-2,2.943554E-1,1.46348E-2,4.5804024E-2,1.1814238E-2,6.675186E-2,3.3258755E-2,2.163408E-2,8.713757E-3,1.6048651E-2,2.8500028E-2,1.0839355E-2,6.43331E-3,2.0173766E-2,-5.3115846E-3,4.2372294E-2,1.803287E-2,1.2712479E-2,9.401018E-3,6.8678292E-3,3.7608147E-3,1.4472644E-2,2.4559194E-2,7.6904297E-3,-1.654307E-2,1.9269943E-2,5.4881573E-2],"categories":[],"categories_nodes":[],"categories_segments":[],"categories_sizes":[],"default_left":[true,false,true,true,true,false,false,true,true,true,true,true,true,true,true,true,false,false,false,false,false,false,false,false,false,false,false],"id":72,"left_children":[1,-1,3,5,7,-1,-1,9,11,13,15,17,19,21,23,25,-1,-1,-1,-1,-1,-1,-1,-1,-1,-1,-1],"loss_changes":[1.5460858E-1,0E0,1.6778067E-2,1.9846559E-3,5.3527E-3,0E0,0E0,1.191631E-3,6.0889125E-4,2.398104E-3,1.8495638E-3,7.177703E-5,5.5458862E-5,1.9460451E-4,8.57383E-4,9.653913E-4,0E0,0E0,0E0,0E0,0E0,0E0,0E0,0E0,0E0,0E0,0E0],"parents":[2147483647,0,0,2,2,3,3,4,4,7,7,8,8,9,9,10,10,11,11,12,12,13,13,14,14,15,15],"right_children":[2,-1,4,6,8,-1,-1,10,12,14,16,18,20,22,24,26,-1,-1,-1,-1,-1,-1,-1,-1,-1,-1,-1],"split_conditions":[3.6E1,2.943554E-2,5.25E1,3.95E1,1.9E2,6.675186E-3,3.3258756E-3,1.29E2,3.945E2,1.115E2,1.53E2,2.425E2,6.54E2,4.1903E4,4.8195E4,1.43E2,1.803287E-3,1.2712479E-3,9.401018E-4,6.8678294E-4,3.7608147E-4,1.4472645E-3,2.4559195E-3,7.69043E-4,-1.654307E-3,1.9269943E-3,5.4881573E-3],"split_indices":[1,0,1,1,1,0,0,1,1,1,1,1,1,0,0,1,0,0,0,0,0,0,0,0,0,0,0],"split_type":[0,0,0,0,0,0,0,0,0,0,0,0,0,0,0,0,0,0,0,0,0,0,0,0,0,0,0],"sum_hessian":[1.97E2,1E0,1.96E2,1.5E1,1.81E2,4E0,1.1E1,4.2E1,1.39E2,2.5E1,1.7E1,7E1,6.9E1,2.1E1,4E0,6E0,1.1E1,2.7E1,4.3E1,5.8E1,1.1E1,1.1E1,1E1,2E0,2E0,3E0,3E0],"tree_param":{"num_deleted":"0","num_feature":"2","num_nodes":"27","size_leaf_vector":"0"}},{"base_weights":[1.6058484E-2,2.796383E-1,1.3301032E-2,3.7366E-2,1.0217336E-2,6.1411284E-2,2.8610865E-2,1.7400779E-2,7.3087574E-3,1.1304188E-2,2.077275E-2,8.546853E-3,5.0929985E-3,1.5679479E-2,-4.9575805E-3,3.9194923E-2,1.478363E-2,9.542201E-3,7.560645E-3,5.499118E-3,3.4163792E-3,6.661415E-3,2.195337E-2,7.1779885E-3,-1.5440623E-2,1.7825127E-2,5.076599E-2,5.711283E-3,8.133471E-3],"categories":[],"categories_nodes":[],"categories_segments":[],"categories_sizes":[],"default_left":[true,false,true,true,true,false,false,true,true,true,true,true,true,true,true,true,false,false,true,false,false,false,false,false,false,false,false,false,false],"id":73,"left_children":[1,-1,3,5,7,-1,-1,9,11,13,15,17,19,21,23,25,-1,-1,27,-1,-1,-1,-1,-1,-1,-1,-1,-1,-1],"loss_changes":[1.4018865E-1,0E0,1.4237396E-2,2.8744042E-3,3.5500973E-3,0E0,0E0,7.9305563E-4,3.048731E-4,1.5007316E-3,2.8408673E-3,6.3842162E-6,1.3896497E-5,7.59013E-4,7.4692105E-4,8.2598906E-4,0E0,0E0,1.2186356E-6,0E0,0E0,0E0,0E0,0E0,0E0,0E0,0E0,0E0,0E0],"parents":[2147483647,0,0,2,2,3,3,4,4,7,7,8,8,9,9,10,10,11,11,12,12,13,13,14,14,15,15,18,18],"right_children":[2,-1,4,6,8,-1,-1,10,12,14,16,18,20,22,24,26,-1,-1,28,-1,-1,-1,-1,-1,-1,-1,-1,-1,-1],"split_conditions":[3.6E1,2.796383E-2,5.85E1,3.95E1,2.085E2,6.1411285E-3,2.8610865E-3,1.29E2,4.615E2,1.115E2,1.53E2,3.035E2,6.54E2,4.1903E4,4.8195E4,1.43E2,1.4783631E-3,9.542201E-4,3.66E2,5.499118E-4,3.4163793E-4,6.661415E-4,2.195337E-3,7.177989E-4,-1.5440624E-3,1.7825126E-3,5.0765993E-3,5.7112833E-4,8.133471E-4],"split_indices":[1,0,1,1,1,0,0,1,1,1,1,1,1,0,0,1,0,0,1,0,0,0,0,0,0,0,0,0,0],"split_type":[0,0,0,0,0,0,0,0,0,0,0,0,0,0,0,0,0,0,0,0,0,0,0,0,0,0,0,0,0],"sum_hessian":[1.97E2,1E0,1.96E2,2.1E1,1.75E2,4E0,1.7E1,4.9E1,1.26E2,1.9E1,3E1,7.9E1,4.7E1,1.5E1,4E0,6E0,2.4E1,3.5E1,4.4E1,3.6E1,1.1E1,7E0,8E0,2E0,2E0,3E0,3E0,1.3E1,3.1E1],"tree_param":{"num_deleted":"0","num_feature":"2","num_nodes":"29","size_leaf_vector":"0"}},{"base_weights":[1.4708076E-2,2.6565552E-1,1.2085726E-2,4.1729853E-2,9.937297E-3,5.6497954E-2,2.8888702E-2,1.8390365E-2,7.088879E-3,1.4202315E-2,2.4116091E-2,8.838479E-3,5.2130152E-3,1.7399978E-2,-4.626465E-3,3.625461E-2,1.5025616E-2,1.032441E-2,7.692012E-3,6.0266694E-3,4.11811E-3,2.0117018E-2,9.111643E-3,6.69988E-3,-1.4410655E-2,1.6487598E-2,4.695797E-2],"categories":[],"categories_nodes":[],"categories_segments":[],"categories_sizes":[],"default_left":[true,false,true,true,true,false,false,true,true,true,true,true,true,true,true,true,false,false,false,false,false,false,false,false,false,false,false],"id":74,"left_children":[1,-1,3,5,7,-1,-1,9,11,13,15,17,19,21,23,25,-1,-1,-1,-1,-1,-1,-1,-1,-1,-1,-1],"loss_changes":[1.2708762E-1,0E0,1.2131916E-2,8.331612E-4,4.3240394E-3,0E0,0E0,7.60559E-4,4.1340617E-4,1.8265354E-3,1.441461E-3,4.1537918E-5,3.7542777E-5,3.796937E-4,6.506452E-4,7.0679E-4,0E0,0E0,0E0,0E0,0E0,0E0,0E0,0E0,0E0,0E0,0E0],"parents":[2147483647,0,0,2,2,3,3,4,4,7,7,8,8,9,9,10,10,11,11,12,12,13,13,14,14,15,15],"right_children":[2,-1,4,6,8,-1,-1,10,12,14,16,18,20,22,24,26,-1,-1,-1,-1,-1,-1,-1,-1,-1,-1,-1],"split_conditions":[3.6E1,2.6565552E-2,5E1,3.95E1,1.9E2,5.6497953E-3,2.8888702E-3,1.29E2,3.945E2,1.115E2,1.53E2,2.425E2,5.255E2,7.35E1,4.8195E4,1.43E2,1.5025616E-3,1.032441E-3,7.692012E-4,6.026669E-4,4.1181102E-4,2.011702E-3,9.111643E-4,6.6998805E-4,-1.4410656E-3,1.6487598E-3,4.695797E-3],"split_indices":[1,0,1,1,1,0,0,1,1,1,1,1,1,1,0,1,0,0,0,0,0,0,0,0,0,0,0],"split_type":[0,0,0,0,0,0,0,0,0,0,0,0,0,0,0,0,0,0,0,0,0,0,0,0,0,0,0],"sum_hessian":[1.97E2,1E0,1.96E2,1.2E1,1.84E2,4E0,8E0,4.5E1,1.39E2,2.8E1,1.7E1,7E1,6.9E1,2.4E1,4E0,6E0,1.1E1,2.7E1,4.3E1,3.7E1,3.2E1,1.7E1,7E0,2E0,2E0,3E0,3E0],"tree_param":{"num_deleted":"0","num_feature":"2","num_nodes":"27","size_leaf_vector":"0"}},{"base_weights":[1.3479546E-2,2.5237274E-1,1.098581E-2,4.075345E-2,9.176025E-3,5.19783E-2,2.6913779E-2,1.7080823E-2,6.400265E-3,1.3592074E-2,2.214029E-2,7.980428E-3,4.706097E-3,1.753362E-2,6.842613E-5,3.115866E-2,1.1809731E-2,9.329387E-3,6.940625E-3,5.2661286E-3,3.4132798E-3,1.4399029E-2,2.960682E-2,6.9179535E-3,-8.51059E-3,1.52516365E-2,3.6570232E-2],"categories":[],"categories_nodes":[],"categories_segments":[],"categories_sizes":[],"default_left":[true,false,true,true,true,false,false,true,true,true,true,true,true,true,true,true,false,false,false,false,false,false,false,false,false,false,false],"id":75,"left_children":[1,-1,3,5,7,-1,-1,9,11,13,15,17,19,21,23,25,-1,-1,-1,-1,-1,-1,-1,-1,-1,-1,-1],"loss_changes":[1.1518332E-1,0E0,1.0239035E-2,3.098976E-4,3.993798E-3,0E0,0E0,5.4632593E-4,3.372319E-4,1.6512265E-3,1.3089916E-3,3.483612E-5,3.270642E-5,4.8195943E-4,5.2897347E-4,2.1698233E-4,0E0,0E0,0E0,0E0,0E0,0E0,0E0,0E0,0E0,0E0,0E0],"parents":[2147483647,0,0,2,2,3,3,4,4,7,7,8,8,9,9,10,10,11,11,12,12,13,13,14,14,15,15],"right_children":[2,-1,4,6,8,-1,-1,10,12,14,16,18,20,22,24,26,-1,-1,-1,-1,-1,-1,-1,-1,-1,-1,-1],"split_conditions":[3.6E1,2.5237275E-2,4.8E1,3.95E1,1.9E2,5.19783E-3,2.691378E-3,1.29E2,3.945E2,9.5E1,1.64E2,2.425E2,5.915E2,7.9E1,5.715E4,1.43E2,1.1809731E-3,9.329387E-4,6.940625E-4,5.2661286E-4,3.4132798E-4,1.4399029E-3,2.960682E-3,6.917954E-4,-8.51059E-4,1.5251637E-3,3.6570232E-3],"split_indices":[1,0,1,1,1,0,0,1,1,1,1,1,1,1,0,1,0,0,0,0,0,0,0,0,0,0,0],"split_type":[0,0,0,0,0,0,0,0,0,0,0,0,0,0,0,0,0,0,0,0,0,0,0,0,0,0,0],"sum_hessian":[1.97E2,1E0,1.96E2,1E1,1.86E2,4E0,6E0,4.7E1,1.39E2,3E1,1.7E1,7E1,6.9E1,2.3E1,7E0,8E0,9E0,2.7E1,4.3E1,4.6E1,2.3E1,2E1,3E0,4E0,3E0,3E0,5E0],"tree_param":{"num_deleted":"0","num_feature":"2","num_nodes":"27","size_leaf_vector":"0"}},{"base_weights":[1.2365173E-2,2.3975372E-1,9.993892E-3,3.5150383E-2,8.172118E-3,4.5740128E-2,2.2814274E-2,1.5280641E-2,5.778088E-3,1.1650678E-2,2.027999E-2,7.5731277E-3,4.5274957E-3,1.4365616E-2,-4.25415E-3,3.131485E-2,1.2152989E-2,1.373291E-3,4.7496725E-3,1.6860114E-2,6.9572926E-3,5.791982E-3,-1.2882233E-2,1.4107227E-2,4.069376E-2,6.157398E-3,3.7122369E-3],"categories":[],"categories_nodes":[],"categories_segments":[],"categories_sizes":[],"default_left":[true,false,true,true,true,false,false,true,true,true,true,false,true,true,true,true,false,false,true,false,false,false,false,false,false,false,false],"id":76,"left_children":[1,-1,3,5,7,-1,-1,9,11,13,15,-1,17,19,21,23,-1,-1,25,-1,-1,-1,-1,-1,-1,-1,-1],"loss_changes":[1.0436593E-1,0E0,8.741146E-3,6.54744E-4,3.06004E-3,0E0,0E0,5.9850793E-4,2.7999328E-4,1.3133516E-3,1.2336764E-3,0E0,5.304441E-5,3.4470065E-4,5.0800794E-4,5.556452E-4,0E0,0E0,9.251584E-5,0E0,0E0,0E0,0E0,0E0,0E0,0E0,0E0],"parents":[2147483647,0,0,2,2,3,3,4,4,7,7,8,8,9,9,10,10,12,12,13,13,14,14,15,15,18,18],"right_children":[2,-1,4,6,8,-1,-1,10,12,14,16,-1,18,20,22,24,-1,-1,26,-1,-1,-1,-1,-1,-1,-1,-1],"split_conditions":[3.6E1,2.3975372E-2,5E1,4.05E1,1.9E2,4.574013E-3,2.2814274E-3,1.29E2,3.33E2,1.115E2,1.53E2,7.573128E-4,3.66E2,7.35E1,4.8195E4,1.43E2,1.215299E-3,1.373291E-4,4.615E2,1.6860114E-3,6.957293E-4,5.7919824E-4,-1.2882233E-3,1.4107227E-3,4.0693763E-3,6.1573985E-4,3.712237E-4],"split_indices":[1,0,1,1,1,0,0,1,1,1,1,0,1,1,0,1,0,0,1,0,0,0,0,0,0,0,0],"split_type":[0,0,0,0,0,0,0,0,0,0,0,0,0,0,0,0,0,0,0,0,0,0,0,0,0,0,0],"sum_hessian":[1.97E2,1E0,1.96E2,1.2E1,1.84E2,5E0,7E0,4.5E1,1.39E2,2.8E1,1.7E1,5.5E1,8.4E1,2.4E1,4E0,6E0,1.1E1,6E0,7.8E1,1.7E1,7E0,2E0,2E0,3E0,3E0,3.1E1,4.7E1],"tree_param":{"num_deleted":"0","num_feature":"2","num_nodes":"27","size_leaf_vector":"0"}},{"base_weights":[1.1336143E-2,2.2776604E-1,9.081342E-3,3.2162886E-2,7.4103074E-3,4.41597E-2,2.1924337E-2,1.3934343E-2,5.213765E-3,1.05431E-2,1.8623881E-2,6.5289885E-3,3.8052695E-3,1.3024216E-2,-3.9711E-3,2.8965542E-2,1.1039257E-2,7.69983E-3,5.635522E-3,4.093154E-3,2.0727317E-3,1.526769E-2,6.3483715E-3,5.405426E-3,-1.2023926E-2,1.3048649E-2,3.764105E-2,5.018343E-3,7.2320937E-3],"categories":[],"categories_nodes":[],"categories_segments":[],"categories_sizes":[],"default_left":[true,false,true,true,true,false,false,true,true,true,true,true,true,true,true,true,false,false,true,false,false,false,false,false,false,false,false,false,false],"id":77,"left_children":[1,-1,3,5,7,-1,-1,9,11,13,15,17,19,21,23,25,-1,-1,27,-1,-1,-1,-1,-1,-1,-1,-1,-1,-1],"loss_changes":[9.455687E-2,0E0,7.359965E-3,6.286176E-4,2.5784597E-3,0E0,0E0,5.352013E-4,2.345033E-4,1.0960514E-3,1.0921187E-3,3.0881027E-5,2.6430003E-5,2.77502E-4,4.4253212E-4,4.7544483E-4,0E0,0E0,7.0631504E-6,3.9697625E-8,0E0,0E0,0E0,0E0,0E0,0E0,0E0,0E0,0E0],"parents":[2147483647,0,0,2,2,3,3,4,4,7,7,8,8,9,9,10,10,11,11,12,12,13,13,14,14,15,15,18,18],"right_children":[2,-1,4,6,8,-1,-1,10,12,14,16,18,20,22,24,26,-1,-1,28,-1,-1,-1,-1,-1,-1,-1,-1,-1,-1],"split_conditions":[3.6E1,2.2776604E-2,5E1,3.95E1,1.9E2,4.41597E-3,2.1924337E-3,1.29E2,3.945E2,1.115E2,1.53E2,2.425E2,6.54E2,7.35E1,4.8195E4,1.43E2,1.1039258E-3,7.69983E-4,3.66E2,4.093154E-4,2.0727317E-4,1.526769E-3,6.3483714E-4,5.405426E-4,-1.2023926E-3,1.3048649E-3,3.7641048E-3,5.018343E-4,7.232094E-4],"split_indices":[1,0,1,1,1,0,0,1,1,1,1,1,1,1,0,1,0,0,1,0,0,0,0,0,0,0,0,0,0],"split_type":[0,0,0,0,0,0,0,0,0,0,0,0,0,0,0,0,0,0,0,0,0,0,0,0,0,0,0,0,0],"sum_hessian":[1.97E2,1E0,1.96E2,1.2E1,1.84E2,4E0,8E0,4.5E1,1.39E2,2.8E1,1.7E1,7E1,6.9E1,2.4E1,4E0,6E0,1.1E1,2.7E1,4.3E1,5.8E1,1.1E1,1.7E1,7E0,2E0,2E0,3E0,3E0,3.4E1,9E0],"tree_param":{"num_deleted":"0","num_feature":"2","num_nodes":"29","size_leaf_vector":"0"}},{"base_weights":[1.0402915E-2,2.1637726E-1,8.258998E-3,3.2740783E-2,6.912845E-3,4.0625762E-2,2.0713171E-2,1.3062458E-2,4.7111036E-3,1.0380685E-2,1.7104361E-2,6.2070913E-3,3.6700866E-3,1.4493851E-2,2.3175876E-3,2.6793616E-2,1.0026932E-2,7.7432906E-3,5.5625825E-3,8.256095E-4,3.8756721E-3,-3.840828E-2,9.511601E-3,1.2070179E-2,3.481865E-2,6.5814974E-3,3.4337589E-3],"categories":[],"categories_nodes":[],"categories_segments":[],"categories_sizes":[],"default_left":[true,false,true,true,true,false,false,true,true,true,true,true,true,false,true,true,false,false,false,false,true,false,false,false,false,false,false],"id":78,"left_children":[1,-1,3,5,7,-1,-1,9,11,13,15,17,19,-1,21,23,-1,-1,-1,-1,25,-1,-1,-1,-1,-1,-1],"loss_changes":[8.564812E-2,0E0,6.266048E-3,1.0688696E-4,2.4839547E-3,0E0,0E0,3.5357848E-4,1.9524805E-4,1.0276849E-3,9.6569303E-4,1.237262E-5,4.6506873E-5,0E0,3.8811136E-3,4.0682498E-4,0E0,0E0,0E0,0E0,7.186411E-5,0E0,0E0,0E0,0E0,0E0,0E0],"parents":[2147483647,0,0,2,2,3,3,4,4,7,7,8,8,9,9,10,10,11,11,12,12,14,14,15,15,20,20],"right_children":[2,-1,4,6,8,-1,-1,10,12,14,16,18,20,-1,22,24,-1,-1,-1,-1,26,-1,-1,-1,-1,-1,-1],"split_conditions":[3.6E1,2.1637727E-2,4.55E1,3.95E1,1.9E2,4.062576E-3,2.071317E-3,1.29E2,3.33E2,7.35E1,1.53E2,2.085E2,3.66E2,1.4493851E-3,7.9E1,1.43E2,1.0026932E-3,7.7432906E-4,5.5625825E-4,8.256095E-5,3.945E2,-3.840828E-3,9.5116015E-4,1.2070179E-3,3.481865E-3,6.581498E-4,3.433759E-4],"split_indices":[1,0,1,1,1,0,0,1,1,1,1,1,1,0,1,1,0,0,0,0,1,0,0,0,0,0,0],"split_type":[0,0,0,0,0,0,0,0,0,0,0,0,0,0,0,0,0,0,0,0,0,0,0,0,0,0,0],"sum_hessian":[1.97E2,1E0,1.96E2,9E0,1.87E2,4E0,5E0,4.8E1,1.39E2,3.1E1,1.7E1,5.5E1,8.4E1,2E1,1.1E1,6E0,1.1E1,1.3E1,4.2E1,6E0,7.8E1,1E0,1E1,3E0,3E0,9E0,6.9E1],"tree_param":{"num_deleted":"0","num_feature":"2","num_nodes":"27","size_leaf_vector":"0"}},{"base_weights":[9.536344E-3,2.0555878E-1,7.49786E-3,3.0080032E-2,6.2567983E-3,3.737564E-2,1.898702E-2,1.1842572E-2,4.257086E-3,9.297311E-3,1.5709559E-2,5.774206E-3,3.4027826E-3,1.1423315E-2,-4.4677733E-3,2.4783542E-2,9.107272E-3,7.02422E-3,5.127695E-3,3.9443015E-3,2.3150877E-3,7.249705E-3,1.5079089E-2,8.078575E-3,-9.624004E-3,1.1164665E-2,3.2206535E-2,2.606392E-3,4.2589065E-3,2.6171857E-3,1.5683174E-3],"categories":[],"categories_nodes":[],"categories_segments":[],"categories_sizes":[],"default_left":[true,false,true,true,true,false,false,true,true,true,true,true,true,true,true,true,false,false,false,true,true,false,false,false,false,false,false,false,false,false,false],"id":79,"left_children":[1,-1,3,5,7,-1,-1,9,11,13,15,17,19,21,23,25,-1,-1,-1,27,29,-1,-1,-1,-1,-1,-1,-1,-1,-1,-1],"loss_changes":[7.757726E-2,0E0,5.332892E-3,9.9650584E-5,2.0495332E-3,0E0,0E0,3.362256E-4,1.618031E-4,9.875046E-4,8.526528E-4,3.5811681E-6,4.5057386E-5,3.1789904E-4,4.012076E-4,3.4807436E-4,0E0,0E0,0E0,1.4154357E-5,3.3401448E-6,0E0,0E0,0E0,0E0,0E0,0E0,0E0,0E0,0E0,0E0],"parents":[2147483647,0,0,2,2,3,3,4,4,7,7,8,8,9,9,10,10,11,11,12,12,13,13,14,14,15,15,19,19,20,20],"right_children":[2,-1,4,6,8,-1,-1,10,12,14,16,18,20,22,24,26,-1,-1,-1,28,30,-1,-1,-1,-1,-1,-1,-1,-1,-1,-1],"split_conditions":[3.6E1,2.0555878E-2,4.55E1,3.95E1,1.9E2,3.737564E-3,1.8987021E-3,1.29E2,3.035E2,1.115E2,1.53E2,2.085E2,5.255E2,4.1903E4,3.2683E4,1.43E2,9.1072725E-4,7.0242205E-4,5.127695E-4,3.66E2,6.54E2,7.2497054E-4,1.5079089E-3,8.0785755E-4,-9.6240046E-4,1.1164666E-3,3.2206536E-3,2.606392E-4,4.2589064E-4,2.6171858E-4,1.5683174E-4],"split_indices":[1,0,1,1,1,0,0,1,1,1,1,1,1,0,0,1,0,0,0,1,1,0,0,0,0,0,0,0,0,0,0],"split_type":[0,0,0,0,0,0,0,0,0,0,0,0,0,0,0,0,0,0,0,0,0,0,0,0,0,0,0,0,0,0,0],"sum_hessian":[1.97E2,1E0,1.96E2,9E0,1.87E2,4E0,5E0,4.8E1,1.39E2,3.1E1,1.7E1,4.8E1,9.1E1,2.7E1,4E0,6E0,1.1E1,1.3E1,3.5E1,5.9E1,3.2E1,1.4E1,1.3E1,1E0,3E0,3E0,3E0,1.3E1,4.6E1,2.1E1,1.1E1],"tree_param":{"num_deleted":"0","num_feature":"2","num_nodes":"31","size_leaf_vector":"0"}},{"base_weights":[8.763655E-3,1.9528008E-1,6.825602E-3,2.0087367E-2,5.043624E-3,3.2755535E-2,1.47486795E-2,8.839861E-3,3.5392207E-3,-4.3911405E-4,1.0661102E-2,4.193413E-3,2.3751657E-3,8.718491E-3,-3.6849976E-2,2.8872171E-2,8.986888E-3,2.6191506E-3,1.4249483E-3,-1.695088E-3,1.0980433E-2],"categories":[],"categories_nodes":[],"categories_segments":[],"categories_sizes":[],"default_left":[true,false,true,