{"learner":{"attributes":{"best_iteration":"99","best_ntree_limit":"100","scikit_learn":"{\"n_estimators\": 100, \"objective\": \"reg:squarederror\", \"max_depth\": null, \"learning_rate\": 0.1, \"verbosity\": null, \"booster\": null, \"tree_method\": null, \"gamma\": null, \"min_child_weight\": null, \"max_delta_step\": null, \"subsample\": null, \"colsample_bytree\": null, \"colsample_bylevel\": null, \"colsample_bynode\": null, \"reg_alpha\": null, \"reg_lambda\": null, \"scale_pos_weight\": null, \"base_score\": null, \"missing\": NaN, \"num_parallel_tree\": null, \"random_state\": null, \"n_jobs\": null, \"monotone_constraints\": null, \"interaction_constraints\": null, \"importance_type\": null, \"gpu_id\": null, \"validate_parameters\": null, \"predictor\": null, \"enable_categorical\": false, \"_estimator_type\": \"regressor\"}"},"feature_names":["Price","Rank"],"feature_types":["float","int"],"gradient_booster":{"model":{"gbtree_model_param":{"num_trees":"100","size_leaf_vector":"0"},"tree_info":[0,0,0,0,0,0,0,0,0,0,0,0,0,0,0,0,0,0,0,0,0,0,0,0,0,0,0,0,0,0,0,0,0,0,0,0,0,0,0,0,0,0,0,0,0,0,0,0,0,0,0,0,0,0,0,0,0,0,0,0,0,0,0,0,0,0,0,0,0,0,0,0,0,0,0,0,0,0,0,0,0,0,0,0,0,0,0,0,0,0,0,0,0,0,0,0,0,0,0,0],"trees":[{"base_weights":[1.7074533E1,3.2160713E1,1.3794776E1,3.8125E1,2.6058823E1,1.6366198E1,1.07265625E1,1.8162163E1,1.4E1],"categories":[],"categories_nodes":[],"categories_segments":[],"categories_sizes":[],"default_left":[true,true,true,false,false,true,false,false,false],"id":0,"left_children":[1,3,5,-1,-1,7,-1,-1,-1],"loss_changes":[7.5224727E3,2.5523438E1,8.816621E2,0E0,0E0,4.745117E1,0E0,0E0,0E0],"parents":[2147483647,0,0,1,1,2,2,5,5],"right_children":[2,4,6,-1,-1,8,-1,-1,-1],"split_conditions":[1.76E2,7.55E1,5.25E2,3.8125E0,2.6058824E0,3.68E2,1.0726563E0,1.8162163E0,1.4E0],"split_indices":[1,1,1,0,0,1,0,0,0],"split_type":[0,0,0,0,0,0,0,0,0],"sum_hessian":[1.6E2,2.7E1,1.33E2,1.1E1,1.6E1,7E1,6.3E1,3.6E1,3.4E1],"tree_param":{"num_deleted":"0","num_feature":"2","num_nodes":"9","size_leaf_vector":"0"}},{"base_weights":[1.5433585E1,2.811261E1,1.2193875E1,3.5170456E1,2.3305841E1,1.4364286E1,9.581741E0],"categories":[],"categories_nodes":[],"categories_segments":[],"categories_sizes":[],"default_left":[true,true,true,false,false,false,false],"id":1,"left_children":[1,3,5,-1,-1,-1,-1],"loss_changes":[6.270492E3,2.6593555E2,5.993887E2,0E0,0E0,0E0,0E0],"parents":[2147483647,0,0,1,1,2,2],"right_children":[2,4,6,-1,-1,-1,-1],"split_conditions":[2.19E2,6.9E1,5.36E2,3.5170457E0,2.3305843E0,1.4364287E0,9.5817417E-1],"split_indices":[1,1,1,0,0,0,0],"split_type":[0,0,0,0,0,0,0],"sum_hessian":[1.6E2,3.1E1,1.29E2,1E1,2.1E1,6.8E1,6.1E1],"tree_param":{"num_deleted":"0","num_feature":"2","num_nodes":"7","size_leaf_vector":"0"}},{"base_weights":[1.3941421E1,2.7784328E1,1.1432934E1,1.4948164E1,9.512839E0,1.0604123E1,7.896751E0],"categories":[],"categories_nodes":[],"categories_segments":[],"categories_sizes":[],"default_left":[true,false,true,false,true,false,false],"id":2,"left_children":[1,-1,3,-1,5,-1,-1],"loss_changes":[5.2730312E3,0E0,7.892422E2,0E0,7.851465E1,0E0,0E0],"parents":[2147483647,0,0,2,2,4,4],"right_children":[2,-1,4,-1,6,-1,-1],"split_conditions":[1.48E2,2.7784328E0,3.965E2,1.4948164E0,6.365E2,1.0604123E0,7.896751E-1],"split_indices":[1,0,1,0,1,0,0],"split_type":[0,0,0,0,0,0,0],"sum_hessian":[1.6E2,2.3E1,1.37E2,4.6E1,9.1E1,5.1E1,4E1],"tree_param":{"num_deleted":"0","num_feature":"2","num_nodes":"7","size_leaf_vector":"0"}},{"base_weights":[1.2585312E1,2.2539598E1,9.742908E0,2.9447292E1,1.8598629E1,1.1280094E1,7.525498E0],"categories":[],"categories_nodes":[],"categories_segments":[],"categories_sizes":[],"default_left":[true,true,true,false,false,false,false],"id":3,"left_children":[1,3,5,-1,-1,-1,-1],"loss_changes":[4.335748E3,4.05125E2,3.48E2,0E0,0E0,0E0,0E0],"parents":[2147483647,0,0,1,1,2,2],"right_children":[2,4,6,-1,-1,-1,-1],"split_conditions":[2.32E2,6.9E1,5.675E2,2.9447293E0,1.8598629E0,1.1280094E0,7.525498E-1],"split_indices":[1,1,1,0,0,0,0],"split_type":[0,0,0,0,0,0,0],"sum_hessian":[1.6E2,3.4E1,1.26E2,1E1,2.4E1,7.2E1,5.4E1],"tree_param":{"num_deleted":"0","num_feature":"2","num_nodes":"7","size_leaf_vector":"0"}},{"base_weights":[1.1368303E1,2.2887266E1,9.282626E0,1.2527289E1,7.830445E0,8.420769E0,5.769867E0],"categories":[],"categories_nodes":[],"categories_segments":[],"categories_sizes":[],"default_left":[true,false,true,false,true,false,false],"id":4,"left_children":[1,-1,3,-1,5,-1,-1],"loss_changes":[3.655545E3,0E0,5.5213965E2,0E0,7.062158E1,0E0,0E0],"parents":[2147483647,0,0,2,2,4,4],"right_children":[2,-1,4,-1,6,-1,-1],"split_conditions":[1.48E2,2.2887266E0,3.68E2,1.2527289E0,7.145E2,8.420769E-1,5.7698673E-1],"split_indices":[1,0,1,0,1,0,0],"split_type":[0,0,0,0,0,0,0],"sum_hessian":[1.6E2,2.3E1,1.37E2,4E1,9.7E1,7.3E1,2.4E1],"tree_param":{"num_deleted":"0","num_feature":"2","num_nodes":"7","size_leaf_vector":"0"}},{"base_weights":[1.0262283E1,2.129003E1,8.45605E0,1.1983427E1,7.2561727E0,8.123467E0,5.7763987E0],"categories":[],"categories_nodes":[],"categories_segments":[],"categories_sizes":[],"default_left":[true,false,true,false,true,false,false],"id":5,"left_children":[1,-1,3,-1,5,-1,-1],"loss_changes":[3.026879E3,0E0,5.0558594E2,0E0,9.0398926E1,0E0,0E0],"parents":[2147483647,0,0,2,2,4,4],"right_children":[2,-1,4,-1,6,-1,-1],"split_conditions":[1.39E2,2.129003E0,3.34E2,1.1983427E0,6.275E2,8.1234676E-1,5.776399E-1],"split_indices":[1,0,1,0,1,0,0],"split_type":[0,0,0,0,0,0,0],"sum_hessian":[1.6E2,2.1E1,1.39E2,3.3E1,1.06E2,6.4E1,4.2E1],"tree_param":{"num_deleted":"0","num_feature":"2","num_nodes":"7","size_leaf_vector":"0"}},{"base_weights":[9.265355E0,1.6802675E1,7.1151857E0,2.3804056E1,1.3846561E1,8.410585E0,5.6214504E0,6.105113E0,4.661425E0],"categories":[],"categories_nodes":[],"categories_segments":[],"categories_sizes":[],"default_left":[true,true,true,false,false,false,true,false,false],"id":6,"left_children":[1,3,5,-1,-1,-1,7,-1,-1],"loss_changes":[2.4896943E3,3.947871E2,1.9846338E2,0E0,0E0,0E0,3.297119E-1,0E0,0E0],"parents":[2147483647,0,0,1,1,2,2,6,6],"right_children":[2,4,6,-1,-1,-1,8,-1,-1],"split_conditions":[2.32E2,6E1,5.36E2,2.3804057E0,1.3846562E0,8.4105855E-1,7.145E2,6.105113E-1,4.661425E-1],"split_indices":[1,1,1,0,0,0,1,0,0],"split_type":[0,0,0,0,0,0,0,0,0],"sum_hessian":[1.6E2,3.4E1,1.26E2,8E0,2.6E1,6.5E1,6.1E1,3.7E1,2.4E1],"tree_param":{"num_deleted":"0","num_feature":"2","num_nodes":"9","size_leaf_vector":"0"}},{"base_weights":[8.374117E0,1.7833569E1,6.905871E0,2.2193012E1,1.4068633E1,9.19859E0,5.584764E0,1.0245199E1,7.524519E0,6.006619E0,4.213928E0],"categories":[],"categories_nodes":[],"categories_segments":[],"categories_sizes":[],"default_left":[true,true,true,false,false,true,true,false,false,false,false],"id":7,"left_children":[1,3,5,-1,-1,7,9,-1,-1,-1,-1],"loss_changes":[2.1129404E3,3.2448242E1,3.7570654E2,0E0,0E0,1.0515137E1,2.7891602E1,0E0,0E0,0E0,0E0],"parents":[2147483647,0,0,1,1,2,2,5,5,6,6],"right_children":[2,4,6,-1,-1,8,10,-1,-1,-1,-1],"split_conditions":[1.325E2,5.35E1,3.965E2,2.2193012E0,1.4068633E0,3.035E2,7.145E2,1.0245199E0,7.524519E-1,6.0066193E-1,4.2139283E-1],"split_indices":[1,1,1,0,0,1,1,0,0,0,0],"split_type":[0,0,0,0,0,0,0,0,0,0,0],"sum_hessian":[1.6E2,2E1,1.4E2,7E0,1.3E1,4.9E1,9.1E1,2.7E1,2.2E1,6.7E1,2.4E1],"tree_param":{"num_deleted":"0","num_feature":"2","num_nodes":"11","size_leaf_vector":"0"}},{"base_weights":[7.576613E0,1.6222887E1,6.235135E0,2.0251123E1,1.27622595E1,8.314271E0,5.037397E0,9.411197E0,6.939755E0,5.6244016E0,4.17004E0,1.1480274E0,4.21689E0],"categories":[],"categories_nodes":[],"categories_segments":[],"categories_sizes":[],"default_left":[true,true,true,false,false,true,true,false,false,false,true,false,false],"id":8,"left_children":[1,3,5,-1,-1,7,9,-1,-1,-1,11,-1,-1],"loss_changes":[1.766252E3,3.429492E1,3.0924414E2,0E0,0E0,1.0075684E1,2.3387207E1,0E0,0E0,0E0,9.636841E-1,0E0,0E0],"parents":[2147483647,0,0,1,1,2,2,5,5,6,6,10,10],"right_children":[2,4,6,-1,-1,8,10,-1,-1,-1,12,-1,-1],"split_conditions":[1.325E2,5.35E1,3.965E2,2.0251124E0,1.2762259E0,2.86E2,6.365E2,9.411197E-1,6.939755E-1,5.6244016E-1,6.43E2,1.1480274E-1,4.21689E-1],"split_indices":[1,1,1,0,0,1,1,0,0,0,1,0,0],"split_type":[0,0,0,0,0,0,0,0,0,0,0,0,0],"sum_hessian":[1.6E2,2E1,1.4E2,7E0,1.3E1,4.9E1,9.1E1,2.4E1,2.5E1,5.1E1,4E1,1E0,3.9E1],"tree_param":{"num_deleted":"0","num_feature":"2","num_nodes":"13","size_leaf_vector":"0"}},{"base_weights":[6.8564386E0,1.4548687E1,5.598682E0,1.8088808E1,1.1233703E1,7.461634E0,4.5456023E0,8.438993E0,6.272471E0,4.8982525E0,3.4045696E0],"categories":[],"categories_nodes":[],"categories_segments":[],"categories_sizes":[],"default_left":[true,true,true,false,false,true,true,false,false,false,false],"id":9,"left_children":[1,3,5,-1,-1,7,9,-1,-1,-1,-1],"loss_changes":[1.4762168E3,5.4975586E1,2.4073975E2,0E0,0E0,4.0163574E0,2.0343018E1,0E0,0E0,0E0,0E0],"parents":[2147483647,0,0,1,1,2,2,5,5,6,6],"right_children":[2,4,6,-1,-1,8,10,-1,-1,-1,-1],"split_conditions":[1.39E2,6E1,3.965E2,1.8088808E0,1.1233703E0,2.86E2,7.145E2,8.4389937E-1,6.272471E-1,4.8982525E-1,3.4045696E-1],"split_indices":[1,1,1,0,0,1,1,0,0,0,0],"split_type":[0,0,0,0,0,0,0,0,0,0,0],"sum_hessian":[1.6E2,2.1E1,1.39E2,8E0,1.3E1,4.8E1,9.1E1,2.3E1,2.5E1,6.7E1,2.4E1],"tree_param":{"num_deleted":"0","num_feature":"2","num_nodes":"11","size_leaf_vector":"0"}},{"base_weights":[6.203302E0,1.3859454E1,5.142671E0,1.6896381E1,1.0679882E1,7.420644E0,4.3068986E0,5.0118704E0,3.5492556E0,3.6917257E-1,3.6013093E0],"categories":[],"categories_nodes":[],"categories_segments":[],"categories_sizes":[],"default_left":[true,true,true,false,false,false,true,false,true,false,false],"id":10,"left_children":[1,3,5,-1,-1,-1,7,-1,9,-1,-1],"loss_changes":[1.2361016E3,3.0151367E0,2.4029297E2,0E0,0E0,0E0,3.9362183E1,0E0,7.7749634E0,0E0,0E0],"parents":[2147483647,0,0,1,1,2,2,6,6,8,8],"right_children":[2,4,6,-1,-1,-1,8,-1,10,-1,-1],"split_conditions":[1.2E2,5.35E1,3.34E2,1.6896381E0,1.0679883E0,7.420644E-1,5.675E2,5.01187E-1,5.755E2,3.6917258E-2,3.6013094E-1],"split_indices":[1,1,1,0,0,0,1,0,1,0,0],"split_type":[0,0,0,0,0,0,0,0,0,0,0],"sum_hessian":[1.6E2,1.8E1,1.42E2,7E0,1.1E1,3.6E1,1.06E2,5.2E1,5.4E1,1E0,5.3E1],"tree_param":{"num_deleted":"0","num_feature":"2","num_nodes":"11","size_leaf_vector":"0"}},{"base_weights":[5.610288E0,1.2233474E1,4.584067E0,1.5417947E1,9.539955E0,5.8999367E0,3.5365095E0,6.9740176E0,5.0147486E0,3.7735267E0,2.5644789E0],"categories":[],"categories_nodes":[],"categories_segments":[],"categories_sizes":[],"default_left":[true,true,true,false,false,true,true,false,false,false,false],"id":11,"left_children":[1,3,5,-1,-1,7,9,-1,-1,-1,-1],"loss_changes":[1.0382144E3,3.3039795E1,1.734961E2,0E0,0E0,2.3023682E1,8.984253E0,0E0,0E0,0E0,0E0],"parents":[2147483647,0,0,1,1,2,2,5,5,6,6],"right_children":[2,4,6,-1,-1,8,10,-1,-1,-1,-1],"split_conditions":[1.325E2,5.35E1,4.58E2,1.5417947E0,9.539955E-1,2.86E2,7.445E2,6.9740176E-1,5.0147486E-1,3.7735268E-1,2.5644788E-1],"split_indices":[1,1,1,0,0,1,1,0,0,0,0],"split_type":[0,0,0,0,0,0,0,0,0,0,0],"sum_hessian":[1.6E2,2E1,1.4E2,7E0,1.3E1,6E1,8E1,2.4E1,3.6E1,6.2E1,1.8E1],"tree_param":{"num_deleted":"0","num_feature":"2","num_nodes":"11","size_leaf_vector":"0"}},{"base_weights":[5.076144E0,1.0193155E1,3.9690366E0,1.3210832E1,7.7827334E0,5.0630655E0,3.1906834E0,3.456586E0,2.4567983E0,2.741959E0,1.6451836E0,1.0040385E0,2.906746E0,3.0067952E0,7.5302887E-1],"categories":[],"categories_nodes":[],"categories_segments":[],"categories_sizes":[],"default_left":[true,true,true,false,false,false,true,false,true,true,false,false,true,false,false],"id":12,"left_children":[1,3,5,-1,-1,-1,7,-1,9,11,-1,-1,13,-1,-1],"loss_changes":[8.716216E2,1.0085205E2,9.795166E1,0E0,0E0,0E0,7.314331E0,0E0,1.2749939E0,1.9500809E0,0E0,0E0,9.6795654E-1,0E0,0E0],"parents":[2147483647,0,0,1,1,2,2,6,6,8,8,9,9,12,12],"right_children":[2,4,6,-1,-1,-1,8,-1,10,12,-1,-1,14,-1,-1],"split_conditions":[1.76E2,6.9E1,4.58E2,1.3210832E0,7.7827334E-1,5.063066E-1,7.145E2,3.456586E-1,7.0258496E2,4.055E2,1.6451836E-1,1.00403845E-1,8.05E2,3.0067953E-1,7.530289E-2],"split_indices":[1,1,1,0,0,0,1,0,0,0,0,0,1,0,0],"split_type":[0,0,0,0,0,0,0,0,0,0,0,0,0,0,0],"sum_hessian":[1.6E2,2.7E1,1.33E2,1E1,1.7E1,5.3E1,8E1,5.6E1,2.4E1,1.6E1,8E0,2E0,1.4E1,1.3E1,1E0],"tree_param":{"num_deleted":"0","num_feature":"2","num_nodes":"15","size_leaf_vector":"0"}},{"base_weights":[4.590842E0,1.0475305E1,3.7768865E0,1.291293E1,7.9772787E0,5.500389E0,3.145611E0,3.6710713E0,2.5820656E0,1.051271E0,3.7012353E0,-1.0791779E-2,2.6302812E0,2.7714064E0,1.826664E0,7.02827E-1,2.803168E0,1.0490506E0,2.1211503E0],"categories":[],"categories_nodes":[],"categories_segments":[],"categories_sizes":[],"default_left":[true,true,true,false,false,false,true,true,true,false,false,false,true,true,true,false,false,false,false],"id":13,"left_children":[1,3,5,-1,-1,-1,7,9,11,-1,-1,-1,13,15,17,-1,-1,-1,-1],"loss_changes":[7.315759E2,1.2685791E1,1.3828271E2,0E0,0E0,0E0,2.2205933E1,2.972412E-1,6.9043274E0,0E0,0E0,0E0,1.0617371E0,9.2074585E-1,2.9376984E-1,0E0,0E0,0E0,0E0],"parents":[2147483647,0,0,1,1,2,2,6,6,7,7,8,8,12,12,13,13,14,14],"right_children":[2,4,6,-1,-1,-1,8,10,12,-1,-1,-1,14,16,18,-1,-1,-1,-1],"split_conditions":[1.2E2,5.35E1,3.34E2,1.291293E0,7.977279E-1,5.5003893E-1,5.675E2,3.82115E2,5.755E2,1.05127096E-1,3.7012354E-1,-1.0791778E-3,7.0258496E2,2.726E2,7.16485E2,7.02827E-2,2.803168E-1,1.0490506E-1,2.1211503E-1],"split_indices":[1,1,1,0,0,0,1,0,1,0,0,0,0,0,0,0,0,0,0],"split_type":[0,0,0,0,0,0,0,0,0,0,0,0,0,0,0,0,0,0,0],"sum_hessian":[1.6E2,1.8E1,1.42E2,7E0,1.1E1,3.6E1,1.06E2,5.2E1,5.4E1,1E0,5.1E1,1E0,5.3E1,4.3E1,1E1,1E0,4.2E1,4E0,6E0],"tree_param":{"num_deleted":"0","num_feature":"2","num_nodes":"19","size_leaf_vector":"0"}},{"base_weights":[4.1552415E0,8.113508E0,3.1489353E0,1.1783049E1,6.614714E0,3.733452E0,2.382255E0,4.3873944E0,3.3369608E0,-1.15718365E-1,2.4273188E0,2.5679E0,1.7431604E0],"categories":[],"categories_nodes":[],"categories_segments":[],"categories_sizes":[],"default_left":[true,true,true,false,false,true,true,false,false,false,true,false,false],"id":14,"left_children":[1,3,5,-1,-1,7,9,-1,-1,-1,11,-1,-1],"loss_changes":[6.1575073E2,9.805469E1,4.936377E1,0E0,0E0,4.027771E0,6.922394E0,0E0,0E0,0E0,1.1021729E0,0E0,0E0],"parents":[2147483647,0,0,1,1,2,2,5,5,6,6,10,10],"right_children":[2,4,6,-1,-1,8,10,-1,-1,-1,12,-1,-1],"split_conditions":[2.19E2,5.35E1,5.44E2,1.1783049E0,6.614714E-1,3.34E2,5.485E2,4.3873945E-1,3.336961E-1,-1.1571837E-2,7.68E2,2.5679E-1,1.7431603E-1],"split_indices":[1,1,1,0,0,1,1,0,0,0,1,0,0],"split_type":[0,0,0,0,0,0,0,0,0,0,0,0,0],"sum_hessian":[1.6E2,3.1E1,1.29E2,7E0,2.4E1,7.1E1,5.8E1,2.3E1,4.8E1,1E0,5.7E1,4.5E1,1.2E1],"tree_param":{"num_deleted":"0","num_feature":"2","num_nodes":"13","size_leaf_vector":"0"}},{"base_weights":[3.7585475E0,8.720653E0,3.0729632E0,1.1478125E1,6.9159746E0,4.6794043E0,2.6232598E0,1.2459E1,3.2868748E0,3.0574968E0,2.1018512E0,1.6627175E0,3.1274326E0,-1.3864708E-1,2.1459095E0,2.133363E0,-1.0993242E-1,2.2662754E0,1.4693626E0,2.296279E0,4.8806095E-1,7.7618915E-1,1.7545776E0],"categories":[],"categories_nodes":[],"categories_segments":[],"categories_sizes":[],"default_left":[true,true,true,true,false,false,true,false,false,true,true,true,false,false,true,false,false,true,true,false,false,false,false],"id":15,"left_children":[1,3,5,7,-1,-1,9,-1,-1,11,13,15,-1,-1,17,-1,-1,19,21,-1,-1,-1,-1],"loss_changes":[5.209143E2,1.5168213E1,9.1031006E1,7.2564087E0,0E0,0E0,1.9384888E1,0E0,0E0,6.526489E-1,5.726715E0,4.4059734E0,0E0,0E0,1.0674286E0,0E0,0E0,1.2267914E0,8.1285477E-1,0E0,0E0,0E0,0E0],"parents":[2147483647,0,0,1,1,2,2,3,3,6,6,9,9,10,10,11,11,14,14,17,17,18,18],"right_children":[2,4,6,8,-1,-1,10,-1,-1,12,14,16,-1,-1,18,-1,-1,20,22,-1,-1,-1,-1],"split_conditions":[1.2E2,4.1E1,3.035E2,5.3946497E2,6.9159746E-1,4.6794042E-1,5.675E2,1.2459E0,3.286875E-1,4.26035E2,5.755E2,4.0441998E2,3.1274328E-1,-1.3864708E-2,7.0258496E2,2.133363E-1,-1.0993242E-2,8.05E2,7.16485E2,2.2962789E-1,4.8806097E-2,7.761892E-2,1.7545776E-1],"split_indices":[1,1,1,0,0,0,1,0,0,0,1,0,0,0,0,0,0,1,0,0,0,0,0],"split_type":[0,0,0,0,0,0,0,0,0,0,0,0,0,0,0,0,0,0,0,0,0,0,0],"sum_hessian":[1.6E2,1.8E1,1.42E2,5E0,1.3E1,2.9E1,1.13E2,4E0,1E0,5.9E1,5.4E1,4E0,5.5E1,1E0,5.3E1,3E0,1E0,4.3E1,1E1,4.2E1,1E0,4E0,6E0],"tree_param":{"num_deleted":"0","num_feature":"2","num_nodes":"23","size_leaf_vector":"0"}},{"base_weights":[3.4060895E0,8.455833E0,2.8293636E0,4.330541E0,2.369993E0,2.682356E0,1.7918503E0,1.9663495E0,2.8067925E0,7.4461335E-1,1.9100496E0,2.4647932E0,1.04041815E-1,9.2522585E-1,-7.922459E-2,2.0002916E0,1.0953766E0,7.251911E-1,2.5662344E0,4.4423437E-1,-1.5743382E-1,2.0676649E0,6.3733834E-1,3.285179E-1,1.1830448E0],"categories":[],"categories_nodes":[],"categories_segments":[],"categories_sizes":[],"default_left":[true,false,true,false,true,true,true,true,false,true,true,true,true,false,false,true,true,false,false,false,false,false,false,false,false],"id":16,"left_children":[1,-1,3,-1,5,7,9,11,-1,13,15,17,19,-1,-1,21,23,-1,-1,-1,-1,-1,-1,-1,-1],"loss_changes":[4.449585E2,0E0,9.0417725E1,0E0,1.5780884E1,8.95874E-1,3.9003906E0,1.2739136E1,0E0,9.660735E-1,6.026001E-1,8.01239E-2,4.257458E-1,0E0,0E0,1.7124786E0,1.4723301E-2,0E0,0E0,0E0,0E0,0E0,0E0,0E0,0E0],"parents":[2147483647,0,0,2,2,4,4,5,5,6,6,7,7,9,9,10,10,11,11,12,12,15,15,16,16],"right_children":[2,-1,4,-1,6,8,10,12,-1,14,16,18,20,-1,-1,22,24,-1,-1,-1,-1,-1,-1,-1,-1],"split_conditions":[1.06E2,8.455834E-1,3.035E2,4.3305412E-1,6.275E2,4.30785E2,4.23495E2,3.98325E2,2.8067926E-1,4.2116498E2,7.1685E2,5.25E2,4.14405E2,9.2522584E-2,-7.922458E-3,8.04E2,7.19775E2,7.2519116E-2,2.5662345E-1,4.442344E-2,-1.5743382E-2,2.0676649E-1,6.373384E-2,3.2851793E-2,1.1830448E-1],"split_indices":[1,0,1,0,1,0,0,0,0,0,0,1,0,0,0,1,0,0,0,0,0,0,0,0,0],"split_type":[0,0,0,0,0,0,0,0,0,0,0,0,0,0,0,0,0,0,0,0,0,0,0,0,0],"sum_hessian":[1.6E2,1.5E1,1.45E2,3.2E1,1.13E2,7.1E1,4.2E1,1.3E1,5.8E1,5E0,3.7E1,1E1,3E0,4E0,1E0,3.2E1,5E0,1E0,9E0,1E0,2E0,3E1,2E0,1E0,4E0],"tree_param":{"num_deleted":"0","num_feature":"2","num_nodes":"25","size_leaf_vector":"0"}},{"base_weights":[3.0805326E0,7.6630983E0,2.557234E0,9.88809E0,5.7528214E0,4.0003004E0,2.1653602E0,1.0785812E1,2.6997395E0,2.5183115E0,1.7217004E0,3.2411327E0,1.1861699E1,6.7351913E-1,2.537203E0,-1.2384319E-1,1.7581705E0,2.5709267E0,1.0169977E0,1.8531433E0,1.2184453E0,6.8893147E-1,2.5911481E0,4.194522E-1,1.8767303E0,5.772877E-1,1.5023515E0],"categories":[],"categories_nodes":[],"categories_segments":[],"categories_sizes":[],"default_left":[true,true,true,true,false,false,true,true,false,true,true,false,false,false,true,false,true,true,false,true,true,false,false,false,false,false,false],"id":17,"left_children":[1,3,5,7,-1,-1,9,11,-1,13,15,-1,-1,-1,17,-1,19,21,-1,23,25,-1,-1,-1,-1,-1,-1],"loss_changes":[3.6648987E2,1.1121155E1,7.390088E1,9.600037E0,0E0,0E0,1.3985291E1,2.140747E0,0E0,4.8672485E-1,3.919632E0,0E0,0E0,0E0,5.639038E-1,0E0,5.100403E-1,4.9829102E-1,0E0,7.0072937E-1,1.135025E0,0E0,0E0,0E0,0E0,0E0,0E0],"parents":[2147483647,0,0,1,1,2,2,3,3,6,6,7,7,9,9,10,10,14,14,16,16,17,17,19,19,20,20],"right_children":[2,4,6,8,-1,-1,10,12,-1,14,16,-1,-1,-1,18,-1,20,22,-1,24,26,-1,-1,-1,-1,-1,-1],"split_conditions":[1.06E2,4.1E1,2.86E2,5.3946497E2,5.7528216E-1,4.0003005E-1,5.675E2,5.285E2,2.6997396E-1,2.94E2,5.755E2,3.2411328E-1,1.18617E0,6.7351915E-2,7.31425E2,-1.238432E-2,7.0258496E2,3.82115E2,1.0169977E-1,2.726E2,7.16485E2,6.889315E-2,2.5911483E-1,4.194522E-2,1.8767303E-1,5.7728767E-2,1.5023516E-1],"split_indices":[1,1,1,0,0,0,1,0,0,1,1,0,0,0,0,0,0,0,0,0,0,0,0,0,0,0,0],"split_type":[0,0,0,0,0,0,0,0,0,0,0,0,0,0,0,0,0,0,0,0,0,0,0,0,0,0,0],"sum_hessian":[1.6E2,1.5E1,1.45E2,5E0,1E1,2.9E1,1.16E2,4E0,1E0,6.2E1,5.4E1,1E0,3E0,1E0,6.1E1,1E0,5.3E1,5.9E1,2E0,4.3E1,1E1,1E0,5.8E1,1E0,4.2E1,4E0,6E0],"tree_param":{"num_deleted":"0","num_feature":"2","num_nodes":"27","size_leaf_vector":"0"}},{"base_weights":[2.795323E0,7.0440097E0,2.3105671E0,9.575971E0,5.402025E0,3.5413232E0,1.9340277E0,1.0687587E1,2.5647526E0,2.1891723E0,1.4618315E0,3.0790768E0,1.2197398E1,1.6284708E0,2.2851152E0,5.5214596E-1,1.5669968E0,2.075433E0,-7.793188E-3,2.3153372E0,9.4919777E-1,7.302151E-1,-1.6909981E-1,1.6433594E0,8.858358E-1,3.281865E-1,-2.2918193E-1,1.6997328E0,5.1304847E-1,2.3697424E-1,9.6821326E-1],"categories":[],"categories_nodes":[],"categories_segments":[],"categories_sizes":[],"default_left":[true,true,true,true,false,false,true,true,false,true,true,false,false,true,true,true,true,false,true,false,false,false,false,true,true,false,false,false,false,false,false],"id":18,"left_children":[1,3,5,7,-1,-1,9,11,-1,13,15,-1,-1,17,19,21,23,-1,25,-1,-1,-1,-1,27,29,-1,-1,-1,-1,-1,-1],"loss_changes":[3.153158E2,1.4789429E1,6.0811523E1,1.1557892E1,0E0,0E0,1.0534302E1,8.392944E0,0E0,1.5200806E-1,3.2484894E0,0E0,0E0,1.0255051E1,1.8435669E-1,8.940687E-1,5.208359E-1,0E0,3.727429E-1,0E0,0E0,0E0,0E0,1.2306976E0,9.126806E-2,0E0,0E0,0E0,0E0,0E0,0E0],"parents":[2147483647,0,0,1,1,2,2,3,3,6,6,7,7,9,9,10,10,13,13,14,14,15,15,16,16,18,18,23,23,24,24],"right_children":[2,4,6,8,-1,-1,10,12,-1,14,16,-1,-1,18,20,22,24,-1,26,-1,-1,-1,-1,28,30,-1,-1,-1,-1,-1,-1],"split_conditions":[1.06E2,3.45E1,3.035E2,5.3946497E2,5.4020256E-1,3.5413232E-1,6.275E2,5.285E2,2.5647527E-1,4.30785E2,4.23495E2,3.0790767E-1,1.2197398E0,3.98325E2,7.31425E2,4.2116498E2,7.1685E2,2.075433E-1,4.14405E2,2.3153372E-1,9.491978E-2,7.302151E-2,-1.6909981E-2,8.04E2,7.19775E2,3.2818653E-2,-2.2918193E-2,1.6997328E-1,5.1304847E-2,2.3697425E-2,9.682133E-2],"split_indices":[1,1,1,0,0,0,1,0,0,0,0,0,0,0,0,0,0,0,0,0,0,0,0,1,0,0,0,0,0,0,0],"split_type":[0,0,0,0,0,0,0,0,0,0,0,0,0,0,0,0,0,0,0,0,0,0,0,0,0,0,0,0,0,0,0],"sum_hessian":[1.6E2,1.5E1,1.45E2,4E0,1.1E1,3.2E1,1.13E2,3E0,1E0,7.1E1,4.2E1,1E0,2E0,1.3E1,5.8E1,5E0,3.7E1,1E1,3E0,5.6E1,2E0,4E0,1E0,3.2E1,5E0,1E0,2E0,3E1,2E0,1E0,4E0],"tree_param":{"num_deleted":"0","num_feature":"2","num_nodes":"31","size_leaf_vector":"0"}},{"base_weights":[2.5382767E0,6.484879E0,2.0883868E0,8.975199E0,4.906839E0,3.4002197E0,1.789246E0,1.0000741E1,2.4365158E0,2.0193415E0,1.3249018E0,2.9251232E0,1.1384239E1,4.6657562E-1,2.033267E0,5.06283E-1,1.4192916E0,1.4811553E0,2.1209023E0,6.717976E-1,-1.6064501E-1,2.7938175E-1,1.4425491E0,1.8867574E0,-4.539013E-3,2.146046E0,8.8591766E-1,1.5146965E0,8.173383E-1],"categories":[],"categories_nodes":[],"categories_segments":[],"categories_sizes":[],"default_left":[true,true,true,true,false,false,true,true,false,true,true,false,false,false,true,true,true,true,true,false,false,false,true,false,false,false,false,false,false],"id":19,"left_children":[1,3,5,7,-1,-1,9,11,-1,13,15,-1,-1,-1,17,19,21,23,25,-1,-1,-1,27,-1,-1,-1,-1,-1,-1],"loss_changes":[2.7231836E2,1.883728E1,5.120984E1,9.16153E0,0E0,0E0,1.0252655E1,5.8561096E0,0E0,7.59552E-1,2.6040115E0,0E0,0E0,0E0,6.325989E-1,7.7023876E-1,6.044159E-1,8.444975E0,1.1715698E-1,0E0,0E0,0E0,4.3095398E-1,0E0,0E0,0E0,0E0,0E0,0E0],"parents":[2147483647,0,0,1,1,2,2,3,3,6,6,7,7,9,9,10,10,14,14,15,15,16,16,17,17,18,18,22,22],"right_children":[2,4,6,8,-1,-1,10,12,-1,14,16,-1,-1,-1,18,20,22,24,26,-1,-1,-1,28,-1,-1,-1,-1,-1,-1],"split_conditions":[1.06E2,3.45E1,2.65E2,5.3946497E2,4.9068388E-1,3.4002197E-1,6.275E2,5.285E2,2.4365158E-1,2.7E2,4.23495E2,2.9251233E-1,1.1384239E0,4.6657562E-2,4.30785E2,4.2116498E2,6.325E2,3.98325E2,7.31425E2,6.717976E-2,-1.60645E-2,2.7938176E-2,7.1685E2,1.8867575E-1,-4.539013E-4,2.146046E-1,8.859177E-2,1.5146965E-1,8.173383E-2],"split_indices":[1,1,1,0,0,0,1,0,0,1,0,0,0,0,0,0,1,0,0,0,0,0,0,0,0,0,0,0,0],"split_type":[0,0,0,0,0,0,0,0,0,0,0,0,0,0,0,0,0,0,0,0,0,0,0,0,0,0,0,0,0],"sum_hessian":[1.6E2,1.5E1,1.45E2,4E0,1.1E1,2.5E1,1.2E2,3E0,1E0,7.8E1,4.2E1,1E0,2E0,1E0,7.7E1,5E0,3.7E1,1.3E1,6.4E1,4E0,1E0,1E0,3.6E1,1E1,3E0,6.2E1,2E0,3.1E1,5E0],"tree_param":{"num_deleted":"0","num_feature":"2","num_nodes":"29","size_leaf_vector":"0"}},{"base_weights":[2.3052917E0,6.2657394E0,1.9150783E0,8.412597E0,4.565737E0,3.1332984E0,1.617349E0,9.358401E0,2.3146896E0,1.8242185E0,1.1996738E0,2.7788677E0,1.062529E1,4.4324684E-1,1.8362406E0,4.6417394E-1,1.284235E0,2.1177578E0,1.6362358E0,6.180538E-1,-1.5261269E-1,2.654128E-1,1.3045974E0,1.5006154E0,1.0143219E0],"categories":[],"categories_nodes":[],"categories_segments":[],"categories_sizes":[],"default_left":[true,true,true,true,false,false,true,true,false,true,true,false,false,false,true,true,true,false,false,false,false,false,true,false,false],"id":20,"left_children":[1,3,5,7,-1,-1,9,11,-1,13,15,-1,-1,-1,17,19,21,-1,-1,-1,-1,-1,23,-1,-1],"loss_changes":[2.3681305E2,1.2685547E1,4.861194E1,7.175354E0,0E0,0E0,8.266449E0,3.8158875E0,0E0,4.9768066E-1,2.0782623E0,0E0,0E0,0E0,9.266052E-1,6.6378915E-1,4.4207764E-1,0E0,0E0,0E0,0E0,0E0,5.831642E-1,0E0,0E0],"parents":[2147483647,0,0,1,1,2,2,3,3,6,6,7,7,9,9,10,10,14,14,15,15,16,16,22,22],"right_children":[2,4,6,8,-1,-1,10,12,-1,14,16,-1,-1,-1,18,20,22,-1,-1,-1,-1,-1,24,-1,-1],"split_conditions":[9E1,3.45E1,2.65E2,5.3946497E2,4.565737E-1,3.1332985E-1,6.275E2,5.285E2,2.3146896E-1,2.7E2,4.23495E2,2.7788678E-1,1.062529E0,4.4324685E-2,3.965E2,4.2116498E2,6.325E2,2.1177578E-1,1.6362359E-1,6.180538E-2,-1.5261269E-2,2.6541281E-2,6.88405E2,1.5006153E-1,1.014322E-1],"split_indices":[1,1,1,0,0,0,1,0,0,1,0,0,0,0,1,0,1,0,0,0,0,0,0,0,0],"split_type":[0,0,0,0,0,0,0,0,0,0,0,0,0,0,0,0,0,0,0,0,0,0,0,0,0],"sum_hessian":[1.6E2,1.3E1,1.47E2,4E0,9E0,2.7E1,1.2E2,3E0,1E0,7.8E1,4.2E1,1E0,2E0,1E0,7.7E1,5E0,3.7E1,2.8E1,4.9E1,4E0,1E0,1E0,3.6E1,1.9E1,1.7E1],"tree_param":{"num_deleted":"0","num_feature":"2","num_nodes":"25","size_leaf_vector":"0"}},{"base_weights":[2.0939307E0,5.784055E0,1.7307166E0,7.885714E0,4.1548204E0,2.8311589E0,1.4617654E0,8.757665E0,2.1989555E0,1.6108191E0,9.968717E-1,2.639925E0,9.916936E0,1.0785439E0,1.7289081E0,-1.6563892E-1,1.0397153E0,1.5236497E0,2.7606714E-1,1.7689997E0,6.051018E-1,2.5055632E-1,1.0855001E0,3.7456322E-1,1.5940609E0,-1.881512E-1,1.1124815E0,4.210844E-1,1.7826295E0,1.3354254E-1,7.177741E-1,2.974758E-1,7.835865E-2,5.4470366E-1,1.1502395E0],"categories":[],"categories_nodes":[],"categories_segments":[],"categories_sizes":[],"default_left":[true,true,true,true,false,false,true,true,false,true,true,false,false,true,true,false,true,true,true,true,true,true,true,false,false,false,false,false,false,false,false,false,false,false,false],"id":21,"left_children":[1,3,5,7,-1,-1,9,11,-1,13,15,-1,-1,17,19,-1,21,23,25,27,29,31,33,-1,-1,-1,-1,-1,-1,-1,-1,-1,-1,-1,-1],"loss_changes":[2.0577856E2,1.51736145E1,3.96644E1,5.5351562E0,0E0,0E0,6.7788086E0,2.188507E0,0E0,3.792328E0,1.7660103E0,0E0,0E0,6.365925E0,2.1735535E0,0E0,8.4809875E-1,3.7382698E-1,3.3155456E0,5.170288E-1,1.1667323E-1,9.2847645E-4,3.8877106E-1,0E0,0E0,0E0,0E0,0E0,0E0,0E0,0E0,0E0,0E0,0E0,0E0],"parents":[2147483647,0,0,1,1,2,2,3,3,6,6,7,7,9,9,10,10,13,13,14,14,16,16,17,17,18,18,19,19,20,20,21,21,22,22],"right_children":[2,4,6,8,-1,-1,10,12,-1,14,16,-1,-1,18,20,-1,22,24,26,28,30,32,34,-1,-1,-1,-1,-1,-1,-1,-1,-1,-1,-1,-1],"split_conditions":[9E1,3.45E1,2.65E2,5.3946497E2,4.1548204E-1,2.831159E-1,6.755E2,5.285E2,2.1989556E-1,4.31115E2,6.825E2,2.6399252E-1,9.916936E-1,3.98325E2,7.15025E2,-1.6563892E-2,4.055E2,5.25E2,6.55E2,2.7E2,7.334E2,2.806E2,7.055E2,3.7456322E-2,1.594061E-1,-1.881512E-2,1.1124815E-1,4.2108443E-2,1.7826295E-1,1.3354254E-2,7.177741E-2,2.9747581E-2,7.835865E-3,5.4470368E-2,1.1502395E-1],"split_indices":[1,1,1,0,0,0,1,0,0,0,1,0,0,0,0,0,0,1,1,1,0,0,1,0,0,0,0,0,0,0,0,0,0,0,0],"split_type":[0,0,0,0,0,0,0,0,0,0,0,0,0,0,0,0,0,0,0,0,0,0,0,0,0,0,0,0,0,0,0,0,0,0,0],"sum_hessian":[1.6E2,1.3E1,1.47E2,4E0,9E0,2.7E1,1.2E2,3E0,1E0,8.9E1,3.1E1,1E0,2E0,1.8E1,7.1E1,1E0,3E1,1.1E1,7E0,6.8E1,3E0,2E0,2.8E1,1E0,1E1,5E0,2E0,1E0,6.7E1,1E0,2E0,1E0,1E0,4E0,2.4E1],"tree_param":{"num_deleted":"0","num_feature":"2","num_nodes":"35","size_leaf_vector":"0"}},{"base_weights":[1.9029198E0,5.340726E0,1.5648643E0,7.3922586E0,3.7808871E0,2.3288767E0,1.2503468E0,8.195819E0,2.0890083E0,2.711283E0,1.8173616E0,1.3800877E0,9.031384E-1,2.5079288E0,9.255806E0,1.9562355E0,7.380886E-1,9.859157E-1,1.4854186E0,-1.5735722E-1,9.4242394E-1,4.983425E-1,2.0126798E0,1.6045475E-1,8.7714833E-1,1.3876902E0,2.6001453E-1,2.3755975E0,1.3754867E0,2.3802853E-1,9.8279506E-1,1.0981678E0,2.2095935E0,3.5583496E-1,1.4491466E0,-1.72472E-1,1.0383161E0,-1.8395424E-1,1.408381E0,2.8260183E-1,7.4440956E-2,5.011276E-1,1.0398167E0],"categories":[],"categories_nodes":[],"categories_segments":[],"categories_sizes":[],"default_left":[true,true,true,true,false,true,true,true,false,false,true,true,true,false,false,true,true,true,true,false,true,false,true,false,false,true,true,false,true,true,true,false,false,false,false,false,false,false,false,false,false,false,false],"id":22,"left_children":[1,3,5,7,-1,9,11,13,-1,-1,15,17,19,-1,-1,21,23,25,27,-1,29,-1,31,-1,-1,33,35,-1,37,39,41,-1,-1,-1,-1,-1,-1,-1,-1,-1,-1,-1,-1],"loss_changes":[1.7875171E2,1.6851532E1,3.2651794E1,4.1862793E0,0E0,3.2881012E0,3.5736542E0,9.034424E-1,0E0,0E0,1.7036667E0,1.6909027E0,1.4814854E0,0E0,0E0,4.7820282E-1,1.8055987E-1,5.180504E0,2.4082108E0,0E0,6.4762306E-1,0E0,6.348572E-1,0E0,0E0,2.4531174E-1,2.8719199E0,0E0,3.0290985E0,8.377731E-4,2.7541733E-1,0E0,0E0,0E0,0E0,0E0,0E0,0E0,0E0,0E0,0E0,0E0,0E0],"parents":[2147483647,0,0,1,1,2,2,3,3,5,5,6,6,7,7,10,10,11,11,12,12,15,15,16,16,17,17,18,18,20,20,22,22,25,25,26,26,28,28,29,29,30,30],"right_children":[2,4,6,8,-1,10,12,14,-1,-1,16,18,20,-1,-1,22,24,26,28,-1,30,-1,32,-1,-1,34,36,-1,38,40,42,-1,-1,-1,-1,-1,-1,-1,-1,-1,-1,-1,-1],"split_conditions":[9E1,3.45E1,3.34E2,5.3946497E2,3.780887E-1,2.32E2,6.755E2,5.285E2,2.0890084E-1,2.711283E-1,5.82975E2,4.31115E2,6.825E2,2.507929E-1,9.255806E-1,2.36E2,5.8632E2,3.98325E2,4.33565E2,-1.5735721E-2,4.055E2,4.983425E-2,5.47E2,1.6045475E-2,8.7714836E-2,5.25E2,6.55E2,2.3755975E-1,4.34625E2,2.806E2,7.055E2,1.0981678E-1,2.2095935E-1,3.5583496E-2,1.4491467E-1,-1.72472E-2,1.0383161E-1,-1.8395424E-2,1.408381E-1,2.8260184E-2,7.444096E-3,5.011276E-2,1.0398167E-1],"split_indices":[1,1,1,0,0,1,1,0,0,0,0,0,1,0,0,1,0,0,0,0,0,0,0,0,0,1,1,0,0,0,1,0,0,0,0,0,0,0,0,0,0,0,0],"split_type":[0,0,0,0,0,0,0,0,0,0,0,0,0,0,0,0,0,0,0,0,0,0,0,0,0,0,0,0,0,0,0,0,0,0,0,0,0,0,0,0,0,0,0],"sum_hessian":[1.6E2,1.3E1,1.47E2,4E0,9E0,4.1E1,1.06E2,3E0,1E0,2.1E1,2E1,7.5E1,3.1E1,1E0,2E0,1.7E1,3E0,1.8E1,5.7E1,1E0,3E1,1E0,1.6E1,1E0,2E0,1.1E1,7E0,4E0,5.3E1,2E0,2.8E1,4E0,1.2E1,1E0,1E1,5E0,2E0,1E0,5.2E1,1E0,1E0,4E0,2.4E1],"tree_param":{"num_deleted":"0","num_feature":"2","num_nodes":"43","size_leaf_vector":"0"}},{"base_weights":[1.7332492E0,5.227469E0,1.4421567E0,6.930088E0,3.5098984E0,2.5117261E0,1.2286776E0,7.670331E0,1.9845581E0,1.5422865E0,1.0315382E0,1.5846951E0,6.902199E-1,5.6983477E-1,1.1035761E0,1.5243244E-1,8.186715E-1,1.9919878E0,1.0030441E0,3.380432E-1,2.2551682E0,1.1245761E0,7.3750544E-1],"categories":[],"categories_nodes":[],"categories_segments":[],"categories_sizes":[],"default_left":[true,true,true,true,false,false,true,false,false,true,true,false,true,false,true,false,false,true,true,false,false,false,false],"id":23,"left_children":[1,3,5,7,-1,-1,9,-1,-1,11,13,-1,15,-1,17,-1,-1,19,21,-1,-1,-1,-1],"loss_changes":[1.5622092E2,1.0768524E1,3.1163513E1,3.0822449E0,0E0,0E0,6.260803E0,0E0,0E0,6.0456085E-1,2.065216E0,0E0,1.5152669E-1,0E0,4.164604E0,0E0,0E0,1.849369E0,1.2359848E0,0E0,0E0,0E0,0E0],"parents":[2147483647,0,0,1,1,2,2,3,3,6,6,9,9,10,10,12,12,14,14,17,17,18,18],"right_children":[2,4,6,8,-1,-1,10,-1,-1,12,14,-1,16,-1,18,-1,-1,20,22,-1,-1,-1,-1],"split_conditions":[7.55E1,3.45E1,2.32E2,5.3946497E2,3.5098985E-1,2.5117263E-1,4.58E2,7.670331E-1,1.9845581E-1,5.837E2,5.06E2,1.5846951E-1,5.8632E2,5.698348E-2,5.25E2,1.5243244E-2,8.186715E-2,4.06635E2,7.265E2,3.3804324E-2,2.2551683E-1,1.1245761E-1,7.375055E-2],"split_indices":[1,1,1,0,0,0,1,0,0,0,1,0,0,0,1,0,0,0,1,0,0,0,0],"split_type":[0,0,0,0,0,0,0,0,0,0,0,0,0,0,0,0,0,0,0,0,0,0,0],"sum_hessian":[1.6E2,1.1E1,1.49E2,4E0,7E0,2.3E1,1.26E2,3E0,1E0,4.6E1,8E1,4.3E1,3E0,1.2E1,6.8E1,1E0,2E0,5E0,6.3E1,1E0,4E0,4.1E1,2.2E1],"tree_param":{"num_deleted":"0","num_feature":"2","num_nodes":"23","size_leaf_vector":"0"}},{"base_weights":[1.5743699E0,4.8144283E0,1.3046694E0,6.430177E0,3.202782E0,1.9650906E0,1.0209011E0,7.0950565E0,1.8853302E0,2.3289359E0,1.5648474E0,1.1046624E0,6.669615E-1,1.9990158E0,8.1273985E0,1.6887752E0,7.561668E-1,7.6697564E-1,1.1967664E0,7.924717E-1,3.325709E-1,1.4481068E-1,8.728032E-1,1.1674314E0,2.0973119E-1,1.9505805E0,1.1014389E0,8.43282E-1,1.5158653E-2,2.7618647E-2,5.100185E-1,4.571514E-1,1.2637722E0,-2.5181374E-1,7.2163886E-1,-2.3098516E-1,1.1279373E0,1.7695999E-1,9.3218076E-1,-5.193329E-2,1.3313723E-1,2.2445233E-1,6.255786E-1],"categories":[],"categories_nodes":[],"categories_segments":[],"categories_sizes":[],"default_left":[true,true,true,true,false,true,true,true,false,false,true,true,true,false,false,false,true,true,true,true,true,false,false,true,true,false,true,true,false,true,true,false,false,false,false,false,false,false,false,false,false,false,false],"id":24,"left_children":[1,3,5,7,-1,9,11,13,-1,-1,15,17,19,-1,-1,-1,21,23,25,27,29,-1,-1,31,33,-1,35,37,-1,39,41,-1,-1,-1,-1,-1,-1,-1,-1,-1,-1,-1,-1],"loss_changes":[1.3440787E2,1.0653748E1,2.6104813E1,1.7323608E0,0E0,2.7631378E0,2.4353943E0,4.7966156E0,0E0,0E0,1.1282349E0,1.7258072E0,7.017441E-1,0E0,0E0,0E0,2.3014045E-1,4.4413385E0,2.5224075E0,6.191454E-1,4.1881847E-1,0E0,0E0,2.4341202E-1,2.5444026E0,0E0,2.3789597E0,7.235689E-1,0E0,4.0491085E-2,2.4587512E-2,0E0,0E0,0E0,0E0,0E0,0E0,0E0,0E0,0E0,0E0,0E0,0E0],"parents":[2147483647,0,0,1,1,2,2,3,3,5,5,6,6,7,7,10,10,11,11,12,12,16,16,17,17,18,18,19,19,20,20,23,23,24,24,26,26,27,27,29,29,30,30],"right_children":[2,4,6,8,-1,10,12,14,-1,-1,16,18,20,-1,-1,-1,22,24,26,28,30,-1,-1,32,34,-1,36,38,-1,40,42,-1,-1,-1,-1,-1,-1,-1,-1,-1,-1,-1,-1],"split_conditions":[7.55E1,3.45E1,3.34E2,5.3946497E2,3.202782E-1,2.19E2,7.265E2,5.285E2,1.8853302E-1,2.3289359E-1,5.8367505E2,4.31115E2,7.0258496E2,1.9990158E-1,8.1273985E-1,1.6887753E-1,5.8632E2,3.98325E2,4.33565E2,8.05E2,7.1941003E2,1.4481068E-2,8.7280326E-2,5.4E2,6.55E2,1.9505805E-1,4.34625E2,4.055E2,1.5158653E-3,7.915E2,7.755E2,4.5715142E-2,1.2637722E-1,-2.5181374E-2,7.216389E-2,-2.3098517E-2,1.12793736E-1,1.7695999E-2,9.321808E-2,-5.193329E-3,1.3313723E-2,2.2445234E-2,6.255786E-2],"split_indices":[1,1,1,0,0,1,1,0,0,0,0,0,0,0,0,0,0,0,0,1,0,0,0,1,1,0,0,0,0,1,1,0,0,0,0,0,0,0,0,0,0,0,0],"split_type":[0,0,0,0,0,0,0,0,0,0,0,0,0,0,0,0,0,0,0,0,0,0,0,0,0,0,0,0,0,0,0,0,0,0,0,0,0,0,0,0,0,0,0],"sum_hessian":[1.6E2,1.1E1,1.49E2,4E0,7E0,4.3E1,1.06E2,3E0,1E0,2E1,2.3E1,8.4E1,2.2E1,1E0,2E0,1.9E1,4E0,2E1,6.4E1,1.5E1,7E0,1E0,3E0,1.1E1,9E0,5E0,5.9E1,1.4E1,1E0,3E0,4E0,2E0,9E0,5E0,4E0,1E0,5.8E1,2E0,1.2E1,2E0,1E0,2E0,2E0],"tree_param":{"num_deleted":"0","num_feature":"2","num_nodes":"43","size_leaf_vector":"0"}},{"base_weights":[1.4339167E0,4.9765434E0,1.2161548E0,6.179728E0,2.7780502E0,2.1537015E0,1.0072578E0,2.3006501E0,1.2559404E0,1.3285432E0,8.705891E-1,1.3509816E0,2.7159882E-1,9.200399E-1,4.9930784E-1,3.097515E-1,1.3724957E0,6.882926E-1,9.9607694E-1,7.0497704E-1,2.2230898E-1,1.0650293E0,2.5419822E-1,1.7021314E0,8.818758E-1,8.17673E-1,1.4400482E-2,-2.5541592E-1,4.6448213E-1],"categories":[],"categories_nodes":[],"categories_segments":[],"categories_sizes":[],"default_left":[true,true,true,false,false,true,true,false,false,true,true,true,false,true,true,false,false,true,true,true,true,false,false,false,false,false,false,false,false],"id":25,"left_children":[1,3,5,-1,-1,7,9,-1,-1,11,13,15,-1,17,19,-1,-1,21,23,25,27,-1,-1,-1,-1,-1,-1,-1,-1],"loss_changes":[1.1815103E2,6.639145E0,2.7795837E1,0E0,0E0,6.7248535E-1,4.4199066E0,0E0,0E0,4.8685455E-1,1.2297516E0,3.589096E-1,0E0,7.2411346E-1,5.83889E-1,0E0,0E0,3.490675E0,3.1755981E0,5.3300166E-1,9.284811E-1,0E0,0E0,0E0,0E0,0E0,0E0,0E0,0E0],"parents":[2147483647,0,0,1,1,2,2,5,5,6,6,9,9,10,10,11,11,13,13,14,14,17,17,18,18,19,19,20,20],"right_children":[2,4,6,-1,-1,8,10,-1,-1,12,14,16,-1,18,20,-1,-1,22,24,26,28,-1,-1,-1,-1,-1,-1,-1,-1],"split_conditions":[6E1,5.37775E2,2.32E2,6.179728E-1,2.7780503E-1,5.94255E2,3.965E2,2.3006502E-1,1.2559405E-1,5.8837E2,7.68E2,2.36E2,2.7159883E-2,4.3105E2,6.9232E2,3.0975152E-2,1.3724957E-1,3.8966998E2,4.33565E2,8.05E2,7.785E2,1.0650293E-1,2.5419822E-2,1.7021315E-1,8.818758E-2,8.1767306E-2,1.4400482E-3,-2.5541592E-2,4.6448212E-2],"split_indices":[1,0,1,0,0,0,1,0,0,0,1,1,0,0,0,0,0,0,0,1,1,0,0,0,0,0,0,0,0],"split_type":[0,0,0,0,0,0,0,0,0,0,0,0,0,0,0,0,0,0,0,0,0,0,0,0,0,0,0,0,0],"sum_hessian":[1.6E2,8E0,1.52E2,4E0,4E0,2.6E1,1.26E2,2.1E1,5E0,3.5E1,9.1E1,3.4E1,1E0,7.9E1,1.2E1,1E0,3.3E1,2.2E1,5.7E1,6E0,6E0,1.1E1,1.1E1,6E0,5.1E1,5E0,1E0,2E0,4E0],"tree_param":{"num_deleted":"0","num_feature":"2","num_nodes":"29","size_leaf_vector":"0"}},{"base_weights":[1.3025827E0,4.5784197E0,1.1013728E0,7.380192E0,3.305674E0,1.9515047E0,9.1196394E-1,2.0810432E0,1.1512794E0,1.2011163E0,7.889047E-1,1.246939E0,5.2280045E-1,8.7717295E-1,5.959902E-1,2.9426384E-1,1.2675142E0,6.8945885E-2,6.511033E-1,6.25682E-1,1.0129259E0,6.3020706E-2,6.923541E-1,8.9427185E-1,1.3965212E0,8.9200807E-1,3.3171317E-1,6.623133E-1,1.2953615E0,4.5702314E-1,-4.8332277E-1,1.5281305E0,5.6436676E-1],"categories":[],"categories_nodes":[],"categories_segments":[],"categories_sizes":[],"default_left":[true,true,true,false,false,true,true,false,false,true,true,true,true,true,true,false,true,false,false,true,true,true,true,false,false,false,false,false,false,false,false,false,false],"id":26,"left_children":[1,3,5,-1,-1,7,9,-1,-1,11,13,15,17,19,21,-1,23,-1,-1,25,27,29,31,-1,-1,-1,-1,-1,-1,-1,-1,-1,-1],"loss_changes":[1.01077515E2,7.6969757E0,2.285675E1,0E0,0E0,4.029541E-1,3.571457E0,0E0,0E0,4.670601E-1,1.043808E0,2.7386856E-1,1.8803251E-1,1.4488068E0,1.5998564E0,0E0,2.9196167E-1,0E0,0E0,1.583107E0,2.905033E0,1.5124537E0,2.025732E0,0E0,0E0,0E0,0E0,0E0,0E0,0E0,0E0,0E0,0E0],"parents":[2147483647,0,0,1,1,2,2,5,5,6,6,9,9,10,10,11,11,12,12,13,13,14,14,16,16,19,19,20,20,21,21,22,22],"right_children":[2,4,6,-1,-1,8,10,-1,-1,12,14,16,18,20,22,-1,24,-1,-1,26,28,30,32,-1,-1,-1,-1,-1,-1,-1,-1,-1,-1],"split_conditions":[6E1,1.45E1,2.32E2,7.3801917E-1,3.3056742E-1,5.94255E2,3.965E2,2.0810433E-1,1.1512794E-1,5.837E2,6.755E2,2.36E2,5.8632E2,5.06E2,7.055E2,2.9426385E-2,5.4533997E2,6.8945885E-3,6.511033E-2,4.58E2,4.31115E2,6.94E2,7.145E2,8.942719E-2,1.3965212E-1,8.920081E-2,3.317132E-2,6.623133E-2,1.2953615E-1,4.5702316E-2,-4.8332278E-2,1.5281306E-1,5.6436677E-2],"split_indices":[1,1,1,0,0,0,1,0,0,0,1,1,0,1,1,0,0,0,0,1,0,1,1,0,0,0,0,0,0,0,0,0,0],"split_type":[0,0,0,0,0,0,0,0,0,0,0,0,0,0,0,0,0,0,0,0,0,0,0,0,0,0,0,0,0,0,0,0,0],"sum_hessian":[1.6E2,8E0,1.52E2,1E0,7E0,2.6E1,1.26E2,2.1E1,5E0,3.5E1,9.1E1,3.2E1,3E0,6E1,3.1E1,1E0,3.1E1,1E0,2E0,2.3E1,3.7E1,5E0,2.6E1,1E1,2.1E1,1.1E1,1.2E1,1.8E1,1.9E1,3E0,2E0,2E0,2.4E1],"tree_param":{"num_deleted":"0","num_feature":"2","num_nodes":"33","size_leaf_vector":"0"}},{"base_weights":[1.1862814E0,3.9291174E0,9.78616E-1,7.011183E0,2.9197927E0,1.5514699E0,7.7908033E-1,1.834335E0,1.2351346E0,8.607713E-1,5.428481E-1,1.3333104E0,4.8456E-1,8.866495E-1,1.2801504E-1,5.6280453E-2,6.308688E-1,6.024144E-1,6.549835E-2,5.995675E-1,9.603254E-1,-1.00621544E-1,4.069624E-1,4.2274666E-1,-4.511013E-1,1.4262552E0,5.101877E-1,9.066896E-1,6.393838E-2,7.95787E-1,1.3490574E0,-1.6504097E-1,1.4108658E-2,-2.7736092E-1,7.485695E-1,6.7855334E-1,1.3547611E-1],"categories":[],"categories_nodes":[],"categories_segments":[],"categories_sizes":[],"default_left":[true,true,true,false,false,true,true,false,true,true,true,false,true,true,true,true,true,false,false,true,true,true,false,true,false,false,true,false,false,false,false,false,false,false,false,false,false],"id":27,"left_children":[1,3,5,-1,-1,7,9,-1,11,13,15,-1,17,19,21,23,25,-1,-1,27,29,31,-1,33,-1,-1,35,-1,-1,-1,-1,-1,-1,-1,-1,-1,-1],"loss_changes":[8.785924E1,1.374765E1,1.60513E1,0E0,0E0,1.1345901E0,1.7327118E0,0E0,9.0138245E-1,1.4603729E0,1.3349905E0,0E0,1.5809596E-1,1.1163025E0,2.9605946E-1,1.3063312E0,1.8640223E0,0E0,0E0,3.067595E0,2.892044E0,2.4501067E-2,0E0,1.1200681E0,0E0,0E0,1.4852862E0,0E0,0E0,0E0,0E0,0E0,0E0,0E0,0E0,0E0,0E0],"parents":[2147483647,0,0,1,1,2,2,5,5,6,6,8,8,9,9,10,10,12,12,13,13,14,14,15,15,16,16,19,19,20,20,21,21,23,23,26,26],"right_children":[2,4,6,-1,-1,8,10,-1,12,14,16,-1,18,20,22,24,26,-1,-1,28,30,32,-1,34,-1,-1,36,-1,-1,-1,-1,-1,-1,-1,-1,-1,-1],"split_conditions":[6.9E1,1.45E1,3.035E2,7.011183E-1,2.9197928E-1,5.7245E2,6.755E2,1.834335E-1,2.74E2,7.15025E2,7.055E2,1.3333105E-1,5.7943005E2,4.31115E2,7.499E2,6.94E2,7.145E2,6.0241442E-2,6.549835E-3,3.98325E2,5.06E2,7.334E2,4.069624E-2,4.29555E2,-4.5110133E-2,1.4262553E-1,7.0258496E2,9.066896E-2,6.393838E-3,7.95787E-2,1.3490574E-1,-1.6504098E-2,1.4108658E-3,-2.7736092E-2,7.485695E-2,6.7855336E-2,1.3547611E-2],"split_indices":[1,1,1,0,0,0,1,0,1,0,1,0,0,0,0,1,1,0,0,0,1,0,0,0,0,0,0,0,0,0,0,0,0,0,0,0,0],"split_type":[0,0,0,0,0,0,0,0,0,0,0,0,0,0,0,0,0,0,0,0,0,0,0,0,0,0,0,0,0,0,0,0,0,0,0,0,0],"sum_hessian":[1.6E2,1E1,1.5E2,1E0,9E0,3.7E1,1.13E2,1.7E1,2E1,8.2E1,3.1E1,1.7E1,3E0,7.9E1,3E0,5E0,2.6E1,2E0,1E0,1.8E1,6.1E1,2E0,1E0,3E0,2E0,2E0,2.4E1,1.1E1,7E0,4.5E1,1.6E1,1E0,1E0,1E0,2E0,1.6E1,8E0],"tree_param":{"num_deleted":"0","num_feature":"2","num_nodes":"37","size_leaf_vector":"0"}},{"base_weights":[1.079702E0,4.6336236E0,9.3609154E-1,1.2788048E0,5.0488267E0,1.754152E0,7.58986E-1,5.6405897E0,1.3408871E0,1.8449706E0,9.855564E-1,1.0433333E0,6.554916E-1,6.486361E0,1.5516376E0,1.1019921E0,4.9444503E-1,6.926329E-1,3.593653E-1,6.2223434E-2,5.869446E-1,7.137268E-1,2.0816593E-1,5.3983074E-1,1.2756197E-1,6.848929E-1,1.5246387E0,-9.559027E-2,4.425335E-1,6.4595765E-1,-4.8465252E-2,-3.03147E-1,3.6047497E-1],"categories":[],"categories_nodes":[],"categories_segments":[],"categories_sizes":[],"default_left":[true,true,true,false,true,true,true,true,false,false,false,true,true,false,false,false,true,true,true,false,false,true,true,true,true,false,false,false,false,false,false,false,false],"id":28,"left_children":[1,3,5,-1,7,9,11,13,-1,-1,-1,15,17,-1,-1,-1,19,21,23,-1,-1,25,27,29,31,-1,-1,-1,-1,-1,-1,-1,-1],"loss_changes":[7.7833725E1,1.901123E0,2.1270386E1,0E0,3.4077148E0,6.6352844E-2,3.1417847E0,3.7687912E0,0E0,0E0,0E0,5.176277E-1,8.2894516E-1,0E0,0E0,0E0,1.6337979E-1,7.3028946E-1,4.7496068E-1,0E0,0E0,8.7309647E-1,3.9825487E-1,4.6834445E-1,8.115009E-1,0E0,0E0,0E0,0E0,0E0,0E0,0E0,0E0],"parents":[2147483647,0,0,1,1,2,2,4,4,5,5,6,6,7,7,11,11,12,12,16,16,17,17,18,18,21,21,22,22,23,23,24,24],"right_children":[2,4,6,-1,8,10,12,14,-1,-1,-1,16,18,-1,-1,-1,20,22,24,-1,-1,26,28,30,32,-1,-1,-1,-1,-1,-1,-1,-1],"split_conditions":[4.1E1,5.285E2,2.19E2,1.2788048E-1,5.3946497E2,5.94255E2,3.68E2,3.45E1,1.3408871E-1,1.8449706E-1,9.855565E-2,5.837E2,7.68E2,6.486361E-1,1.5516376E-1,1.1019921E-1,5.8632E2,7.1685E2,6.9232E2,6.2223435E-3,5.869446E-2,7.16485E2,7.499E2,8.05E2,7.785E2,6.848929E-2,1.5246387E-1,-9.559027E-3,4.425335E-2,6.459577E-2,-4.8465254E-3,-3.0314699E-2,3.60475E-2],"split_indices":[1,0,1,0,0,0,1,1,0,0,0,0,1,0,0,0,0,0,0,0,0,0,0,1,1,0,0,0,0,0,0,0,0],"split_type":[0,0,0,0,0,0,0,0,0,0,0,0,0,0,0,0,0,0,0,0,0,0,0,0,0,0,0,0,0,0,0,0,0],"sum_hessian":[1.6E2,5E0,1.55E2,1E0,4E0,2.6E1,1.29E2,3E0,1E0,2.2E1,4E0,3.2E1,9.7E1,2E0,1E0,2.8E1,4E0,8.5E1,1.2E1,1E0,3E0,8.1E1,4E0,6E0,6E0,8E1,1E0,2E0,2E0,5E0,1E0,2E0,4E0],"tree_param":{"num_deleted":"0","num_feature":"2","num_nodes":"33","size_leaf_vector":"0"}},{"base_weights":[9.831918E-1,4.3478894E0,8.4747785E-1,6.3363056E0,2.6829453E0,1.5892195E0,6.869048E-1,1.7756662E0,1.1565999E0,8.7610054E-1,5.616369E-1,8.930671E-1,3.1260172E-1,1.6441551E-1,6.283361E-1,7.205176E-1,1.0005865E0,1.4632658E0,5.54444E-1,1.12488426E-1,7.756961E-1,1.1799886E0,7.783989E-1,1.3233757E-1,1.7629135E0,5.994115E-1,3.2846552E-1],"categories":[],"categories_nodes":[],"categories_segments":[],"categories_sizes":[],"default_left":[true,true,true,false,false,true,true,false,false,true,true,true,false,false,true,true,true,true,true,false,false,false,false,false,false,false,false],"id":29,"left_children":[1,3,5,-1,-1,7,9,-1,-1,11,13,15,-1,-1,17,19,21,23,25,-1,-1,-1,-1,-1,-1,-1,-1],"loss_changes":[6.9833725E1,2.8636475E0,1.7488548E1,0E0,0E0,1.240921E-1,2.5889702E0,0E0,0E0,1.9885635E-1,2.0427322E0,1.6957474E-1,0E0,0E0,3.4456348E0,6.508455E-1,1.5774345E-1,1.7607479E0,4.6362305E-1,0E0,0E0,0E0,0E0,0E0,0E0,0E0,0E0],"parents":[2147483647,0,0,1,1,2,2,5,5,6,6,9,9,10,10,11,11,14,14,15,15,16,16,17,17,18,18],"right_children":[2,4,6,-1,-1,8,10,-1,-1,12,14,16,-1,-1,18,20,22,24,26,-1,-1,-1,-1,-1,-1,-1,-1],"split_conditions":[4.1E1,1.45E1,2.19E2,6.336306E-1,2.6829454E-1,1.39E2,4.58E2,1.7756663E-1,1.1565999E-1,5.8837E2,5.06E2,5.48275E2,3.1260174E-2,1.6441552E-2,5.215E2,2.845E2,3.035E2,4.06635E2,7.68E2,1.1248843E-2,7.756961E-2,1.1799886E-1,7.783989E-2,1.3233758E-2,1.7629135E-1,5.994115E-2,3.284655E-2],"split_indices":[1,1,1,0,0,1,1,0,0,0,1,0,0,0,1,1,1,0,1,0,0,0,0,0,0,0,0],"split_type":[0,0,0,0,0,0,0,0,0,0,0,0,0,0,0,0,0,0,0,0,0,0,0,0,0,0,0],"sum_hessian":[1.6E2,5E0,1.55E2,1E0,4E0,2.6E1,1.29E2,1.6E1,1E1,4.9E1,8E1,4.7E1,2E0,1.2E1,6.8E1,2.1E1,2.6E1,4E0,6.4E1,2E0,1.9E1,1.2E1,1.4E1,1E0,3E0,5.2E1,1.2E1],"tree_param":{"num_deleted":"0","num_feature":"2","num_nodes":"27","size_leaf_vector":"0"}},{"base_weights":[8.9611375E-1,4.0634212E0,7.6854986E-1,6.019491E0,2.468309E0,1.4025425E0,6.127363E-1,1.4967847E0,7.761094E-1,8.1942624E-1,5.283612E-1,9.8786354E-2,8.3771604E-1,5.7633054E-1,3.573098E-1,8.5620314E-1,1.13820076E-1,3.934246E-1,6.6135854E-1,4.4806355E-1,1.3113856E-1,5.7789415E-1,9.5208126E-1,6.073469E-1,1.4923888E-1,1.3548441E0,5.653403E-1,3.2150194E-1,8.893299E-1,-1.6274548E-1,3.400181E-1],"categories":[],"categories_nodes":[],"categories_segments":[],"categories_sizes":[],"default_left":[true,true,true,false,false,true,true,false,false,true,true,false,true,true,true,true,false,true,true,true,true,false,false,false,false,false,false,false,false,false,false],"id":30,"left_children":[1,3,5,-1,-1,7,9,-1,-1,11,13,-1,15,17,19,21,-1,23,25,27,29,-1,-1,-1,-1,-1,-1,-1,-1,-1,-1],"loss_changes":[6.1926514E1,3.8629456E0,1.4551018E1,0E0,0E0,6.094246E-1,1.7818604E0,0E0,0E0,3.785591E-1,5.571556E-1,0E0,3.575592E-1,8.440075E-1,4.13337E-1,3.3036232E-1,0E0,1.2152796E0,2.363655E0,6.076369E-1,5.4642725E-1,0E0,0E0,0E0,0E0,0E0,0E0,0E0,0E0,0E0,0E0],"parents":[2147483647,0,0,1,1,2,2,5,5,6,6,9,9,10,10,12,12,13,13,14,14,15,15,17,17,18,18,19,19,20,20],"right_children":[2,4,6,-1,-1,8,10,-1,-1,12,14,-1,16,18,20,22,-1,24,26,28,30,-1,-1,-1,-1,-1,-1,-1,-1,-1,-1],"split_conditions":[4.1E1,1.45E1,2.32E2,6.0194916E-1,2.468309E-1,5.94255E2,3.895E2,1.4967847E-1,7.761094E-2,2.36E2,7.265E2,9.878635E-3,5.8837E2,5.06E2,7.0258496E2,5.4533997E2,1.1382008E-2,4.58E2,5.215E2,7.0045E2,7.1941003E2,5.7789415E-2,9.520813E-2,6.073469E-2,1.4923888E-2,1.3548441E-1,5.653403E-2,3.2150194E-2,8.893299E-2,-1.6274547E-2,3.400181E-2],"split_indices":[1,1,1,0,0,0,1,0,0,1,1,0,0,1,0,0,0,1,1,0,0,0,0,0,0,0,0,0,0,0,0],"split_type":[0,0,0,0,0,0,0,0,0,0,0,0,0,0,0,0,0,0,0,0,0,0,0,0,0,0,0,0,0,0,0],"sum_hessian":[1.6E2,5E0,1.55E2,1E0,4E0,2.9E1,1.26E2,2.4E1,5E0,3.4E1,9.2E1,1E0,3.3E1,7E1,2.2E1,3.2E1,1E0,2.4E1,4.6E1,1.5E1,7E0,1E1,2.2E1,1.2E1,1.2E1,4E0,4.2E1,1.3E1,2E0,3E0,4E0],"tree_param":{"num_deleted":"0","num_feature":"2","num_nodes":"31","size_leaf_vector":"0"}},{"base_weights":[8.167933E-1,3.7985432E0,6.968748E-1,5.7185173E0,2.270845E0,1.2698644E0,5.560357E-1,1.4719102E0,9.338184E-1,7.640877E-1,4.8667246E-1,1.0124428E0,4.841466E-1,3.753322E-1,8.268255E-1,5.4211056E-1,3.553904E-1,5.4617345E-1,1.2008578E0,9.163761E-2,5.844371E-1,-5.1491356E-1,6.563641E-1,9.752985E-1,5.065861E-1,4.8312446E-1,1.1769135E0,-1.03149414E-1,4.4412553E-1,7.411709E-1,-1.1690807E-1,9.3847275E-2,7.7353144E-1,1.614552E0,7.0358217E-1,2.5750008E-1,6.297267E-1,5.42253E-1,-1.6897233E-1,2.5352907E-1,-5.443376E-1,1.1798702E0,3.3807114E-1],"categories":[],"categories_nodes":[],"categories_segments":[],"categories_sizes":[],"default_left":[true,true,true,false,false,true,true,false,true,true,true,true,true,true,true,true,true,true,false,false,false,false,true,true,true,true,false,true,true,false,false,false,false,false,false,false,false,false,false,false,false,false,false],"id":31,"left_children":[1,3,5,-1,-1,7,9,-1,11,13,15,17,19,21,23,25,27,29,-1,-1,-1,-1,31,33,35,37,-1,39,41,-1,-1,-1,-1,-1,-1,-1,-1,-1,-1,-1,-1,-1,-1],"loss_changes":[5.492119E1,4.612976E0,1.1883011E1,0E0,0E0,6.624069E-1,1.4608994E0,0E0,4.80175E-3,4.213543E-1,5.20586E-1,3.1049633E-1,1.03903234E-1,1.8390954E0,6.9460106E-1,1.9401894E0,1.3478465E0,7.3314476E-1,0E0,0E0,0E0,0E0,2.569492E-1,1.6431589E0,1.4457154E-1,2.520751E0,0E0,1.0821794E0,1.7079015E0,0E0,0E0,0E0,0E0,0E0,0E0,0E0,0E0,0E0,0E0,0E0,0E0,0E0,0E0],"parents":[2147483647,0,0,1,1,2,2,5,5,6,6,8,8,9,9,10,10,11,11,12,12,13,13,14,14,15,15,16,16,17,17,22,22,23,23,24,24,25,25,27,27,28,28],"right_children":[2,4,6,-1,-1,8,10,-1,12,14,16,18,20,22,24,26,28,30,-1,-1,-1,-1,32,34,36,38,-1,40,42,-1,-1,-1,-1,-1,-1,-1,-1,-1,-1,-1,-1,-1,-1],"split_conditions":[4.1E1,1.45E1,2.32E2,5.7185173E-1,2.270845E-1,1.39E2,3.68E2,1.4719103E-1,5.9473E2,2.595E2,6.755E2,1.615E2,5.9599E2,5.5783997E2,5.73355E2,6.605E2,7.055E2,1.54E2,1.20085776E-1,9.1637615E-3,5.8443706E-2,-5.1491357E-2,2.36E2,2.985E2,3.04E2,6.365E2,1.1769135E-1,6.94E2,7.145E2,7.411709E-2,-1.16908075E-2,9.384728E-3,7.735314E-2,1.614552E-1,7.035822E-2,2.575001E-2,6.297267E-2,5.4225303E-2,-1.6897233E-2,2.5352908E-2,-5.443376E-2,1.1798703E-1,3.3807114E-2],"split_indices":[1,1,1,0,0,1,1,0,0,1,1,1,0,0,0,1,1,1,0,0,0,0,1,1,1,1,0,1,1,0,0,0,0,0,0,0,0,0,0,0,0,0,0],"split_type":[0,0,0,0,0,0,0,0,0,0,0,0,0,0,0,0,0,0,0,0,0,0,0,0,0,0,0,0,0,0,0,0,0,0,0,0,0,0,0,0,0,0,0],"sum_hessian":[1.6E2,5E0,1.55E2,1E0,4E0,2.9E1,1.26E2,1.6E1,1.3E1,2.9E1,9.7E1,1E1,3E0,5E0,2.4E1,6.6E1,3.1E1,4E0,6E0,1E0,2E0,1E0,4E0,1.5E1,9E0,6.2E1,4E0,5E0,2.6E1,3E0,1E0,1E0,3E0,3E0,1.2E1,4E0,5E0,5.7E1,5E0,3E0,2E0,2E0,2.4E1],"tree_param":{"num_deleted":"0","num_feature":"2","num_nodes":"43","size_leaf_vector":"0"}},{"base_weights":[7.464792E-1,3.5518444E0,6.3379544E-1,5.4325905E0,2.089177E0,1.1923791E0,5.1290655E-1,1.3333784E0,8.660729E-1,7.113811E-1,4.4083953E-1,5.040409E-1,1.0009425E0,7.5504607E-1,3.1584817E-1,2.9574302E-1,4.8647884E-1,6.8558264E-1,-1.11063E-1,1.1415306E0,4.329815E-1,5.103184E-1,8.396576E-1,-6.0364723E-2,4.2499256E-1,5.666735E-1,2.3040226E-2,1.1107852E0,4.1399193E-1,8.705616E-2,5.624161E-1,6.825273E-1,-1.1901156E-1,9.949562E-1,5.392975E-1,2.3902762E-1,9.090891E-1,-4.8815027E-1,3.6127388E-1,1.264425E0,4.8445702E-1,-5.153451E-1,4.3588105E-1],"categories":[],"categories_nodes":[],"categories_segments":[],"categories_sizes":[],"default_left":[true,true,true,false,false,true,true,false,true,true,true,true,true,true,true,true,true,false,false,false,true,true,true,false,false,true,true,true,true,false,false,false,false,false,false,false,false,false,false,false,false,false,false],"id":32,"left_children":[1,3,5,-1,-1,7,9,-1,11,13,15,17,19,21,23,25,27,-1,-1,-1,29,31,33,-1,-1,35,37,39,41,-1,-1,-1,-1,-1,-1,-1,-1,-1,-1,-1,-1,-1,-1],"loss_changes":[4.8644035E1,5.155792E0,9.922558E0,0E0,0E0,8.7436676E-2,1.5458488E0,0E0,3.2582283E-2,3.3146095E-1,5.050945E-1,6.34478E-1,6.467819E-2,1.720047E-1,2.3096219E-1,1.9079149E0,2.843689E0,0E0,0E0,0E0,8.5362256E-2,1.1649909E0,3.9633274E-1,0E0,0E0,1.2411861E0,2.5969815E0,6.1042786E-2,1.5875683E0,0E0,0E0,0E0,0E0,0E0,0E0,0E0,0E0,0E0,0E0,0E0,0E0,0E0,0E0],"parents":[2147483647,0,0,1,1,2,2,5,5,6,6,8,8,9,9,10,10,11,11,12,12,13,13,14,14,15,15,16,16,20,20,21,21,22,22,25,25,26,26,27,27,28,28],"right_children":[2,4,6,-1,-1,8,10,-1,12,14,16,18,20,22,24,26,28,-1,-1,-1,30,32,34,-1,-1,36,38,40,42,-1,-1,-1,-1,-1,-1,-1,-1,-1,-1,-1,-1,-1,-1],"split_conditions":[4.1E1,1.45E1,2.19E2,5.432591E-1,2.0891769E-1,1.39E2,3.68E2,1.3333784E-1,1.615E2,5.837E2,4.3105E2,1.54E2,5.94475E2,5.4733997E2,5.8632E2,3.8966998E2,4.33565E2,6.855827E-2,-1.11063E-2,1.14153065E-1,5.9675E2,5.4451E2,3.035E2,-6.0364725E-3,4.2499255E-2,3.83775E2,6.55E2,6.79E2,4.34625E2,8.705616E-3,5.624161E-2,6.8252735E-2,-1.1901156E-2,9.949562E-2,5.3929754E-2,2.3902763E-2,9.090891E-2,-4.8815027E-2,3.612739E-2,1.264425E-1,4.84457E-2,-5.153451E-2,4.3588106E-2],"split_indices":[1,1,1,0,0,1,1,0,1,0,0,1,0,0,0,0,0,0,0,0,0,0,1,0,0,0,1,1,0,0,0,0,0,0,0,0,0,0,0,0,0,0,0],"split_type":[0,0,0,0,0,0,0,0,0,0,0,0,0,0,0,0,0,0,0,0,0,0,0,0,0,0,0,0,0,0,0,0,0,0,0,0,0,0,0,0,0,0,0],"sum_hessian":[1.6E2,5E0,1.55E2,1E0,4E0,2.6E1,1.29E2,1.6E1,1E1,3.2E1,9.7E1,4E0,6E0,2.8E1,4E0,2.5E1,7.2E1,3E0,1E0,4E0,2E0,9E0,1.9E1,1E0,3E0,1.2E1,1.3E1,6E0,6.6E1,1E0,1E0,7E0,2E0,1.1E1,8E0,7E0,5E0,5E0,8E0,4E0,2E0,1E0,6.5E1],"tree_param":{"num_deleted":"0","num_feature":"2","num_nodes":"43","size_leaf_vector":"0"}},{"base_weights":[6.820015E-1,3.5870292E0,5.851407E-1,7.392998E-1,4.1141367E0,1.119346E0,4.6558002E-1,4.953331E0,7.982769E-1,1.3603388E0,8.8338965E-1,6.4770496E-1,3.995014E-1,3.1414923E-1,9.383451E-1,6.867753E-1,2.915558E-1,4.4909936E-1,2.8317127E-1,4.349289E-1,3.6294937E-2,4.46224E-1,7.571652E-1,-5.7346344E-2,3.931179E-1,3.9552602E-1,1.0343037E0,-1.3357036E-1,3.652927E-1,6.228063E-1,-4.8321724E-1,9.037525E-1,5.055439E-1,4.458782E-1,-1.5713279E-1,2.024746E-1,-5.371068E-1,1.0746409E0,2.655592E-1],"categories":[],"categories_nodes":[],"categories_segments":[],"categories_sizes":[],"default_left":[true,true,true,false,true,true,true,false,false,false,true,true,true,true,false,true,true,true,true,false,false,true,true,false,false,true,false,true,true,false,false,false,false,false,false,false,false,false,false],"id":33,"left_children":[1,3,5,-1,7,9,11,-1,-1,-1,13,15,17,19,-1,21,23,25,27,-1,-1,29,31,-1,-1,33,-1,35,37,-1,-1,-1,-1,-1,-1,-1,-1,-1,-1],"loss_changes":[4.3203773E1,4.463722E0,9.506443E0,0E0,7.176468E0,3.9047623E-1,1.3057327E0,0E0,0E0,0E0,2.3702812E-1,2.5895786E-1,4.38262E-1,8.489174E-2,0E0,1.531744E-1,1.9972005E-1,1.6914463E0,1.1439414E0,0E0,0E0,1.7780566E0,3.1768703E-1,0E0,0E0,1.8231993E0,0E0,9.223889E-1,1.6247554E0,0E0,0E0,0E0,0E0,0E0,0E0,0E0,0E0,0E0,0E0],"parents":[2147483647,0,0,1,1,2,2,4,4,5,5,6,6,10,10,11,11,12,12,13,13,15,15,16,16,17,17,18,18,21,21,22,22,25,25,27,27,28,28],"right_children":[2,4,6,-1,8,10,12,-1,-1,-1,14,16,18,20,-1,22,24,26,28,-1,-1,30,32,-1,-1,34,-1,36,38,-1,-1,-1,-1,-1,-1,-1,-1,-1,-1],"split_conditions":[3.45E1,5.285E2,2.19E2,7.392998E-2,5.3946497E2,1.06E2,3.68E2,4.953331E-1,7.982769E-2,1.3603388E-1,5.4618005E2,5.837E2,6.755E2,5.3929504E2,9.383451E-2,5.4533997E2,5.8632E2,6.605E2,7.055E2,4.349289E-2,3.6294938E-3,5.4451E2,3.035E2,-5.7346346E-3,3.9311793E-2,6.365E2,1.0343037E-1,6.94E2,7.145E2,6.2280633E-2,-4.8321724E-2,9.037525E-2,5.055439E-2,4.458782E-2,-1.571328E-2,2.024746E-2,-5.371068E-2,1.0746409E-1,2.655592E-2],"split_indices":[1,0,1,0,0,1,1,0,0,0,0,0,1,0,0,0,0,1,1,0,0,0,1,0,0,1,0,1,1,0,0,0,0,0,0,0,0,0,0],"split_type":[0,0,0,0,0,0,0,0,0,0,0,0,0,0,0,0,0,0,0,0,0,0,0,0,0,0,0,0,0,0,0,0,0,0,0,0,0,0,0],"sum_hessian":[1.6E2,4E0,1.56E2,1E0,3E0,2.7E1,1.29E2,2E0,1E0,1.1E1,1.6E1,3.2E1,9.7E1,2E0,1.4E1,2.8E1,4E0,6.6E1,3.1E1,1E0,1E0,8E0,2E1,1E0,3E0,6.2E1,4E0,5E0,2.6E1,7E0,1E0,1.1E1,9E0,5.7E1,5E0,3E0,2E0,2E0,2.4E1],"tree_param":{"num_deleted":"0","num_feature":"2","num_nodes":"39","size_leaf_vector":"0"}},{"base_weights":[6.2217027E-1,3.3581443E0,5.3107446E-1,4.913294E0,1.7410336E0,1.0173047E0,4.2226282E-1,1.2803625E0,8.2531077E-1,5.44695E-1,3.4147426E-1,2.9844156E-1,8.6974E-1,5.561723E-1,1.7949295E-1,4.015996E-3,4.0010443E-1,4.1318226E-1,3.4480095E-2,4.4652697E-1,6.2491405E-1,5.4348946E-2,2.1489048E-1,1.1033306E0,3.3985466E-1,-1.0469437E-2,4.9275008E-1,7.8022647E-1,4.876581E-1,-3.3798218E-3,1.3808532E0,4.608647E-2,3.6356723E-1],"categories":[],"categories_nodes":[],"categories_segments":[],"categories_sizes":[],"default_left":[true,true,true,false,false,true,true,false,true,true,true,true,false,true,true,false,true,false,false,true,true,false,false,true,true,false,false,false,false,false,false,false,false],"id":34,"left_children":[1,3,5,-1,-1,7,9,-1,11,13,15,17,-1,19,21,-1,23,-1,-1,25,27,-1,-1,29,31,-1,-1,-1,-1,-1,-1,-1,-1],"loss_changes":[3.8343536E1,4.020035E0,7.876911E0,0E0,0E0,3.574562E-1,1.0998459E0,0E0,1.8519306E-1,1.0974789E-1,1.6009979E0,7.66148E-2,0E0,8.274555E-2,1.6103014E-3,0E0,2.5485039E0,0E0,0E0,4.698825E-1,1.9508934E-1,0E0,0E0,1.5403523E0,4.3603468E-1,0E0,0E0,0E0,0E0,0E0,0E0,0E0,0E0],"parents":[2147483647,0,0,1,1,2,2,5,5,6,6,8,8,9,9,10,10,11,11,13,13,14,14,16,16,19,19,20,20,23,23,24,24],"right_children":[2,4,6,-1,-1,8,10,-1,12,14,16,18,-1,20,22,-1,24,-1,-1,26,28,-1,-1,30,32,-1,-1,-1,-1,-1,-1,-1,-1],"split_conditions":[3.45E1,1.45E1,2.19E2,4.913294E-1,1.7410336E-1,9E1,4.58E2,1.2803625E-1,5.4618005E2,5.8837E2,5.06E2,5.3929504E2,8.6974E-2,5.48275E2,5.92765E2,4.0159962E-4,5.215E2,4.1318227E-2,3.4480095E-3,2.845E2,5.7098E2,5.4348945E-3,2.1489048E-2,4.06635E2,5.405E2,-1.0469437E-3,4.9275007E-2,7.802265E-2,4.8765812E-2,-3.3798217E-4,1.3808532E-1,4.6086474E-3,3.6356725E-2],"split_indices":[1,1,1,0,0,1,1,0,0,0,1,0,0,0,0,0,1,0,0,1,0,0,0,0,1,0,0,0,0,0,0,0,0],"split_type":[0,0,0,0,0,0,0,0,0,0,0,0,0,0,0,0,0,0,0,0,0,0,0,0,0,0,0,0,0,0,0,0,0],"sum_hessian":[1.6E2,4E0,1.56E2,1E0,3E0,2.7E1,1.29E2,9E0,1.8E1,4.9E1,8E1,2E0,1.6E1,4.7E1,2E0,1.2E1,6.8E1,1E0,1E0,2.1E1,2.6E1,1E0,1E0,4E0,6.4E1,2E0,1.9E1,1E1,1.6E1,1E0,3E0,5E0,5.9E1],"tree_param":{"num_deleted":"0","num_feature":"2","num_nodes":"33","size_leaf_vector":"0"}},{"base_weights":[5.680668E-1,3.155417E0,4.820488E-1,4.6676292E0,1.6104565E0,9.0044725E-1,3.761244E-1,1.0900338E0,6.8019754E-1,1.9931434E-1,4.1750616E-1,4.554097E-1,-5.2725248E-2,9.2389095E-1,3.7623325E-1,1.6563272E-1,7.658774E-1,-4.948249E-1,2.4786621E-1,1.0460548E0,4.1232076E-1,5.5802665E-3,4.2413446E-1,-4.123068E-2,2.979969E-1,1.9903183E-2,-6.0175115E-1,-1.9657421E-1,3.2799304E-1,2.641288E-1,-5.77549E-1,1.4021306E0,3.7125495E-1],"categories":[],"categories_nodes":[],"categories_segments":[],"categories_sizes":[],"default_left":[true,true,true,false,false,true,true,false,false,true,true,true,true,true,true,true,false,true,true,false,false,true,true,false,false,false,false,false,false,false,false,false,false],"id":35,"left_children":[1,3,5,-1,-1,7,9,-1,-1,11,13,15,17,19,21,23,-1,25,27,-1,-1,29,31,-1,-1,-1,-1,-1,-1,-1,-1,-1,-1],"loss_changes":[3.4310856E1,4.164524E0,6.619343E0,0E0,0E0,5.5300903E-1,8.460064E-1,0E0,0E0,1.702212E0,1.7841988E0,1.0427086E0,1.9831296E0,6.157875E-3,1.7020874E0,2.3133704E-1,0E0,3.4220445E-1,3.8497943E-1,0E0,0E0,1.9617537E0,3.875309E0,0E0,0E0,0E0,0E0,0E0,0E0,0E0,0E0,0E0,0E0],"parents":[2147483647,0,0,1,1,2,2,5,5,6,6,9,9,10,10,11,11,12,12,13,13,14,14,15,15,17,17,18,18,21,21,22,22],"right_children":[2,4,6,-1,-1,8,10,-1,-1,12,14,16,18,20,22,24,-1,26,28,-1,-1,30,32,-1,-1,-1,-1,-1,-1,-1,-1,-1,-1],"split_conditions":[3.45E1,1.45E1,2.32E2,4.6676293E-1,1.6104566E-1,1.2E2,4.3105E2,1.0900338E-1,6.8019755E-2,3.8966998E2,4.33565E2,3.83775E2,6.55E2,6.79E2,4.5208002E2,5.825E2,7.6587744E-2,4.14405E2,4.055E2,1.0460549E-1,4.1232076E-2,4.48865E2,4.79435E2,-4.123068E-3,2.979969E-2,1.9903183E-3,-6.0175117E-2,-1.9657422E-2,3.2799304E-2,2.641288E-2,-5.77549E-2,1.4021306E-1,3.7125494E-2],"split_indices":[1,1,1,0,0,1,0,0,0,0,0,0,1,1,0,1,0,0,0,0,0,0,0,0,0,0,0,0,0,0,0,0,0],"split_type":[0,0,0,0,0,0,0,0,0,0,0,0,0,0,0,0,0,0,0,0,0,0,0,0,0,0,0,0,0,0,0,0,0],"sum_hessian":[1.6E2,4E0,1.56E2,1E0,3E0,3E1,1.26E2,1.4E1,1.6E1,2.5E1,1.01E2,1.2E1,1.3E1,6E0,9.5E1,7E0,5E0,5E0,8E0,4E0,2E0,1.1E1,8.4E1,3E0,4E0,1E0,4E0,1E0,7E0,8E0,3E0,3E0,8.1E1],"tree_param":{"num_deleted":"0","num_feature":"2","num_nodes":"33","size_leaf_vector":"0"}},{"base_weights":[5.1842713E-1,4.434248E0,4.662392E-1,1.1010396E0,3.6768886E-1,1.4617043E0,8.163E-1,5.318235E-1,2.9191864E-1,3.3410305E-1,5.6747097E-1,3.2719722E-1,1.6265388E-1,4.9513984E-1,-4.770956E-1,7.950403E-1,4.581185E-1,1.9560035E-1,4.0423357E-1,2.513215E-1,-3.501308E-2,1.0576712E0,3.2087517E-1,8.134079E-2,5.037269E-1,3.4752306E-1,-2.9800342E-2,2.6679826E-1,7.431568E-1,1.3470615E-1,7.117526E-1,-2.836144E-1,1.7087059E-1],"categories":[],"categories_nodes":[],"categories_segments":[],"categories_sizes":[],"default_left":[true,false,true,true,true,false,false,true,true,true,true,true,true,false,false,true,true,true,true,true,true,false,false,false,false,false,false,false,false,false,false,false,false],"id":36,"left_children":[1,-1,3,5,7,-1,-1,9,11,13,15,17,19,-1,-1,21,23,25,27,29,31,-1,-1,-1,-1,-1,-1,-1,-1,-1,-1,-1,-1],"loss_changes":[3.0834312E1,0E0,9.604729E0,9.6341705E-1,1.5858631E0,0E0,0E0,1.13479614E-1,3.9368725E-1,1.4119244E0,5.067625E-1,6.914005E-1,4.1191262E-1,0E0,0E0,9.0592384E-1,4.0581608E-1,1.0376606E0,1.9909883E0,7.632158E-1,4.57925E-1,0E0,0E0,0E0,0E0,0E0,0E0,0E0,0E0,0E0,0E0,0E0,0E0],"parents":[2147483647,0,0,2,2,3,3,4,4,7,7,8,8,9,9,10,10,11,11,12,12,15,15,16,16,17,17,18,18,19,19,20,20],"right_children":[2,-1,4,6,8,-1,-1,10,12,14,16,18,20,-1,-1,22,24,26,28,30,32,-1,-1,-1,-1,-1,-1,-1,-1,-1,-1,-1,-1],"split_conditions":[1.45E1,4.434248E-1,1.39E2,6E1,3.68E2,1.4617042E-1,8.163E-2,5.4533997E2,7.265E2,5.4451E2,5.7098E2,5.06E2,7.0258496E2,4.9513984E-2,-4.7709562E-2,3E2,1.615E2,4.58E2,4.5347998E2,7.0045E2,7.1941003E2,1.0576712E-1,3.2087516E-2,8.134079E-3,5.037269E-2,3.4752306E-2,-2.9800343E-3,2.6679827E-2,7.431568E-2,1.3470615E-2,7.117526E-2,-2.836144E-2,1.708706E-2],"split_indices":[1,0,1,1,1,0,0,0,1,0,0,1,0,0,0,1,1,1,0,0,0,0,0,0,0,0,0,0,0,0,0,0,0],"split_type":[0,0,0,0,0,0,0,0,0,0,0,0,0,0,0,0,0,0,0,0,0,0,0,0,0,0,0,0,0,0,0,0,0],"sum_hessian":[1.6E2,1E0,1.59E2,2E1,1.39E2,7E0,1.3E1,4.2E1,9.7E1,8E0,3.4E1,7.5E1,2.2E1,7E0,1E0,9E0,2.5E1,2.9E1,4.6E1,1.5E1,7E0,5E0,4E0,3E0,2.2E1,1.7E1,1.2E1,3.4E1,1.2E1,1.3E1,2E0,3E0,4E0],"tree_param":{"num_deleted":"0","num_feature":"2","num_nodes":"33","size_leaf_vector":"0"}},{"base_weights":[4.7326455E-1,4.212536E0,4.2356578E-1,1.0017825E0,3.3380777E-1,1.3338041E0,7.4050003E-1,4.8324946E-1,2.6483023E-1,3.008927E-1,5.1633406E-1,2.994416E-1,1.2366267E-1,4.518144E-1,-4.532404E-1,7.2932225E-1,4.145565E-1,1.5847E-1,3.6294767E-1,-4.3771648E-1,1.7361745E-1,9.6953267E-1,2.952053E-1,7.523966E-2,4.5554394E-1,3.9412367E-1,-7.167053E-2,1.770997E-1,5.801348E-1,4.5256737E-1,2.1741254E-2],"categories":[],"categories_nodes":[],"categories_segments":[],"categories_sizes":[],"default_left":[true,false,true,true,true,false,false,true,true,true,true,true,true,false,false,true,true,true,true,false,true,false,false,false,false,false,false,false,false,false,false],"id":37,"left_children":[1,-1,3,5,7,-1,-1,9,11,13,15,17,19,-1,-1,21,23,25,27,-1,29,-1,-1,-1,-1,-1,-1,-1,-1,-1,-1],"loss_changes":[2.8135517E1,0E0,7.969528E0,8.340969E-1,1.3151579E0,0E0,0E0,1.0406685E-1,4.4179916E-1,1.229116E0,4.5636368E-1,6.4078236E-1,6.649103E-1,0E0,0E0,7.5658274E-1,3.2732582E-1,1.438317E0,2.0365386E0,0E0,8.374777E-1,0E0,0E0,0E0,0E0,0E0,0E0,0E0,0E0,0E0,0E0],"parents":[2147483647,0,0,2,2,3,3,4,4,7,7,8,8,9,9,10,10,11,11,12,12,15,15,16,16,17,17,18,18,20,20],"right_children":[2,-1,4,6,8,-1,-1,10,12,14,16,18,20,-1,-1,22,24,26,28,-1,30,-1,-1,-1,-1,-1,-1,-1,-1,-1,-1],"split_conditions":[1.45E1,4.212536E-1,1.39E2,6E1,3.68E2,1.3338041E-1,7.405E-2,5.4533997E2,6.88405E2,5.4451E2,5.7098E2,4.3105E2,6.9475E2,4.5181442E-2,-4.532404E-2,3E2,1.615E2,3.8966998E2,5.06E2,-4.377165E-2,7.145E2,9.6953265E-2,2.952053E-2,7.523966E-3,4.5554396E-2,3.9412368E-2,-7.1670534E-3,1.770997E-2,5.801348E-2,4.5256738E-2,2.1741255E-3],"split_indices":[1,0,1,1,1,0,0,0,0,0,0,0,0,0,0,1,1,0,1,0,1,0,0,0,0,0,0,0,0,0,0],"split_type":[0,0,0,0,0,0,0,0,0,0,0,0,0,0,0,0,0,0,0,0,0,0,0,0,0,0,0,0,0,0,0],"sum_hessian":[1.6E2,1E0,1.59E2,2E1,1.39E2,7E0,1.3E1,4.2E1,9.7E1,8E0,3.4E1,7.7E1,2E1,7E0,1E0,9E0,2.5E1,2.5E1,5.2E1,1E0,1.9E1,5E0,4E0,3E0,2.2E1,1.2E1,1.3E1,2.9E1,2.3E1,6E0,1.3E1],"tree_param":{"num_deleted":"0","num_feature":"2","num_nodes":"31","size_leaf_vector":"0"}},{"base_weights":[4.3165046E-1,4.0019093E0,3.843244E-1,9.114812E-1,3.025057E-1,1.2559798E0,6.899498E-1,4.3909657E-1,2.3948617E-1,2.7078778E-1,4.6983036E-1,2.574026E-1,5.7510138E-3,4.122808E-1,-4.3057823E-1,6.69038E-1,3.7514165E-1,2.3450436E-1,1.1591225E0,-1.4559443E-1,3.065249E-1,8.8873893E-1,2.7158928E-1,6.959629E-2,4.1196948E-1,2.615358E-1,-1.8752496E-1,-3.425231E-1,1.6550858E-1],"categories":[],"categories_nodes":[],"categories_segments":[],"categories_sizes":[],"default_left":[true,false,true,true,true,false,false,true,true,true,true,true,true,false,false,true,true,true,false,true,false,false,false,false,false,false,false,false,false],"id":38,"left_children":[1,-1,3,5,7,-1,-1,9,11,13,15,17,19,-1,-1,21,23,25,-1,27,-1,-1,-1,-1,-1,-1,-1,-1,-1],"loss_changes":[2.5665535E1,0E0,6.6252766E0,7.3609924E-1,1.099947E0,0E0,0E0,9.520531E-2,4.0891457E-1,1.0706648E0,4.0921164E-1,1.6071305E0,4.0879443E-1,0E0,0E0,6.318264E-1,2.6389527E-1,1.0757699E0,0E0,4.242811E-1,0E0,0E0,0E0,0E0,0E0,0E0,0E0,0E0,0E0],"parents":[2147483647,0,0,2,2,3,3,4,4,7,7,8,8,9,9,10,10,11,11,12,12,15,15,16,16,17,17,19,19],"right_children":[2,-1,4,6,8,-1,-1,10,12,14,16,18,20,-1,-1,22,24,26,-1,28,-1,-1,-1,-1,-1,-1,-1,-1,-1],"split_conditions":[1.45E1,4.0019092E-1,1.39E2,5.35E1,3.68E2,1.2559798E-1,6.8994984E-2,5.4533997E2,7.1685E2,5.4451E2,5.7098E2,7.16485E2,7.755E2,4.1228082E-2,-4.3057825E-2,3E2,1.615E2,7.0258496E2,1.1591225E-1,7.499E2,3.0652491E-2,8.887389E-2,2.7158929E-2,6.9596292E-3,4.119695E-2,2.615358E-2,-1.8752497E-2,-3.4252312E-2,1.655086E-2],"split_indices":[1,0,1,1,1,0,0,0,0,0,0,0,1,0,0,1,1,0,0,0,0,0,0,0,0,0,0,0,0],"split_type":[0,0,0,0,0,0,0,0,0,0,0,0,0,0,0,0,0,0,0,0,0,0,0,0,0,0,0,0,0],"sum_hessian":[1.6E2,1E0,1.59E2,2E1,1.39E2,6E0,1.4E1,4.2E1,9.7E1,8E0,3.4E1,9E1,7E0,7E0,1E0,9E0,2.5E1,8.9E1,1E0,5E0,2E0,5E0,4E0,3E0,2.2E1,8.4E1,5E0,3E0,2E0],"tree_param":{"num_deleted":"0","num_feature":"2","num_nodes":"29","size_leaf_vector":"0"}},{"base_weights":[3.9403448E-1,3.8018131E0,3.4897453E-1,7.660905E-1,2.6232448E-1,1.0616668E0,5.5932087E-1,3.2221448E-1,1.7044222E-1,8.387661E-2,5.8235425E-1,2.727244E-1,5.563001E-1,-3.786707E-1,1.9830818E-1,3.4836102E-1,-1.7749088E-2,1.4834666E0,3.55414E-1,2.5483668E-1,7.423406E-2,-4.306793E-3,3.6200798E-1,2.0392163E-1,-6.753855E-2,1.313182E-1,7.7077603E-1,1.9411056E-1,5.261156E-1,-8.412918E-2,3.3510903E-1],"categories":[],"categories_nodes":[],"categories_segments":[],"categories_sizes":[],"default_left":[true,false,true,true,true,false,true,true,true,false,false,true,true,false,true,true,true,false,true,true,true,false,false,false,false,false,false,false,false,false,false],"id":39,"left_children":[1,-1,3,5,7,-1,9,11,13,-1,-1,15,17,-1,19,21,23,-1,25,27,29,-1,-1,-1,-1,-1,-1,-1,-1,-1,-1],"loss_changes":[2.3395512E1,0E0,5.581934E0,1.0563259E0,6.824608E-1,0E0,1.4827347E-1,7.7507687E-1,9.166794E-1,0E0,0E0,1.5001726E0,1.8940692E0,0E0,3.528099E-1,2.6145267E-1,1.7932558E-1,0E0,1.0157537E0,4.9092913E-1,7.718265E-1,0E0,0E0,0E0,0E0,0E0,0E0,0E0,0E0,0E0,0E0],"parents":[2147483647,0,0,2,2,3,3,4,4,6,6,7,7,8,8,11,11,12,12,14,14,15,15,16,16,18,18,19,19,20,20],"right_children":[2,-1,4,6,8,-1,10,12,14,-1,-1,16,18,-1,20,22,24,-1,26,28,30,-1,-1,-1,-1,-1,-1,-1,-1,-1,-1],"split_conditions":[1.45E1,3.801813E-1,1.76E2,6.9E1,5.675E2,1.0616668E-1,5.2975E2,5.15E2,5.81E2,8.387662E-3,5.8235426E-2,4.58E2,5.19E2,-3.786707E-2,6.88405E2,1.9E2,4.4007E2,1.4834666E-1,5.485E2,4.5208002E2,7.16485E2,-4.3067933E-4,3.62008E-2,2.0392163E-2,-6.7538554E-3,1.313182E-2,7.7077605E-2,1.9411055E-2,5.261156E-2,-8.412918E-3,3.3510905E-2],"split_indices":[1,0,1,1,1,0,0,1,1,0,0,1,1,0,0,1,0,0,1,0,0,0,0,0,0,0,0,0,0,0,0],"split_type":[0,0,0,0,0,0,0,0,0,0,0,0,0,0,0,0,0,0,0,0,0,0,0,0,0,0,0,0,0,0,0],"sum_hessian":[1.6E2,1E0,1.59E2,2.6E1,1.33E2,9E0,1.7E1,7.9E1,5.4E1,1E0,1.6E1,6.7E1,1.2E1,2E0,5.2E1,5.3E1,1.4E1,1E0,1.1E1,3.5E1,1.7E1,2E0,5.1E1,2E0,1.2E1,8E0,3E0,3E1,5E0,1.1E1,6E0],"tree_param":{"num_deleted":"0","num_feature":"2","num_nodes":"31","size_leaf_vector":"0"}},{"base_weights":[3.602222E-1,3.611723E0,3.1732702E-1,8.9582646E-1,2.643688E-1,4.3566856E-1,1.0519335E0,3.992901E-1,2.0154597E-1,5.047445E-1,7.968235E-2,1.3545947E0,6.748371E-1,1.5220918E-1,4.4730166E-1,2.1836086E-1,-2.5425911E-2,3.6436924E-1,-3.935674E-1,6.3694656E-1,3.2320845E-1,1.978297E-1,1.0844107E0,-1.6577594E-1,2.6374945E-1,7.353798E-1,2.0701838E-1,4.0845156E-1,1.5449867E-1,2.6028988E-1,3.08822E-2,-3.3687258E-1,1.17611565E-1],"categories":[],"categories_nodes":[],"categories_segments":[],"categories_sizes":[],"default_left":[true,false,true,true,true,true,true,true,true,false,false,false,false,true,true,true,true,false,false,true,true,true,false,true,false,false,false,false,false,false,false,false,false],"id":40,"left_children":[1,-1,3,5,7,9,11,13,15,-1,-1,-1,-1,17,19,21,23,-1,-1,25,27,29,-1,31,-1,-1,-1,-1,-1,-1,-1,-1,-1],"loss_changes":[2.1309153E1,0E0,4.664982E0,4.7554588E-1,1.1739931E0,8.273119E-2,1.1306095E-1,4.77602E-1,3.9865208E-1,0E0,0E0,0E0,0E0,1.1855319E0,6.8841124E-1,1.4924483E0,3.6840945E-1,0E0,0E0,4.4023228E-1,2.9642844E-1,9.8258066E-1,0E0,3.3054E-1,0E0,0E0,0E0,0E0,0E0,0E0,0E0,0E0,0E0],"parents":[2147483647,0,0,2,2,3,3,4,4,5,5,6,6,7,7,8,8,13,13,14,14,15,15,16,16,19,19,20,20,21,21,23,23],"right_children":[2,-1,4,6,8,10,12,14,16,-1,-1,-1,-1,18,20,22,24,-1,-1,26,28,30,-1,32,-1,-1,-1,-1,-1,-1,-1,-1,-1],"split_conditions":[1.45E1,3.611723E-1,9E1,5.34935E2,3.48E2,7.55E1,5.3843E2,5.4533997E2,7.1685E2,5.0474454E-2,7.968235E-3,1.3545947E-1,6.7483716E-2,5.3958E2,5.7245E2,7.16485E2,7.755E2,3.6436927E-2,-3.9356742E-2,3E2,2.565E2,6.755E2,1.0844107E-1,7.499E2,2.6374945E-2,7.353798E-2,2.0701839E-2,4.0845156E-2,1.5449867E-2,2.6028989E-2,3.08822E-3,-3.368726E-2,1.1761157E-2],"split_indices":[1,0,1,0,1,1,0,0,0,0,0,0,0,0,0,0,1,0,0,1,1,1,0,0,0,0,0,0,0,0,0,0,0],"split_type":[0,0,0,0,0,0,0,0,0,0,0,0,0,0,0,0,0,0,0,0,0,0,0,0,0,0,0,0,0,0,0,0,0],"sum_hessian":[1.6E2,1E0,1.59E2,1.2E1,1.47E2,4E0,8E0,4.5E1,1.02E2,3E0,1E0,3E0,5E0,8E0,3.7E1,9.5E1,7E0,6E0,2E0,1.3E1,2.4E1,9.4E1,1E0,5E0,2E0,1E1,3E0,1.5E1,9E0,6.8E1,2.6E1,3E0,2E0],"tree_param":{"num_deleted":"0","num_feature":"2","num_nodes":"33","size_leaf_vector":"0"}},{"base_weights":[3.2986584E-1,3.431137E0,2.890383E-1,8.2635057E-1,2.3988898E-1,3.3843184E-1,9.38883E-1,3.6257005E-1,1.8277036E-1,4.007772E-1,7.56979E-2,1.3666429E-1,4.0653273E-1,1.9795793E-1,-2.2326946E-2,3.3313832E-1,-3.6732993E-1,6.227197E-1,3.0708313E-1,1.7835349E-1,1.03019E0,-1.5285237E-1,2.4616623E-1,7.6049376E-1,1.914916E-1,-5.953121E-2,3.228663E-1,2.3463841E-1,2.7908573E-2,-3.1160688E-1,1.09771095E-1],"categories":[],"categories_nodes":[],"categories_segments":[],"categories_sizes":[],"default_left":[true,false,true,true,true,true,false,true,true,false,false,true,true,true,true,false,false,true,true,true,false,true,false,false,false,false,false,false,false,false,false],"id":41,"left_children":[1,-1,3,5,7,9,-1,11,13,-1,-1,15,17,19,21,-1,-1,23,25,27,-1,29,-1,-1,-1,-1,-1,-1,-1,-1,-1],"loss_changes":[1.9393658E1,0E0,4.027132E0,3.9603806E-1,9.708252E-1,3.5182953E-2,0E0,4.0128708E-1,3.2525802E-1,0E0,0E0,1.0135677E0,6.25762E-1,1.3825448E0,3.179886E-1,0E0,0E0,5.0790405E-1,1.8123794E-1,7.9789066E-1,0E0,2.843614E-1,0E0,0E0,0E0,0E0,0E0,0E0,0E0,0E0,0E0],"parents":[2147483647,0,0,2,2,3,3,4,4,5,5,7,7,8,8,11,11,12,12,13,13,14,14,17,17,18,18,19,19,21,21],"right_children":[2,-1,4,6,8,10,-1,12,14,-1,-1,16,18,20,22,-1,-1,24,26,28,-1,30,-1,-1,-1,-1,-1,-1,-1,-1,-1],"split_conditions":[1.45E1,3.4311372E-1,9E1,5.3125E2,3.48E2,7.2E1,9.3888305E-2,5.4533997E2,7.1685E2,4.007772E-2,7.56979E-3,5.3958E2,5.70105E2,7.16485E2,7.755E2,3.3313833E-2,-3.6732994E-2,2.92E2,5.7082E2,6.755E2,1.03019E-1,7.499E2,2.4616623E-2,7.604938E-2,1.914916E-2,-5.9531215E-3,3.228663E-2,2.3463842E-2,2.7908573E-3,-3.1160688E-2,1.097711E-2],"split_indices":[1,0,1,0,1,1,0,0,0,0,0,0,0,0,1,0,0,1,0,1,0,0,0,0,0,0,0,0,0,0,0],"split_type":[0,0,0,0,0,0,0,0,0,0,0,0,0,0,0,0,0,0,0,0,0,0,0,0,0,0,0,0,0,0,0],"sum_hessian":[1.6E2,1E0,1.59E2,1.2E1,1.47E2,3E0,9E0,4.5E1,1.02E2,2E0,1E0,8E0,3.7E1,9.5E1,7E0,6E0,2E0,1E1,2.7E1,9.4E1,1E0,5E0,2E0,7E0,3E0,1E0,2.6E1,6.8E1,2.6E1,3E0,2E0],"tree_param":{"num_deleted":"0","num_feature":"2","num_nodes":"31","size_leaf_vector":"0"}},{"base_weights":[3.014537E-1,3.2595806E0,2.6259303E-1,7.5460345E-1,2.1760161E-1,3.6746675E-1,8.858346E-1,3.2888117E-1,1.657913E-1,4.2337704E-1,7.1912766E-2,1.2833887E0,5.889064E-1,1.22618146E-1,3.690782E-1,6.9296725E-2,1.9583064E-1,3.045837E-1,-3.4284082E-1,5.691017E-1,2.7731615E-1,2.7864903E-1,-1.3005161E-1,7.0513004E-1,1.4359555E-1,6.939502E-1,1.7712927E-1,3.450341E-1,1.5827274E-1,2.6197791E-2,5.688092E-1,-5.399227E-1,1.5764597E-1,8.0809534E-1,2.984778E-1,-6.3313246E-1,1.6345274E-1],"categories":[],"categories_nodes":[],"categories_segments":[],"categories_sizes":[],"default_left":[true,false,true,true,true,true,true,true,true,false,false,false,false,true,true,true,true,false,false,true,true,true,true,true,true,false,false,false,false,false,false,false,false,false,false,false,false],"id":42,"left_children":[1,-1,3,5,7,9,11,13,15,-1,-1,-1,-1,17,19,21,23,-1,-1,25,27,29,31,33,35,-1,-1,-1,-1,-1,-1,-1,-1,-1,-1,-1,-1],"loss_changes":[1.765178E1,0E0,3.377596E0,3.3494234E-1,7.9875803E-1,5.2176297E-2,3.0660915E-1,3.3613777E-1,2.8498864E-1,0E0,0E0,0E0,0E0,8.667012E-1,5.3965235E-1,1.1213237E0,1.9738038E0,0E0,0E0,4.1538978E-1,1.7110896E-1,9.373652E-1,1.7359816E0,5.1898956E-2,1.2139889E0,0E0,0E0,0E0,0E0,0E0,0E0,0E0,0E0,0E0,0E0,0E0,0E0],"parents":[2147483647,0,0,2,2,3,3,4,4,5,5,6,6,7,7,8,8,13,13,14,14,15,15,16,16,19,19,20,20,21,21,22,22,23,23,24,24],"right_children":[2,-1,4,6,8,10,12,14,16,-1,-1,-1,-1,18,20,22,24,-1,-1,26,28,30,32,34,36,-1,-1,-1,-1,-1,-1,-1,-1,-1,-1,-1,-1],"split_conditions":[1.45E1,3.2595807E-1,9E1,5.34935E2,3.48E2,7.55E1,5.37345E2,5.4533997E2,4.3105E2,4.2337704E-2,7.1912766E-3,1.2833887E-1,5.889064E-2,5.3958E2,5.70105E2,3.8966998E2,4.33565E2,3.045837E-2,-3.428408E-2,2.92E2,2.46E2,3.83775E2,6.55E2,6.79E2,4.34625E2,6.939502E-2,1.7712926E-2,3.450341E-2,1.5827274E-2,2.6197792E-3,5.688092E-2,-5.399227E-2,1.5764598E-2,8.080953E-2,2.984778E-2,-6.3313246E-2,1.6345276E-2],"split_indices":[1,0,1,0,1,1,0,0,0,0,0,0,0,0,0,0,0,0,0,1,1,0,1,1,0,0,0,0,0,0,0,0,0,0,0,0,0],"split_type":[0,0,0,0,0,0,0,0,0,0,0,0,0,0,0,0,0,0,0,0,0,0,0,0,0,0,0,0,0,0,0,0,0,0,0,0,0],"sum_hessian":[1.6E2,1E0,1.59E2,1.2E1,1.47E2,4E0,8E0,4.5E1,1.02E2,3E0,1E0,2E0,6E0,8E0,3.7E1,2.5E1,7.7E1,6E0,2E0,1E1,2.7E1,1.2E1,1.3E1,6E0,7.1E1,7E0,3E0,1.6E1,1.1E1,7E0,5E0,5E0,8E0,4E0,2E0,1E0,7E1],"tree_param":{"num_deleted":"0","num_feature":"2","num_nodes":"37","size_leaf_vector":"0"}},{"base_weights":[2.7616107E-1,3.0966015E0,2.3917955E-1,6.9735485E-1,1.9731836E-1,3.40625E-1,8.180542E-1,2.9133996E-1,1.463753E-1,3.9162254E-1,6.831741E-2,1.1978302E0,5.384282E-1,1.3613424E-1,3.2587466E-1,5.3243194E-2,1.8474613E-1,3.7745285E-1,1.4192924E0,2.2414017E-1,-3.7196255E-1,4.774324E-1,2.3845741E-1,1.769058E-1,-1.2207758E-1,7.408379E-1,1.391276E-1,-1.0801411E-1,2.7304778E-1,5.8180845E-1,1.7319374E-1,3.125598E-1,1.1360756E-1,2.378602E-1,1.3763742E0,-9.202989E-2,1.5992455E-1],"categories":[],"categories_nodes":[],"categories_segments":[],"categories_sizes":[],"default_left":[true,false,true,true,true,true,true,true,true,false,false,true,false,true,true,true,true,false,false,true,false,true,true,false,false,true,true,false,false,false,false,false,false,false,false,false,false],"id":43,"left_children":[1,-1,3,5,7,9,11,13,15,-1,-1,17,-1,19,21,23,25,-1,-1,27,-1,29,31,-1,-1,33,35,-1,-1,-1,-1,-1,-1,-1,-1,-1,-1],"loss_changes":[1.6052322E1,0E0,2.9311619E0,2.810917E-1,6.6623783E-1,4.2680502E-2,3.10812E-1,2.2899628E-1,3.403721E-1,0E0,0E0,9.331703E-3,0E0,5.752426E-1,4.293518E-1,6.7201495E-1,1.6473274E0,0E0,0E0,1.9194168E-1,0E0,3.438077E-1,2.2353768E-1,0E0,0E0,1.2709184E0,3.2719696E-1,0E0,0E0,0E0,0E0,0E0,0E0,0E0,0E0,0E0,0E0],"parents":[2147483647,0,0,2,2,3,3,4,4,5,5,6,6,7,7,8,8,11,11,13,13,14,14,15,15,16,16,19,19,21,21,22,22,25,25,26,26],"right_children":[2,-1,4,6,8,10,12,14,16,-1,-1,18,-1,20,22,24,26,-1,-1,28,-1,30,32,-1,-1,34,36,-1,-1,-1,-1,-1,-1,-1,-1,-1,-1],"split_conditions":[1.45E1,3.0966017E-1,9E1,5.34935E2,3.68E2,7.55E1,5.37345E2,5.4533997E2,5.06E2,3.9162256E-2,6.8317414E-3,5.3603E2,5.384282E-2,5.4451E2,5.7098E2,4.58E2,5.215E2,3.7745286E-2,1.4192925E-1,1.225E2,-3.7196256E-2,3E2,2.565E2,1.769058E-2,-1.2207758E-2,4.4531E2,5.405E2,-1.0801411E-2,2.7304778E-2,5.8180846E-2,1.7319374E-2,3.1255983E-2,1.1360756E-2,2.3786021E-2,1.3763742E-1,-9.20299E-3,1.5992455E-2],"split_indices":[1,0,1,0,1,1,0,0,1,0,0,0,0,0,0,1,1,0,0,1,0,1,1,0,0,0,1,0,0,0,0,0,0,0,0,0,0],"split_type":[0,0,0,0,0,0,0,0,0,0,0,0,0,0,0,0,0,0,0,0,0,0,0,0,0,0,0,0,0,0,0,0,0,0,0,0,0],"sum_hessian":[1.6E2,1E0,1.59E2,1.2E1,1.47E2,4E0,8E0,5E1,9.7E1,3E0,1E0,2E0,6E0,1E1,4E1,2.9E1,6.8E1,1E0,1E0,9E0,1E0,1.3E1,2.7E1,1.7E1,1.2E1,4E0,6.4E1,1E0,8E0,9E0,4E0,1.6E1,1.1E1,3E0,1E0,5E0,5.9E1],"tree_param":{"num_deleted":"0","num_feature":"2","num_nodes":"37","size_leaf_vector":"0"}},{"base_weights":[2.5388846E-1,2.9417706E0,2.1870312E-1,6.491196E-1,1.7941853E-1,3.1576157E-1,7.621941E-1,2.641162E-1,1.3351038E-1,3.6225128E-1,6.490135E-2,1.1379381E0,4.9227604E-1,1.2063911E-1,2.961682E-1,4.810168E-2,1.6870967E-1,3.5857964E-1,1.3483276E0,2.0337582E-1,-3.53364E-1,4.5460477E-1,2.2292131E-1,1.6019794E-1,-1.1080866E-1,6.990391E-1,1.2531956E-1,-1.0261345E-1,2.4877612E-1,5.8232045E-1,1.5933876E-1,1.6711724E-1,3.5549283E-1,2.2002101E-1,1.3075557E0,2.7800217E-1,8.906935E-2],"categories":[],"categories_nodes":[],"categories_segments":[],"categories_sizes":[],"default_left":[true,false,true,true,true,true,true,true,true,false,false,true,false,true,true,true,true,false,false,true,false,true,true,false,false,true,true,false,false,false,false,false,false,false,false,false,false],"id":44,"left_children":[1,-1,3,5,7,9,11,13,15,-1,-1,17,-1,19,21,23,25,-1,-1,27,-1,29,31,-1,-1,33,35,-1,-1,-1,-1,-1,-1,-1,-1,-1,-1],"loss_changes":[1.458304E1,0E0,2.588933E0,2.4935484E-1,5.4020834E-1,3.4801453E-2,3.5260105E-1,1.9880557E-1,2.8650463E-1,0E0,0E0,8.423805E-3,0E0,5.032577E-1,3.7446356E-1,5.5214906E-1,1.500159E0,0E0,0E0,1.6444781E-1,0E0,3.59735E-1,1.6253185E-1,0E0,0E0,1.1697626E0,3.3499897E-1,0E0,0E0,0E0,0E0,0E0,0E0,0E0,0E0,0E0,0E0],"parents":[2147483647,0,0,2,2,3,3,4,4,5,5,6,6,7,7,8,8,11,11,13,13,14,14,15,15,16,16,19,19,21,21,22,22,25,25,26,26],"right_children":[2,-1,4,6,8,10,12,14,16,-1,-1,18,-1,20,22,24,26,-1,-1,28,-1,30,32,-1,-1,34,36,-1,-1,-1,-1,-1,-1,-1,-1,-1,-1],"split_conditions":[1.45E1,2.9417706E-1,9E1,5.34935E2,3.68E2,7.55E1,5.37345E2,5.4533997E2,5.06E2,3.622513E-2,6.490135E-3,5.3603E2,4.9227607E-2,5.4451E2,5.70105E2,4.58E2,5.215E2,3.5857964E-2,1.3483277E-1,1.225E2,-3.53364E-2,2.92E2,5.8887E2,1.6019795E-2,-1.1080867E-2,4.4531E2,3.8966998E2,-1.0261345E-2,2.4877613E-2,5.8232047E-2,1.5933877E-2,1.6711725E-2,3.5549283E-2,2.2002101E-2,1.3075557E-1,2.7800217E-2,8.906935E-3],"split_indices":[1,0,1,0,1,1,0,0,1,0,0,0,0,0,0,1,1,0,0,1,0,1,0,0,0,0,0,0,0,0,0,0,0,0,0,0,0],"split_type":[0,0,0,0,0,0,0,0,0,0,0,0,0,0,0,0,0,0,0,0,0,0,0,0,0,0,0,0,0,0,0,0,0,0,0,0,0],"sum_hessian":[1.6E2,1E0,1.59E2,1.2E1,1.47E2,4E0,8E0,5E1,9.7E1,3E0,1E0,2E0,6E0,1E1,4E1,2.9E1,6.8E1,1E0,1E0,9E0,1E0,1.1E1,2.9E1,1.7E1,1.2E1,4E0,6.4E1,1E0,8E0,7E0,4E0,2.2E1,7E0,3E0,1E0,1.1E1,5.3E1],"tree_param":{"num_deleted":"0","num_feature":"2","num_nodes":"37","size_leaf_vector":"0"}},{"base_weights":[2.3382187E-1,2.7946815E0,2.0034973E-1,6.044099E-1,1.6350424E-1,2.927288E-1,7.104094E-1,3.1415902E-2,1.9009605E-1,3.35083E-1,6.1656E-2,1.0810407E0,4.5008034E-1,2.1672168E-1,-1.4289774E-1,6.231146E-1,1.6256422E-1,3.4065056E-1,1.2809105E0,-1.1513114E-2,4.8491445E-1,-5.156787E-1,1.2150044E-1,7.1517277E-1,2.6197943E-1,-1.6425459E-1,1.9802894E-1,-1.7236638E-1,1.1947212E-1,2.6265413E-1,7.981081E-1,-2.383089E-2,-6.0928214E-1,-2.3595095E-1,1.9567573E-1,8.228525E-2,-6.7790556E-1,1.0119045E0,1.6449952E-1],"categories":[],"categories_nodes":[],"categories_segments":[],"categories_sizes":[],"default_left":[true,false,true,true,true,true,true,true,true,false,false,true,false,true,true,true,true,false,false,true,true,true,true,false,false,true,true,false,false,false,false,false,false,false,false,false,false,false,false],"id":45,"left_children":[1,-1,3,5,7,9,11,13,15,-1,-1,17,-1,19,21,23,25,-1,-1,27,29,31,33,-1,-1,35,37,-1,-1,-1,-1,-1,-1,-1,-1,-1,-1,-1,-1],"loss_changes":[1.3240594E1,0E0,2.2832232E0,2.2153711E-1,5.1387334E-1,2.8274655E-2,3.8181973E-1,8.708035E-1,1.3650846E0,0E0,0E0,7.602215E-3,0E0,8.0132484E-1,1.4425318E0,4.5357704E-2,1.3886204E0,0E0,0E0,1.891482E-1,2.0803678E-1,2.6171196E-1,2.8479642E-1,0E0,0E0,1.5754068E0,2.726153E0,0E0,0E0,0E0,0E0,0E0,0E0,0E0,0E0,0E0,0E0,0E0,0E0],"parents":[2147483647,0,0,2,2,3,3,4,4,5,5,6,6,7,7,8,8,11,11,13,13,14,14,15,15,16,16,19,19,20,20,21,21,22,22,25,25,26,26],"right_children":[2,-1,4,6,8,10,12,14,16,-1,-1,18,-1,20,22,24,26,-1,-1,28,30,32,34,-1,-1,36,38,-1,-1,-1,-1,-1,-1,-1,-1,-1,-1,-1,-1],"split_conditions":[1.45E1,2.7946815E-1,9E1,5.34935E2,4.3105E2,7.55E1,5.37345E2,3.8966998E2,4.33565E2,3.35083E-2,6.1656E-3,5.3603E2,4.5008034E-2,3.83775E2,6.55E2,6.79E2,4.5208002E2,3.4065057E-2,1.2809105E-1,5.825E2,3.87925E2,4.14405E2,4.055E2,7.151728E-2,2.6197944E-2,4.48865E2,4.79435E2,-1.7236639E-2,1.1947213E-2,2.6265413E-2,7.981081E-2,-2.3830892E-3,-6.0928214E-2,-2.3595095E-2,1.9567573E-2,8.228525E-3,-6.779056E-2,1.0119045E-1,1.6449952E-2],"split_indices":[1,0,1,0,0,1,0,0,0,0,0,0,0,0,1,1,0,0,0,1,0,0,0,0,0,0,0,0,0,0,0,0,0,0,0,0,0,0,0],"split_type":[0,0,0,0,0,0,0,0,0,0,0,0,0,0,0,0,0,0,0,0,0,0,0,0,0,0,0,0,0,0,0,0,0,0,0,0,0,0,0],"sum_hessian":[1.6E2,1E0,1.59E2,1.2E1,1.47E2,4E0,8E0,2.5E1,1.22E2,3E0,1E0,2E0,6E0,1.2E1,1.3E1,6E0,1.16E2,1E0,1E0,7E0,5E0,5E0,8E0,4E0,2E0,1.1E1,1.05E2,3E0,4E0,4E0,1E0,1E0,4E0,1E0,7E0,8E0,3E0,3E0,1.02E2],"tree_param":{"num_deleted":"0","num_feature":"2","num_nodes":"39","size_leaf_vector":"0"}},{"base_weights":[2.1488376E-1,2.6549473E0,1.8303995E-1,5.6295586E-1,1.484322E-1,2.7139053E-1,6.6238594E-1,2.2984907E-1,1.1063018E-1,3.0995178E-1,5.857277E-2,1.026989E0,4.1150093E-1,7.091904E-2,2.6144174E-1,1.2744051E-1,-4.1550897E-2,3.2361794E-1,1.2168655E0,2.1964727E-1,-2.997532E-1,3.8885218E-1,1.709168E-1,1.066806E-1,4.7147885E-1,-5.4499674E-1,6.329336E-2,4.5761386E-1,1.5980606E-1,-1.0602133E-3,2.2830136E-1,1.2544571E-1,-2.3366222E-1,6.778121E-1,-1.7692709E-1,-1.2640333E-1,1.6264956E-1],"categories":[],"categories_nodes":[],"categories_segments":[],"categories_sizes":[],"default_left":[true,false,true,true,true,true,true,true,true,false,false,true,false,true,true,true,true,false,false,false,false,true,true,true,true,false,true,false,false,false,false,false,false,false,false,false,false],"id":46,"left_children":[1,-1,3,5,7,9,11,13,15,-1,-1,17,-1,19,21,23,25,-1,-1,-1,-1,27,29,31,33,-1,35,-1,-1,-1,-1,-1,-1,-1,-1,-1,-1],"loss_changes":[1.2023889E1,0E0,2.0201244E0,1.971097E-1,4.3007445E-1,2.2877872E-2,4.0065384E-1,2.1242595E-1,2.6879156E-1,0E0,0E0,6.8616867E-3,0E0,5.6200475E-1,3.7182403E-1,6.139275E-1,6.151122E-1,0E0,0E0,0E0,0E0,1.6311455E-1,2.3709387E-1,5.9771645E-1,7.8886175E-1,0E0,2.0903489E-1,0E0,0E0,0E0,0E0,0E0,0E0,0E0,0E0,0E0,0E0],"parents":[2147483647,0,0,2,2,3,3,4,4,5,5,6,6,7,7,8,8,11,11,13,13,14,14,15,15,16,16,21,21,22,22,23,23,24,24,26,26],"right_children":[2,-1,4,6,8,10,12,14,16,-1,-1,18,-1,20,22,24,26,-1,-1,-1,-1,28,30,32,34,-1,36,-1,-1,-1,-1,-1,-1,-1,-1,-1,-1],"split_conditions":[1.45E1,2.6549473E-1,9E1,5.34935E2,3.48E2,7.55E1,5.37345E2,5.4533997E2,7.745E2,3.0995179E-2,5.857277E-3,5.3603E2,4.1150093E-2,5.3958E2,5.73355E2,7.61E2,7.785E2,3.2361794E-2,1.21686555E-1,2.1964727E-2,-2.997532E-2,2.985E2,5.77085E2,7.445E2,7.222E2,-5.4499675E-2,4.5208002E2,4.5761388E-2,1.5980607E-2,-1.0602133E-4,2.2830136E-2,1.2544571E-2,-2.3366222E-2,6.778121E-2,-1.769271E-2,-1.2640334E-2,1.6264956E-2],"split_indices":[1,0,1,0,1,1,0,0,1,0,0,0,0,0,0,1,1,0,0,0,0,1,0,1,0,0,0,0,0,0,0,0,0,0,0,0,0],"split_type":[0,0,0,0,0,0,0,0,0,0,0,0,0,0,0,0,0,0,0,0,0,0,0,0,0,0,0,0,0,0,0,0,0,0,0,0,0],"sum_hessian":[1.6E2,1E0,1.59E2,1.2E1,1.47E2,4E0,8E0,4.5E1,1.02E2,3E0,1E0,2E0,6E0,8E0,3.7E1,9.2E1,1E1,1E0,1E0,6E0,2E0,1.4E1,2.3E1,8.8E1,4E0,1E0,9E0,1E1,4E0,6E0,1.7E1,8.4E1,4E0,3E0,1E0,3E0,6E0],"tree_param":{"num_deleted":"0","num_feature":"2","num_nodes":"37","size_leaf_vector":"0"}},{"base_weights":[1.9688849E-1,2.5221996E0,1.6659155E-1,5.2451104E-1,1.3402705E-1,2.5162238E-1,6.1783683E-1,1.8692603E-2,1.5731704E-1,2.8670597E-1,5.5644035E-2,9.756406E-1,3.7622997E-1,1.9315991E-1,-1.4464794E-1,5.6914E-1,1.3133347E-1,3.074379E-1,1.156023E0,8.3934866E-2,7.5193024E-1,-4.8511648E-1,9.840308E-2,6.4792347E-1,2.4812095E-1,-6.243119E-1,1.4322966E-1,-1.6884732E-1,1.869564E-1,-2.891159E-2,-5.705751E-1,-2.1247053E-1,1.638211E-1,2.862641E-1,7.9360837E-1,1.7451234E-1,1.6349013E-3],"categories":[],"categories_nodes":[],"categories_segments":[],"categories_sizes":[],"default_left":[true,false,true,true,true,true,true,true,true,false,false,true,false,true,true,true,true,false,false,true,false,true,true,true,false,false,true,false,false,false,false,false,false,false,false,false,false],"id":47,"left_children":[1,-1,3,5,7,9,11,13,15,-1,-1,17,-1,19,21,23,25,-1,-1,27,-1,29,31,33,-1,-1,35,-1,-1,-1,-1,-1,-1,-1,-1,-1,-1],"loss_changes":[1.0922244E1,0E0,1.7945757E0,1.756165E-1,3.9460778E-1,1.84246E-2,4.109652E-1,7.688774E-1,1.2414305E0,0E0,0E0,6.190777E-3,0E0,7.302992E-1,1.2062541E0,1.6273499E-2,1.1411676E0,0E0,0E0,3.440712E-1,0E0,2.174238E-1,2.1783777E-1,3.6260128E-2,0E0,0E0,5.1353264E-1,0E0,0E0,0E0,0E0,0E0,0E0,0E0,0E0,0E0,0E0],"parents":[2147483647,0,0,2,2,3,3,4,4,5,5,6,6,7,7,8,8,11,11,13,13,14,14,15,15,16,16,19,19,21,21,22,22,23,23,26,26],"right_children":[2,-1,4,6,8,10,12,14,16,-1,-1,18,-1,20,22,24,26,-1,-1,28,-1,30,32,34,-1,-1,36,-1,-1,-1,-1,-1,-1,-1,-1,-1,-1],"split_conditions":[1.45E1,2.5221997E-1,9E1,5.34935E2,4.3105E2,7.55E1,5.37345E2,3.8966998E2,4.33565E2,2.8670598E-2,5.5644037E-3,5.3603E2,3.7623E-2,3.87925E2,6.55E2,6.79E2,4.34625E2,3.074379E-2,1.1560231E-1,5.81E2,7.5193025E-2,4.14405E2,4.055E2,5.415E2,2.4812095E-2,-6.2431194E-2,6.94E2,-1.6884733E-2,1.8695641E-2,-2.8911592E-3,-5.705751E-2,-2.1247054E-2,1.6382111E-2,2.862641E-2,7.9360835E-2,1.7451234E-2,1.6349013E-4],"split_indices":[1,0,1,0,0,1,0,0,0,0,0,0,0,0,1,1,0,0,0,1,0,0,0,1,0,0,1,0,0,0,0,0,0,0,0,0,0],"split_type":[0,0,0,0,0,0,0,0,0,0,0,0,0,0,0,0,0,0,0,0,0,0,0,0,0,0,0,0,0,0,0,0,0,0,0,0,0],"sum_hessian":[1.6E2,1E0,1.59E2,1.2E1,1.47E2,4E0,8E0,2.5E1,1.22E2,3E0,1E0,2E0,6E0,1.2E1,1.3E1,6E0,1.16E2,1E0,1E0,1.1E1,1E0,5E0,8E0,4E0,2E0,1E0,1.15E2,3E0,8E0,1E0,4E0,1E0,7E0,2E0,2E0,9.4E1,2.1E1],"tree_param":{"num_deleted":"0","num_feature":"2","num_nodes":"37","size_leaf_vector":"0"}},{"base_weights":[1.8074399E-1,2.3960896E0,1.5192252E-1,4.888445E-1,1.2130153E-1,2.3330688E-1,5.764938E-1,1.3195485E-1,-8.162606E-2,2.6520252E-1,5.2862167E-2,9.2685956E-1,3.439808E-1,1.1941911E-1,9.4347954E-1,-1.9900496E-1,1.8034045E-1,2.9206657E-1,1.0982227E0,1.5711044E-1,-4.4144984E-2,-3.3582425E-1,4.9755733E-2,1.3282183E-1,6.600378E-1,-3.4770107E-1,7.94847E-2],"categories":[],"categories_nodes":[],"categories_segments":[],"categories_sizes":[],"default_left":[true,false,true,true,true,true,true,true,true,false,false,true,false,true,false,true,false,false,false,true,true,false,false,false,false,false,false],"id":48,"left_children":[1,-1,3,5,7,9,11,13,15,-1,-1,17,-1,19,-1,21,-1,-1,-1,23,25,-1,-1,-1,-1,-1,-1],"loss_changes":[9.915752E0,0E0,1.5914042E0,1.566701E-1,3.3072543E-1,1.4757842E-2,4.1435957E-1,1.3217328E0,2.818834E-1,0E0,0E0,5.5861473E-3,0E0,8.700285E-1,0E0,2.2092073E-1,0E0,0E0,0E0,1.304889E0,1.0409075E0,0E0,0E0,0E0,0E0,0E0,0E0],"parents":[2147483647,0,0,2,2,3,3,4,4,5,5,6,6,7,7,8,8,11,11,13,13,15,15,19,19,20,20],"right_children":[2,-1,4,6,8,10,12,14,16,-1,-1,18,-1,20,-1,22,-1,-1,-1,24,26,-1,-1,-1,-1,-1,-1],"split_conditions":[1.45E1,2.3960896E-1,9E1,5.34935E2,7.1685E2,7.55E1,5.37345E2,7.16485E2,7.755E2,2.6520252E-2,5.2862167E-3,5.3603E2,3.439808E-2,6.755E2,9.4347954E-2,7.499E2,1.8034047E-2,2.9206658E-2,1.0982227E-1,6.605E2,7.195E2,-3.3582427E-2,4.9755736E-3,1.3282183E-2,6.6003785E-2,-3.477011E-2,7.94847E-3],"split_indices":[1,0,1,0,0,1,0,0,1,0,0,0,0,1,0,0,0,0,0,1,1,0,0,0,0,0,0],"split_type":[0,0,0,0,0,0,0,0,0,0,0,0,0,0,0,0,0,0,0,0,0,0,0,0,0,0,0],"sum_hessian":[1.6E2,1E0,1.59E2,1.2E1,1.47E2,4E0,8E0,1.4E2,7E0,3E0,1E0,2E0,6E0,1.39E2,1E0,5E0,2E0,1E0,1E0,1.13E2,2.6E1,3E0,2E0,1.09E2,4E0,7E0,1.9E1],"tree_param":{"num_deleted":"0","num_feature":"2","num_nodes":"27","size_leaf_vector":"0"}},{"base_weights":[1.6627875E-1,2.2762852E0,1.3886443E-1,4.5574775E-1,1.10091805E-1,2.1633759E-1,5.381148E-1,5.187438E-3,1.3137166E-1,2.4531269E-1,5.0218582E-2,8.805173E-1,3.1449726E-1,1.6791725E-1,-1.4628935E-1,5.1990765E-1,1.0700308E-1,2.774639E-1,1.0433121E0,9.43737E-2,3.3545557E-1,6.396159E-2,7.076926E-1,-4.576645E-1,7.754845E-2,-1.7676711E-1,1.3811855E-1,-1.6614509E-1,1.5912437E-1,-3.410673E-2,-5.355547E-1,-2.0582151E-1,1.3869739E-1,5.2119043E-2,-6.475692E-1,9.0827847E-1,1.0686847E-1],"categories":[],"categories_nodes":[],"categories_segments":[],"categories_sizes":[],"default_left":[true,false,true,true,true,true,true,true,true,false,false,true,true,true,true,false,true,false,false,false,false,true,false,true,true,true,true,false,false,false,false,false,false,false,false,false,false],"id":49,"left_children":[1,-1,3,5,7,9,11,13,15,-1,-1,17,19,21,23,-1,25,-1,-1,-1,-1,27,-1,29,31,33,35,-1,-1,-1,-1,-1,-1,-1,-1,-1,-1],"loss_changes":[8.996853E0,0E0,1.4086363E0,1.3993907E-1,3.2970643E-1,1.17473155E-2,4.1218448E-1,6.6545904E-1,1.1089408E0,0E0,0E0,5.0401688E-3,6.3574314E-4,6.8420005E-1,1.0112566E0,0E0,1.0574827E0,0E0,0E0,0E0,0E0,2.8920883E-1,0E0,1.7967999E-1,1.8449685E-1,1.3268716E0,2.4540951E0,0E0,0E0,0E0,0E0,0E0,0E0,0E0,0E0,0E0,0E0],"parents":[2147483647,0,0,2,2,3,3,4,4,5,5,6,6,7,7,8,8,11,11,12,12,13,13,14,14,16,16,21,21,23,23,24,24,25,25,26,26],"right_children":[2,-1,4,6,8,10,12,14,16,-1,-1,18,20,22,24,-1,26,-1,-1,-1,-1,28,-1,30,32,34,36,-1,-1,-1,-1,-1,-1,-1,-1,-1,-1],"split_conditions":[1.45E1,2.2762851E-1,9E1,5.34935E2,4.3105E2,7.55E1,5.37345E2,3.8966998E2,4.33565E2,2.453127E-2,5.0218585E-3,5.3603E2,3.6E1,3.87925E2,6.55E2,5.1990766E-2,4.5208002E2,2.7746392E-2,1.0433121E-1,9.43737E-3,3.3545557E-2,5.81E2,7.0769265E-2,4.14405E2,4.055E2,4.48865E2,4.79435E2,-1.661451E-2,1.5912438E-2,-3.4106732E-3,-5.355547E-2,-2.0582153E-2,1.3869739E-2,5.211904E-3,-6.475692E-2,9.0827845E-2,1.0686847E-2],"split_indices":[1,0,1,0,0,1,0,0,0,0,0,0,1,0,1,0,0,0,0,0,0,1,0,0,0,0,0,0,0,0,0,0,0,0,0,0,0],"split_type":[0,0,0,0,0,0,0,0,0,0,0,0,0,0,0,0,0,0,0,0,0,0,0,0,0,0,0,0,0,0,0,0,0,0,0,0,0],"sum_hessian":[1.6E2,1E0,1.59E2,1.2E1,1.47E2,4E0,8E0,2.5E1,1.22E2,3E0,1E0,2E0,6E0,1.2E1,1.3E1,6E0,1.16E2,1E0,1E0,1E0,5E0,1.1E1,1E0,5E0,8E0,1.1E1,1.05E2,3E0,8E0,1E0,4E0,1E0,7E0,8E0,3E0,3E0,1.02E2],"tree_param":{"num_deleted":"0","num_feature":"2","num_nodes":"37","size_leaf_vector":"0"}},{"base_weights":[1.5295888E-1,2.1624718E0,1.2688398E-1,4.259117E-1,9.976071E-2,2.0061378E-1,5.0375366E-1,1.1219442E-1,-6.529496E-2,2.2691345E-1,4.7707558E-2,8.3649063E-1,2.8918728E-1,1.25109E-1,-1.927778E-1,-5.2714634E-1,3.3604812E-2,2.6358986E-1,9.911461E-1,1.1255737E-1,8.909621E-1,-3.186524E-1,3.931427E-2,-1.2295127E-1,1.1826474E-1,9.632145E-2,6.080265E-1,2.4883015E-1,1.6272545E-2],"categories":[],"categories_nodes":[],"categories_segments":[],"categories_sizes":[],"default_left":[true,false,true,true,true,true,true,true,true,false,false,true,false,true,true,false,true,false,false,true,false,false,false,false,true,false,false,false,false],"id":50,"left_children":[1,-1,3,5,7,9,11,13,15,-1,-1,17,-1,19,21,-1,23,-1,-1,25,-1,-1,-1,-1,27,-1,-1,-1,-1],"loss_changes":[8.161672E0,0E0,1.255208E0,1.2692952E-1,3.1105936E-1,9.281427E-3,4.0064502E-1,5.676433E-1,5.2016157E-1,0E0,0E0,4.5506954E-3,0E0,1.1782055E0,1.8781453E-1,0E0,1.4708108E-1,0E0,0E0,1.0032946E0,0E0,0E0,0E0,0E0,8.916749E-2,0E0,0E0,0E0,0E0],"parents":[2147483647,0,0,2,2,3,3,4,4,5,5,6,6,7,7,8,8,11,11,13,13,14,14,16,16,19,19,24,24],"right_children":[2,-1,4,6,8,10,12,14,16,-1,-1,18,-1,20,22,-1,24,-1,-1,26,-1,-1,-1,-1,28,-1,-1,-1,-1],"split_conditions":[1.45E1,2.1624719E-1,9E1,5.34935E2,7.745E2,7.55E1,5.37345E2,7.1685E2,7.785E2,2.2691345E-2,4.770756E-3,5.3603E2,2.8918728E-2,7.16485E2,7.499E2,-5.2714635E-2,4.5208002E2,2.6358986E-2,9.911461E-2,7.61E2,8.909621E-2,-3.186524E-2,3.931427E-3,-1.2295127E-2,6.9302E2,9.632145E-3,6.080265E-2,2.4883015E-2,1.6272545E-3],"split_indices":[1,0,1,0,1,1,0,0,1,0,0,0,0,0,0,0,0,0,0,1,0,0,0,0,0,0,0,0,0],"split_type":[0,0,0,0,0,0,0,0,0,0,0,0,0,0,0,0,0,0,0,0,0,0,0,0,0,0,0,0,0],"sum_hessian":[1.6E2,1E0,1.59E2,1.2E1,1.47E2,4E0,8E0,1.37E2,1E1,3E0,1E0,2E0,6E0,1.32E2,5E0,1E0,9E0,1E0,1E0,1.31E2,1E0,3E0,2E0,3E0,6E0,1.28E2,3E0,2E0,4E0],"tree_param":{"num_deleted":"0","num_feature":"2","num_nodes":"29","size_leaf_vector":"0"}},{"base_weights":[1.4071397E-1,2.054348E0,1.15914084E-1,3.5283512E-1,8.528127E-2,4.9905396E-1,2.3813789E-1,9.684317E-2,-6.226548E-2,1.11133575E-1,6.319954E-1,1.6422237E-1,5.2560425E-1,1.0897715E-1,-1.7815559E-1,-5.0078917E-1,3.1665802E-2,9.4158936E-1,3.1919956E-1,2.3790479E-1,-2.4198055E-2,9.650588E-2,8.464141E-1,-2.9475355E-1,3.6693573E-2,-1.1373019E-1,1.1022554E-1,-1.1624622E-1,4.523341E-2,8.069797E-2,5.6242466E-1,2.3224132E-1,1.497097E-2],"categories":[],"categories_nodes":[],"categories_segments":[],"categories_sizes":[],"default_left":[true,false,true,true,true,true,true,true,true,false,true,true,false,true,true,false,true,false,false,false,true,true,false,false,false,false,true,false,false,false,false,false,false],"id":51,"left_children":[1,-1,3,5,7,9,11,13,15,-1,17,19,-1,21,23,-1,25,-1,-1,-1,27,29,-1,-1,-1,-1,31,-1,-1,-1,-1,-1,-1],"loss_changes":[7.4025946E0,0E0,1.1311195E0,1.8303251E-1,2.4997663E-1,2.9075897E-1,1.6866273E-1,4.632132E-1,4.6895993E-1,0E0,1.836437E-1,1.5847287E-1,0E0,1.0955031E0,1.6112141E-1,0E0,1.267587E-1,0E0,0E0,0E0,3.082237E-2,8.8999414E-1,0E0,0E0,0E0,0E0,7.788105E-2,0E0,0E0,0E0,0E0,0E0,0E0],"parents":[2147483647,0,0,2,2,3,3,4,4,5,5,6,6,7,7,8,8,10,10,11,11,13,13,14,14,16,16,20,20,21,21,26,26],"right_children":[2,-1,4,6,8,10,12,14,16,-1,18,20,-1,22,24,-1,26,-1,-1,-1,28,30,-1,-1,-1,-1,32,-1,-1,-1,-1,-1,-1],"split_conditions":[1.45E1,2.054348E-1,1.2E2,5.35E1,7.745E2,2.95E1,1.165E2,7.1685E2,7.785E2,1.1113358E-2,3.45E1,9.8E1,5.2560426E-2,7.16485E2,7.499E2,-5.0078917E-2,4.5208002E2,9.415894E-2,3.1919956E-2,2.3790479E-2,5.4771E2,7.61E2,8.464141E-2,-2.9475356E-2,3.6693574E-3,-1.137302E-2,6.9302E2,-1.1624622E-2,4.523341E-3,8.069797E-3,5.6242466E-2,2.3224132E-2,1.4970971E-3],"split_indices":[1,0,1,1,1,1,1,0,1,0,1,1,0,0,0,0,0,0,0,0,0,1,0,0,0,0,0,0,0,0,0,0,0],"split_type":[0,0,0,0,0,0,0,0,0,0,0,0,0,0,0,0,0,0,0,0,0,0,0,0,0,0,0,0,0,0,0,0,0],"sum_hessian":[1.6E2,1E0,1.59E2,1.7E1,1.42E2,6E0,1.1E1,1.32E2,1E1,2E0,4E0,1E1,1E0,1.27E2,5E0,1E0,9E0,1E0,3E0,7E0,3E0,1.26E2,1E0,3E0,2E0,3E0,6E0,1E0,2E0,1.23E2,3E0,2E0,4E0],"tree_param":{"num_deleted":"0","num_feature":"2","num_nodes":"33","size_leaf_vector":"0"}},{"base_weights":[1.2973733E-1,1.9516296E0,1.0615282E-1,2.604826E-1,6.400032E-2,4.687473E-1,1.991135E-1,-2.5092316E-1,6.849117E-2,1.0372543E-1,5.9401095E-1,2.3037969E-1,4.607423E-2,9.19201E-2,-3.2038093E-3,8.9451027E-1,2.9525852E-1,1.2783308E-1,4.4651005E-1,-1.3550663E-1,2.7282396E-1,6.4307526E-2,5.760849E-1,-3.4253058E-1,7.23208E-2,1.8549192E-1,-3.9735413E-1,2.8414726E-2,-1.9961865E-1,9.096752E-2,-2.2366083E-1,2.3886871E-1,7.2127277E-1,-2.7596712E-2,-6.4826554E-1,6.266031E-1,2.9140853E-3],"categories":[],"categories_nodes":[],"categories_segments":[],"categories_sizes":[],"default_left":[true,false,true,true,true,true,true,false,true,false,true,true,true,true,true,false,false,true,false,true,false,true,true,true,true,false,false,false,false,false,false,false,false,false,false,false,false],"id":52,"left_children":[1,-1,3,5,7,9,11,-1,13,-1,15,17,19,21,23,-1,-1,25,-1,27,-1,29,31,33,35,-1,-1,-1,-1,-1,-1,-1,-1,-1,-1,-1,-1],"loss_changes":[6.710748E0,0E0,1.0241908E0,3.4122086E-1,1.9679868E-1,2.5845373E-1,1.2336421E-1,0E0,2.119413E-1,0E0,1.8476272E-1,4.5268023E-1,2.8400993E-1,1.2330118E0,8.4485275E-1,0E0,0E0,5.884946E-1,0E0,4.7709428E-2,0E0,7.1897423E-1,7.250893E-2,5.598277E-1,1.0368887E0,0E0,0E0,0E0,0E0,0E0,0E0,0E0,0E0,0E0,0E0,0E0,0E0],"parents":[2147483647,0,0,2,2,3,3,4,4,5,5,6,6,8,8,10,10,11,11,12,12,13,13,14,14,17,17,19,19,21,21,22,22,23,23,24,24],"right_children":[2,-1,4,6,8,10,12,-1,14,-1,16,18,20,22,24,-1,-1,26,-1,28,-1,30,32,34,36,-1,-1,-1,-1,-1,-1,-1,-1,-1,-1,-1,-1],"split_conditions":[1.45E1,1.9516297E-1,2.32E2,5.35E1,2.36E2,2.95E1,5.94255E2,-2.5092317E-2,6.755E2,1.0372544E-2,3.45E1,1.615E2,5.9779004E2,6.605E2,7.055E2,8.945103E-2,2.9525852E-2,5.79E2,4.4651005E-2,5.9473E2,2.7282396E-2,6.275E2,4.28195E2,6.94E2,7.145E2,1.8549193E-2,-3.9735414E-2,2.8414726E-3,-1.9961866E-2,9.096752E-3,-2.2366082E-2,2.3886872E-2,7.2127275E-2,-2.7596713E-3,-6.4826556E-2,6.2660314E-2,2.9140853E-4],"split_indices":[1,0,1,1,1,1,0,0,1,0,1,1,0,1,1,0,0,0,0,0,0,1,0,1,1,0,0,0,0,0,0,0,0,0,0,0,0],"split_type":[0,0,0,0,0,0,0,0,0,0,0,0,0,0,0,0,0,0,0,0,0,0,0,0,0,0,0,0,0,0,0,0,0,0,0,0,0],"sum_hessian":[1.6E2,1E0,1.59E2,3.3E1,1.26E2,6E0,2.7E1,1E0,1.25E2,2E0,4E0,2.2E1,5E0,9.4E1,3.1E1,1E0,3E0,1.6E1,6E0,3E0,2E0,9E1,4E0,5E0,2.6E1,1.5E1,1E0,1E0,2E0,8.3E1,7E0,2E0,2E0,3E0,2E0,2E0,2.4E1],"tree_param":{"num_deleted":"0","num_feature":"2","num_nodes":"37","size_leaf_vector":"0"}},{"base_weights":[1.1931731E-1,1.8540478E0,9.688745E-2,3.0664125E-1,6.9807336E-2,4.8587495E-1,2.2072628E-1,-1.8910408E-2,8.876372E-2,9.681066E-2,7.129809E-1,1.6231301E-1,4.9004936E-1,1.3805778E-1,-1.6331585E-1,4.4632107E-1,6.562386E-2,2.1968651E-1,8.4978485E-1,2.2599316E-1,-3.7465572E-2,3.9744537E-2,6.5890837E-1,-4.3323722E-1,3.4777958E-2,5.0792086E-1,1.9488113E-1,-6.157427E-1,7.730952E-2,-1.1970806E-1,2.9851278E-2,-1.737833E-1,1.3022974E-1,-4.5801163E-2,-5.015642E-1,2.2294426E-1,-5.083302E-2,2.0579879E-1,6.407359E-1,1.0321675E-1,-3.2188676E-2],"categories":[],"categories_nodes":[],"categories_segments":[],"categories_sizes":[],"default_left":[true,false,true,true,true,true,true,true,true,false,true,true,false,true,true,true,true,false,false,false,true,true,false,true,true,true,false,false,true,false,false,false,false,false,false,false,false,false,false,false,false],"id":53,"left_children":[1,-1,3,5,7,9,11,13,15,-1,17,19,-1,21,23,25,27,-1,-1,-1,29,31,-1,33,35,37,-1,-1,39,-1,-1,-1,-1,-1,-1,-1,-1,-1,-1,-1,-1],"loss_changes":[6.084838E0,0E0,8.874192E-1,1.6993392E-1,2.421714E-1,3.7277007E-1,1.407072E-1,6.118906E-1,9.4702256E-1,0E0,1.5767574E-2,1.7385206E-1,0E0,6.394966E-1,7.6364374E-1,9.43625E-3,9.3937194E-1,0E0,0E0,0E0,2.571866E-2,2.5448507E-1,0E0,1.3586175E-1,1.5631485E-1,6.8769336E-2,0E0,0E0,3.1820667E-1,0E0,0E0,0E0,0E0,0E0,0E0,0E0,0E0,0E0,0E0,0E0,0E0],"parents":[2147483647,0,0,2,2,3,3,4,4,5,5,6,6,7,7,8,8,10,10,11,11,13,13,14,14,15,15,16,16,20,20,21,21,23,23,24,24,25,25,28,28],"right_children":[2,-1,4,6,8,10,12,14,16,-1,18,20,-1,22,24,26,28,-1,-1,-1,30,32,-1,34,36,38,-1,-1,40,-1,-1,-1,-1,-1,-1,-1,-1,-1,-1,-1,-1],"split_conditions":[1.45E1,1.8540478E-1,1.2E2,4.1E1,4.3105E2,2.95E1,1.165E2,3.8966998E2,4.33565E2,9.6810665E-3,5.3603E2,9.8E1,4.900494E-2,3.87925E2,6.55E2,6.79E2,4.34625E2,2.1968652E-2,8.497848E-2,2.2599315E-2,5.4771E2,5.81E2,6.589084E-2,4.14405E2,6.745E2,5.415E2,1.9488113E-2,-6.157427E-2,6.94E2,-1.1970806E-2,2.985128E-3,-1.737833E-2,1.3022974E-2,-4.5801164E-3,-5.0156422E-2,2.2294426E-2,-5.083302E-3,2.057988E-2,6.407359E-2,1.0321676E-2,-3.2188676E-3],"split_indices":[1,0,1,1,0,1,1,0,0,0,0,1,0,0,1,1,0,0,0,0,0,1,0,0,1,1,0,0,1,0,0,0,0,0,0,0,0,0,0,0,0],"split_type":[0,0,0,0,0,0,0,0,0,0,0,0,0,0,0,0,0,0,0,0,0,0,0,0,0,0,0,0,0,0,0,0,0,0,0,0,0,0,0,0,0],"sum_hessian":[1.6E2,1E0,1.59E2,1.7E1,1.42E2,4E0,1.3E1,2.5E1,1.17E2,2E0,2E0,1.2E1,1E0,1.2E1,1.3E1,6E0,1.11E2,1E0,1E0,9E0,3E0,1.1E1,1E0,5E0,8E0,4E0,2E0,1E0,1.1E2,1E0,2E0,3E0,8E0,1E0,4E0,2E0,6E0,2E0,2E0,8.9E1,2.1E1],"tree_param":{"num_deleted":"0","num_feature":"2","num_nodes":"41","size_leaf_vector":"0"}},{"base_weights":[1.1010784E-1,1.7613449E0,8.8779196E-2,2.8593528E-1,6.334151E-2,4.6061248E-1,2.0312664E-1,-1.6096005E-2,8.03079E-2,9.035619E-2,6.7733127E-1,1.4712921E-1,4.655466E-1,1.2898526E-1,-1.4966461E-1,4.1656616E-1,5.857473E-2,2.0870209E-1,8.0729485E-1,2.0565414E-1,-3.5965443E-2,3.5406906E-2,6.2596273E-1,-3.9903608E-1,3.321245E-2,4.7405928E-1,1.818889E-1,-5.849557E-1,6.964217E-2,-1.137228E-1,2.7861277E-2,-1.6074944E-1,1.186534E-1,-4.3510914E-2,-4.6143895E-1,2.0808156E-1,-4.6476092E-2,1.9207859E-1,5.9802026E-1,-8.8383324E-2,8.616334E-2],"categories":[],"categories_nodes":[],"categories_segments":[],"categories_sizes":[],"default_left":[true,false,true,true,true,true,true,true,true,false,true,true,false,true,true,true,true,false,false,false,true,true,false,true,true,true,false,false,true,false,false,false,false,false,false,false,false,false,false,false,false],"id":54,