{"learner":{"attributes":{"best_iteration":"99","best_ntree_limit":"100","scikit_learn":"{\"n_estimators\": 100, \"objective\": \"reg:squarederror\", \"max_depth\": null, \"learning_rate\": 0.1, \"verbosity\": null, \"booster\": null, \"tree_method\": null, \"gamma\": null, \"min_child_weight\": null, \"max_delta_step\": null, \"subsample\": null, \"colsample_bytree\": null, \"colsample_bylevel\": null, \"colsample_bynode\": null, \"reg_alpha\": null, \"reg_lambda\": null, \"scale_pos_weight\": null, \"base_score\": null, \"missing\": NaN, \"num_parallel_tree\": null, \"random_state\": null, \"n_jobs\": null, \"monotone_constraints\": null, \"interaction_constraints\": null, \"importance_type\": null, \"gpu_id\": null, \"validate_parameters\": null, \"predictor\": null, \"enable_categorical\": false, \"_estimator_type\": \"regressor\"}"},"feature_names":["Price","Rank"],"feature_types":["float","int"],"gradient_booster":{"model":{"gbtree_model_param":{"num_trees":"100","size_leaf_vector":"0"},"tree_info":[0,0,0,0,0,0,0,0,0,0,0,0,0,0,0,0,0,0,0,0,0,0,0,0,0,0,0,0,0,0,0,0,0,0,0,0,0,0,0,0,0,0,0,0,0,0,0,0,0,0,0,0,0,0,0,0,0,0,0,0,0,0,0,0,0,0,0,0,0,0,0,0,0,0,0,0,0,0,0,0,0,0,0,0,0,0,0,0,0,0,0,0,0,0,0,0,0,0,0,0],"trees":[{"base_weights":[2.785E1,7.383929E1,2.0661201E1,9.6125E1,5.3764706E1,3.0818182E1,1.3158878E1,3.6424244E1,2.6022223E1,1.5971154E1,1.03125E1],"categories":[],"categories_nodes":[],"categories_segments":[],"categories_sizes":[],"default_left":[true,true,true,false,false,true,true,false,false,false,false],"id":0,"left_children":[1,3,5,-1,-1,7,9,-1,-1,-1,-1],"loss_changes":[6.7902E4,7.3584062E3,1.3539242E4,0E0,0E0,1.1224141E3,6.9181055E2,0E0,0E0,0E0,0E0],"parents":[2147483647,0,0,1,1,2,2,5,5,6,6],"right_children":[2,4,6,-1,-1,8,10,-1,-1,-1,-1],"split_conditions":[8.25E1,3.6E1,2.935E2,9.6125E0,5.3764706E0,1.71E2,5.305E2,3.6424243E0,2.6022222E0,1.5971154E0,1.03125E0],"split_indices":[1,1,1,0,0,1,1,0,0,0,0],"split_type":[0,0,0,0,0,0,0,0,0,0,0],"sum_hessian":[2.09E2,2.7E1,1.82E2,1.1E1,1.6E1,7.6E1,1.06E2,3.2E1,4.4E1,5.1E1,5.5E1],"tree_param":{"num_deleted":"0","num_feature":"2","num_nodes":"11","size_leaf_vector":"0"}},{"base_weights":[2.5178627E1,6.699068E1,1.8643568E1,8.9079544E1,4.9770218E1,2.7157915E1,1.1305081E1,3.212382E1,2.2357298E1,1.3171171E1,8.828125E0],"categories":[],"categories_nodes":[],"categories_segments":[],"categories_sizes":[],"default_left":[true,true,true,false,false,true,true,false,false,false,false],"id":1,"left_children":[1,3,5,-1,-1,7,9,-1,-1,-1,-1],"loss_changes":[5.6132344E4,6.2171406E3,1.1127262E4,0E0,0E0,1.2843086E3,3.459463E2,0E0,0E0,0E0,0E0],"parents":[2147483647,0,0,1,1,2,2,5,5,6,6],"right_children":[2,4,6,-1,-1,8,10,-1,-1,-1,-1],"split_conditions":[8.25E1,3.3E1,3.33E2,8.907954E0,4.9770217E0,1.86E2,5.77E2,3.212382E0,2.23573E0,1.3171171E0,8.828125E-1],"split_indices":[1,1,1,0,0,1,1,0,0,0,0],"split_type":[0,0,0,0,0,0,0,0,0,0,0],"sum_hessian":[2.09E2,2.7E1,1.82E2,1E1,1.7E1,8.3E1,9.9E1,3.8E1,4.5E1,5.4E1,4.5E1],"tree_param":{"num_deleted":"0","num_feature":"2","num_nodes":"11","size_leaf_vector":"0"}},{"base_weights":[2.2763304E1,6.439433E1,1.7298555E1,8.288159E1,4.777654E1,2.5923004E1,1.0749902E1,3.2584457E1,2.2112225E1,1.3806748E1,8.748716E0,9.502298E0,6.7411222E0],"categories":[],"categories_nodes":[],"categories_segments":[],"categories_sizes":[],"default_left":[true,true,true,false,false,true,true,false,false,false,true,false,false],"id":2,"left_children":[1,3,5,-1,-1,7,9,-1,-1,-1,11,-1,-1],"loss_changes":[4.666172E4,3.4134297E3,1.02828125E4,0E0,0E0,1.3103086E3,5.398789E2,0E0,0E0,0E0,3.8820312E1,0E0,0E0],"parents":[2147483647,0,0,1,1,2,2,5,5,6,6,10,10],"right_children":[2,4,6,-1,-1,8,10,-1,-1,-1,12,-1,-1],"split_conditions":[7.05E1,3E1,2.91E2,8.288159E0,4.777654E0,1.49E2,4.865E2,3.2584457E0,2.2112224E0,1.3806748E0,6.75E2,9.502298E-1,6.7411226E-1],"split_indices":[1,1,1,0,0,1,1,0,0,0,1,0,0],"split_type":[0,0,0,0,0,0,0,0,0,0,0,0,0],"sum_hessian":[2.09E2,2.3E1,1.86E2,9E0,1.4E1,7.9E1,1.07E2,2.6E1,5.3E1,4E1,6.7E1,4.6E1,2.1E1],"tree_param":{"num_deleted":"0","num_feature":"2","num_nodes":"13","size_leaf_vector":"0"}},{"base_weights":[2.0589546E1,6.151795E1,1.5957516E1,7.7281235E1,4.587275E1,2.5657099E1,1.0708476E1,3.0406225E1,2.1357578E1,1.5270552E1,8.462064E0,9.470956E0,6.640495E0],"categories":[],"categories_nodes":[],"categories_segments":[],"categories_sizes":[],"default_left":[true,true,true,false,false,true,true,false,false,false,true,false,false],"id":3,"left_children":[1,3,5,-1,-1,7,9,-1,-1,-1,11,-1,-1],"loss_changes":[3.883046E4,1.6339141E3,9.398816E3,0E0,0E0,6.9825E2,1.1518174E3,0E0,0E0,0E0,9.515576E1,0E0,0E0],"parents":[2147483647,0,0,1,1,2,2,5,5,6,6,10,10],"right_children":[2,4,6,-1,-1,8,10,-1,-1,-1,12,-1,-1],"split_conditions":[6.25E1,2.6E1,2.41E2,7.7281237E0,4.587275E0,1.465E2,3.995E2,3.0406225E0,2.135758E0,1.5270551E0,6.275E2,9.470956E-1,6.640495E-1],"split_indices":[1,1,1,0,0,1,1,0,0,0,1,0,0],"split_type":[0,0,0,0,0,0,0,0,0,0,0,0,0],"sum_hessian":[2.09E2,2E1,1.89E2,8E0,1.2E1,6.5E1,1.24E2,2.8E1,3.7E1,3.9E1,8.5E1,5.2E1,3.3E1],"tree_param":{"num_deleted":"0","num_feature":"2","num_nodes":"13","size_leaf_vector":"0"}},{"base_weights":[1.862883E1,4.856185E1,1.3370205E1,6.4109535E1,3.3771324E1,1.9466434E1,8.185751E0,2.229621E1,1.5603109E1,9.523386E0,6.4375334E0],"categories":[],"categories_nodes":[],"categories_segments":[],"categories_sizes":[],"default_left":[true,true,true,false,false,true,true,false,false,false,false],"id":4,"left_children":[1,3,5,-1,-1,7,9,-1,-1,-1,-1],"loss_changes":[3.2406094E4,4.9636484E3,5.529664E3,0E0,0E0,5.4856055E2,1.7020166E2,0E0,0E0,0E0,0E0],"parents":[2147483647,0,0,1,1,2,2,5,5,6,6],"right_children":[2,4,6,-1,-1,8,10,-1,-1,-1,-1],"split_conditions":[9.2E1,4.15E1,3.39E2,6.4109535E0,3.3771324E0,2.07E2,5.77E2,2.229621E0,1.560311E0,9.5233864E-1,6.4375335E-1],"split_indices":[1,1,1,0,0,1,1,0,0,0,0],"split_type":[0,0,0,0,0,0,0,0,0,0,0],"sum_hessian":[2.09E2,3E1,1.79E2,1.3E1,1.7E1,8.1E1,9.8E1,4.4E1,3.7E1,5.3E1,4.5E1],"tree_param":{"num_deleted":"0","num_feature":"2","num_nodes":"11","size_leaf_vector":"0"}},{"base_weights":[1.6838205E1,5.2853336E1,1.3186509E1,7.146026E1,4.1103703E1,2.1331703E1,8.750679E0,2.6003017E1,1.7735188E1,1.2656969E1,6.920043E0,7.7517176E0,5.371156E0],"categories":[],"categories_nodes":[],"categories_segments":[],"categories_sizes":[],"default_left":[true,true,true,false,false,true,true,false,false,false,true,false,false],"id":5,"left_children":[1,3,5,-1,-1,7,9,-1,-1,-1,11,-1,-1],"loss_changes":[2.6921477E4,1.216582E3,6.750426E3,0E0,0E0,6.6446094E2,8.134375E2,0E0,0E0,0E0,7.172363E1,0E0,0E0],"parents":[2147483647,0,0,1,1,2,2,5,5,6,6,10,10],"right_children":[2,4,6,-1,-1,8,10,-1,-1,-1,12,-1,-1],"split_conditions":[5.7E1,1.8E1,2.37E2,7.146026E0,4.11037E0,1.33E2,3.845E2,2.6003017E0,1.7735188E0,1.2656969E0,6.275E2,7.7517176E-1,5.3711563E-1],"split_indices":[1,1,1,0,0,1,1,0,0,0,1,0,0],"split_type":[0,0,0,0,0,0,0,0,0,0,0,0,0],"sum_hessian":[2.09E2,1.8E1,1.91E2,5E0,1.3E1,6.6E1,1.25E2,2.6E1,4E1,3.8E1,8.7E1,5.4E1,3.3E1],"tree_param":{"num_deleted":"0","num_feature":"2","num_nodes":"13","size_leaf_vector":"0"}},{"base_weights":[1.524109E1,4.9208576E1,1.1994168E1,6.832503E1,3.886637E1,1.9766321E1,8.075615E0,2.4028278E1,1.6418188E1,1.1518918E1,6.1799846E0,6.708825E0,4.3365927E0],"categories":[],"categories_nodes":[],"categories_segments":[],"categories_sizes":[],"default_left":[true,true,true,false,false,true,true,false,false,false,true,false,false],"id":6,"left_children":[1,3,5,-1,-1,7,9,-1,-1,-1,11,-1,-1],"loss_changes":[2.2570629E4,9.0316406E2,5.7183047E3,0E0,0E0,5.1875195E2,7.773535E2,0E0,0E0,0E0,5.4744385E1,0E0,0E0],"parents":[2147483647,0,0,1,1,2,2,5,5,6,6,10,10],"right_children":[2,4,6,-1,-1,8,10,-1,-1,-1,12,-1,-1],"split_conditions":[5.25E1,1.4E1,2.215E2,6.832503E0,3.8866372E0,1.275E2,3.995E2,2.402828E0,1.6418189E0,1.1518918E0,6.75E2,6.708825E-1,4.336593E-1],"split_indices":[1,1,1,0,0,1,1,0,0,0,1,0,0],"split_type":[0,0,0,0,0,0,0,0,0,0,0,0,0],"sum_hessian":[2.09E2,1.7E1,1.92E2,4E0,1.3E1,6.3E1,1.29E2,2.5E1,3.8E1,4.4E1,8.5E1,6.4E1,2.1E1],"tree_param":{"num_deleted":"0","num_feature":"2","num_nodes":"13","size_leaf_vector":"0"}},{"base_weights":[1.379803E1,4.5911213E1,1.0912864E1,6.6180336E1,3.6840664E1,1.7685646E1,7.117349E0,2.223381E1,1.4765875E1,1.030137E1,5.6253705E0,6.314464E0,4.345208E0],"categories":[],"categories_nodes":[],"categories_segments":[],"categories_sizes":[],"default_left":[true,true,true,false,false,true,true,false,false,false,true,false,false],"id":7,"left_children":[1,3,5,-1,-1,7,9,-1,-1,-1,11,-1,-1],"loss_changes":[1.8955863E4,6.8735547E2,4.861127E3,0E0,0E0,5.879922E2,5.406128E2,0E0,0E0,0E0,5.019165E1,0E0,0E0],"parents":[2147483647,0,0,1,1,2,2,5,5,6,6,10,10],"right_children":[2,4,6,-1,-1,8,10,-1,-1,-1,12,-1,-1],"split_conditions":[4.9E1,1.05E1,2.37E2,6.618034E0,3.6840665E0,1.215E2,3.845E2,2.223381E0,1.4765875E0,1.030137E0,6.275E2,6.314464E-1,4.345208E-1],"split_indices":[1,1,1,0,0,1,1,0,0,0,1,0,0],"split_type":[0,0,0,0,0,0,0,0,0,0,0,0,0],"sum_hessian":[2.09E2,1.6E1,1.93E2,3E0,1.3E1,6.8E1,1.25E2,2.4E1,4.4E1,3.8E1,8.7E1,5.4E1,3.3E1],"tree_param":{"num_deleted":"0","num_feature":"2","num_nodes":"13","size_leaf_vector":"0"}},{"base_weights":[1.24948845E1,4.2938766E1,9.932849E0,6.1216812E1,3.4011772E1,1.64135E1,6.5662656E0,2.0315672E1,1.3538622E1,9.890929E0,5.2372746E0,6.307256E0,4.3794794E0,4.668108E0,2.932166E0],"categories":[],"categories_nodes":[],"categories_segments":[],"categories_sizes":[],"default_left":[true,true,true,false,false,true,true,false,false,false,true,false,true,false,false],"id":8,"left_children":[1,3,5,-1,-1,7,9,-1,-1,-1,11,-1,13,-1,-1],"loss_changes":[1.5953145E4,5.285957E2,4.146668E3,0E0,0E0,4.6535938E2,5.225962E2,0E0,0E0,0E0,5.9571045E1,0E0,9.705444E0,0E0,0E0],"parents":[2147483647,0,0,1,1,2,2,5,5,6,6,10,10,12,12],"right_children":[2,4,6,-1,-1,8,10,-1,-1,-1,12,-1,14,-1,-1],"split_conditions":[4.7E1,1.05E1,2.215E2,6.121681E0,3.4011772E0,1.215E2,3.525E2,2.0315673E0,1.3538622E0,9.8909295E-1,5.305E2,6.307256E-1,7.245E2,4.668108E-1,2.9321662E-1],"split_indices":[1,1,1,0,0,1,1,0,0,0,1,0,1,0,0],"split_type":[0,0,0,0,0,0,0,0,0,0,0,0,0,0,0],"sum_hessian":[2.09E2,1.5E1,1.94E2,3E0,1.2E1,6.5E1,1.29E2,2.5E1,4E1,3.5E1,9.4E1,3.9E1,5.5E1,4.4E1,1.1E1],"tree_param":{"num_deleted":"0","num_feature":"2","num_nodes":"15","size_leaf_vector":"0"}},{"base_weights":[1.1318196E1,3.421741E1,8.456493E0,4.969931E1,2.5829723E1,1.2749548E1,5.158402E0,1.5475036E1,1.0225268E1,6.7143197E0,4.1444163E0,4.383504E0,2.6633842E0],"categories":[],"categories_nodes":[],"categories_segments":[],"categories_sizes":[],"default_left":[true,true,true,false,false,true,true,false,false,false,true,false,false],"id":9,"left_children":[1,3,5,-1,-1,7,9,-1,-1,-1,11,-1,-1],"loss_changes":[1.34721E4,1.702998E3,2.5961035E3,0E0,0E0,3.9903516E2,1.4256226E2,0E0,0E0,0E0,1.2403564E1,0E0,0E0],"parents":[2147483647,0,0,1,1,2,2,5,5,6,6,10,10],"right_children":[2,4,6,-1,-1,8,10,-1,-1,-1,12,-1,-1],"split_conditions":[6.8E1,2.1E1,2.91E2,4.969931E0,2.5829723E0,1.685E2,4.865E2,1.5475036E0,1.0225269E0,6.7143196E-1,7.245E2,4.383504E-1,2.6633844E-1],"split_indices":[1,1,1,0,0,1,1,0,0,0,1,0,0],"split_type":[0,0,0,0,0,0,0,0,0,0,0,0,0],"sum_hessian":[2.09E2,2.2E1,1.87E2,6E0,1.6E1,8E1,1.07E2,3.6E1,4.4E1,4E1,6.7E1,5.6E1,1.1E1],"tree_param":{"num_deleted":"0","num_feature":"2","num_nodes":"13","size_leaf_vector":"0"}},{"base_weights":[1.0241134E1,3.592342E1,8.08135E0,5.7242752E1,2.8789036E1,1.3364556E1,5.336944E0,1.5784772E1,1.0299802E1,8.061972E0,4.2481236E0,4.949923E0,3.392948E0,3.629849E0,2.4192407E0],"categories":[],"categories_nodes":[],"categories_segments":[],"categories_sizes":[],"default_left":[true,true,true,false,false,true,true,false,false,false,true,false,true,false,false],"id":10,"left_children":[1,3,5,-1,-1,7,9,-1,-1,-1,11,-1,13,-1,-1],"loss_changes":[1.1358008E4,7.856426E2,2.7560312E3,0E0,0E0,3.269668E2,3.514702E2,0E0,0E0,0E0,4.022046E1,0E0,1.8294678E0,0E0,0E0],"parents":[2147483647,0,0,1,1,2,2,5,5,6,6,10,10,12,12],"right_children":[2,4,6,-1,-1,8,10,-1,-1,-1,12,-1,14,-1,-1],"split_conditions":[4.7E1,7E0,2.215E2,5.724275E0,2.8789036E0,1.49E2,3.525E2,1.5784773E0,1.0299802E0,8.0619717E-1,5.77E2,4.9499232E-1,7.245E2,3.629849E-1,2.4192408E-1],"split_indices":[1,1,1,0,0,1,1,0,0,0,1,0,1,0,0],"split_type":[0,0,0,0,0,0,0,0,0,0,0,0,0,0,0],"sum_hessian":[2.09E2,1.5E1,1.94E2,2E0,1.3E1,6.5E1,1.29E2,3.4E1,3.1E1,3.5E1,9.4E1,4.9E1,4.5E1,3.4E1,1.1E1],"tree_param":{"num_deleted":"0","num_feature":"2","num_nodes":"15","size_leaf_vector":"0"}},{"base_weights":[9.279486E0,3.3736008E1,7.360469E0,5.342657E1,2.6596956E1,1.3019899E1,5.1718698E0,1.673861E1,1.1013638E1,7.658426E0,3.8348892E0,2.3662214E0,1.1183399E1,4.316646E0,2.8436003E0,1.2404118E0,4.3467417E0,5.1544785E0,3.8887477E0],"categories":[],"categories_nodes":[],"categories_segments":[],"categories_sizes":[],"default_left":[true,true,true,false,false,true,true,false,true,false,true,false,false,true,false,false,true,false,false],"id":11,"left_children":[1,3,5,-1,-1,7,9,-1,11,-1,13,-1,-1,15,-1,-1,17,-1,-1],"loss_changes":[9.60751E3,6.875957E2,2.3603623E3,0E0,0E0,2.1852637E2,4.4603076E2,0E0,2.9321777E1,0E0,3.3093384E1,0E0,0E0,3.482666E-1,0E0,0E0,2.5218506E0,0E0,0E0],"parents":[2147483647,0,0,1,1,2,2,5,5,6,6,8,8,10,10,13,13,16,16],"right_children":[2,4,6,-1,-1,8,10,-1,12,-1,14,-1,-1,16,-1,-1,18,-1,-1],"split_conditions":[4.45E1,7E0,1.91E2,5.342657E0,2.6596956E0,9.2E1,3.525E2,1.6738609E0,9.55E1,7.658426E-1,6.275E2,2.3662214E-1,1.1183399E0,3.565E2,2.8436002E-1,1.2404118E-1,4.53E2,5.1544785E-1,3.8887477E-1],"split_indices":[1,1,1,0,0,1,1,0,1,0,1,0,0,1,0,0,1,0,0],"split_type":[0,0,0,0,0,0,0,0,0,0,0,0,0,0,0,0,0,0,0],"sum_hessian":[2.09E2,1.4E1,1.95E2,2E0,1.2E1,5.3E1,1.42E2,1.6E1,3.7E1,4.8E1,9.4E1,1E0,3.6E1,6.1E1,3.3E1,1E0,6E1,1.8E1,4.2E1],"tree_param":{"num_deleted":"0","num_feature":"2","num_nodes":"19","size_leaf_vector":"0"}},{"base_weights":[8.413964E0,3.0895897E1,6.6504803E0,4.9864796E1,2.4141851E1,1.1243276E1,4.4415507E0,1.516321E1,9.586207E0,6.314916E0,3.2873173E0,2.2479105E0,9.696868E0,6.827511E0,4.6636944E0,3.5893438E0,2.2592714E0],"categories":[],"categories_nodes":[],"categories_segments":[],"categories_sizes":[],"default_left":[true,true,true,false,false,true,true,false,true,true,true,false,false,false,false,false,false],"id":12,"left_children":[1,3,5,-1,-1,7,9,-1,11,13,15,-1,-1,-1,-1,-1,-1],"loss_changes":[8.1203027E3,7.179238E2,1.9385137E3,0E0,0E0,2.6386523E2,2.6898926E2,0E0,1.636914E1,1.0479004E1,1.8282959E1,0E0,0E0,0E0,0E0,0E0,0E0],"parents":[2147483647,0,0,1,1,2,2,5,5,6,6,8,8,9,9,10,10],"right_children":[2,4,6,-1,-1,8,10,-1,12,14,16,-1,-1,-1,-1,-1,-1],"split_conditions":[4.45E1,7E0,2.115E2,4.9864798E0,2.4141853E0,9.2E1,4.065E2,1.5163211E0,9.55E1,3.39E2,6.75E2,2.2479105E-1,9.696868E-1,6.827511E-1,4.6636945E-1,3.5893437E-1,2.2592714E-1],"split_indices":[1,1,1,0,0,1,1,0,1,1,1,0,0,0,0,0,0],"split_type":[0,0,0,0,0,0,0,0,0,0,0,0,0,0,0,0,0],"sum_hessian":[2.09E2,1.4E1,1.95E2,2E0,1.2E1,6.2E1,1.33E2,1.6E1,4.6E1,4.9E1,8.4E1,1E0,4.5E1,3.5E1,1.4E1,6.3E1,2.1E1],"tree_param":{"num_deleted":"0","num_feature":"2","num_nodes":"17","size_leaf_vector":"0"}},{"base_weights":[7.6289754E0,2.8299686E1,6.00811E0,4.6540478E1,2.1913374E1,1.0674099E1,4.2041135E0,7.958301E0,1.258146E1,6.3488297E0,3.1867764E0,8.1119375E0,2.1355152E0,3.8877761E0,2.5790844E0,2.7482703E0,1.7297133E0],"categories":[],"categories_nodes":[],"categories_segments":[],"categories_sizes":[],"default_left":[true,true,true,false,false,true,true,true,false,false,true,false,false,false,true,false,false],"id":13,"left_children":[1,3,5,-1,-1,7,9,11,-1,-1,13,-1,-1,-1,15,-1,-1],"loss_changes":[6.8659043E3,7.275127E2,1.60494E3,0E0,0E0,1.7959326E2,2.917793E2,5.041626E0,0E0,0E0,3.214624E1,0E0,0E0,0E0,3.293579E0,0E0,0E0],"parents":[2147483647,0,0,1,1,2,2,5,5,6,6,7,7,10,10,14,14],"right_children":[2,4,6,-1,-1,8,10,12,-1,-1,14,-1,-1,-1,16,-1,-1],"split_conditions":[4.45E1,7E0,1.91E2,4.654048E0,2.1913373E0,1.5625E2,3.39E2,1.5264E2,1.258146E0,6.34883E-1,5.305E2,8.1119376E-1,2.1355152E-1,3.887776E-1,7.245E2,2.7482703E-1,1.7297134E-1],"split_indices":[1,1,1,0,0,0,1,0,0,0,1,0,0,0,1,0,0],"split_type":[0,0,0,0,0,0,0,0,0,0,0,0,0,0,0,0,0],"sum_hessian":[2.09E2,1.4E1,1.95E2,2E0,1.2E1,5.3E1,1.42E2,2.4E1,2.9E1,4.4E1,9.8E1,2.3E1,1E0,4.3E1,5.5E1,4.4E1,1.1E1],"tree_param":{"num_deleted":"0","num_feature":"2","num_nodes":"17","size_leaf_vector":"0"}},{"base_weights":[6.9165525E0,2.6664003E1,5.478071E0,4.343778E1,2.0248558E1,1.0315752E1,3.9779963E0,1.2721014E1,8.467115E0,5.9236493E0,2.876549E0,2.02874E0,8.624602E0,3.714042E0,2.4401326E0,2.672776E0,1.8322066E0],"categories":[],"categories_nodes":[],"categories_segments":[],"categories_sizes":[],"default_left":[true,true,true,false,false,true,true,false,true,false,true,false,false,false,true,false,false],"id":14,"left_children":[1,3,5,-1,-1,7,9,-1,11,-1,13,-1,-1,-1,15,-1,-1],"loss_changes":[5.8192656E3,6.270049E2,1.3885703E3,0E0,0E0,9.682666E1,3.0870142E2,0E0,1.1907959E1,0E0,2.7121338E1,0E0,0E0,0E0,4.720154E0,0E0,0E0],"parents":[2147483647,0,0,1,1,2,2,5,5,6,6,8,8,10,10,14,14],"right_children":[2,4,6,-1,-1,8,10,-1,12,-1,14,-1,-1,-1,16,-1,-1],"split_conditions":[4.15E1,7E0,1.685E2,4.343778E0,2.0248559E0,9.2E1,3.39E2,1.2721014E0,9.55E1,5.9236497E-1,4.865E2,2.0287399E-1,8.6246026E-1,3.714042E-1,6.75E2,2.672776E-1,1.8322067E-1],"split_indices":[1,1,1,0,0,1,1,0,1,0,1,0,0,0,1,0,0],"split_type":[0,0,0,0,0,0,0,0,0,0,0,0,0,0,0,0,0],"sum_hessian":[2.09E2,1.3E1,1.96E2,2E0,1.1E1,4.5E1,1.51E2,1.7E1,2.8E1,5.3E1,9.8E1,1E0,2.7E1,3.1E1,6.7E1,4.6E1,2.1E1],"tree_param":{"num_deleted":"0","num_feature":"2","num_nodes":"17","size_leaf_vector":"0"}},{"base_weights":[6.2730894E0,2.521528E1,4.997728E0,4.0541927E1,1.8742987E1,9.445659E0,3.5895007E0,1.1678366E1,7.6571393E0,5.3422537E0,2.597196E0,1.9273033E0,7.792944E0,3.3542438E0,2.2027442E0,2.3324237E0,1.403204E0],"categories":[],"categories_nodes":[],"categories_segments":[],"categories_sizes":[],"default_left":[true,true,true,false,false,true,true,false,true,false,true,false,false,false,true,false,false],"id":15,"left_children":[1,3,5,-1,-1,7,9,-1,11,-1,13,-1,-1,-1,15,-1,-1],"loss_changes":[4.9471904E3,5.297041E2,1.2063066E3,0E0,0E0,9.825928E1,2.5049353E2,0E0,7.546631E0,0E0,2.2174683E1,0E0,0E0,0E0,3.777649E0,0E0,0E0],"parents":[2147483647,0,0,1,1,2,2,5,5,6,6,8,8,10,10,14,14],"right_children":[2,4,6,-1,-1,8,10,-1,12,-1,14,-1,-1,-1,16,-1,-1],"split_conditions":[3.9E1,7E0,1.685E2,4.054193E0,1.8742987E0,9.2E1,3.39E2,1.1678365E0,9.55E1,5.342254E-1,4.865E2,1.9273034E-1,7.7929443E-1,3.354244E-1,7.245E2,2.3324238E-1,1.403204E-1],"split_indices":[1,1,1,0,0,1,1,0,1,0,1,0,0,0,1,0,0],"split_type":[0,0,0,0,0,0,0,0,0,0,0,0,0,0,0,0,0],"sum_hessian":[2.09E2,1.2E1,1.97E2,2E0,1E1,4.6E1,1.51E2,1.8E1,2.8E1,5.3E1,9.8E1,1E0,2.7E1,3.1E1,6.7E1,5.6E1,1.1E1],"tree_param":{"num_deleted":"0","num_feature":"2","num_nodes":"17","size_leaf_vector":"0"}},{"base_weights":[5.690121E0,2.314979E1,4.5150414E0,3.783913E1,1.703908E1,9.075652E0,3.3751736E0,1.0571995E1,7.2896433E0,4.966268E0,2.344638E0,1.8309383E0,7.4710317E0,5.2937984E0,3.8715377E0,2.8733356E0,1.8873643E0,2.1362293E0,5.390982E0,2.008833E0,1.274577E0],"categories":[],"categories_nodes":[],"categories_segments":[],"categories_sizes":[],"default_left":[true,true,true,false,false,true,true,false,true,true,true,false,false,true,false,false,true,false,false,false,false],"id":16,"left_children":[1,3,5,-1,-1,7,9,-1,11,13,15,-1,-1,17,-1,-1,19,-1,-1,-1,-1],"loss_changes":[4.203944E3,5.22166E2,9.986699E2,0E0,0E0,2.7160645E1,2.5070459E2,0E0,7.1140137E0,1.7354736E0,1.851117E1,0E0,0E0,2.2924805E0,0E0,0E0,1.6079102E0,0E0,0E0,0E0,0E0],"parents":[2147483647,0,0,1,1,2,2,5,5,6,6,8,8,9,9,10,10,13,13,16,16],"right_children":[2,4,6,-1,-1,8,10,-1,12,14,16,-1,-1,18,-1,-1,20,-1,-1,-1,-1],"split_conditions":[3.9E1,7E0,1.51E2,3.7839131E0,1.703908E0,9.2E1,3.39E2,1.0571995E0,9.55E1,2.68E2,5.305E2,1.8309383E-1,7.4710315E-1,1.56E2,3.8715377E-1,2.8733358E-1,7.245E2,2.1362293E-1,5.390982E-1,2.008833E-1,1.2745771E-1],"split_indices":[1,1,1,0,0,1,1,0,1,1,1,0,0,1,0,0,1,0,0,0,0],"split_type":[0,0,0,0,0,0,0,0,0,0,0,0,0,0,0,0,0,0,0,0,0],"sum_hessian":[2.09E2,1.2E1,1.97E2,2E0,1E1,3.8E1,1.59E2,1.8E1,2E1,6.1E1,9.8E1,1E0,1.9E1,4.4E1,1.7E1,4.3E1,5.5E1,2E0,4.2E1,4.4E1,1.1E1],"tree_param":{"num_deleted":"0","num_feature":"2","num_nodes":"21","size_leaf_vector":"0"}},{"base_weights":[5.1650653E0,2.3686869E1,4.2178855E0,3.9487392E1,1.7543768E1,8.571773E0,3.0486283E0,1.0458376E1,6.8705463E0,4.4880257E0,2.1163933E0,4.781145E0,3.5058925E0,2.901177E0,1.8407198E0,1.9938139E0,4.864421E0,2.0131018E0,1.3260955E0],"categories":[],"categories_nodes":[],"categories_segments":[],"categories_sizes":[],"default_left":[true,true,true,false,false,true,true,false,false,true,true,true,false,false,true,false,false,false,false],"id":17,"left_children":[1,3,5,-1,-1,7,9,-1,-1,11,13,15,-1,-1,17,-1,-1,-1,-1],"loss_changes":[3.5842217E3,2.7788477E2,9.9712134E2,0E0,0E0,6.2946045E1,2.0519861E2,0E0,0E0,1.0865479E0,1.607782E1,7.4645996E-1,0E0,0E0,4.0725403E0,0E0,0E0,0E0,0E0],"parents":[2147483647,0,0,1,1,2,2,5,5,6,6,9,9,10,10,11,11,14,14],"right_children":[2,4,6,-1,-1,8,10,-1,-1,12,14,16,-1,-1,18,-1,-1,-1,-1],"split_conditions":[3E1,3.5E0,1.51E2,3.9487393E0,1.7543768E0,7.85E1,3.39E2,1.0458376E0,6.8705463E-1,2.68E2,4.53E2,1.56E2,3.5058925E-1,2.901177E-1,6.75E2,1.993814E-1,4.864421E-1,2.0131019E-1,1.3260955E-1],"split_indices":[1,1,1,0,0,1,1,0,0,1,1,1,0,0,1,0,0,0,0],"split_type":[0,0,0,0,0,0,0,0,0,0,0,0,0,0,0,0,0,0,0],"sum_hessian":[2.09E2,9E0,2E2,1E0,8E0,4.1E1,1.59E2,1.7E1,2.4E1,6.1E1,9.8E1,4.4E1,1.7E1,2.3E1,7.5E1,2E0,4.2E1,5.4E1,2.1E1],"tree_param":{"num_deleted":"0","num_feature":"2","num_nodes":"19","size_leaf_vector":"0"}},{"base_weights":[4.691875E0,2.4121628E1,3.9030578E0,3.7513023E1,1.6849567E1,8.122859E0,2.7849422E0,1.0010752E1,6.438662E0,4.0932174E0,1.9110576E0,4.35787E0,3.17478E0,2.4920976E0,1.6095232E0,1.7671974E0,1.1995138E0],"categories":[],"categories_nodes":[],"categories_segments":[],"categories_sizes":[],"default_left":[true,true,true,false,false,true,true,false,false,true,true,false,false,false,true,false,false],"id":18,"left_children":[1,3,5,-1,-1,7,9,-1,-1,11,13,-1,-1,-1,15,-1,-1],"loss_changes":[3.1244219E3,1.4698633E2,9.351782E2,0E0,0E0,6.9086914E1,1.7738928E2,0E0,0E0,1.7209473E0,1.3334045E1,0E0,0E0,0E0,2.2762756E0,0E0,0E0],"parents":[2147483647,0,0,1,1,2,2,5,5,6,6,9,9,10,10,14,14],"right_children":[2,4,6,-1,-1,8,10,-1,-1,12,14,-1,-1,-1,16,-1,-1],"split_conditions":[2.3E1,3.5E0,1.465E2,3.7513025E0,1.6849568E0,7.35E1,3.39E2,1.0010751E0,6.4386624E-1,2.68E2,4.865E2,4.3578702E-1,3.17478E-1,2.4920976E-1,6.75E2,1.7671974E-1,1.1995138E-1],"split_indices":[1,1,1,0,0,1,1,0,0,1,1,0,0,0,1,0,0],"split_type":[0,0,0,0,0,0,0,0,0,0,0,0,0,0,0,0,0],"sum_hessian":[2.09E2,7E0,2.02E2,1E0,6E0,4.1E1,1.61E2,1.7E1,2.4E1,6.3E1,9.8E1,4.6E1,1.7E1,3.1E1,6.7E1,4.6E1,2.1E1],"tree_param":{"num_deleted":"0","num_feature":"2","num_nodes":"17","size_leaf_vector":"0"}},{"base_weights":[4.2625937E0,2.2388996E1,3.5272546E0,3.563737E1,1.5405317E1,7.349738E0,2.5144672E0,8.903871E0,5.6787643E0,3.5812225E0,1.6428096E0,4.050921E0,2.9689438E0,1.8722261E0,1.2031342E0,7.132597E-1,3.0143092E0,2.2436423E0,1.6904846E0],"categories":[],"categories_nodes":[],"categories_segments":[],"categories_sizes":[],"default_left":[true,true,true,false,false,true,true,false,false,true,true,false,true,true,false,false,false,false,false],"id":19,"left_children":[1,3,5,-1,-1,7,9,-1,-1,11,13,-1,15,17,-1,-1,-1,-1,-1],"loss_changes":[2.7201287E3,1.9117432E2,7.67406E2,0E0,0E0,5.8507324E1,1.4475171E2,0E0,0E0,8.67926E0,6.9265137E0,0E0,1.4315796E0,1.2226868E-1,0E0,0E0,0E0,0E0,0E0],"parents":[2147483647,0,0,1,1,2,2,5,5,6,6,9,9,10,10,12,12,13,13],"right_children":[2,4,6,-1,-1,8,10,-1,-1,12,14,-1,16,18,-1,-1,-1,-1,-1],"split_conditions":[2.3E1,3.5E0,1.465E2,3.5637372E0,1.5405318E0,7.85E1,3.715E2,8.9038706E-1,5.6787646E-1,2.41E2,6.275E2,4.050921E-1,2.44E2,4.53E2,1.2031342E-1,7.132597E-2,3.014309E-1,2.2436424E-1,1.6904847E-1],"split_indices":[1,1,1,0,0,1,1,0,0,1,1,0,1,1,0,0,0,0,0],"split_type":[0,0,0,0,0,0,0,0,0,0,0,0,0,0,0,0,0,0,0],"sum_hessian":[2.09E2,7E0,2.02E2,1E0,6E0,4.1E1,1.61E2,1.9E1,2.2E1,7.1E1,9E1,3.7E1,3.4E1,5.7E1,3.3E1,1E0,3.3E1,1.5E1,4.2E1],"tree_param":{"num_deleted":"0","num_feature":"2","num_nodes":"19","size_leaf_vector":"0"}},{"base_weights":[3.8737345E0,2.0788128E1,3.188075E0,3.3855503E1,1.4084859E1,6.939535E0,2.337823E0,8.500139E0,5.620031E0,3.4267044E0,1.5552912E0,3.1653397E0,5.9702115E0,3.8214636E0,2.8508434E0,2.1436172E0,1.3490398E0,3.561678E0,7.899933E-1,1.4760597E0,9.7017E-1],"categories":[],"categories_nodes":[],"categories_segments":[],"categories_sizes":[],"default_left":[true,true,true,false,false,true,true,false,true,true,true,true,false,false,false,false,true,false,false,false,false],"id":20,"left_children":[1,3,5,-1,-1,7,9,-1,11,13,15,17,-1,-1,-1,-1,19,-1,-1,-1,-1],"loss_changes":[2.3692036E3,2.2390308E2,6.3128296E2,0E0,0E0,2.8420288E1,1.3696857E2,0E0,8.7268066E-1,4.7910767E0,9.12114E0,1.8935051E0,0E0,0E0,0E0,0E0,2.2253876E0,0E0,0E0,0E0,0E0],"parents":[2147483647,0,0,1,1,2,2,5,5,6,6,8,8,9,9,10,10,11,11,16,16],"right_children":[2,4,6,-1,-1,8,10,-1,12,14,16,18,-1,-1,-1,-1,20,-1,-1,-1,-1],"split_conditions":[2.3E1,3.5E0,1.3E2,3.3855503E0,1.4084859E0,6.55E1,3.39E2,8.500139E-1,1.5625E2,2.215E2,4.53E2,1.5209E2,5.9702116E-1,3.8214636E-1,2.8508434E-1,2.1436171E-1,6.75E2,3.561678E-1,7.899933E-2,1.4760597E-1,9.7017005E-2],"split_indices":[1,1,1,0,0,1,1,0,0,1,1,0,0,0,0,0,1,0,0,0,0],"split_type":[0,0,0,0,0,0,0,0,0,0,0,0,0,0,0,0,0,0,0,0,0],"sum_hessian":[2.09E2,7E0,2.02E2,1E0,6E0,3.6E1,1.66E2,1.4E1,2.2E1,6.8E1,9.8E1,4E0,1.8E1,3.7E1,3.1E1,2.3E1,7.5E1,3E0,1E0,5.4E1,2.1E1],"tree_param":{"num_deleted":"0","num_feature":"2","num_nodes":"21","size_leaf_vector":"0"}},{"base_weights":[3.5235155E0,2.1892073E1,2.9687114E0,3.2162727E1,1.34053955E1,6.7547197E0,2.1495054E0,8.377806E0,5.3410378E0,3.1441734E0,1.4043982E0,1.8967972E0,5.590622E0,3.7245338E0,2.7131898E0,1.6767033E0,1.0542053E0,1.9381868E0,1.4201772E0,1.1362675E0,7.270069E-1],"categories":[],"categories_nodes":[],"categories_segments":[],"categories_sizes":[],"default_left":[true,true,true,false,false,true,true,false,true,true,true,false,false,false,false,true,true,false,false,false,false],"id":21,"left_children":[1,3,5,-1,-1,7,9,-1,11,13,15,-1,-1,-1,-1,17,19,-1,-1,-1,-1],"loss_changes":[2.0751086E3,9.182837E1,6.2129236E2,0E0,0E0,3.785681E1,1.2157715E2,0E0,8.307556E0,7.9037476E0,7.672989E0,0E0,0E0,0E0,0E0,8.695984E-1,4.090538E-1,0E0,0E0,0E0,0E0],"parents":[2147483647,0,0,1,1,2,2,5,5,6,6,8,8,9,9,10,10,15,15,16,16],"right_children":[2,4,6,-1,-1,8,10,-1,12,14,16,-1,-1,-1,-1,18,20,-1,-1,-1,-1],"split_conditions":[1.8E1,3.5E0,1.215E2,3.2162728E0,1.3405396E0,6E1,3.39E2,8.377806E-1,1.5625E2,1.91E2,5.77E2,1.8967973E-1,5.590622E-1,3.724534E-1,2.71319E-1,4.53E2,7.245E2,1.9381867E-1,1.4201772E-1,1.13626756E-1,7.2700694E-2],"split_indices":[1,1,1,0,0,1,1,0,0,1,1,0,0,0,0,1,1,0,0,0,0],"split_type":[0,0,0,0,0,0,0,0,0,0,0,0,0,0,0,0,0,0,0,0,0],"sum_hessian":[2.09E2,5E0,2.04E2,1E0,4E0,3.5E1,1.69E2,1.4E1,2.1E1,7.1E1,9.8E1,2E0,1.9E1,2.7E1,4.4E1,5.3E1,4.5E1,2.3E1,3E1,3.4E1,1.1E1],"tree_param":{"num_deleted":"0","num_feature":"2","num_nodes":"21","size_leaf_vector":"0"}},{"base_weights":[3.2059703E0,2.2157125E1,2.7304277E0,3.0554592E1,1.2419111E1,6.2818327E0,1.9414135E0,8.245184E0,5.0096164E0,2.838698E0,1.269233E0,2.223906E0,5.288399E0,3.3653827E0,2.4479005E0,1.5152524E0,9.528357E-1,5.5535364E0,2.7068987E0,1.7524438E0,1.2827411E0,1.0258875E0,6.603648E-1],"categories":[],"categories_nodes":[],"categories_segments":[],"categories_sizes":[],"default_left":[true,true,true,false,false,true,true,false,true,true,true,false,true,false,false,true,true,false,false,false,false,false,false],"id":22,"left_children":[1,3,5,-1,-1,7,9,-1,11,13,15,-1,17,-1,-1,19,21,-1,-1,-1,-1,-1,-1],"loss_changes":[1.8320383E3,2.9412354E1,5.650388E2,0E0,0E0,5.1113647E1,9.89303E1,0E0,7.654297E0,6.581421E0,6.2623596E0,0E0,2.508545E-2,0E0,0E0,7.3015594E-1,3.0535507E-1,0E0,0E0,0E0,0E0,0E0,0E0],"parents":[2147483647,0,0,1,1,2,2,5,5,6,6,8,8,9,9,10,10,12,12,15,15,16,16],"right_children":[2,4,6,-1,-1,8,10,-1,12,14,16,-1,18,-1,-1,20,22,-1,-1,-1,-1,-1,-1],"split_conditions":[1.4E1,3.5E0,1.215E2,3.0554593E0,1.2419112E0,4.9E1,3.39E2,8.245184E-1,1.6006E2,1.91E2,5.77E2,2.223906E-1,1.8675E2,3.3653829E-1,2.4479006E-1,4.53E2,7.245E2,5.5535364E-1,2.7068987E-1,1.7524438E-1,1.2827411E-1,1.0258875E-1,6.6036485E-2],"split_indices":[1,1,1,0,0,1,1,0,0,1,1,0,0,0,0,1,1,0,0,0,0,0,0],"split_type":[0,0,0,0,0,0,0,0,0,0,0,0,0,0,0,0,0,0,0,0,0,0,0],"sum_hessian":[2.09E2,4E0,2.05E2,1E0,3E0,3.6E1,1.69E2,1.2E1,2.4E1,7.1E1,9.8E1,3E0,2.1E1,2.7E1,4.4E1,5.3E1,4.5E1,1.8E1,3E0,2.3E1,3E1,3.4E1,1.1E1],"tree_param":{"num_deleted":"0","num_feature":"2","num_nodes":"23","size_leaf_vector":"0"}},{"base_weights":[2.9197724E0,2.0800886E1,2.471591E0,2.9026863E1,1.1487677E1,5.704269E0,1.7534695E0,7.484091E0,4.550591E0,2.5731497E0,1.1539618E0,1.6220843E0,4.7347183E0,3.0408642E0,2.2170327E0,1.5945356E0,9.9385244E-1,1.666342E0,8.0096674E-1,1.0893575E0,7.099146E-1],"categories":[],"categories_nodes":[],"categories_segments":[],"categories_sizes":[],"default_left":[true,true,true,false,false,true,true,false,true,true,true,false,false,false,false,true,true,false,false,false,false],"id":23,"left_children":[1,3,5,-1,-1,7,9,-1,11,13,15,-1,-1,-1,-1,17,19,-1,-1,-1,-1],"loss_changes":[1.6315247E3,4.9599854E1,4.6821777E2,0E0,0E0,4.1916504E1,8.056946E1,0E0,5.800354E0,5.084137E0,5.469269E0,0E0,0E0,0E0,0E0,8.9897156E-2,1.2875824E0,0E0,0E0,0E0,0E0],"parents":[2147483647,0,0,1,1,2,2,5,5,6,6,8,8,9,9,10,10,15,15,16,16],"right_children":[2,4,6,-1,-1,8,10,-1,12,14,16,-1,-1,-1,-1,18,20,-1,-1,-1,-1],"split_conditions":[1.4E1,3.5E0,1.215E2,2.9026864E0,1.1487677E0,4.9E1,3.33E2,7.484091E-1,1.5625E2,1.91E2,4.53E2,1.6220842E-1,4.7347185E-1,3.0408642E-1,2.2170328E-1,2.0726999E2,6.75E2,1.666342E-1,8.009668E-2,1.0893575E-1,7.0991464E-2],"split_indices":[1,1,1,0,0,1,1,0,0,1,1,0,0,0,0,0,1,0,0,0,0],"split_type":[0,0,0,0,0,0,0,0,0,0,0,0,0,0,0,0,0,0,0,0,0],"sum_hessian":[2.09E2,4E0,2.05E2,1E0,3E0,3.6E1,1.69E2,1.2E1,2.4E1,7E1,9.9E1,2E0,2.2E1,2.7E1,4.3E1,2.4E1,7.5E1,2.1E1,3E0,5.4E1,2.1E1],"tree_param":{"num_deleted":"0","num_feature":"2","num_nodes":"21","size_leaf_vector":"0"}},{"base_weights":[2.6582146E0,1.9531092E1,2.2357748E0,2.7575523E1,1.0626102E1,5.1712503E0,1.5837256E0,6.9104533E0,4.169647E0,2.462988E0,1.1184075E0,1.8576412E0,4.390446E0,1.532121E0,8.968349E-1,4.619258E0,2.148776E0,1.0258781E0,7.072558E-1],"categories":[],"categories_nodes":[],"categories_segments":[],"categories_sizes":[],"default_left":[true,true,true,false,false,true,true,false,true,false,true,false,true,false,true,false,false,false,false],"id":24,"left_children":[1,3,5,-1,-1,7,9,-1,11,-1,13,-1,15,-1,17,-1,-1,-1,-1],"loss_changes":[1.4531654E3,6.515759E1,3.8610962E2,0E0,0E0,3.5639526E1,6.6798584E1,0E0,5.1168213E0,0E0,8.984375E0,0E0,1.8714294E0,0E0,1.1336975E0,0E0,0E0,0E0,0E0],"parents":[2147483647,0,0,1,1,2,2,5,5,6,6,8,8,10,10,12,12,14,14],"right_children":[2,4,6,-1,-1,8,10,-1,12,-1,14,-1,16,-1,18,-1,-1,-1,-1],"split_conditions":[1.4E1,3.5E0,1.215E2,2.7575524E0,1.0626103E0,4.7E1,2.77E2,6.9104534E-1,1.6006E2,2.4629879E-1,4.53E2,1.8576412E-1,1.8675E2,1.532121E-1,6.275E2,4.619258E-1,2.148776E-1,1.0258781E-1,7.072558E-2],"split_indices":[1,1,1,0,0,1,1,0,0,0,1,0,0,0,1,0,0,0,0],"split_type":[0,0,0,0,0,0,0,0,0,0,0,0,0,0,0,0,0,0,0],"sum_hessian":[2.09E2,4E0,2.05E2,1E0,3E0,3.6E1,1.69E2,1.1E1,2.5E1,5.7E1,1.12E2,3E0,2.2E1,3.7E1,7.5E1,1.9E1,3E0,4.2E1,3.3E1],"tree_param":{"num_deleted":"0","num_feature":"2","num_nodes":"19","size_leaf_vector":"0"}},{"base_weights":[2.4207103E0,2.0280212E1,2.063905E0,2.6196747E1,9.575786E0,4.851197E0,1.4287227E0,7.0256147E0,3.9341145E0,2.2550597E0,1.0246085E0,1.718318E0,4.1236944E0,1.4390042E0,8.2778317E-1,4.3158946E0,1.9876175E0,5.080007E-1,1.4788278E0,9.44535E-1,6.386105E-1,1.3100052E-1,6.310005E-1,1.5411456E0,8.0915606E-1,2.5336075E-1,9.538502E-1,6.988549E-1,4.6992436E-1],"categories":[],"categories_nodes":[],"categories_segments":[],"categories_sizes":[],"default_left":[true,true,true,false,false,true,true,false,true,false,true,false,true,true,true,false,false,true,true,true,true,false,false,false,false,false,false,false,false],"id":25,"left_children":[1,3,5,-1,-1,7,9,-1,11,-1,13,-1,15,17,19,-1,-1,21,23,25,27,-1,-1,-1,-1,-1,-1,-1,-1],"loss_changes":[1.2963406E3,2.4780273E0,3.5954962E2,0E0,0E0,4.8136963E1,5.4458344E1,0E0,5.0961914E0,0E0,8.270187E0,0E0,2.0960999E0,5.8348846E-1,1.1857986E0,0E0,0E0,5.645144E-2,1.71875E-1,6.737518E-2,1.7112732E-2,0E0,0E0,0E0,0E0,0E0,0E0,0E0,0E0],"parents":[2147483647,0,0,1,1,2,2,5,5,6,6,8,8,10,10,12,12,13,13,14,14,17,17,18,18,19,19,20,20],"right_children":[2,4,6,-1,-1,8,10,-1,12,-1,14,-1,16,18,20,-1,-1,22,24,26,28,-1,-1,-1,-1,-1,-1,-1,-1],"split_conditions":[1.05E1,1.64745E2,1.215E2,2.6196747E0,9.575786E-1,3.9E1,2.68E2,7.025615E-1,1.6006E2,2.2550598E-1,4.27E2,1.718318E-1,1.8675E2,2.74E2,6.275E2,4.3158945E-1,1.9876175E-1,1.636E2,2.0726999E2,4.3E2,7.245E2,1.3100052E-2,6.3100055E-2,1.5411456E-1,8.091561E-2,2.5336076E-2,9.538502E-2,6.988549E-2,4.6992436E-2],"split_indices":[1,0,1,0,0,1,1,0,0,0,1,0,0,1,1,0,0,0,0,1,1,0,0,0,0,0,0,0,0],"split_type":[0,0,0,0,0,0,0,0,0,0,0,0,0,0,0,0,0,0,0,0,0,0,0,0,0,0,0,0,0],"sum_hessian":[2.09E2,3E0,2.06E2,1E0,2E0,3.7E1,1.69E2,9E0,2.8E1,5.4E1,1.15E2,3E0,2.5E1,3.5E1,8E1,2.2E1,3E0,2E0,3.3E1,4.7E1,3.3E1,1E0,1E0,2.9E1,4E0,1E0,4.6E1,2.2E1,1.1E1],"tree_param":{"num_deleted":"0","num_feature":"2","num_nodes":"29","size_leaf_vector":"0"}},{"base_weights":[2.2065268E0,1.9146503E1,1.8685247E0,2.488691E1,8.937398E0,4.289656E0,1.2629263E0,6.2658033E0,3.4500668E0,1.7560906E0,7.6650804E-1,2.062804E0,3.6375096E0,2.0578392E0,1.3967911E0,8.7490034E-1,5.781872E-1,3.8536296E0,1.9590797E0,1.2482355E0,2.1553903E0,1.6362889E-1,1.4558346E0,2.5617218E-1,8.8200927E-1,6.320082E-1,4.2684808E-1,1.5384293E0,6.4598274E-1,-6.975174E-2,3.1519508E-1,1.0624249E0,1.6116769E0],"categories":[],"categories_nodes":[],"categories_segments":[],"categories_sizes":[],"default_left":[true,true,true,false,false,true,true,false,true,true,true,false,true,true,true,true,true,false,false,true,false,true,true,false,false,false,false,false,false,false,false,false,false],"id":26,"left_children":[1,3,5,-1,-1,7,9,-1,11,13,15,-1,17,19,21,23,25,-1,-1,27,-1,29,31,-1,-1,-1,-1,-1,-1,-1,-1,-1,-1],"loss_changes":[1.1666313E3,1.1993408E1,2.9809277E2,0E0,0E0,4.6407776E1,3.9538177E1,0E0,5.5752563E-1,6.1243134E0,1.2292099E0,0E0,1.8817444E0,7.056122E-1,2.746994E0,2.773285E-3,7.165909E-3,0E0,0E0,2.2959137E-1,0E0,1.2810324E-1,6.788025E-1,0E0,0E0,0E0,0E0,0E0,0E0,0E0,0E0,0E0,0E0],"parents":[2147483647,0,0,1,1,2,2,5,5,6,6,8,8,9,9,10,10,12,12,13,13,14,14,15,15,16,16,19,19,21,21,22,22],"right_children":[2,4,6,-1,-1,8,10,-1,12,14,16,-1,18,20,22,24,26,-1,-1,28,-1,30,32,-1,-1,-1,-1,-1,-1,-1,-1,-1,-1],"split_conditions":[1.05E1,1.64745E2,1.3E2,2.488691E0,8.937398E-1,4.15E1,4.065E2,6.2658036E-1,1.6006E2,2.41E2,6.275E2,2.062804E-1,1.8675E2,1.06850006E2,2.47E2,4.14E2,7.245E2,3.8536295E-1,1.9590798E-1,1.895E2,2.1553902E-1,1.6316E2,1.6218E2,2.5617218E-2,8.820093E-2,6.3200824E-2,4.268481E-2,1.5384293E-1,6.459828E-2,-6.975174E-3,3.151951E-2,1.0624249E-1,1.611677E-1],"split_indices":[1,0,1,0,0,1,1,0,0,1,1,0,0,0,1,1,1,0,0,1,0,0,0,0,0,0,0,0,0,0,0,0,0],"split_type":[0,0,0,0,0,0,0,0,0,0,0,0,0,0,0,0,0,0,0,0,0,0,0,0,0,0,0,0,0,0,0,0,0],"sum_hessian":[2.09E2,3E0,2.06E2,1E0,2E0,4E1,1.66E2,1E1,3E1,8.2E1,8.4E1,5E0,2.5E1,4.2E1,4E1,5.1E1,3.3E1,2.1E1,4E0,6E0,3.6E1,2E0,3.8E1,1E0,5E1,2.2E1,1.1E1,3E0,3E0,1E0,1E0,1.3E1,2.5E1],"tree_param":{"num_deleted":"0","num_feature":"2","num_nodes":"33","size_leaf_vector":"0"}},{"base_weights":[2.013218E0,1.8077461E1,1.693072E0,2.3642563E1,8.341573E0,3.8951812E0,1.1422963E0,5.829389E0,3.1690168E0,1.7829127E0,8.2038295E-1,1.8909041E0,3.335671E0,1.6460679E0,2.6261349E0,1.1266148E0,6.564725E-1,3.5643873E0,1.9410986E0,1.7813494E0,1.0044925E0,7.194028E-1,4.693072E-1,1.5544765E-1,1.1758971E0],"categories":[],"categories_nodes":[],"categories_segments":[],"categories_sizes":[],"default_left":[true,true,true,false,false,true,true,false,true,true,true,false,true,true,false,false,true,false,false,false,true,false,false,false,false],"id":27,"left_children":[1,3,5,-1,-1,7,9,-1,11,13,15,-1,17,19,-1,-1,21,-1,-1,-1,23,-1,-1,-1,-1],"loss_changes":[1.0494028E3,1.9508545E1,2.4661426E2,0E0,0E0,3.911322E1,3.2976562E1,0E0,5.08667E-1,2.023697E0,4.932396E0,0E0,1.6931458E0,2.5503082E0,0E0,0E0,5.575371E-1,0E0,0E0,0E0,1.4180422E0,0E0,0E0,0E0,0E0],"parents":[2147483647,0,0,1,1,2,2,5,5,6,6,8,8,9,9,10,10,12,12,13,13,16,16,20,20],"right_children":[2,4,6,-1,-1,8,10,-1,12,14,16,-1,18,20,-1,-1,22,-1,-1,-1,24,-1,-1,-1,-1],"split_conditions":[1.05E1,1.64745E2,1.3E2,2.3642564E0,8.341573E-1,3.9E1,2.77E2,5.829389E-1,1.6006E2,1.7692E2,4.53E2,1.8909042E-1,1.8635E2,2.41E2,2.626135E-1,1.1266148E-1,6.75E2,3.5643873E-1,1.9410986E-1,1.7813495E-1,2.47E2,7.194028E-2,4.6930723E-2,1.5544765E-2,1.1758971E-1],"split_indices":[1,0,1,0,0,1,1,0,0,0,1,0,0,1,0,0,1,0,0,0,1,0,0,0,0],"split_type":[0,0,0,0,0,0,0,0,0,0,0,0,0,0,0,0,0,0,0,0,0,0,0,0,0],"sum_hessian":[2.09E2,3E0,2.06E2,1E0,2E0,4E1,1.66E2,9E0,3.1E1,5.4E1,1.12E2,5E0,2.6E1,4.9E1,5E0,3.7E1,7.5E1,2.1E1,5E0,3.9E1,1E1,5.4E1,2.1E1,2E0,8E0],"tree_param":{"num_deleted":"0","num_feature":"2","num_nodes":"25","size_leaf_vector":"0"}},{"base_weights":[1.83726E0,1.7069317E1,1.5340451E0,2.2460434E1,7.7854667E0,3.5379214E0,1.0328895E0,5.0908885E0,2.798804E0,1.5252601E0,6.877486E-1,1.8487344E0,1.3068029E0,8.661345E-1,5.3212154E-1,3.6645412E-1,1.3666711E0,5.184907E-1,9.0632355E-1,5.7027537E-1,3.4470114E-1,4.221662E-1,1.4042825E0,8.823223E-1,-8.3224964E-1,1.4855337E0,8.1679124E-1],"categories":[],"categories_nodes":[],"categories_segments":[],"categories_sizes":[],"default_left":[true,true,true,false,false,true,true,false,false,true,true,false,true,true,true,false,true,true,true,false,false,false,false,false,false,false,false],"id":28,"left_children":[1,3,5,-1,-1,7,9,-1,-1,11,13,-1,15,17,19,-1,21,23,25,-1,-1,-1,-1,-1,-1,-1,-1],"loss_changes":[9.43718E2,2.5336426E1,2.0422626E2,0E0,0E0,3.28125E1,2.7330536E1,0E0,0E0,2.3892975E0,2.315281E0,0E0,1.9762421E0,1.587944E-1,2.0387173E-1,0E0,8.636551E-1,4.1744075E0,8.090935E-1,0E0,0E0,0E0,0E0,0E0,0E0,0E0,0E0],"parents":[2147483647,0,0,1,1,2,2,5,5,6,6,9,9,10,10,12,12,13,13,14,14,16,16,17,17,18,18],"right_children":[2,4,6,-1,-1,8,10,-1,-1,12,14,-1,16,18,20,-1,22,24,26,-1,-1,-1,-1,-1,-1,-1,-1],"split_conditions":[1.05E1,1.64745E2,1.3E2,2.2460434E0,7.785467E-1,4.45E1,3.33E2,5.090889E-1,2.798804E-1,1.91E2,5.305E2,1.8487345E-1,1.97E2,3.565E2,7.245E2,3.6645412E-2,1.06850006E2,3.525E2,3.715E2,5.7027537E-2,3.4470115E-2,4.221662E-2,1.4042825E-1,8.8232234E-2,-8.322497E-2,1.4855337E-1,8.167913E-2],"split_indices":[1,0,1,0,0,1,1,0,0,1,1,0,1,1,1,0,0,1,1,0,0,0,0,0,0,0,0],"split_type":[0,0,0,0,0,0,0,0,0,0,0,0,0,0,0,0,0,0,0,0,0,0,0,0,0,0,0],"sum_hessian":[2.09E2,3E0,2.06E2,1E0,2E0,4E1,1.66E2,1.1E1,2.9E1,6.7E1,9.9E1,2.4E1,4.3E1,4.4E1,5.5E1,3E0,4E1,6E0,3.8E1,4.4E1,1.1E1,2E0,3.8E1,5E0,1E0,3E0,3.5E1],"tree_param":{"num_deleted":"0","num_feature":"2","num_nodes":"27","size_leaf_vector":"0"}},{"base_weights":[1.6751742E0,1.611853E1,1.3879828E0,2.133741E1,7.2664337E0,3.0769897E0,8.998206E-1,4.9797416E0,2.5453644E0,1.2571118E0,5.613672E-1,1.7449726E0,2.7335904E0,1.4271237E0,9.681222E-1,6.72951E-1,4.521342E-1,1.9624982E0,5.832469E-1,2.967105E0,1.5758154E0,1.2842004E0,2.3708389E0,2.2145145E-1,1.0105186E0,1.4619303E-1,6.827091E-1,4.8688388E-1,3.131031E-1,-5.307007E-2,9.2794037E-1,1.3876466E0,6.5816784E-1,-5.768013E-2,3.898573E-1],"categories":[],"categories_nodes":[],"categories_segments":[],"categories_sizes":[],"default_left":[true,true,true,false,false,true,true,false,true,true,true,true,true,true,true,true,true,false,true,false,false,true,false,true,false,false,false,false,false,false,false,false,false,false,false],"id":29,"left_children":[1,3,5,-1,-1,7,9,-1,11,13,15,17,19,21,23,25,27,-1,29,-1,-1,31,-1,33,-1,-1,-1,-1,-1,-1,-1,-1,-1,-1,-1],"loss_changes":[8.4870905E2,2.974524E1,1.679047E2,0E0,0E0,3.385608E1,1.8884384E1,0E0,9.54834E-1,2.4506454E0,7.3177147E-1,1.3824291E0,3.1647491E0,3.29467E0,7.892132E-1,1.0579872E-1,6.9794655E-2,0E0,7.072488E-1,0E0,0E0,1.8713989E0,0E0,1.635092E-1,0E0,0E0,0E0,0E0,0E0,0E0,0E0,0E0,0E0,0E0,0E0],"parents":[2147483647,0,0,1,1,2,2,5,5,6,6,8,8,9,9,10,10,11,11,12,12,13,13,14,14,15,15,16,16,18,18,21,21,23,23],"right_children":[2,4,6,-1,-1,8,10,-1,12,14,16,18,20,22,24,26,28,-1,30,-1,-1,32,-1,34,-1,-1,-1,-1,-1,-1,-1,-1,-1,-1,-1],"split_conditions":[1.05E1,1.64745E2,1.465E2,2.1337411E0,7.266434E-1,3.6E1,4.065E2,4.9797416E-1,1.6006E2,2.68E2,5.77E2,1.524E2,1.8635E2,1.7692E2,2.74E2,4.14E2,7.245E2,1.9624983E-1,1.5625E2,2.967105E-1,1.5758155E-1,2.41E2,2.370839E-1,1.636E2,1.0105186E-1,1.4619303E-2,6.8270914E-2,4.868839E-2,3.1310312E-2,-5.307007E-3,9.279404E-2,1.3876466E-1,6.581678E-2,-5.768013E-3,3.898573E-2],"split_indices":[1,0,1,0,0,1,1,0,0,1,1,0,0,0,1,1,1,0,0,0,0,1,0,0,0,0,0,0,0,0,0,0,0,0,0],"split_type":[0,0,0,0,0,0,0,0,0,0,0,0,0,0,0,0,0,0,0,0,0,0,0,0,0,0,0,0,0,0,0,0,0,0,0],"sum_hessian":[2.09E2,3E0,2.06E2,1E0,2E0,4.5E1,1.61E2,8E0,3.7E1,7.7E1,8.4E1,9E0,2.8E1,4.6E1,3.1E1,3.9E1,4.5E1,7E0,2E0,2.2E1,6E0,4.2E1,4E0,2E0,2.9E1,1E0,3.8E1,3.4E1,1.1E1,1E0,1E0,3.5E1,7E0,1E0,1E0],"tree_param":{"num_deleted":"0","num_feature":"2","num_nodes":"35","size_leaf_vector":"0"}},{"base_weights":[1.5306817E0,1.7381002E1,1.2947123E0,3.8098254E0,9.7674286E-1,5.5595636E0,2.8652375E0,1.5381645E0,6.0044247E-1,1.8966564E0,1.18603E0,7.948841E-1,4.6007842E-1,1.5047063E0,2.1475246E0,1.0995528E0,1.8860651E0,8.4531313E-1,5.288081E-1,4.8899132E-1,2.8440222E-1,1.5945168E0,5.540848E-1,2.3920896E0,1.3865433E0,1.2995032E0,7.76114E-1,7.246314E-1,1.3480635E0,5.504926E-2,6.403667E-1],"categories":[],"categories_nodes":[],"categories_segments":[],"categories_sizes":[],"default_left":[true,false,true,true,true,false,false,true,true,true,true,true,true,true,true,true,false,true,true,false,false,false,false,false,false,false,false,false,false,false,false],"id":30,"left_children":[1,-1,3,5,7,-1,-1,9,11,13,15,17,19,21,23,25,-1,27,29,-1,-1,-1,-1,-1,-1,-1,-1,-1,-1,-1,-1],"loss_changes":[7.6293665E2,0E0,1.626224E2,2.2084503E1,3.837137E1,0E0,0E0,7.0920715E0,2.718357E0,2.1008301E-1,3.4765625E-1,1.7021751E-1,2.0632267E-1,5.6789017E-1,2.1933746E-1,1.4489594E0,0E0,1.2680435E0,4.9326682E-1,0E0,0E0,0E0,0E0,0E0,0E0,0E0,0E0,0E0,0E0,0E0,0E0],"parents":[2147483647,0,0,2,2,3,3,4,4,7,7,8,8,9,9,10,10,11,11,12,12,13,13,14,14,15,15,17,17,18,18],"right_children":[2,-1,4,6,8,-1,-1,10,12,14,16,18,20,22,24,26,-1,28,30,-1,-1,-1,-1,-1,-1,-1,-1,-1,-1,-1,-1],"split_conditions":[7E0,1.7381003E0,7.35E1,2.6E1,2.77E2,5.5595636E-1,2.8652376E-1,1.685E2,4.865E2,1.6006E2,1.7692E2,2.0726999E2,7.245E2,1.524E2,1.8685E2,1.53555E2,1.8860652E-1,1.7791501E2,2.0778E2,4.8899133E-2,2.8440222E-2,1.5945168E-1,5.5408478E-2,2.3920897E-1,1.3865434E-1,1.2995033E-1,7.76114E-2,7.246315E-2,1.3480635E-1,5.504926E-3,6.403667E-2],"split_indices":[1,0,1,1,1,0,0,1,1,0,0,0,1,0,0,0,0,0,0,0,0,0,0,0,0,0,0,0,0,0,0],"split_type":[0,0,0,0,0,0,0,0,0,0,0,0,0,0,0,0,0,0,0,0,0,0,0,0,0,0,0,0,0,0,0],"sum_hessian":[2.09E2,2E0,2.07E2,2.2E1,1.85E2,6E0,1.6E1,7.3E1,1.12E2,3.4E1,3.9E1,4.5E1,6.7E1,1.6E1,1.8E1,3.7E1,2E0,3.6E1,9E0,5.6E1,1.1E1,1.4E1,2E0,1.2E1,6E0,2.1E1,1.6E1,3.1E1,5E0,2E0,7E0],"tree_param":{"num_deleted":"0","num_feature":"2","num_nodes":"31","size_leaf_vector":"0"}},{"base_weights":[1.3962979E0,1.4213734E1,1.1418725E0,1.940149E1,6.0173187E0,2.542325E0,7.371646E-1,4.4100833E0,2.1519094E0,1.0188704E0,4.428802E-1,2.6277444E0,1.8541318E0,1.1600302E0,7.74117E-1,5.075345E-1,3.3857772E-1,1.0402331E0,2.0301576E0,5.186527E-1,8.6263835E-1,2.9055119E-2,5.170967E-1,3.3238754E-1,1.099733E0,8.0818063E-1,2.3775373E-1,9.431923E-1,3.8400573E-1],"categories":[],"categories_nodes":[],"categories_segments":[],"categories_sizes":[],"default_left":[true,true,true,false,false,true,true,false,true,true,true,false,false,true,true,true,false,true,false,true,true,false,false,false,false,false,false,false,false],"id":31,"left_children":[1,3,5,-1,-1,7,9,-1,11,13,15,-1,-1,17,19,21,-1,23,-1,25,27,-1,-1,-1,-1,-1,-1,-1,-1],"loss_changes":[6.6859656E2,5.333905E1,1.1544815E2,0E0,0E0,2.4053192E1,1.2978821E1,0E0,7.955475E-1,1.935051E0,3.743906E-1,0E0,0E0,3.1000977E0,2.9885483E-1,2.045908E-1,0E0,1.5718307E0,0E0,7.02461E-1,5.2459145E-1,0E0,0E0,0E0,0E0,0E0,0E0,0E0,0E0],"parents":[2147483647,0,0,1,1,2,2,5,5,6,6,8,8,9,9,10,10,13,13,14,14,15,15,17,17,19,19,20,20],"right_children":[2,4,6,-1,-1,8,10,-1,12,14,16,-1,-1,18,20,22,-1,24,-1,26,28,-1,-1,-1,-1,-1,-1,-1,-1],"split_conditions":[1.05E1,1.64745E2,1.465E2,1.940149E0,6.017319E-1,3E1,4.27E2,4.4100833E-1,6.55E1,2.77E2,6.275E2,2.6277444E-1,1.8541318E-1,1.7692E2,1.6218E2,4.3E2,3.3857774E-2,1.56E2,2.0301576E-1,1.5522E2,2.0726999E2,2.905512E-3,5.170967E-2,3.3238754E-2,1.09973304E-1,8.0818065E-2,2.3775375E-2,9.431923E-2,3.840057E-2],"split_indices":[1,0,1,0,0,1,1,0,1,1,1,0,0,0,0,1,0,1,0,0,0,0,0,0,0,0,0,0,0],"split_type":[0,0,0,0,0,0,0,0,0,0,0,0,0,0,0,0,0,0,0,0,0,0,0,0,0,0,0,0,0],"sum_hessian":[2.09E2,3E0,2.06E2,1E0,2E0,4.5E1,1.61E2,6E0,3.9E1,8.1E1,8E1,1.2E1,2.7E1,4.9E1,3.2E1,4.7E1,3.3E1,4.5E1,4E0,1E1,2.2E1,1E0,4.6E1,4E0,4.1E1,4E0,6E0,1.8E1,4E0],"tree_param":{"num_deleted":"0","num_feature":"2","num_nodes":"29","size_leaf_vector":"0"}},{"base_weights":[1.2762065E0,1.5374974E1,1.0667233E0,1.8431412E1,4.63105E0,3.3409157E0,8.2042396E-1,4.6820636E0,2.431705E0,1.4288142E0,5.6004876E-1,1.1271447E0,1.7577987E0,7.9022413E-1,3.9968437E-1,-1.7082787E-1,1.1745254E0,1.9053242E0,1.1062578E0,6.764643E-1,1.1320113E0,4.8025766E-1,3.279382E-1,1.5071623E0,9.9329674E-1,3.1659126E-1,1.1851038E0,7.527267E-1,8.072567E-2,1.4772136E0,3.5328522E-1,2.7602196E-2,4.9240205E-1,3.530745E-1,2.2729588E-1],"categories":[],"categories_nodes":[],"categories_segments":[],"categories_sizes":[],"default_left":[true,true,true,false,false,true,true,false,false,true,true,true,true,true,true,false,true,false,true,true,true,true,true,false,false,false,false,false,false,false,false,false,false,false,false],"id":32,"left_children":[1,3,5,-1,-1,7,9,-1,-1,11,13,15,17,19,21,-1,23,-1,25,27,29,31,33,-1,-1,-1,-1,-1,-1,-1,-1,-1,-1,-1,-1],"loss_changes":[6.038248E2,1.3157593E1,1.13766495E2,0E0,0E0,1.3002319E1,2.9139229E1,0E0,0E0,3.5764008E0,4.6303596E0,2.1686058E0,2.951889E-1,1.3338432E0,3.1075191E-1,0E0,3.7172318E-1,0E0,6.064129E-2,1.8928299E0,2.7039394E0,1.84309E-1,3.6117077E-2,0E0,0E0,0E0,0E0,0E0,0E0,0E0,0E0,0E0,0E0,0E0,0E0],"parents":[2147483647,0,0,1,1,2,2,5,5,6,6,9,9,10,10,11,11,12,12,13,13,14,14,16,16,18,18,19,19,20,20,21,21,22,22],"right_children":[2,4,6,-1,-1,8,10,-1,-1,12,14,16,18,20,22,-1,24,-1,26,28,30,32,34,-1,-1,-1,-1,-1,-1,-1,-1,-1,-1,-1,-1],"split_conditions":[7E0,1.64745E2,6.55E1,1.8431412E0,4.6310502E-1,2.6E1,2.115E2,4.6820638E-1,2.431705E-1,1.5909E2,4.27E2,1.055E2,1.8685E2,1.7733499E2,5.77E2,-1.7082786E-2,1.51E2,1.9053243E-1,1.8715E2,1.7482E2,2.0726999E2,4.3E2,7.245E2,1.5071623E-1,9.932967E-2,3.1659126E-2,1.1851038E-1,7.527267E-2,8.072567E-3,1.4772137E-1,3.5328522E-2,2.7602196E-3,4.9240205E-2,3.530745E-2,2.2729589E-2],"split_indices":[1,0,1,0,0,1,1,0,0,0,1,1,0,0,1,0,1,0,0,0,0,1,1,0,0,0,0,0,0,0,0,0,0,0,0],"split_type":[0,0,0,0,0,0,0,0,0,0,0,0,0,0,0,0,0,0,0,0,0,0,0,0,0,0,0,0,0,0,0,0,0,0,0],"sum_hessian":[2.09E2,2E0,2.07E2,1E0,1E0,1.9E1,1.88E2,6E0,1.3E1,5.5E1,1.33E2,3.1E1,2.4E1,5.3E1,8E1,1E0,3E1,1.8E1,6E0,4.2E1,1.1E1,3.5E1,4.5E1,8E0,2.2E1,1E0,5E0,3.7E1,5E0,7E0,4E0,1E0,3.4E1,3.4E1,1.1E1],"tree_param":{"num_deleted":"0","num_feature":"2","num_nodes":"35","size_leaf_vector":"0"}},{"base_weights":[1.1674795E0,1.4606227E1,9.680385E-1,1.7509842E1,4.399498E0,3.0423915E0,7.434083E-1,4.467869E0,2.2693746E0,1.3708892E0,5.3197473E-1,1.0809089E0,1.6512802E0,7.4325985E-1,3.6107424E-1,1.1290196E0,3.3572006E-1,1.8255358E0,1.0170844E0,-1.9543648E-2,7.8172576E-1,4.141555E-1,2.7551612E-1,-1.6228676E-1,6.6586685E-1,3.0076218E-1,1.0863444E0,3.728485E-2,-5.0914764E-2,1.1815299E0,6.571595E-1,2.6222229E-2,4.2185152E-1],"categories":[],"categories_nodes":[],"categories_segments":[],"categories_sizes":[],"default_left":[true,true,true,false,false,true,true,false,false,true,true,true,true,true,true,false,true,false,true,true,true,true,false,false,false,false,false,false,false,false,false,false,false],"id":33,"left_children":[1,3,5,-1,-1,7,9,-1,-1,11,13,15,17,19,21,-1,23,-1,25,27,29,31,-1,-1,-1,-1,-1,-1,-1,-1,-1,-1,-1],"loss_changes":[5.487103E2,1.1874756E1,9.46584E1,0E0,0E0,1.1899109E1,2.4345451E1,0E0,0E0,2.0365906E0,4.8951797E0,5.531063E-1,5.74543E-1,1.8638191E0,2.5375843E-1,0E0,6.013074E-1,0E0,2.0555973E-2,9.029443E-3,2.2116737E0,1.3224316E-1,0E0,0E0,0E0,0E0,0E0,0E0,0E0,0E0,0E0,0E0,0E0],"parents":[2147483647,0,0,1,1,2,2,5,5,6,6,9,9,10,10,11,11,12,12,13,13,14,14,16,16,18,18,19,19,20,20,21,21],"right_children":[2,4,6,-1,-1,8,10,-1,-1,12,14,16,18,20,22,-1,24,-1,26,28,30,32,-1,-1,-1,-1,-1,-1,-1,-1,-1,-1,-1],"split_conditions":[7E0,1.64745E2,6.55E1,1.7509842E0,4.399498E-1,2.3E1,1.91E2,4.4678688E-1,2.2693746E-1,1.6006E2,4.27E2,1.5264E2,1.8685E2,1.97E2,6.275E2,1.1290196E-1,1.5625E2,1.8255357E-1,1.8715E2,1.0825E2,1.5406E2,4.3E2,2.7551612E-2,-1.6228676E-2,6.658669E-2,3.0076219E-2,1.08634435E-1,3.7284852E-3,-5.0914767E-3,1.1815299E-1,6.571595E-2,2.622223E-3,4.2185154E-2],"split_indices":[1,0,1,0,0,1,1,0,0,0,1,0,0,1,1,0,0,0,0,0,0,1,0,0,0,0,0,0,0,0,0,0,0],"split_type":[0,0,0,0,0,0,0,0,0,0,0,0,0,0,0,0,0,0,0,0,0,0,0,0,0,0,0,0,0,0,0,0,0],"sum_hessian":[2.09E2,2E0,2.07E2,1E0,1E0,1.9E1,1.88E2,5E0,1.4E1,4.6E1,1.42E2,2.5E1,2.1E1,6.2E1,8E1,2.3E1,2E0,1.5E1,6E0,3E0,5.9E1,4.7E1,3.3E1,1E0,1E0,1E0,5E0,1E0,2E0,1.2E1,4.7E1,1E0,4.6E1],"tree_param":{"num_deleted":"0","num_feature":"2","num_nodes":"33","size_leaf_vector":"0"}},{"base_weights":[1.067894E0,1.3875918E1,8.780287E-1,1.6634354E1,4.1795235E0,2.890238E0,6.837994E-1,4.095548E0,2.1116152E0,1.3462881E0,5.049616E-1,1.0098271E0,1.5077716E0,6.994372E-1,3.258603E-1,1.0977054E0,-1.541729E-1,1.6393658E0,9.351916E-1,8.761785E-1,5.928128E-1,3.9376238E-1,2.656356E-1,1.5257881E0,8.0333084E-1,4.1986847E-1,9.9817806E-1,3.787789E-2,7.7673894E-1,2.4910927E-2,4.0358925E-1,2.8699383E-1,1.8120448E-1],"categories":[],"categories_nodes":[],"categories_segments":[],"categories_sizes":[],"default_left":[true,true,true,false,false,true,true,false,false,true,true,true,true,true,true,true,false,false,false,true,true,true,true,false,false,false,false,false,false,false,false,false,false],"id":34,"left_children":[1,3,5,-1,-1,7,9,-1,-1,11,13,15,17,19,21,23,-1,-1,-1,25,27,29,31,-1,-1,-1,-1,-1,-1,-1,-1,-1,-1],"loss_changes":[4.984942E2,1.071698E1,7.93163E1,0E0,0E0,8.244461E0,2.1949478E1,0E0,0E0,6.507263E-1,5.0663643E0,1.8058796E0,3.5058212E-1,8.3742523E-1,2.2664165E-1,6.6453743E-1,0E0,0E0,0E0,9.726372E-1,4.8697968E0,1.2043381E-1,3.0947208E-2,0E0,0E0,0E0,0E0,0E0,0E0,0E0,0E0,0E0,0E0],"parents":[2147483647,0,0,1,1,2,2,5,5,6,6,9,9,10,10,11,11,12,12,13,13,14,14,15,15,19,19,20,20,21,21,22,22],"right_children":[2,4,6,-1,-1,8,10,-1,-1,12,14,16,18,20,22,24,-1,-1,-1,26,28,30,32,-1,-1,-1,-1,-1,-1,-1,-1,-1,-1],"split_conditions":[7E0,1.64745E2,6E1,1.6634353E0,4.1795236E-1,2.3E1,1.685E2,4.095548E-1,2.1116152E-1,1.5625E2,4.27E2,1.524E2,1.8685E2,1.5406E2,5.77E2,1.2454E2,-1.541729E-2,1.6393659E-1,9.351916E-2,1.06850006E2,1.6218E2,4.3E2,7.245E2,1.5257882E-1,8.0333084E-2,4.198685E-2,9.9817805E-2,3.7877893E-3,7.76739E-2,2.4910928E-3,4.0358927E-2,2.8699383E-2,1.8120449E-2],"split_indices":[1,0,1,0,0,1,1,0,0,0,1,0,0,0,1,0,0,0,0,0,0,1,1,0,0,0,0,0,0,0,0,0,0],"split_type":[0,0,0,0,0,0,0,0,0,0,0,0,0,0,0,0,0,0,0,0,0,0,0,0,0,0,0,0,0,0,0,0,0],"sum_hessian":[2.09E2,2E0,2.07E2,1E0,1E0,1.7E1,1.9E2,5E0,1.2E1,3.9E1,1.51E2,1.5E1,2.4E1,7.1E1,8E1,1.4E1,1E0,1.8E1,6E0,2.4E1,4.7E1,3.5E1,4.5E1,4E0,1E1,6E0,1.8E1,1.2E1,3.5E1,1E0,3.4E1,3.4E1,1.1E1],"tree_param":{"num_deleted":"0","num_feature":"2","num_nodes":"33","size_leaf_vector":"0"}},{"base_weights":[9.777239E-1,1.3182121E1,7.969984E-1,1.5802635E1,3.9705467E0,2.6356995E0,6.1954486E-1,3.7542534E0,1.9166979E0,1.172857E0,4.4097015E-1,9.074048E-1,1.3783798E0,6.028498E-1,2.8393826E-1,9.5533454E-1,2.6942825E-1,1.5053266E0,8.550339E-1,-4.3210983E-3,6.2970024E-1,3.1275773E-1,1.9898324E-1,1.1853722E0,7.225904E-1,-1.464634E-1,5.506058E-1,1.2478871E0,2.0943928E0,2.3896599E-1,9.178842E-1,-2.7328491E-2,3.235054E-2,9.289384E-1,5.274831E-1],"categories":[],"categories_nodes":[],"categories_segments":[],"categories_sizes":[],"default_left":[true,true,true,false,false,true,true,false,false,true,true,true,true,true,true,true,true,true,true,true,true,false,false,false,false,false,false,false,false,false,false,false,false,false,false],"id":35,"left_children":[1,3,5,-1,-1,7,9,-1,-1,11,13,15,17,19,21,23,25,27,29,31,33,-1,-1,-1,-1,-1,-1,-1,-1,-1,-1,-1,-1,-1,-1],"loss_changes":[4.526797E2,9.672058E0,6.623413E1,0E0,0E0,7.280594E0,1.835505E1,0E0,0E0,1.2588539E0,3.5401878E0,4.4590187E-1,3.073845E-1,1.160223E0,1.2384176E-1,2.6780128E-1,4.3146175E-1,1.16111755E-1,5.169773E-2,4.258967E-3,1.5899353E0,0E0,0E0,0E0,0E0,0E0,0E0,0E0,0E0,0E0,0E0,0E0,0E0,0E0,0E0],"parents":[2147483647,0,0,1,1,2,2,5,5,6,6,9,9,10,10,11,11,12,12,13,13,14,14,15,15,16,16,17,17,18,18,19,19,20,20],"right_children":[2,4,6,-1,-1,8,10,-1,-1,12,14,16,18,20,22,24,26,28,30,32,34,-1,-1,-1,-1,-1,-1,-1,-1,-1,-1,-1,-1,-1,-1],"split_conditions":[7E0,1.64745E2,6E1,1.5802635E0,3.9705467E-1,2.3E1,1.84E2,3.7542534E-1,1.9166979E-1,1.6006E2,4.53E2,1.524E2,1.8685E2,1.06850006E2,6.75E2,1.51E2,1.5625E2,1.16E2,1.8715E2,1.0675E2,1.5406E2,3.1275775E-2,1.9898323E-2,1.18537225E-1,7.225904E-2,-1.4646339E-2,5.5060577E-2,1.2478872E-1,2.0943928E-1,2.38966E-2,9.178842E-2,-2.7328492E-3,3.235054E-3,9.289384E-2,5.274831E-2],"split_indices":[1,0,1,0,0,1,1,0,0,0,1,0,0,0,1,1,0,1,0,0,0,0,0,0,0,0,0,0,0,0,0,0,0,0,0],"split_type":[0,0,0,0,0,0,0,0,0,0,0,0,0,0,0,0,0,0,0,0,0,0,0,0,0,0,0,0,0,0,0,0,0,0,0],"sum_hessian":[2.09E2,2E0,2.07E2,1E0,1E0,1.7E1,1.9E2,5E0,1.2E1,4.5E1,1.45E2,2.2E1,2.3E1,7E1,7.5E1,2E1,2E0,1.7E1,6E0,3E0,6.7E1,5.4E1,2.1E1,8E0,1.2E1,1E0,1E0,1.4E1,3E0,1E0,5E0,2E0,1E0,1.5E1,5.2E1],"tree_param":{"num_deleted":"0","num_feature":"2","num_nodes":"35","size_leaf_vector":"0"}},{"base_weights":[8.9625067E-1,1.2523015E1,7.2424805E-1,1.5012505E1,3.7720184E0,2.5170436E0,5.718699E-1,3.4413974E0,1.7840285E0,1.0881265E0,3.982248E-1,8.267165E-1,1.2775229E0,5.5555165E-1,2.6511618E-1,1.0503877E0,6.079001E-1,1.3856599E0,7.860565E-1,4.8027545E-1,8.5427165E-1,3.2218745E-1,2.146883E-1,1.3274056E0,6.44475E-1,-8.456993E-1,7.847692E-1,1.1743497E0,1.937314E0,2.2701836E-1,8.413932E-1,5.3903687E-1,-8.944893E-2,1.3622484E0,2.968242E-1,-2.708912E-3,3.315476E-1,2.3198341E-1,1.4635356E-1],"categories":[],"categories_nodes":[],"categories_segments":[],"categories_sizes":[],"default_left":[true,true,true,false,false,true,true,false,false,true,true,true,true,true,true,true,true,true,true,true,true,true,true,false,false,false,false,false,false,false,false,false,false,false,false,false,false,false,false],"id":36,"left_children":[1,3,5,-1,-1,7,9,-1,-1,11,13,15,17,19,21,23,25,27,29,31,33,35,37,-1,-1,-1,-1,-1,-1,-1,-1,-1,-1,-1,-1,-1,-1,-1,-1],"loss_changes":[4.1089536E2,8.729065E0,5.5382607E1,0E0,0E0,4.7014923E0,1.6868252E1,0E0,0E0,1.3203316E0,2.910181E0,4.8715687E-1,2.9258728E-1,1.0738239E0,1.6394663E-1,2.689705E-1,4.2630353E0,5.6316376E-2,2.5535107E-2,1.8894958E0,2.9936972E0,1.1037707E-1,2.0413876E-2,0E0,0E0,0E0,0E0,0E0,0E0,0E0,0E0,0E0,0E0,0E0,0E0,0E0,0E0,0E0,0E0],"parents":[2147483647,0,0,1,1,2,2,5,5,6,6,9,9,10,10,11,11,12,12,13,13,14,14,15,15,16,16,17,17,18,18,19,19,20,20,21,21,22,22],"right_children":[2,4,6,-1,-1,8,10,-1,-1,12,14,16,18,20,22,24,26,28,30,32,34,36,38,-1,-1,-1,-1,-1,-1,-1,-1,-1,-1,-1,-1,-1,-1,-1,-1],"split_conditions":[7E0,1.64745E2,5.25E1,1.5012505E0,3.7720186E-1,2.3E1,1.84E2,3.4413975E-1,1.7840286E-1,1.6006E2,4.27E2,1.2454E2,1.8685E2,1.7733499E2,5.77E2,1.685E2,1.2682E2,1.16E2,1.8715E2,1.7482E2,3.645E2,4.3E2,7.245E2,1.3274056E-1,6.44475E-2,-8.456993E-2,7.847692E-2,1.1743497E-1,1.9373141E-1,2.2701835E-2,8.413932E-2,5.3903688E-2,-8.944893E-3,1.3622485E-1,2.9682418E-2,-2.708912E-4,3.315476E-2,2.3198342E-2,1.4635356E-2],"split_indices":[1,0,1,0,0,1,1,0,0,0,1,0,0,0,1,1,0,1,0,0,1,1,1,0,0,0,0,0,0,0,0,0,0,0,0,0,0,0,0],"split_type":[0,0,0,0,0,0,0,0,0,0,0,0,0,0,0,0,0,0,0,0,0,0,0,0,0,0,0,0,0,0,0,0,0,0,0,0,0,0,0],"sum_hessian":[2.09E2,2E0,2.07E2,1E0,1E0,1.5E1,1.92E2,5E0,1E1,4.7E1,1.45E2,2.2E1,2.5E1,6.5E1,8E1,9E0,1.3E1,1.9E1,6E0,5.4E1,1.1E1,3.5E1,4.5E1,4E0,5E0,1E0,1.2E1,1.6E1,3E0,1E0,5E0,4.9E1,5E0,5E0,6E0,1E0,3.4E1,3.4E1,1.1E1],"tree_param":{"num_deleted":"0","num_feature":"2","num_nodes":"39","size_leaf_vector":"0"}},{"base_weights":[8.2230026E-1,1.1896863E1,6.586176E-1,1.4261879E1,3.583416E0,1.5994402E0,4.1805974E-1,3.0396423E0,1.274972E0,6.7655635E-1,2.8854316E-1,1.3420007E0,7.161611E-1,5.8985984E-1,1.2862676E0,2.1743384E-1,3.8377258E-1,7.1729946E-1,3.234505E-1,3.8791656E-1,1.3883545E0,-1.2165298E-1,2.4089417E-1,1.1731682E0,3.4110814E-1,3.025085E-1,7.9827124E-1,-2.2723961E-1,5.527344E-1,1.5390501E0,3.9278603E-1,2.0301533E-1,-7.101631E-1,5.369517E-1,2.0611417E-1,-3.0983925E-1,3.6245897E-1],"categories":[],"categories_nodes":[],"categories_segments":[],"categories_sizes":[],"default_left":[true,true,true,false,false,true,true,false,true,true,true,false,false,true,true,true,true,true,true,false,true,true,true,false,true,false,false,false,false,false,false,false,false,false,false,false,false],"id":37,"left_children":[1,3,5,-1,-1,7,9,-1,11,13,15,-1,-1,17,19,21,23,25,27,-1,29,31,33,-1,35,-1,-1,-1,-1,-1,-1,-1,-1,-1,-1,-1,-1],"loss_changes":[3.728344E2,7.8780212E0,4.6406372E1,0E0,0E0,1.5751137E1,5.395876E0,0E0,3.8734055E-1,2.148573E0,6.81756E-1,0E0,0E0,1.4655437E0,1.16939545E-2,5.622964E-1,1.1827416E0,8.6686516E-1,2.3983614E0,0E0,1.456213E-1,1.0995269E0,5.3803015E-1,0E0,7.516241E-1,0E0,0E0,0E0,0E0,0E0,0E0,0E0,0E0,0E0,0E0,0E0,0E0],"parents":[2147483647,0,0,1,1,2,2,5,5,6,6,8,8,9,9,10,10,13,13,14,14,15,15,16,16,17,17,18,18,20,20,21,21,22,22,24,24],"right_children":[2,4,6,-1,-1,8,10,-1,12,14,16,-1,-1,18,20,22,24,26,28,-1,30,32,34,-1,36,-1,-1,-1,-1,-1,-1,-1,-1,-1,-1,-1,-1],"split_conditions":[7E0,1.64745E2,1.3E2,1.4261879E0,3.583416E-1,2.6E1,2.77E2,3.0396423E-1,1.8635E2,1.7692E2,1.6218E2,1.3420008E-1,7.1616106E-2,1.53555E2,1.455E2,3.01E2,1.6392E2,1.06850006E2,1.6207501E2,3.8791656E-2,2.00375E2,1.5522E2,3.705E2,1.1731682E-1,1.6623999E2,3.0250851E-2,7.982712E-2,-2.2723962E-2,5.527344E-2,1.5390502E-1,3.9278604E-2,2.0301534E-2,-7.101631E-2,5.3695172E-2,2.0611418E-2,-3.0983925E-2,3.6245897E-2],"split_indices":[1,0,1,0,0,1,1,0,0,0,0,0,0,0,1,1,0,0,0,0,0,0,1,0,0,0,0,0,0,0,0,0,0,0,0,0,0],"split_type":[0,0,0,0,0,0,0,0,0,0,0,0,0,0,0,0,0,0,0,0,0,0,0,0,0,0,0,0,0,0,0,0,0,0,0,0,0],"sum_hessian":[2.09E2,2E0,2.07E2,1E0,1E0,4.1E1,1.66E2,6E0,3.5E1,5.4E1,1.12E2,3E1,5E0,4.9E1,5E0,6.6E1,4.6E1,3.2E1,1.7E1,1E0,4E0,4E0,6.2E1,1E0,4.5E1,6E0,2.6E1,5E0,1.2E1,3E0,1E0,3E0,1E0,5E0,5.7E1,1E0,4.4E1],"tree_param":{"num_deleted":"0","num_feature":"2","num_nodes":"37","size_leaf_vector":"0"}},{"base_weights":[7.534752E-1,1.1302017E1,5.977103E-1,1.3548782E1,3.4042435E0,2.1085231E0,4.693646E-1,3.2559032E0,1.593289E0,8.946725E-1,3.2632256E-1,6.771087E-1,1.0677469E0,4.501104E-1,2.0638493E-1,9.026596E-1,4.8160082E-1,1.6857367E0,9.068512E-1,3.8666362E-1,7.2983503E-1,2.2905831E-1,1.403203E-1,1.1464775E0,5.490348E-1,-8.433275E-1,6.364762E-1,2.0695202E0,2.6719284E-1,9.959364E-1,5.736776E-1,5.919274E-1,2.771041E-1,1.1793032E0,2.4031448E-1,2.6609558E-1,2.0029144E-1],"categories":[],"categories_nodes":[],"categories_segments":[],"categories_sizes":[],"default_left":[true,true,true,false,false,true,true,false,false,true,true,true,true,true,true,true,true,true,true,true,true,true,false,false,false,false,false,false,false,false,false,false,false,false,false,false,false],"id":38,"left_children":[1,3,5,-1,-1,7,9,-1,-1,11,13,15,17,19,21,23,25,27,29,31,33,35,-1,-1,-1,-1,-1,-1,-1,-1,-1,-1,-1,-1,-1,-1,-1],"loss_changes":[3.3829413E2,7.109955E0,3.9342842E1,0E0,0E0,4.2711105E0,1.14495735E1,0E0,0E0,1.084446E0,2.0747404E0,6.236048E-1,9.5708656E-1,9.7788143E-1,8.169961E-2,2.3274517E-1,3.6147408E0,1.6246948E0,8.1632614E-2,1.1852903E0,2.3568835E0,5.3026676E-3,0E0,0E0,0E0,0E0,0E0,0E0,0E0,0E0,0E0,0E0,0E0,0E0,0E0,0E0,0E0],"parents":[2147483647,0,0,1,1,2,2,5,5,6,6,9,9,10,10,11,11,12,12,13,13,14,14,15,15,16,16,17,17,18,18,19,19,20,20,21,21],"right_children":[2,4,6,-1,-1,8,10,-1,-1,12,14,16,18,20,22,24,26,28,30,32,34,36,-1,-1,-1,-1,-1,-1,-1,-1,-1,-1,-1,-1,-1,-1,-1],"split_conditions":[7E0,1.64745E2,5.25E1,1.3548783E0,3.4042436E-1,1.8E1,1.84E2,3.2559034E-1,1.5932891E-1,1.6331E2,4.53E2,1.2454E2,1.73445E2,1.7764499E2,6.75E2,1.685E2,1.2682E2,1.34E2,1.11E2,1.54735E2,3.645E2,5.305E2,1.40320305E-2,1.14647746E-1,5.4903477E-2,-8.433276E-2,6.364762E-2,2.0695202E-1,2.6719285E-2,9.959364E-2,5.736776E-2,5.9192743E-2,2.7710412E-2,1.17930315E-1,2.403145E-2,2.6609559E-2,2.0029144E-2],"split_indices":[1,0,1,0,0,1,1,0,0,0,1,0,0,0,1,1,0,1,1,0,1,1,0,0,0,0,0,0,0,0,0,0,0,0,0,0,0],"split_type":[0,0,0,0,0,0,0,0,0,0,0,0,0,0,0,0,0,0,0,0,0,0,0,0,0,0,0,0,0,0,0,0,0,0,0,0,0],"sum_hessian":[2.09E2,2E0,2.07E2,1E0,1E0,1.5E1,1.92E2,3E0,1.2E1,4.7E1,1.45E2,2.3E1,2.4E1,7E1,7.5E1,9E0,1.4E1,3E0,2.1E1,5.9E1,1.1E1,5.4E1,2.1E1,4E0,5E0,1E0,1.3E1,2E0,1E0,1.5E1,6E0,1.9E1,4E1,5E0,6E0,2E1,3.4E1],"tree_param":{"num_deleted":"0","num_feature":"2","num_nodes":"37","size_leaf_vector":"0"}},{"base_weights":[6.924574E-1,1.0736918E1,5.442562E-1,1.28713455E1,3.2340317E0,1.9279761E0,4.2672372E-1,3.0117092E0,1.446214E0,8.164445E-1,2.9567358E-1,6.156005E-1,9.76597E-1,4.0832317E-1,1.865447E-1,8.2934934E-1,4.3206125E-1,1.5755816E0,8.2329994E-1,-1.1127329E-1,4.328829E-1,2.0700055E-1,1.2692577E-1,1.05476E0,5.0328225E-1,-8.011608E-1,5.7737434E-1,1.9315529E0,2.5383377E-1,9.025669E-1,5.24504E-1,9.2003137E-1,3.8806063E-1,2.4075326E-1,1.8083464E-1],"categories":[],"categories_nodes":[],"categories_segments":[],"categories_sizes":[],"default_left":[true,true,true,false,false,true,true,false,false,true,true,true,true,true,true,true,true,true,true,false,true,true,false,false,false,false,false,false,false,false,false,false,false,false,false],"id":39,"left_children":[1,3,5,-1,-1,7,9,-1,-1,11,13,15,17,19,21,23,25,27,29,-1,31,33,-1,-1,-1,-1,-1,-1,-1,-1,-1,-1,-1,-1,-1],"loss_changes":[3.067625E2,6.416748E0,3.3004757E1,0E0,0E0,3.9980507E0,9.6156845E0,0E0,0E0,9.4276047E-1,1.7186537E0,5.8322144E-1,9.983883E-1,9.5421124E-1,6.641269E-2,2.0414782E-1,3.1506188E0,1.3917246E0,4.7662735E-2,0E0,1.127758E0,5.0377846E-3,0E0,0E0,0E0,0E0,0E0,0E0,0E0,0E0,0E0,0E0,0E0,0E0,0E0],"parents":[2147483647,0,0,1,1,2,2,5,5,6,6,9,9,10,10,11,11,12,12,13,13,14,14,15,15,16,16,17,17,18,18,20,20,21,21],"right_children":[2,4,6,-1,-1,8,10,-1,-1,12,14,16,18,20,22,24,26,28,30,-1,32,34,-1,-1,-1,-1,-1,-1,-1,-1,-1,-1,-1,-1,-1],"split_conditions":[7E0,1.64745E2,5.25E1,1.2871345E0,3.2340318E-1,1.8E1,1.84E2,3.0117092E-1,1.446214E-1,1.6331E2,4.53E2,1.2454E2,1.73445E2,1.06850006E2,6.75E2,1.685E2,1.2682E2,1.34E2,1.11E2,-1.1127329E-2,1.097E2,5.305E2,1.2692577E-2,1.05476E-1,5.0328225E-2,-8.0116086E-2,5.7737436E-2,1.9315529E-1,2.5383377E-2,9.025669E-2,5.24504E-2,9.200314E-2,3.8806062E-2,2.4075327E-2,1.8083464E-2],"split_indices":[1,0,1,0,0,1,1,0,0,0,1,0,0,0,1,1,0,1,1,0,0,1,0,0,0,0,0,0,0,0,0,0,0,0,0],"split_type":[0,0,0,0,0,0,0,0,0,0,0,0,0,0,0,0,0,0,0,0,0,0,0,0,0,0,0,0,0,0,0,0,0,0,0],"sum_hessian":[2.09E2,2E0,2.07E2,1E0,1E0,1.5E1,1.92E2,3E0,1.2E1,4.7E1,1.45E2,2.3E1,2.4E1,7E1,7.5E1,9E0,1.4E1,3E0,2.1E1,3E0,6.7E1,5.4E1,2.1E1,4E0,5E0,1E0,1.3E1,2E0,1E0,1.5E1,6E0,4E0,6.3E1,2E1,3.4E1],"tree_param":{"num_deleted":"0","num_feature":"2","num_nodes":"35","size_leaf_vector":"0"}},{"base_weights":[6.3619E-1,1.020007E1,4.9519083E-1,1.2227776E1,3.0723305E0,1.6843534E0,3.8053054E-1,2.7858315E0,1.2783356E0,6.189459E-1,2.1048322E-1,4.772337E-1,8.741978E-1,1.5337476E-1,2.874148E-1,5.398339E-1,-1.1257989E-2,1.7711239E0,7.3159873E-1,-1.9173393E-1,1.7832981E-1,1.0812511E0,2.4665202E-1,2.1088137E-1,5.8282983E-1,8.9239216E-1,-3.1059837E-1,4.0924427E-1,8.1185573E-1,1.14289284E-1,-7.079134E-1,2.0121329E-1,-2.095046E-1,-3.276062E-1,2.6669344E-1],"categories":[],"categories_nodes":[],"categories_segments":[],"categories_sizes":[],"default_left":[true,true,true,false,false,true,true,false,false,true,true,true,true,true,true,true,true,false,true,true,true,false,true,false,false,false,false,false,false,false,false,false,false,false,false],"id":40,"left_children":[1,3,5,-1,-1,7,9,-1,-1,11,13,15,17,19,21,23,25,-1,27,29,31,-1,33,-1,-1,-1,-1,-1,-1,-1,-1,-1,-1,-1,-1],"loss_changes":[2.781339E2,5.7910767E0,2.7719795E1,0E0,0E0,4.4887276E0,7.613226E0,0E0,0E0,2.4404163E0,4.5237732E-1,1.6267986E0,2.15757E0,6.1120975E-1,1.2541788E0,5.4184246E-1,2.1706684E0,0E0,3.1453323E-1,8.7072134E-1,6.0128E-1,0E0,6.167822E-1,0E0,0E0,0E0,0E0,0E0,0E0,0E0,0E0,0E0,0E0,0E0,0E0],"parents":[2147483647,0,0,1,1,2,2,5,5,6,6,9,9,10,10,11,11,12,12,13,13,14,14,15,15,16,16,18,18,19,19,20,20,22,22],"right_children":[2,4,6,-1,-1,8,10,-1,-1,12,14,16,18,20,22,24,26,-1,28,30,32,-1,34,-1,-1,-1,-1,-1,-1,-1,-1,-1,-1,-1,-1],"split_conditions":[7E0,1.64745E2,6E1,1.2227776E0,3.0723307E-1,1.8E1,2.77E2,2.7858314E-1,1.2783356E-1,1.71995E2,1.6218E2,2.41E2,1.7301501E2,3.01E2,1.6392E2,1.06850006E2,1.53535E2,1.7711239E-1,1.7633499E2,1.5522E2,1.587E2,1.0812511E-1,1.6623999E2,2.1088136E-2,5.8282983E-2,8.923922E-2,-3.1059837E-2,4.0924426E-2,8.118557E-2,1.1428929E-2,-7.079134E-2,2.0121329E-2,-2.095046E-2,-3.276062E-2,2.6669344E-2],"split_indices":[1,0,1,0,0,1,1,0,0,0,0,1,0,1,0,0,0,0,0,0,0,0,0,0,0,0,0,0,0,0,0,0,0,0,0],"split_type":[0,0,0,0,0,0,0,0,0,0,0,0,0,0,0,0,0,0,0,0,0,0,0,0,0,0,0,0,0,0,0,0,0,0,0],"sum_hessian":[2.09E2,2E0,2.07E2,1E0,1E0,1.7E1,1.9E2,3E0,1.4E1,7.8E1,1.12E2,5.2E1,2.6E1,6.6E1,4.6E1,4.6E1,6E0,2E0,2.4E1,4E0,6.2E1,1E0,4.5E1,6E0,4E1,1E0,5E0,6E0,1.8E1,3E0,1E0,5.9E1,3E0,1E0,4.4E1],"tree_param":{"num_deleted":"0","num_feature":"2","num_nodes":"35","size_leaf_vector":"0"}},{"base_weights":[5.840713E-1,9.690066E0,4.499268E-1,1.1616386E1,2.9187126E0,1.8736287E0,3.6855987E-1,2.5768967E0,1.2877913E0,7.1309507E-1,2.409645E-1,5.083929E-1,8.53087E-1,3.4511343E-1,1.5312754E-1,7.2069836E-1,3.3296305E-1,1.3992376E0,7.4057996E-1,2.7911577E-1,5.927104E-1,2.024953E-1,1.24693744E-1,9.2375106E-1,4.3137136E-1,-7.902441E-1,4.6963814E-1,1.724317E0,2.119999E-1,8.155214E-1,4.0995842E-1,3.3509946E-1,-3.3654422E-1,8.540946E-1,3.6766052E-3,1.0972023E-2,2.2503921E-1,1.367499E-1,7.110143E-2],"categories":[],"categories_nodes":[],"categories_segments":[],"categories_sizes":[],"default_left":[true,true,true,false,false,true,true,false,false,true,true,true,true,true,true,true,true,true,true,true,true,true,true,false,false,false,false,false,false,false,false,false,false,false,false,false,false,false,false],"id":41,"left_children":[1,3,5,-1,-1,7,9,-1,-1,11,13,15,17,19,21,23,25,27,29,31,33,35,37,-1,-1,-1,-1,-1,-1,-1,-1,-1,-1,-1,-1,-1,-1,-1,-1],"loss_changes":[2.5215918E2,5.2265015E0,2.3404644E1,0E0,0E0,1.213501E0,8.532467E0,0E0,0E0,1.0850983E0,1.2827797E0,6.539073E-1,8.071251E-1,9.1305923E-1,8.845091E-2,1.8900633E-1,2.6738453E0,1.1782303E0,3.3465672E-1,1.973989E0,1.998394E0,1.18425965E-1,2.5167167E-2,0E0,0E0,0E0,0E0,0E0,0E0,0E0,0E0,0E0,0E0,0E0,0E0,0E0,0E0,0E0,0E0],"parents":[2147483647,0,0,1,1,2,2,5,5,6,6,9,9,10,10,11,11,12,12,13,13,14,14,15,15,16,16,17,17,18,18,19,19,20,20,21,21,22,22],"right_children":[2,4,6,-1,-1,8,10,-1,-1,12,14,16,18,20,22,24,26,28,30,32,34,36,38,-1,-1,-1,-1,-1,-1,-1,-1,-1,-1,-1,-1,-1,-1,-1,-1],"split_conditions":[7E0,1.64745E2,3.9E1,1.1616386E0,2.9187128E-1,1.8E1,1.84E2,2.5768968E-1,1.2877913E-1,1.6331E2,4.27E2,1.2454E2,1.73445E2,1.766E2,5.39E2,1.685E2,1.2682E2,1.34E2,1.11E2,1.7482E2,2.0726999E2,4.465E2,7.245E2,9.237511E-2,4.3137137E-2,-7.902441E-2,4.6963815E-2,1.7243169E-1,2.119999E-2,8.155214E-2,4.0995844E-2,3.3509947E-2,-3.365442E-2,8.540946E-2,3.676605E-4,1.0972023E-3,2.2503922E-2,1.3674989E-2,7.1101426E-3],"split_indices":[1,0,1,0,0,1,1,0,0,0,1,0,0,0,1,1,0,1,1,0,0,1,1,0,0,0,0,0,0,0,0,0,0,0,0,0,0,0,0],"split_type":[0,0,0,0,0,0,0,0,0,0,0,0,0,0,0,0,0,0,0,0,0,0,0,0,0,0,0,0,0,0,0,0,0,0,0,0,0,0,0],"sum_hessian":[2.09E2,2E0,2.07E2,1E0,1E0,1E1,1.97E2,3E0,7E0,5.2E1,1.45E2,2.3E1,2.9E1,6.5E1,8E1,9E0,1.4E1,3E0,2.6E1,5.3E1,1.2E1,2.7E1,5.3E1,4E0,5E0,1E0,1.3E1,2E0,1E0,2E1,6E0,4.9E1,4E0,8E0,4E0,3E0,2.4E1,4.2E1,1.1E1],"tree_param":{"num_deleted":"0","num_feature":"2","num_nodes":"39","size_leaf_vector":"0"}},{"base_weights":[5.3704363E-1,9.205564E0,4.094349E-1,1.1035568E1,2.7727776E0,1.484791E0,3.1816483E-1,2.3836288E0,1.0940108E0,5.210299E-1,1.6993262E-1,3.9031097E-1,7.419635E-1,1.2007215E-1,2.3739472E-1,4.4468704E-1,-3.0544281E-2,1.5844015E0,6.208791E-1,-2.1124116E-1,1.4446095E-1,1.0104332E0,1.986236E-1,1.5995762E-1,4.8245338E-1,8.310175E-1,-3.1264082E-1,3.5689497E-1,6.9542885E-1,8.0585E-2,-6.892729E-1,1.6627897E-1,-2.1892452E-1,-3.27981E-1,2.1761438E-1],"categories":[],"categories_nodes":[],"categories_segments":[],"categories_sizes":[],"default_left":[true,true,true,false,false,true,true,false,false,true,true,true,true,true,true,true,true,false,true,true,true,false,true,false,false,false,false,false,false,false,false,false,false,false,false],"id":42,"left_children":[1,3,5,-1,-1,7,9,-1,-1,11,13,15,17,19,21,23,25,-1,27,29,31,-1,33,-1,-1,-1,-1,-1,-1,-1,-1,-1,-1,-1,-1],"loss_changes":[2.2852838E2,4.7169037E0,1.9942348E1,0E0,0E0,3.0122528E0,5.715189E0,0E0,0E0,2.0496998E0,3.5159254E-1,1.2264595E0,1.9744549E0,5.718984E-1,1.207968E0,4.2822647E-1,1.9611152E0,0E0,2.8316307E-1,7.530558E-1,5.358887E-1,0E0,5.314027E-1,0E0,0E0,0E0,0E0,0E0,0E0,0E0,0E0,0E0,0E0,0E0,0E0],"parents":[2147483647,0,0,1,1,2,2,5,5,6,6,9,9,10,10,11,11,12,12,13,13,14,14,15,15,16,16,18,18,19,19,20,20,22,22],"right_children":[2,4,6,-1,-1,8,10,-1,-1,12,14,16,18,20,22,24,26,-1,28,30,32,-1,34,-1,-1,-1,-1,-1,-1,-1,-1,-1,-1,-1,-1],"split_conditions":[7E0,1.64745E2,5.25E1,1.1035569E0,2.7727777E-1,1.8E1,2.77E2,2.383629E-1,1.09401084E-1,1.71995E2,1.6218E2,2.41E2,1.7301501E2,3.01E2,1.6392E2,1.06850006E2,1.53535E2,1.5844016E-1,1.7723999E2,1.5522E2,1.587E2,1.0104332E-1,1.6623999E2,1.5995761E-2,4.8245337E-2,8.310175E-2,-3.126408E-2,3.56895E-2,6.9542885E-2,8.0585005E-3,-6.892729E-2,1.6627898E-2,-2.1892453E-2,-3.27981E-2,2.1761438E-2],"split_indices":[1,0,1,0,0,1,1,0,0,0,0,1,0,1,0,0,0,0,0,0,0,0,0,0,0,0,0,0,0,0,0,0,0,0,0],"split_type":[0,0,0,0,0,0,0,0,0,0,0,0,0,0,0,0,0,0,0,0,0,0,0,0,0,0,0,0,0,0,0,0,0,0,0],"sum_hessian":[2.09E2,2E0,2.07E2,1E0,1E0,1.5E1,1.92E2,3E0,1.2E1,8E1,1.12E2,5.2E1,2.8E1,6.6E1,4.6E1,4.6E1,6E0,2E0,2.6E1,4E0,6.2E1,1E0,4.5E1,6E0,4E1,1E0,5E0,7E0,1.9E1,3E0,1E0,5.9E1,3E0,1E0,4.4E1],"tree_param":{"num_deleted":"0","num_feature":"2","num_nodes":"35","size_leaf_vector":"0"}},{"base_weights":[4.9349287E-1,8.745285E0,3.7210408E-1,1.0483788E1,2.63414E0,1.6508049E0,3.0597788E-1,2.204855E0,1.0983756E0,5.970557E-1,1.9622323E-1,4.1966137E-1,7.151333E-1,2.8112558E-1,1.143247E-1,6.284342E-1,2.5250205E-1,1.24399E0,6.1404186E-1,-8.439418E-2,3.1616423E-1,1.262291E-1,5.25888E-2,8.1125414E-1,3.713452E-1,-7.748537E-1,3.812313E-1,1.5404676E0,1.7727852E-1,6.812134E-1,3.1521115E-1,-3.141171E-1,6.469717E-1,6.131397E-1,2.3735583E-1,1.5638573E-1,1.0856588E-1],"categories":[],"categories_nodes":[],"categories_segments":[],"categories_sizes":[],"default_left":[true,true,true,false,false,true,true,false,false,true,true,true,true,true,true,true,true,true,true,true,true,true,false,false,false,false,false,false,false,false,false,false,false,false,false,false,false],"id":43,"left_children":[1,3,5,-1,-1,7,9,-1,-1,11,13,15,17,19,21,23,25,27,29,31,33,35,-1,-1,-1,-1,-1,-1,-1,-1,-1,-1,-1,-1,-1,-1,-1],"loss_changes":[2.0709763E2,4.2569427E0,1.708246E1,0E0,0E0,6.3897705E-1,6.240324E0,0E0,0E0,8.30986E-1,9.830532E-1,6.788788E-1,8.93487E-1,9.3600225E-1,4.921627E-2,1.6875482E-1,2.2791595E0,9.919324E-1,3.4731483E-1,1.3793055E0,1.3757381E0,1.6579628E-2,0E0,0E0,0E0,0E0,0E0,0E0,0E0,0E0,0E0,0E0,0E0,0E0,0E0,0E0,0E0],"parents":[2147483647,0,0,1,1,2,2,5,5,6,6,9,9,10,10,11,11,12,12,13,13,14,14,15,15,16,16,17,17,18,18,19,19,20,20,21,21],"right_children":[2,4,6,-1,-1,8,10,-1,-1,12,14,16,18,20,22,24,26,28,30,32,34,36,-1,-1,-1,-1,-1,-1,-1,-1,-1,-1,-1,-1,-1,-1,-1],"split_conditions":[7E0,1.64745E2,3.6E1,1.0483788E0,2.63414E-1,1.8E1,1.84E2,2.204855E-1,1.09837554E-1,1.6331E2,4.53E2,1.2454E2,1.73445E2,1.97E2,7.15E2,1.685E2,1.2682E2,1.34E2,1.11E2,1.4514E2,1.5406E2,5.305E2,5.25888E-3,8.1125416E-2,3.713452E-2,-7.7485375E-2,3.812313E-2,1.5404676E-1,1.7727852E-2,6.812134E-2,3.1521115E-2,-3.141171E-2,6.469717E-2,6.131397E-2,2.3735583E-2,1.5638573E-2,1.0856588E-2],"split_indices":[1,0,1,0,0,1,1,0,0,0,1,0,0,1,1,1,0,1,1,0,0,1,0,0,0,0,0,0,0,0,0,0,0,0,0,0,0],"split_type":[0,0,0,0,0,0,0,0,0,0,0,0,0,0,0,0,0,0,0,0,0,0,0,0,0,0,0,0,0,0,0,0,0,0,0,0,0],"sum_hessian":[2.09E2,2E0,2.07E2,1E0,1E0,9E0,1.98E2,3E0,6E0,5.3E1,1.45E2,2.3E1,3E1,7E1,7.5E1,9E0,1.4E1,3E0,2.7E1,6E0,6.4E1,6.2E1,1.3E1,4E0,5E0,1E0,1.3E1,2E0,1E0,2.1E1,6E0,5E0,1E0,1.2E1,5.2E1,2E1,4.2E1],"tree_param":{"num_deleted":"0","num_feature":"2","num_nodes":"37","size_leaf_vector":"0"}},{"base_weights":[4.5434594E-1,8.308019E0,3.3888745E-1,9.959595E0,2.5024338E0,1.6649761E0,2.844218E-1,5.5776656E-1,1.7762913E-1,3.8447893E-1,6.7571735E-1,2.7326328E-1,1.1682538E-1,2.2442831E-1,5.677771E-1,1.1625357E0,5.852694E-1,1.9447128E-1,8.974514E-1,-5.255769E-1,1.3716674E-1,4.6164232E-1,-8.783086E-1,7.9295194E-1,3.258269E-1,1.4377708E0,1.6841507E-1,6.78425E-1,3.404312E-1,1.3477929E-1,8.6215734E-1,1.0349468E0,1.04987144E-1,9.480438E-1,1.1717901E-1],"categories":[],"categories_nodes":[],"categories_segments":[],"categories_sizes":[],"default_left":[true,true,true,false,false,false,true,true,true,true,true,true,true,true,true,true,true,true,true,false,true,false,false,false,false,false,false,false,false,false,false,false,false,false,false],"id":44,"left_children":[1,3,5,-1,-1,-1,7,9,11,13,15,17,19,21,23,25,27,29,31,-1,33,-1,-1,-1,-1,-1,-1,-1,-1,-1,-1,-1,-1,-1,-1],"loss_changes":[1.8760687E2,3.8418732E0,1.4549511E1,0E0,0E0,0E0,5.768358E0,8.848076E-1,8.170538E-1,6.059997E-1,7.286186E-1,2.579609E0,1.2612196E0,4.329235E0,3.409269E-1,8.5232544E-1,4.3047714E-1,1.9164301E0,5.45105E-1,0E0,1.3313855E0,0E0,0E0,0E0,0E0,0E0,0E0,0E0,0E0,0E0,0E0,0E0,0E0,0E0,0E0],"parents":[2147483647,0,0,1,1,2,2,6,6,7,7,8,8,9,9,10,10,11,11,12,12,13,13,14,14,15,15,16,16,17,17,18,18,20,20],"right_children":[2,4,6,-1,-1,-1,8,10,12,14,16,18,20,22,24,26,28,30,32,-1,34,-1,-1,-1,-1,-1,-1,-1,-1,-1,-1,-1,-1,-1,-1],"split_conditions":[7E0,1.64745E2,3E1,9.9595946E-1,2.502434E-1,1.6649762E-1,1.84E2,1.634E2,3.715E2,1.56E2,1.73445E2,1.7692E2,3.795E2,1.51E2,1.685E2,1.34E2,1.01E2,3.565E2,2.075E2,-5.255769E-2,3.845E2,4.6164233E-2,-8.7830864E-2,7.9295196E-2,3.2582693E-2,1.4377709E-1,1.6841507E-2,6.7842506E-2,3.4043122E-2,1.3477929E-2,8.6215734E-2,1.0349468E-1,1.0498715E-2,9.4804384E-2,1.1717901E-2],"split_indices":[1,0,1,0,0,0,1,0,1,1,0,0,1,1,1,1,1,1,0,0,1,0,0,0,0,0,0,0,0,0,0,0,0,0,0],"split_type":[0,0,0,0,0,0,0,0,0,0,0,0,0,0,0,0,0,0,0,0,0,0,0,0,0,0,0,0,0,0,0,0,0,0,0],"sum_hessian":[2.09E2,2E0,2.07E2,1E0,1E0,7E0,2E2,5.5E1,1.45E2,2.4E1,3.1E1,5.5E1,9E1,1.4E1,1E1,3E0,2.8E1,5E1,5E0,2E0,8.8E1,1.2E1,2E0,4E0,6E0,2E0,1E0,1.9E1,9E0,4.7E1,3E0,4E0,1E0,1E0,8.7E1],"tree_param":{"num_deleted":"0","num_feature":"2","num_nodes":"35","size_leaf_vector":"0"}},{"base_weights":[4.1849744E-1,7.8926187E0,3.086856E-1,9.4616165E0,2.3773117E0,1.3380543E0,2.4993943E-1,1.9146214E0,8.82514E-1,4.152439E-1,1.2192064E-1,2.9283473E-1,5.938451E-1,-9.6217155E-2,1.3723367E-1,3.8506535E-1,9.210491E-2,1.3670973E0,5.027951E-1,8.2441874E-2,-6.734152E-1,5.8852196E-1,1.1837555E-1,3.022784E-1,8.378887E-1,-5.1746976E-1,3.0323124E-1,2.4372768E-1,5.655849E-1,-5.0865937E-2,2.7714095E-1,-3.301878E-1,1.2601036E-1],"categories":[],"categories_nodes":[],"categories_segments":[],"categories_sizes":[],"default_left":[true,true,true,false,false,true,true,false,false,true,true,true,true,true,true,true,true,false,true,true,false,false,true,false,false,false,false,false,false,false,false,false,false],"id":45,"left_children":[1,3,5,-1,-1,7,9,-1,-1,11,13,15,17,19,21,23,25,-1,27,29,-1,-1,31,-1,-1,-1,-1,-1,-1,-1,-1,-1,-1],"loss_changes":[1.6992053E2,3.4673004E0,1.2243631E1,0E0,0E0,1.1994648E0,4.1394644E0,0E0,0E0,1.7062693E0,3.9066398E-1,9.4574547E-1,1.7063885E0,8.804908E-1,8.324412E-1,1.0962873E0,2.4734638E0,0E0,3.8268852E-1,1.9578137E-1,0E0,0E0,3.94351E-1,0E0,0E0,0E0,0E0,0E0,0E0,0E0,0E0,0E0,0E0],"parents":[2147483647,0,0,1,1,2,2,5,5,6,6,9,9,10,10,11,11,12,12,13,13,14,14,15,15,16,16,18,18,19,19,22,22],"right_children":[2,4,6,-1,-1,8,10,-1,-1,12,14,16,18,20,22,24,26,-1,28,30,-1,-1,32,-1,-1,-1,-1,-1,-1,-1,-1,-1,-1],"split_conditions":[7E0,1.64745E2,3.9E1,9.461617E-1,2.3773117E-1,1.8E1,2.77E2,1.9146214E-1,8.8251404E-2,1.71995E2,2.985E2,1.5264E2,1.7301501E2,2.935E2,3.135E2,1.4898999E2,1.5818E2,1.3670973E-1,1.7723999E2,2.885E2,-6.734152E-2,5.8852196E-2,3.22E2,3.022784E-2,8.378887E-2,-5.1746976E-2,3.0323124E-2,2.437277E-2,5.655849E-2,-5.086594E-3,2.7714094E-2,-3.301878E-2,1.2601036E-2],"split_indices":[1,0,1,0,0,1,1,0,0,0,1,0,0,1,1,0,0,0,0,1,0,0,1,0,0,0,0,0,0,0,0,0,0],"split_type":[0,0,0,0,0,0,0,0,0,0,0,0,0,0,0,0,0,0,0,0,0,0,0,0,0,0,0,0,0,0,0,0,0],"sum_hessian":[2.09E2,2E0,2.07E2,1E0,1E0,1E1,1.97E2,3E0,7E0,8.5E1,1.12E2,5.2E1,3.3E1,7E0,1.05E2,3.5E1,1.7E1,2E0,3.1E1,6E0,1E0,3E0,1.02E2,3.1E1,4E0,4E0,1.3E1,7E0,2.4E1,4E0,2E0,1E0,1.01E2],"tree_param":{"num_deleted":"0","num_feature":"2","num_nodes":"33","size_leaf_vector":"0"}},{"base_weights":[3.8506493E-1,7.497986E0,2.8062347E-1,8.988533E0,2.2584457E0,1.4872252E0,2.374213E-1,4.6905407E-1,1.4536317E-1,3.3571237E-1,5.627363E-1,2.1401908E-1,7.931142E-2,4.2714602E-1,7.65934E-2,1.0370979E0,4.7790238E-1,-1.163123E-1,2.4630062E-1,1.0978742E-1,5.704909E-2,7.2456455E-1,3.7036917E-1,-5.5255127E-1,2.454071E-1,1.2862421E0,1.4483261E-1,5.6351244E-1,2.5889206E-1,-3.2436118E-1,5.6599045E-1,5.153103E-1,1.7566994E-1,6.886422E-2,2.5124209E-2],"categories":[],"categories_nodes":[],"categories_segments":[],"categories_sizes":[],"default_left":[true,true,true,false,false,false,true,true,true,true,true,true,true,true,true,true,true,true,true,false,true,false,false,false,false,false,false,false,false,false,false,false,false,false,false],"id":46,"left_children":[1,3,5,-1,-1,-1,7,9,11,13,15,17,19,21,23,25,27,29,31,-1,33,-1,-1,-1,-1,-1,-1,-1,-1,-1,-1,-1,-1,-1,-1],"loss_changes":[1.5390152E2,3.1292267E0,1.0489483E1,0E0,0E0,0E0,4.2392006E0,5.2311134E-1,6.4511275E-1,5.832803E-1,7.9211044E-1,7.857642E-1,4.5300186E-2,5.2486897E-2,9.852659E-1,7.029214E-1,3.9784622E-1,1.1772516E0,1.1444972E0,0E0,1.5620872E-2,0E0,0E0,0E0,0E0,0E0,0E0,0E0,0E0,0E0,0E0,0E0,0E0,0E0,0E0],"parents":[2147483647,0,0,1,1,2,2,6,6,7,7,8,8,9,9,10,10,11,11,12,12,13,13,14,14,15,15,16,16,17,17,18,18,20,20],"right_children":[2,4,6,-1,-1,-1,8,10,12,14,16,18,20,22,24,26,28,30,32,-1,34,-1,-1,-1,-1,-1,-1,-1,-1,-1,-1,-1,-1,-1,-1],"split_conditions":[7E0,1.64745E2,2.6E1,8.988533E-1,2.2584458E-1,1.4872251E-1,1.84E2,1.634E2,4.53E2,1.4435E2,1.73445E2,1.97E2,5.77E2,1.0625E2,1.4869E2,1.34E2,1.01E2,1.4514E2,1.5406E2,1.09787425E-2,7.15E2,7.245646E-2,3.7036918E-2,-5.5255126E-2,2.4540711E-2,1.2862422E-1,1.4483261E-2,5.6351244E-2,2.5889207E-2,-3.2436118E-2,5.6599047E-2,5.1531028E-2,1.7566994E-2,6.886422E-3,2.512421E-3],"split_indices":[1,0,1,0,0,0,1,0,1,0,0,1,1,0,0,1,1,0,0,0,1,0,0,0,0,0,0,0,0,0,0,0,0,0,0],"split_type":[0,0,0,0,0,0,0,0,0,0,0,0,0,0,0,0,0,0,0,0,0,0,0,0,0,0,0,0,0,0,0,0,0,0,0],"sum_hessian":[2.09E2,2E0,2.07E2,1E0,1E0,6E0,2.01E2,5.6E1,1.45E2,2.5E1,3.1E1,7E1,7.5E1,1.8E1,7E0,3E0,2.8E1,6E0,6.4E1,3E1,4.5E1,1E0,1.7E1,1E0,6E0,2E0,1E0,1.9E1,9E0,5E0,1E0,1.2E1,5.2E1,3.2E1,1.3E1],"tree_param":{"num_deleted":"0","num_feature":"2","num_nodes":"35","size_leaf_vector":"0"}},{"base_weights":[3.546119E-1,7.1230874E0,2.5528482E-1,8.539108E0,2.145523E0,1.1793953E0,2.0756425E-1,1.6594868E0,7.3657227E-1,3.8411567E-1,1.1905711E-1,2.5743288E-1,4.8896518E-1,5.772998E-2,1.9842146E-1,-4.1146088E-1,2.9228303E-1,3.91691E-1,7.2645825E-1,1.11305594E-1,-2.7384236E-1,8.855572E-1,1.7083035E-1,2.2699137E-1,5.8640134E-1,4.7005296E-1,-3.9188895E-1,9.4699985E-1,2.1403122E-1,7.653172E-2,6.398611E-1,-5.581334E-1,5.6089085E-2,3.3188653E-1,6.0112573E-2],"categories":[],"categories_nodes":[],"categories_segments":[],"categories_sizes":[],"default_left":[true,true,true,false,false,true,true,false,false,true,true,true,true,true,true,false,true,true,true,true,true,false,true,false,false,false,false,false,false,false,false,false,false,false,false],"id":47,"left_children":[1,3,5,-1,-1,7,9,-1,-1,11,13,15,17,19,21,-1,23,25,27,29,31,-1,33,-1,-1,-1,-1,-1,-1,-1,-1,-1,-1,-1,-1],"loss_changes":[1.3936316E2,2.8241425E0,8.927806E0,0E0,0E0,9.036236E-1,3.0638542E0,0E0,0E0,7.507782E-1,6.4074826E-1,8.6621666E-1,5.240202E-1,1.3983229E0,9.483323E-1,0E0,4.6219945E-1,1.8420858E0,8.144164E-1,1.1824851E0,1.0630674E0,0E0,9.9646115E-1,0E0,0E0,0E0,0E0,0E0,0E0,0E0,0E0,0E0,0E0,0E0,0E0],"parents":[2147483647,0,0,1,1,2,2,5,5,6,6,9,9,10,10,11,11,12,12,13,13,14,14,16,16,17,17,18,18,19,19,20,20,22,22],"right_children":[2,4,6,-1,-1,8,10,-1,-1,12,14,16,18,20,22,-1,24,26,28,30,32,-1,34,-1,-1,-1,-1,-1,-1,-1,-1,-1,-1,-1,-1],"split_conditions":[7E0,1.64745E2,3.6E1,8.5391086E-1,2.1455231E-1,1.8E1,2.115E2,1.6594867E-1,7.365723E-2,1.5909E2,1.6218E2,1.055E2,1.17E2,1.54735E2,1.63625E2,-4.114609E-2,1.97E2,1.11E2,1.869E2,1.5170001E2,3.18E2,8.8555716E-2,3.525E2,2.2699138E-2,5.8640134E-2,4.7005296E-2,-3.9188895E-2,9.469999E-2,2.1403123E-2,7.6531726E-3,6.3986115E-2,-5.5813342E-2,5.6089084E-3,3.3188652E-2,6.0112574E-3],"split_indices":[1,0,1,0,0,1,1,0,0,0,0,1,1,0,0,0,1,1,0,0,1,0,1,0,0,0,0,0,0,0,0,0,0,0,0],"split_type":[0,0,0,0,0,0,0,0,0,0,0,0,0,0,0,0,0,0,0,0,0,0,0,0,0,0,0,0,0,0,0,0,0,0,0],"sum_hessian":[2.09E2,2E0,2.07E2,1E0,1E0,9E0,1.98E2,3E0,6E0,6.5E1,1.33E2,3.1E1,3.4E1,7.6E1,5.7E1,1E0,3E1,2.6E1,8E0,6.6E1,1E1,1E0,5.6E1,2.6E1,4E0,2.4E1,2E0,5E0,3E0,6.3E1,3E0,5E0,5E0,2.2E1,3.4E1],"tree_param":{"num_deleted":"0","num_feature":"2","num_nodes":"35","size_leaf_vector":"0"}},{"base_weights":[3.2687187E-1,6.766932E0,2.3241489E-1,8.112152E0,2.0382462E0,1.0854187E0,1.8838246E-1,1.5350266E0,6.734401E-1,3.7348324E-1,1.1687264E-1,2.5492054E-1,4.4480017E-1,-1.8439007E-1,1.2894909E-1,3.4263238E-1,-1.2936859E-1,3.5281187E-1,7.3606926E-1,-4.3180466E-1,5.2634144E-1,5.0648224E-1,1.082649E-1,4.3425247E-1,1.9258203E-1,-5.3627205E-1,1.06425285E-1,4.2492843E-1,-3.6576334E-1,1.0901432E0,1.9797802E-1,-8.689022E-2,-4.963107E-1,6.649213E-1,2.2142267E-1,5.223533E-2,1.8078235E-1],"categories":[],"categories_nodes":[],"categories_segments":[],"categories_sizes":[],"default_left":[true,true,true,false,false,true,true,false,false,true,true,true,true,true,true,true,true,true,true,true,false,true,true,false,false,false,false,false,false,false,false,false,false,false,false,false,false],"id":48,"left_children":[1,3,5,-1,-1,7,9,-1,-1,11,13,15,17,19,21,23,25,27,29,31,-1,33,35,-1,-1,-1,-1,-1,-1,-1,-1,-1,-1,-1,-1,-1,-1],"loss_changes":[1.2617209E2,2.5488129E0,7.607971E0,0E0,0E0,8.185396E-1,2.5904183E0,0E0,0E0,3.516655E-1,5.5131376E-1,8.195802E-1,6.244869E-1,1.2823488E0,1.0384209E0,1.7757583E-1,5.367996E-1,1.5545948E0,1.1178441E0,6.812078E-2,0E0,1.6892338E-1,5.350151E-1,0E0,0E0,0E0,0E0,0E0,0E0,0E0,0E0,0E0,0E0,0E0,0E0,0E0,0E0],"parents":[2147483647,0,0,1,1,2,2,5,5,6,6,9,9,10,10,11,11,12,12,13,13,14,14,15,15,16,16,17,17,18,18,19,19,21,21,22,22],"right_children":[2,4,6,-1,-1,8,10,-1,-1,12,14,16,18,20,22,24,26,28,30,32,-1,34,36,-1,-1,-1,-1,-1,-1,-1,-1,-1,-1,-1,-1,-1,-1],"split_conditions":[7E0,1.64745E2,3.6E1,8.112152E-1,2.0382462E-1,1.8E1,1.86E2,1.5350266E-1,6.734401E-2,1.5625E2,1.97E2,1.4435E2,1.17E2,1.4514E2,2.115E2,1.2454E2,1.4869E2,1.11E2,1.869E2,1.0825E2,5.2634146E-2,1.4028E2,1.6218E2,4.3425247E-2,1.9258203E-2,-5.3627204E-2,1.06425285E-2,4.2492844E-2,-3.6576334E-2,1.09014325E-1,1.9797802E-2,-8.689023E-3,-4.963107E-2,6.649213E-2,2.2142267E-2,5.223533E-3,1.8078236E-2],"split_indices":[1,0,1,0,0,1,1,0,0,0,1,0,1,0,1,0,0,1,0,0,0,0,0,0,0,0,0,0,0,0,0,0,0,0,0,0,0],"split_type":[0,0,0,0,0,0,0,0,0,0,0,0,0,0,0,0,0,0,0,0,0,0,0,0,0,0,0,0,0,0,0,0,0,0,0,0,0],"sum_hessian":[2.09E2,2E0,2.07E2,1E0,1E0,9E0,1.98E2,3E0,6E0,5.4E1,1.44E2,2.2E1,3.2E1,5E0,1.39E2,1.8E1,4E0,2.6E1,6E0,4E0,1E0,6E0,1.33E2,1E1,8E0,1E0,3E0,2.4E1,2E0,3E0,3E0,1E0,3E0,3E0,3E0,7.6E1,5.7E1],"tree_param":{"num_deleted":"0","num_feature":"2","num_nodes":"37","size_leaf_vector":"0"}},{"base_weights":[3.0131134E-1,6.4285836E0,2.114886E-1,7.706543E0,1.9363327E0,1.1624156E0,1.7748871E-1,1.5557886E0,6.939087E-1,3.7260285E-1,1.10855095E-1,3.1445783E-1,6.931632E-1,2.0423976E-1,7.6817565E-2,3.8751468E-1,-8.375098E-1,7.661012E-1,1.2776756E-1,1.540424E-1,7.71993E-1,-1.4081788E-1,9.251819E-2,3.1095272E-1,5.4027677E-1,6.552744E-1,1.22785464E-1,1.7132077E-2,-6.232338E-1,4.7978163E-1,7.658059E-2],"categories":[],"categories_nodes":[],"categories_segments":[],"categories_sizes":[],"default_left":[true,true,true,false,false,true,true,false,false,true,true,true,true,true,true,true,false,false,false,true,false,true,true,false,false,false,false,false,false,false,false],"id":49,"left_children":[1,3,5,-1,-1,7,9,-1,-1,11,13,15,17,19,21,23,-1,-1,-1,25,-1,27,29,-1,-1,-1,-1,-1,-1,-1,-1],"loss_changes":[1.1421778E2,2.3003082E0,6.5186195E0,0E0,0E0,2.1051025E-1,2.5849295E0,0E0,0E0,7.326174E-1,4.674554E-1,4.111708E0,1.9078875E-1,1.0210688E0,3.991506E-1,3.3491755E-1,0E0,0E0,0E0,5.148868E-1,0E0,6.202579E-1,6.17495E-1,0E0,0E0,0E0,0E0,0E0,0E0,0E0,0E0],"parents":[2147483647,0,0,1,1,2,2,5,5,6,6,9,9,10,10,11,11,12,12,13,13,14,14,15,15,19,19,21,21,22,22],"right_children":[2,4,6,-1,-1,8,10,-1,-1,12,14,16,18,20,22,24,-1,-1,-1,26,-1,28,30,-1,-1,-1,-1,-1,-1,-1,-1],"split_conditions":[7E0,1.64745E2,2.6E1,7.706543E-1,1.9363327E-1,1.4E1,1.685E2,1.5557887E-1,6.939087E-2,1.56E2,2.77E2,1.51E2,1.953E2,1.7692E2,2.985E2,1.155E2,-8.3750986E-2,7.661012E-2,1.2776757E-2,1.0625E2,7.71993E-2,2.935E2,3.135E2,3.1095272E-2,5.4027677E-2,6.552744E-2,1.2278547E-2,1.7132078E-3,-6.232338E-2,4.7978163E-2,7.6580592E-3],"split_indices":[1,0,1,0,0,1,1,0,0,1,1,1,0,0,1,1,0,0,0,0,0,1,1,0,0,0,0,0,0,0,0],"split_type":[0,0,0,0,0,0,0,0,0,0,0,0,0,0,0,0,0,0,0,0,0,0,0,0,0,0,0,0,0,0,0],"sum_hessian":[2.09E2,2E0,2.07E2,1E0,1E0,6E0,2.01E2,2E0,4E0,5E1,1.51E2,4.4E1,6E0,3.9E1,1.12E2,4.2E1,2E0,5E0,1E0,3.7E1,2E0,7E0,1.05E2,3E1,1.2E1,1E0,3.6E1,6E0,1E0,3E0,1.02E2],"tree_param":{"num_deleted":"0","num_feature":"2","num_nodes":"31","size_leaf_vector":"0"}},{"base_weights":[2.7799028E-1,6.1071525E0,1.9257934E-1,7.321213E0,1.8395157E0,8.1280136E-1,1.47063E-1,1.4520696E0,5.8525085E-1,2.514446E-1,6.909187E-2,2.4819946E-1,6.278412E-1,1.7071587E-1,3.8135362E-1,-1.3431215E-1,8.379131E-2,3.036232E-1,6.8675995E-2,2.5390747E-1,-5.151537E-3,1.1201324E0,2.9177812E-1,1.5663965E-2,-5.920725E-1,4.4379854E-1,6.8996936E-2,1.8085706E-1,6.706486E-1,-4.6865234E-1,1.6075243E-1,2.3238872E-1,6.048646E-1,-1.0146256E-1,2.056535E-1,-1.2674388E-1,8.908642E-2],"categories":[],"categories_nodes":[],"categories_segments":[],"categories_sizes":[],"default_left":[true,true,true,false,false,true,true,false,true,true,true,true,false,true,true,true,true,false,false,true,true,false,true,true,false,false,true,false,false,false,false,false,false,false,false,false,false],"id":50,"left_children":[1,3,5,-1,-1,7,9,-1,11,13,15,17,-1,19,21,23,25,-1,-1,27,29,-1,31,33,-1,-1,35,-1,-1,-1,-1,-1,-1,-1,-1,-1,-1],"loss_changes":[1.0337748E2,2.0760193E0,5.752356E0,0E0,0E0,1.186697E0,1.569684E0,0E0,1.6431808E-2,8.053503E-1,3.4911567E-1,8.997947E-3,0E0,7.767346E-1,1.7246413E0,5.584991E-1,5.3394383E-1,0E0,0E0,9.746604E-1,1.4594762E0,0E0,3.9866257E-1,1.7663582E-1,0E0,0E0,4.163213E-1,0E0,0E0,0E0,0E0,0E0,0E0,0E0,0E0,0E0,0E0],"parents":[2147483647,0,0,1,1,2,2,5,5,6,6,8,8,9,9,10,10,11,11,13,13,14,14,15,15,16,16,19,19,20,20,22,22,23,23,26,26],"right_children":[2,4,6,-1,-1,8,10,-1,12,14,16,18,-1,20,22,24,26,-1,-1,28,30,-1,32,34,-1,-1,36,-1,-1,-1,-1,-1,-1,-1,-1,-1,-1],"split_conditions":[7E0,1.64745E2,4.7E1,7.321213E-1,1.8395157E-1,1.4E1,2.77E2,1.4520697E-1,1.6835E2,1.71995E2,2.985E2,1.4985E2,6.278412E-2,1.5264E2,1.7301501E2,2.935E2,3.135E2,3.0362321E-2,6.8675997E-3,1.4898999E2,1.5818E2,1.1201324E-1,2.56E2,2.885E2,-5.920725E-2,4.4379856E-2,3.565E2,1.8085707E-2,6.706486E-2,-4.6865236E-2,1.6075244E-2,2.3238873E-2,6.0486462E-2,-1.0146256E-2,2.0565351E-2,-1.26743885E-2,8.908642E-3],"split_indices":[1,0,1,0,0,1,1,0,0,0,1,0,0,0,0,1,1,0,0,0,0,0,1,1,0,0,1,0,0,0,0,0,0,0,0,0,0],"split_type":[0,0,0,0,0,0,0,0,0,0,0,0,0,0,0,0,0,0,0,0,0,0,0,0,0,0,0,0,0,0,0,0,0,0,0,0,0],"sum_hessian":[2.09E2,2E0,2.07E2,1E0,1E0,1.3E1,1.94E2,2E0,1.1E1,8.2E1,1.12E2,2E0,9E0,5.2E1,3E1,7E0,1.05E2,1E0,1E0,3.5E1,1.7E1,2E0,2.8E1,6E0,1E0,3E0,1.02E2,3.1E1,4E0,4E0,1.3E1,2.5E1,3E0,4E0,2E0,9E0,9.3E1],"tree_param":{"num_deleted":"0","num_feature":"2","num_nodes":"37","size_leaf_vector":"0"}},{"base_weights":[2.568735E-1,5.8017983E0,1.7566365E-1,6.9551544E0,1.7475433E0,8.6660385E-1,1.400603E-1,1.3552628E0,5.750313E-1,2.396954E-1,6.2110614E-2,2.3578899E-1,6.488139E-1,1.5467007E-1,3.6159962E-1,-1.2697887E-1,7.579557E-2,2.884407E-1,6.524277E-2,2.3088217E-1,-6.3469145E-3,1.0454565E0,2.8847325E-1,1.558658E-2,-5.624685E-1,3.0438253E-1,5.4029465E-2,1.7798284E-1,7.5344723E-1,-4.3116036E-1,1.4582552E-1,7.8525305E-2,3.4197748E-1,-9.334488E-2,1.9194348E-1,5.818863E-2,4.8969993E-1,-4.5015183E-1,8.027284E-2],"categories":[],"categories_nodes":[],"categories_segments":[],"categories_sizes":[],"default_left":[true,true,true,false,false,true,true,false,true,true,true,true,false,true,true,true,true,false,false,true,true,false,true,true,false,true,true,false,false,false,false,false,false,false,false,false,false,false,false],"id":51,"left_children":[1,3,5,-1,-1,7,9,-1,11,13,15,17,-1,19,21,23,25,-1,-1,27,29,-1,31,33,-1,35,37,-1,-1,-1,-1,-1,-1,-1,-1,-1,-1,-1,-1],"loss_changes":[9.3544365E1,1.8735657E0,4.995378E0,0E0,0E0,6.454773E-1,1.5306509E0,0E0,4.7258377E-2,8.4582186E-1,3.0203238E-1,8.119985E-3,0E0,6.518519E-1,1.4486928E0,5.054532E-1,5.1095194E-1,0E0,0E0,8.610598E-1,1.2264823E0,0E0,3.438387E-1,1.5239264E-1,0E0,3.821212E-1,1.332814E0,0E0,0E0,0E0,0E0,0E0,0E0,0E0,0E0,0E0,0E0,0E0,0E0],"parents":[2147483647,0,0,1,1,2,2,5,5,6,6,8,8,9,9,10,10,11,11,13,13,14,14,15,15,16,16,19,19,20,20,22,22,23,23,25,25,26,26],"right_children":[2,4,6,-1,-1,8,10,-1,12,14,16,18,-1,20,22,24,26,-1,-1,28,30,-1,32,34,-1,36,38,-1,-1,-1,-1,-1,-1,-1,-1,-1,-1,-1,-1],"split_conditions":[7E0,1.64745E2,3.6E1,6.9551545E-1,1.7475434E-1,1.4E1,2.77E2,1.3552628E-1,1.6835E2,1.71995E2,2.985E2,1.4985E2,6.488139E-2,1.5264E2,1.7301501E2,2.935E2,3.42E2,2.8844072E-2,6.524277E-3,2.31E2,1.5818E2,1.0454565E-1,1.7723999E2,2.885E2,-5.6246854E-2,1.6781E2,3.565E2,1.7798284E-2,7.534473E-2,-4.3116037E-2,1.4582552E-2,7.852531E-3,3.4197748E-2,-9.334489E-3,1.9194348E-2,5.818863E-3,4.8969995E-2,-4.5015182E-2,8.027284E-3],"split_indices":[1,0,1,0,0,1,1,0,0,0,1,0,0,0,0,1,1,0,0,1,0,0,0,1,0,0,1,0,0,0,0,0,0,0,0,0,0,0,0],"split_type":[0,0,0,0,0,0,0,0,0,0,0,0,0,0,0,0,0,0,0,0,0,0,0,0,0,0,0,0,0,0,0,0,0,0,0,0,0,0,0],"sum_hessian":[2.09E2,2E0,2.07E2,1E0,1E0,9E0,1.98E2,2E0,7E0,8.6E1,1.12E2,2E0,5E0,5.2E1,3.4E1,7E0,1.05E2,1E0,1E0,3.5E1,1.7E1,2E0,3.2E1,6E0,1E0,8E0,9.7E1,3.3E1,2E0,4E0,1.3E1,7E0,2.5E1,4E0,2E0,4E0,4E0,4E0,9.3E1],"tree_param":{"num_deleted":"0","num_feature":"2","num_nodes":"39","size_leaf_vector":"0"}},{"base_weights":[2.3732275E-1,5.5117087E0,1.601089E-1,6.607399E0,1.6601639E0,8.03521E-1,1.2697206E-1,1.2649103E0,5.300598E-1,2.7043125E-1,8.083383E-2,2.2399902E-1,5.947469E-1,2.091143E-1,5.9969985E-1,1.2385063E-1,2.5874095E-2,2.7401733E-1,6.19812E-2,2.799898E-1,-8.055973E-1,6.6876286E-1,9.2660904E-2,7.752527E-2,2.61341E-1,3.743082E-2,-8.307404E-3,1.9898073E-1,4.329332E-1,1.2464981E-1,-2.7381825E-1,6.784795E-1,8.858025E-2,5.610415E-2,2.8848905E-2,8.183288E-3,-1.3603551E-2],"categories":[],"categories_nodes":[],"categories_segments":[],"categories_sizes":[],"default_left":[true,true,true,false,false,true,true,false,true,true,true,true,false,true,true,true,true,false,false,true,false,false,false,true,true,true,true,false,false,false,false,false,false,false,false,false,false],"id":52,"left_children":[1,3,5,-1,-1,7,9,-1,11,13,15,17,-1,19,21,23,25,-1,-1,27,-1,-1,-1,29,31,33,35,-1,-1,-1,-1,-1,-1,-1,-1,-1,-1],"loss_changes":[8.464121E1,1.6909409E0,4.332668E0,0E0,0E0,5.912428E-1,1.2953117E0,0E0,2.5162697E-2,8.437016E-1,3.5615265E-1,7.327646E-3,0E0,3.2461233E0,1.831553E-1,5.2112925E-1,2.717273E-2,0E0,0E0,4.0944672E-1,0E0,0E0,0E0,1.1103299E0,1.4532685E0,6.5543577E-3,1.6833904E-3,0E0,0E0,0E0,0E0,0E0,0E0,0E0,0E0,0E0,0E0],"parents":[2147483647,0,0,1,1,2,2,5,5,6,6,8,8,9,9,10,10,11,11,13,13,14,14,15,15,16,16,19,19,23,23,24,24,25,25,26,26],"right_children":[2,4,6,-1,-1,8,10,-1,12,14,16,18,-1,20,22,24,26,-1,-1,28,-1,-1,-1,30,32,34,36,-1,-1,-1,-1,-1,-1,-1,-1,-1,-1],"split_conditions":[7E0,1.64745E2,3.6E1,6.607399E-1,1.6601638E-1,1.4E1,1.685E2,1.2649104E-1,1.6835E2,1.56E2,4.865E2,1.4985E2,5.9474688E-2,1.51E2,1.953E2,1.76445E2,6.89E2,2.7401734E-2,6.1981203E-3,1.155E2,-8.055973E-2,6.6876285E-2,9.266091E-3,1.7482E2,3.645E2,5.39E2,7.15E2,1.9898074E-2,4.3293323E-2,1.2464981E-2,-2.7381826E-2,6.784795E-2,8.858025E-3,5.6104152E-3,2.8848907E-3,8.183289E-4,-1.3603552E-3],"split_indices":[1,0,1,0,0,1,1,0,0,1,1,0,0,1,0,0,1,0,0,1,0,0,0,0,1,1,1,0,0,0,0,0,0,0,0,0,0],"split_type":[0,0,0,0,0,0,0,0,0,0,0,0,0,0,0,0,0,0,0,0,0,0,0,0,0,0,0,0,0,0,0,0,0,0,0,0,0],"sum_hessian":[2.09E2,2E0,2.07E2,1E0,1E0,9E0,1.98E2,2E0,7E0,4.7E1,1.51E2,2E0,5E0,4.1E1,6E0,8.4E1,6.7E1,1E0,1E0,3.9E1,2E0,5E0,1E0,6.4E1,2E1,5E1,1.7E1,2.7E1,1.2E1,5.7E1,7E0,5E0,1.5E1,1.4E1,3.6E1,4E0,1.3E1],"tree_param":{"num_deleted":"0","num_feature":"2","num_nodes":"37","size_leaf_vector":"0"}},{"base_weights":[2.1918532E-1,5.2361245E0,1.4577183E-1,6.277031E0,1.5771561E0,5.5930936E-1,1.0123997E-1,1.1805853E0,4.2469066E-1,1.7465124E-1,5.032044E-2,4.453134E-1,3.7052155E-2,1.218008E-1,2.797081E-1,-1.3790846E-1,6.405167E-2,1.905347E-1,-2.2433706E-2,9.5717365E-1,1.791818E-1,-3.1591144E-3,-5.4057693E-1,3.8601303E-1,5.0926458E-2,1.2545383E-1,5.689453E-1,-4.7493505E-1,9.9728905E-2,6.453133E-2,3.8608503E-1,-9.584884E-2,1.5237682E-1,-1.2751102E-1,6.93674E-2],"categories":[],"categories_nodes":[],"categories_segments":[],"categories_sizes":[],"default_left":[true,true,true,false,false,true,true,false,true,true,true,false,false,true,true,true,true,true,true,false,true,true,false,false,true,false,false,false,false,false,false,false,false,false,false],"id":53,"left_children":[1,3,5,-1,-1,7,9,-1,11,13,15,-1,-1,17,19,21,23,25,27,-1,29,31,-1,-1,33,-1,-1,-1,-1,-1,-1,-1,-1,-1,-1],"loss_changes":[7.658203E1,1.5260773E0,3.7738204E0,0E0,0E0,1.1713238E0,6.977061E-1,0E0,1.2739491E-1,3.934586E-1,3.0089474E-1,0E0,0E0,5.297057E-1,1.5310694E0,4.3236676E-1,4.2827773E-1,8.1520617E-1,1.0423821E0,0E0,5.2068114E-1,1.1552122E-1,0E0,0E0,3.4777227E-1,0E0,0E0,0E0,0E0,0E0,0E0,0E0,0E0,0E0,0E0],"parents":[2147483647,0,0,1,1,2,2,5,5,6,6,8,8,9,9,10,10,13,13,14,14,15,15,16,16,17,17,18,18,20,20,21,21,24,24],"right_children":[2,4,6,-1,-1,8,10,-1,12,14,16,-1,-1,18,20,22,24,26,28,-1,30,32,-1,-1,34,-1,-1,-1,-1,-1,-1,-1,-1,-1,-1],"split_conditions":[7E0,1.64745E2,6.55E1,6.2770313E-1,1.577156E-1,1.4E1,2.77E2,1.18058525E-1,1.8525E2,1.71995E2,2.985E2,4.453134E-2,3.7052154E-3,1.5264E2,1.7301501E2,2.935E2,3.135E2,1.4898999E2,1.57E2,9.571736E-2,1.455E2,2.885E2,-5.4057695E-2,3.8601305E-2,3.565E2,1.2545384E-2,5.689453E-2,-4.7493506E-2,9.972891E-3,6.4531327E-3,3.8608503E-2,-9.584884E-3,1.5237682E-2,-1.2751102E-2,6.93674E-3],"split_indices":[1,0,1,0,0,1,1,0,0,0,1,0,0,0,0,1,1,0,0,0,1,1,0,0,1,0,0,0,0,0,0,0,0,0,0],"split_type":[0,0,0,0,0,0,0,0,0,0,0,0,0,0,0,0,0,0,0,0,0,0,0,0,0,0,0,0,0,0,0,0,0,0,0],"sum_hessian":[2.09E2,2E0,2.07E2,1E0,1E0,1.9E1,1.88E2,2E0,1.7E1,7.6E1,1.12E2,1.6E1,1E0,5.2E1,2.4E1,7E0,1.05E2,3.5E1,1.7E1,2E0,2.2E1,6E0,1E0,3E0,1.02E2,3.1E1,4E0,3E0,1.4E1,1.5E1,7E0,4E0,2E0,9E0,9.3E1],"tree_param":{"num_deleted":"0","num_feature":"2","num_nodes":"35","size_leaf_vector":"0"}},{"base_weights":[2.0254642E-1,4.9743195E0,1.3274899E-1,5.9631805E0,1.4982986E0,6.903435E-1,1.0406208E-1,1.1018804E0,4.497242E-1,2.2521742E-1,6.511788E-2,1.8311055E-1,5.0807697E-1,1.6865675E-1,5.3240746E-1,1.02193594E-1,1.5258716E-2,2.3804855E-1,3.661728E-2,2.3410864E-1,-7.602539E-1,5.982342E-1,6.872368E-2,5.9206486E-1,8.961294E-2,2.5716975E-2,-1.4058696E-2,3.2253355E-1,1.2955704E-1,-3.7974405E-1,1.1115288E-1,3.2711085E-2,7.6829274E-3,1.979065E-3,-1.8782275E-2],"categories":[],"categories_nodes":[],"categories_segments":[],"categories_sizes":[],"default_left":[true,true,true,false,false,true,true,false,true,true,true,true,false,true,true,true,true,false,false,true,false,false,false,false,true,true,true,false,false,false,false,false,false,false,false],"id":54,"left_children":[1,3,5,-1,-1,7,9,-1,11,13,15,17,-1,19,21,23,25,-1,-1,27,-1,-1,-1,-1,29,31,33,-1,-1,-1,-1,-1,-1,-1,-1],"loss_changes":[6.928174E1,1.3772812E0,3.2552588E0,0E0,0E0,4.946947E-1,9.2427564E-1,0E0,3.1427026E-2,7.4419975E-1,2.7942234E-1,1.5427455E-2,0E0,2.7315378E0,1.725465E-1,4.8311567E-1,2.0597748E-2,0E0,0E0,3.2801223E-1,0E0,0E0,0E0,0E0,9.116629E-1,5.929157E-3,1.4007725E-3,0E0,0E0,0E0,0E0,0E0,0E0,0E0,0E0],"parents":[2147483647,0,0,1,1,2,2,5,5,6,6,8,8,9,9,10,10,11,11,13,13,14,14,15,15,16,16,19,19,24,24,25,25,26,26],"right_children":[2,4,6,-1,-1,8,10,-1,12,14,16,18,-1,20,22,24,26,-1,-1,28,-1,-1,-1,-1,30,32,34,-1,-1,-1,-1,-1,-1,-1,-1],"split_conditions":[7E0,1.64745E2,3.6E1,5.9631807E-1,1.4982986E-1,1.4E1,1.685E2,1.10188045E-1,1.6835E2,1.56E2,4.965E2,1.4985E2,5.0807696E-2,1.51E2,1.953E2,1.0625E2,6.89E2,2.3804856E-2,3.661728E-3,1.80135E2,-7.602539E-2,5.982342E-2,6.872368E-3,5.9206486E-2,1.0674E2,1.27115005E2,7.15E2,3.2253355E-2,1.2955705E-2,-3.7974406E-2,1.1115288E-2,3.2711085E-3,7.6829275E-4,1.979065E-4,-1.8782275E-3],"split_indices":[1,0,1,0,0,1,1,0,0,1,1,0,0,1,0,0,1,0,0,0,0,0,0,0,0,0,1,0,0,0,0,0,0,0,0],"split_type":[0,0,0,0,0,0,0,0,0,0,0,0,0,0,0,0,0,0,0,0,0,0,0,0,0,0,0,0,0,0,0,0,0,0,0],"sum_hessian":[2.09E2,2E0,2.07E2,1E0,1E0,9E0,1.98E2,2E0,7E0,4.7E1,1.51E2,2E0,5E0,4.1E1,6E0,8.6E1,6.5E1,1E0,1E0,3.9E1,2E0,5E0,1E0,1E0,8.5E1,4.8E1,1.7E1,2E1,1.9E1,3E0,8.2E1,3.4E1,1.4E1,4E0,1.3E1],"tree_param":{"num_deleted":"0","num_feature":"2","num_nodes":"35","size_leaf_vector":"0"}},{"base_weights":[1.870784E-1,4.7256064E0,1.2071944E-1,5.665024E0,1.4233856E0,6.156838E-1,9.261173E-2,1.0284195E0,4.0969595E-1,1.6111602E-1,3.965614E-2,1.7395528E-1,4.5219967E-1,9.561582E-2,2.5848058E-1,-1.3989496E-1,5.2833054E-2,2.261467E-1,3.4786224E-2,1.6009018E-1,-3.8644895E-2,1.042984E0,2.0310217E-1,-1.1563982E-2,-5.191059E-1,2.515619E-1,3.404333E-2,1.10888034E-1,6.6435117E-1,-4.5293665E-1,7.440923E-2,1.6126506E-1,4.6610498E-1,-9.707413E-2,1.3480759E-1,2.4328614E-2,4.2848283E-1,-4.2591095E-1,5.8146823E-2],"categories":[],"categories_nodes":[],"categories_segments":[],"categories_sizes":[],"default_left":[true,true,true,false,false,true,true,false,true,true,true,true,false,true,true,true,true,false,false,true,true,false,true,true,false,true,true,false,false,false,false,false,false,false,false,false,false,false,false],"id":55,"left_children":[1,3,5,-1,-1,7,9,-1,11,13,15,17,-1,19,21,23,25,-1,-1,27,29,-1,31,33,-1,35,37,-1,-1,-1,-1,-1,-1,-1,-1,-1,-1,-1,-1],"loss_changes":[6.2675636E1,1.242981E0,2.8367426E0,0E0,0E0,5.138645E-1,7.1189225E-1,0E0,1.1516213E-2,5.237415E-1,2.7474108E-1,1.3923496E-2,0E0,4.649745E-1,1.2652826E0,3.833132E-1,3.872463E-1,0E0,0E0,8.1951755E-1,8.7677574E-1,0E0,2.879418E-1,1.007001E-1,0E0,3.5139656E-1,1.1112428E0,0E0,0E0,0E0,0E0,0E0,0E0,0E0,0E0,0E0,0E0,0E0,0E0],"parents":[2147483647,0,0,1,1,2,2,5,5,6,6,8,8,9,9,10,10,11,11,13,13,14,14,15,15,16,16,19,19,20,20,22,22,23,23,25,25,26,26],"right_children":[2,4,6,-1,-1,8,10,-1,12,14,16,18,-1,20,22,24,26,-1,-1,28,30,-1,32,34,-1,36,38,-1,-1,-1,-1,-1,-1,-1,-1,-1,-1,-1,-1],"split_conditions":[7E0,1.64745E2,3.9E1,5.665024E-1,1.4233856E-1,1.4E1,2.77E2,1.0284195E-1,1.6835E2,1.71995E2,2.985E2,1.4985E2,4.521997E-2,1.5264E2,1.7260501E2,2.935E2,3.42E2,2.261467E-2,3.4786225E-3,2.31E2,1.57E2,1.04298405E-1,2.56E2,2.885E2,-5.191059E-2,1.6781E2,3.565E2,1.1088803E-2,6.643512E-2,-4.5293666E-2,7.4409232E-3,1.6126506E-2,4.66105E-2,-9.707413E-3,1.3480759E-2,2.4328614E-3,4.2848285E-2,-4.2591095E-2,5.814682E-3],"split_indices":[1,0,1,0,0,1,1,0,0,0,1,0,0,0,0,1,1,0,0,1,0,0,1,1,0,0,1,0,0,0,0,0,0,0,0,0,